tree
version=v4
num_class=1
num_tree_per_iteration=1
label_index=0
max_feature_idx=29
objective=regression
feature_names=Column_0 Column_1 Column_2 Column_3 Column_4 Column_5 Column_6 Column_7 Column_8 Column_9 Column_10 Column_11 Column_12 Column_13 Column_14 Column_15 Column_16 Column_17 Column_18 Column_19 Column_20 Column_21 Column_22 Column_23 Column_24 Column_25 Column_26 Column_27 Column_28 Column_29
feature_infos=[2.1899999999999999:4996.7700000000004] [-2.9015240000000002:3.2546469999999998] [-3.2394379999999998:3.260491] [-2.6490999999999998:3.657702] [-3.7087970000000001:2.8408859999999998] [-3.064457:3.5994670000000002] [-2.7797070000000001:3.5556169999999998] [-2.8519079999999999:3.0934300000000001] [-3.759779:2.790292] [-2.5030519999999998:2.7845879999999998] [-3.1747489999999998:3.155538] [-3.1005180000000001:3.1011869999999999] [-2.9309310000000002:3.0654750000000002] [-3.1997610000000001:3.1983980000000001] [-3.1046049999999998:2.7026110000000001] [-2.6787800000000002:2.659996] [-3.4897800000000001:3.3176869999999998] [-2.697479:2.7323620000000002] [-3.036178:2.9856400000000001] [-3.2646359999999999:2.8418239999999999] [-3.0388510000000002:3.9027989999999999] [-3.285666:3.5886809999999998] [-2.9122379999999999:2.6618240000000002] [-3.0655790000000001:3.162417] [-2.750909:3.4135260000000001] [-3.091996:3.8091650000000001] [-3.2586909999999998:3.1432609999999999] [-3.3637260000000002:3.5420950000000002] [-3.5433189999999999:2.9003619999999999] none
tree_sizes=1176 1182 1095 1268 1267 1173 1266 1266 1095 1179 1174 1169 1180 1270

Tree=0
num_leaves=12
num_cat=0
split_feature=6 9 22 19 10 2 24 22 23 23 4
split_gain=9.526 9.43217 16.1201 6.7136 7.32753 5.90531 5.84309 4.35888 3.54269 3.21453 3.5647
threshold=1.0241885000000002 0.91549100000000017 0.24634250000000005 -0.12256749999999998 -0.40595449999999994 0.25739000000000006 0.040521000000000008 -1.0056309999999997 -0.57941349999999991 0.20083500000000001 -0.16671999999999998
decision_type=2 2 2 2 2 2 2 2 2 2 2
left_child=1 3 -3 4 -1 -6 -2 -5 -9 -10 -11
right_child=6 2 -4 7 5 -7 -8 8 9 10 -12
leaf_value=-0.017601774537179156 0.00030338344031498939 -0.030132464520718542 0.0050116662224271276 -0.0079595952809105776 0.010896867369815919 -0.0093557910673676102 0.021274679730765793 0.018560506078423206 -0.0026853751754058602 0.0005519318159786054 0.018698058739492977
leaf_weight=85 59 73 59 51 73 71 76 61 83 50 59
leaf_count=85 59 73 59 51 73 71 76 61 83 50 59
internal_value=5.30636e-10 -0.00245831 -0.0144241 0.000505078 -0.00596044 0.000911182 0.0121094 0.00537548 0.00806358 0.00472862 0.0103741
internal_weight=800 665 132 533 229 144 135 304 253 192 109
internal_count=800 665 132 533 229 144 135 304 253 192 109
is_linear=0
shrinkage=1


Tree=1
num_leaves=12
num_cat=0
split_feature=13 9 22 6 24 5 11 23 27 7 12
split_gain=10.2547 11.1103 14.1383 8.73098 7.2053 5.25131 4.7689 6.1656 6.38672 2.88741 1.45081
threshold=-0.80711849999999996 0.73008300000000015 1.0000000180025095e-35 1.0012725000000002 0.64975000000000016 -0.025247499999999996 0.45885300000000001 -0.50703649999999989 -0.38630649999999994 -0.22653649999999997 0.082334500000000019
decision_type=2 2 2 2 2 2 2 2 2 2 2
left_child=9 3 -3 4 6 -6 7 -2 -9 -1 -11
right_child=1 2 -4 -5 5 -7 -8 8 -10 10 -12
leaf_value=0.0029967856433774746 0.011500484917113293 -0.03126843039254059 0.00062505483924262765 0.014944671031258917 -0.024895659712020238 -0.0023065234026871623 0.011103615225449706 0.0054097862554746759 -0.015678725864008532 0.022030930833604474 0.010102346237748862
leaf_weight=70 56 70 69 87 53 50 89 57 97 52 50
leaf_count=70 56 70 69 87 53 50 89 57 97 52 50
internal_value=-8.78426e-11 -0.00296258 -0.0154364 0.00058315 -0.00252494 -0.0139301 0.00140391 -0.00270691 -0.00787324 0.0108169 0.0161836
internal_weight=800 628 139 489 402 103 299 210 154 172 102
internal_count=800 628 139 489 402 103 299 210 154 172 102
is_linear=0
shrinkage=0.05


Tree=2
num_leaves=11
num_cat=0
split_feature=0 13 9 21 19 26 5 8 24 22
split_gain=9.77283 7.89402 8.08097 8.07835 6.32071 7.68771 6.5049 4.66561 1.98769 1.77751
threshold=4556.3950000000013 -0.87264849999999983 0.73008300000000015 0.037735500000000005 0.20445050000000001 -0.6189469999999998 -0.12592649999999997 -0.50494799999999984 -0.28124599999999994 -0.42852949999999995
decision_type=2 2 2 2 2 2 2 2 2 2
left_child=1 8 4 -4 5 -3 -7 -6 -1 -9
right_child=-2 2 3 -5 7 6 -8 9 -10 -11
leaf_value=0.020087244536727666 -0.018429399650741484 -0.015787273677997291 0.00091207955556456006 -0.023837850247646737 -0.0024464241053420502 -0.0068356049751111484 0.012230181554844092 0.0067705437913537034 0.0078360798293534602 0.018677574928317751
leaf_weight=50 66 80 64 68 61 88 91 50 98 84
leaf_count=50 66 80 64 68 61 88 91 50 98 84
internal_value=-6.19475e-11 0.00165714 -0.000948733 -0.0118379 0.00221728 -0.00290181 0.00285706 0.00901647 0.011975 0.0142347
internal_weight=800 734 586 132 454 259 179 195 148 134
internal_count=800 734 586 132 454 259 179 195 148 134
is_linear=0
shrinkage=0.05


Tree=3
num_leaves=13
num_cat=0
split_feature=13 9 1 22 14 13 24 28 9 8 25 1
split_gain=8.48415 9.21514 13.0625 5.11621 5.5741 6.41738 5.03514 4.68483 5.01339 2.5911 3.66662 1.91661
threshold=-0.80711849999999996 0.73008300000000015 0.28409650000000003 -1.0056309999999997 -1.1012129999999998 -0.098825999999999983 -0.52014149999999992 0.41444800000000004 -0.38788349999999994 0.38314950000000009 0.12605050000000004 0.21110550000000003
decision_type=2 2 2 2 2 2 2 2 2 2 2 2
left_child=9 3 -3 -2 -5 11 -7 8 -8 10 -1 -6
right_child=1 2 -4 4 5 6 7 -9 -10 -11 -12 -13
leaf_value=0.013769215339173874 -0.010536679953639938 -0.0025664058402756207 -0.034504640629515054 -0.012727479152381422 0.021599666136847974 0.011064457626942593 -0.021487740924259507 0.0076945146850564269 -0.00027643622675289713 0.018223433364182712 -0.0043706696784983467 0.0081872753128409397
leaf_weight=60 86 89 50 50 57 79 52 55 60 60 52 50
leaf_count=60 86 89 50 50 57 79 52 55 60 60 52 50
internal_value=1.00117e-11 -0.00269472 -0.014055 0.000534475 0.00289705 0.00511016 0.000663991 -0.00425599 -0.0101245 0.00983886 0.00534713 0.0153322
internal_weight=800 628 139 489 403 353 246 167 112 172 112 107
internal_count=800 628 139 489 403 353 246 167 112 172 112 107
is_linear=0
shrinkage=0.05


Tree=4
num_leaves=13
num_cat=0
split_feature=0 13 22 25 5 4 19 28 6 18 7 25
split_gain=8.71098 6.58856 6.93682 6.56195 8.01512 6.97414 6.29192 6.66455 5.71203 4.00358 1.87257 1.68714
threshold=4556.3950000000013 -0.9357169999999998 0.81864950000000014 -0.8278629999999999 0.089146000000000017 0.95917650000000021 0.61416400000000004 -0.76284249999999998 0.12044000000000002 0.21687550000000003 -0.030756999999999996 0.12605050000000004
decision_type=2 2 2 2 2 2 2 2 2 2 2 2
left_child=1 11 3 4 -3 6 7 -5 9 -9 -4 -1
right_child=-2 2 10 5 -6 -7 -8 8 -10 -11 -12 -13
leaf_value=0.017214382308713326 -0.017399411462247372 -0.00046814305609778361 0.016555232157309849 0.014368547002474467 -0.02698381252080333 -0.016660210216003987 0.01397853547293279 -0.0081051218733191495 -0.015963959127641571 0.011903828050941229 0.0037210380779234345 0.0058101165889491956
leaf_weight=68 66 57 60 51 57 54 90 50 81 50 54 62
leaf_count=68 66 57 60 51 57 54 90 50 81 50 54 62
internal_value=-6.95873e-11 0.00156452 -0.000633186 -0.00321774 -0.013726 -3.17358e-05 0.00275689 -0.00159633 -0.00609473 0.00189935 0.0104759 0.0117754
internal_weight=800 734 604 490 114 376 322 232 181 100 114 130
internal_count=800 734 604 490 114 376 322 232 181 100 114 130
is_linear=0
shrinkage=0.05


Tree=5
num_leaves=12
num_cat=0
split_feature=6 0 19 6 22 2 2 24 18 2 26
split_gain=7.88193 8.16757 5.64955 5.16621 8.86713 5.7286 5.21871 4.97224 4.00517 3.49066 2.31713
threshold=1.0241885000000002 4556.3950000000013 -1.0639009999999998 0.23747200000000002 0.27408550000000004 0.36217900000000003 0.9104095000000002 0.040521000000000008 -0.079476999999999992 -0.32647799999999999 -0.45503549999999998
decision_type=2 2 2 2 2 2 2 2 2 2 2
left_child=1 2 -1 5 -5 8 -7 -2 9 -4 -10
right_child=7 -3 3 4 -6 6 -8 -9 10 -11 -12
leaf_value=-0.014051612593945773 0.0001242150268438509 -0.019672628345261862 -0.0054919169092225648 -0.01587635455461046 0.007016985105505834 -0.014186774522420906 0.0062466203865985722 0.019469716360694486 0.0072732643367579355 0.012104363973234215 0.021084659274871631
leaf_weight=68 59 61 63 97 75 63 62 76 52 51 73
leaf_count=68 59 61 63 97 75 63 62 76 52 51 73
internal_value=-3.16868e-11 -0.00223613 -0.00047516 0.00124723 -0.00589379 0.00462155 -0.00405181 0.011015 0.00915783 0.0023801 0.0153391
internal_weight=800 665 604 536 172 364 125 135 239 114 125
internal_count=800 665 604 536 172 364 125 135 239 114 125
is_linear=0
shrinkage=0.05


Tree=6
num_leaves=13
num_cat=0
split_feature=13 9 17 25 23 16 24 26 5 10 10 7
split_gain=7.15417 7.60516 11.8515 4.57274 5.16161 4.28514 4.26002 5.26803 2.59258 2.86673 2.31339 1.63077
threshold=-1.0013069999999997 0.73008300000000015 -0.19331549999999997 -0.81517499999999987 0.24911050000000004 1.2009405000000004 -0.41325149999999994 -0.61254749999999991 0.68102600000000013 -0.046086999999999996 0.30968600000000007 0.11959450000000001
decision_type=2 2 2 2 2 2 2 2 2 2 2 2
left_child=10 3 -3 4 -2 6 11 -8 9 -9 -1 -5
right_child=1 2 -4 5 -6 -7 7 8 -10 -11 -12 -13
leaf_value=0.0049426146351016949 0.0014578504399174737 -0.027596345429878627 0.00045260033254825705 0.018509438778874617 -0.020057403340935708 -0.010418170757591725 -0.010438949714743477 0.0094406896076641659 0.015591242205351592 -0.0059646791354743042 0.018689336863621561 0.0068966260716571658
leaf_weight=69 63 67 86 62 50 50 68 63 50 58 55 59
leaf_count=69 63 67 86 62 50 50 68 63 50 58 55 59
internal_value=2.81441e-11 -0.00202508 -0.0118303 0.000843361 -0.00806217 0.00329781 0.00520281 0.00133274 0.00601388 0.0020563 0.01104 0.012847
internal_weight=800 676 153 523 113 410 360 239 171 121 124 121
internal_count=800 676 153 523 113 410 360 239 171 121 124 121
is_linear=0
shrinkage=0.05


Tree=7
num_leaves=13
num_cat=0
split_feature=6 13 19 26 17 22 18 26 11 10 27 9
split_gain=6.9754 7.5939 9.48066 11.2312 10.0635 4.85298 6.04065 5.98278 4.6779 3.72541 3.70853 3.32115
threshold=1.0241885000000002 -0.80711849999999996 0.20445050000000001 -0.33918349999999992 0.07561950000000002 0.57360900000000015 0.34608400000000006 0.13572000000000004 0.34932450000000009 -0.42054149999999996 -0.34083999999999998 -0.087042999999999995
decision_type=2 2 2 2 2 2 2 2 2 2 2 2
left_child=1 10 3 4 -3 6 7 -4 9 -5 -1 -2
right_child=11 2 5 8 -6 -7 -8 -9 -10 -11 -12 -13
leaf_value=0.017596726440048466 0.019676890889448781 -0.03688884446489029 0.0029793372272320512 -0.0084877882301807404 -0.0067932031319394492 0.015022622806126954 0.011797895627942952 -0.021131768092513086 -0.01442920592657867 0.0089524991857477376 0.001238636890988479 0.0037594485742075343
leaf_weight=60 56 61 53 50 51 61 55 50 63 79 82 79
leaf_count=60 56 61 53 50 51 61 55 50 63 79 82 79
internal_value=4.55839e-11 -0.00210361 -0.00488771 -0.0106015 -0.0231846 0.00304375 -0.00158101 -0.00872508 -0.00326136 0.0021927 0.00815051 0.0103622
internal_weight=800 665 523 304 112 219 158 103 192 129 142 135
internal_count=800 665 523 304 112 219 158 103 192 129 142 135
is_linear=0
shrinkage=0.05


Tree=8
num_leaves=11
num_cat=0
split_feature=20 0 20 22 14 17 20 5 23 12
split_gain=7.02879 8.35278 7.89498 8.37183 6.94488 6.09748 3.78911 3.698 2.91433 1.80544
threshold=-1.4521659999999998 4556.3950000000013 -0.10641549999999998 0.44146650000000004 0.089745000000000005 -0.93890099999999987 1.0528385000000002 -0.79193399999999992 -0.19535099999999997 0.082334500000000019
decision_type=2 2 2 2 2 2 2 2 2 2
left_child=-1 2 3 4 -2 -4 7 -7 -9 -10
right_child=1 -3 5 -5 -6 6 -8 8 9 -11
leaf_value=0.016459079945149523 -0.022012456767062875 -0.019217854632685584 -0.0073247762988595411 0.0061282804604682536 -0.002350550978769397 -0.00079789018580833301 -0.0011531989746303721 0.021984721044695156 0.015214433868305158 0.0024997103115860023
leaf_weight=60 94 60 85 89 86 52 88 74 59 53
leaf_count=60 94 60 85 89 86 52 88 74 59 53
internal_value=-2.9162e-11 -0.00133452 0.000243421 -0.00641599 -0.0126184 0.00460201 0.00771176 0.0109896 0.014285 0.00919765
internal_weight=800 740 680 269 180 411 326 238 186 112
internal_count=800 740 680 269 180 411 326 238 186 112
is_linear=0
shrinkage=0.05


Tree=9
num_leaves=12
num_cat=0
split_feature=27 0 13 20 22 22 19 21 26 1 25
split_gain=6.78355 7.19947 5.3 5.88888 9.09842 5.73408 4.47083 4.55396 4.76927 3.06823 1.66008
threshold=-1.5438604999999999 4549.7500000000009 -0.9357169999999998 -0.10641549999999998 0.57360900000000015 -0.36477299999999996 0.21958200000000003 0.34388500000000005 0.0081165000000000022 -0.11114599999999998 0.12605050000000004
decision_type=2 2 2 2 2 2 2 2 2 2 2
left_child=-1 2 10 4 5 -4 7 8 -5 -8 -2
right_child=1 -3 3 6 -6 -7 9 -9 -10 -11 -12
leaf_value=0.01678208544534365 0.015515448925866477 -0.01729555481870193 -0.0039264681489141881 -0.0060659329887599719 0.0083673855095791321 -0.021703240291511369 0.00036702801566570998 -0.01270995628878926 0.013793498460771676 0.016273926026732118 0.0036390288400330716
leaf_weight=56 62 64 86 62 66 96 50 66 59 77 56
leaf_count=56 62 64 86 62 66 96 50 66 59 77 56
internal_value=-8.13452e-12 -0.00126317 0.000245763 -0.00177691 -0.00753605 -0.0133032 0.0027717 -0.00214507 0.00361759 0.0100114 0.00987918
internal_weight=800 744 680 562 248 182 314 187 121 127 118
internal_count=800 744 680 562 248 182 314 187 121 127 118
is_linear=0
shrinkage=0.05


Tree=10
num_leaves=12
num_cat=0
split_feature=20 9 17 13 19 2 8 24 3 27 2
split_gain=6.39044 7.68812 12.3299 6.58741 5.14632 8.11111 6.33131 6.18867 4.21938 2.59891 2.57622
threshold=-1.4521659999999998 0.91549100000000017 -0.19331549999999997 -0.30445199999999994 -0.44212899999999994 -0.12118599999999997 0.081715000000000024 0.15677450000000001 0.13817450000000003 0.1000535 0.31981400000000004
decision_type=2 2 2 2 2 2 2 2 2 2 2
left_child=-1 3 -3 8 7 6 -6 -5 9 -2 -7
right_child=1 2 -4 4 5 10 -8 -9 -10 -11 -12
leaf_value=0.015693889365841946 0.020699495201309523 -0.027091588420957765 0.0025972409266614704 -0.00063982912593267191 -0.018580816557927839 0.017333069463309491 0.0032529200820135885 -0.024944912068545821 0.00041954477289409355 0.0058970912592485551 0.0035939431464409133
leaf_weight=60 69 68 72 55 69 57 64 50 99 52 85
leaf_count=60 69 68 72 55 69 57 64 50 99 52 85
internal_value=8.98399e-12 -0.00127248 -0.011823 0.00118932 -0.00279699 0.000798475 -0.00807436 -0.0122137 0.00807477 0.0143381 0.00910894
internal_weight=800 740 140 600 380 275 133 105 220 121 142
internal_count=800 740 140 600 380 275 133 105 220 121 142
is_linear=0
shrinkage=0.05


Tree=11
num_leaves=12
num_cat=0
split_feature=10 20 9 14 14 13 24 8 26 25 10
split_gain=6.2159 6.87445 9.64489 8.86866 6.97871 6.97443 5.97185 6.20428 3.90308 1.92703 1.28851
threshold=1.272537 -1.4521659999999998 0.91549100000000017 0.056567500000000007 -1.1012129999999998 -0.1070115 -0.40404849999999998 -0.35326149999999995 -0.38274799999999992 0.31306150000000005 0.058191500000000007
decision_type=2 2 2 2 2 2 2 2 2 2 2
left_child=1 -1 4 -4 -3 8 -7 -8 -6 -10 -9
right_child=-2 2 3 -5 5 6 7 10 9 -11 -12
leaf_value=0.014992210366923747 0.012867496393266179 -0.016795760625973346 -0.0035642933084824081 -0.030794911538854382 -0.0010037474619539481 0.0070391248597690241 -0.02128207321657101 0.0028692454317933882 0.0085428021457868032 0.020363920769686329 -0.0078432614654302592
leaf_weight=58 84 56 67 54 71 89 64 64 85 58 50
leaf_count=58 84 56 67 54 71 89 64 64 85 58 50
internal_value=8.44011e-12 -0.00150959 -0.00296416 -0.0157168 -9.06611e-05 0.00185422 -0.00353596 -0.00882351 0.00857934 0.0133374 -0.00182922
internal_weight=800 716 658 121 537 481 267 178 214 143 114
internal_count=800 716 658 121 537 481 267 178 214 143 114
is_linear=0
shrinkage=0.05


Tree=12
num_leaves=12
num_cat=0
split_feature=6 25 25 23 6 22 15 12 16 2 10
split_gain=5.94241 6.28527 7.31397 8.50257 4.55945 6.74023 4.81659 4.5383 2.20788 2.38885 2.11508
threshold=1.0241885000000002 1.3973690000000001 -0.8278629999999999 0.20083500000000001 0.21026750000000002 0.024102500000000002 -1.0266789999999999 -0.11444849999999999 0.57132000000000016 0.30508450000000004 0.093211000000000002
decision_type=2 2 2 2 2 2 2 2 2 2 2
left_child=1 2 3 -1 6 -6 -4 -2 9 10 -8
right_child=7 -3 4 -5 5 -7 8 -9 -10 -11 -12
leaf_value=3.8043003296479587e-05 0.020288297334653246 -0.018631355511024596 -0.0062093529651211883 -0.023693890144618659 -0.014550360333457402 0.0063066850816539954 0.024053964068462969 0.0017274139687801018 0.0017835763091331022 0.0046536934414198481 0.010178290549338911
leaf_weight=90 57 52 62 65 79 76 53 78 68 63 57
leaf_count=90 57 52 62 65 79 76 53 78 68 63 57
internal_value=1.34496e-11 -0.00194161 -0.000525841 -0.00991406 0.00265139 -0.00432368 0.0062195 0.00956423 0.00941696 0.0124174 0.0168638
internal_weight=800 665 613 155 458 155 303 135 241 173 110
internal_count=800 665 613 155 458 155 303 135 241 173 110
is_linear=0
shrinkage=0.05


Tree=13
num_leaves=13
num_cat=0
split_feature=27 19 9 25 16 22 24 6 26 10 19 25
split_gain=5.90786 6.71921 5.88697 9.98231 5.35811 4.78896 4.72082 3.45299 3.98774 2.99597 3.40325 2.16018
threshold=-1.5438604999999999 -1.3380289999999997 0.73008300000000015 0.24410950000000003 0.96598400000000006 -1.0729134999999996 0.048625500000000009 1.0894975000000002 0.15004550000000003 0.53261550000000002 1.0000000180025095e-35 0.16218250000000003
decision_type=2 2 2 2 2 2 2 2 2 2 2 2
left_child=-1 -2 4 6 5 -3 -4 8 9 10 -7 -10
right_child=1 2 3 -5 -6 7 -8 -9 11 -11 -12 -13
leaf_value=0.015661476935825445 -0.018881439249962568 -0.0067989830699532409 -0.010819559232331813 -0.02605473421654611 -0.0084209338546945497 -0.013818914938788368 0.01014527485541325 0.018417183415370127 0.0061293716400956056 0.0096282916193428866 0.0032522459879804119 0.018836518717480117
leaf_weight=56 50 73 50 53 91 53 58 58 79 56 65 58
leaf_count=56 50 73 50 53 91 53 58 58 79 56 65 58
internal_value=-2.62953e-11 -0.00117882 9.65839e-05 -0.00828232 0.00262755 0.00490223 0.000439333 0.00721711 0.00512835 0.00010447 -0.00441531 0.011509
internal_weight=800 744 694 161 533 442 108 369 311 174 118 137
internal_count=800 744 694 161 533 442 108 369 311 174 118 137
is_linear=0
shrinkage=0.05


end of trees

feature_importances:
Column_22=13
Column_9=10
Column_13=10
Column_25=10
Column_6=9
Column_19=9
Column_24=9
Column_10=8
Column_26=8
Column_2=7
Column_20=6
Column_23=6
Column_0=5
Column_5=5
Column_27=5
Column_8=4
Column_14=4
Column_17=4
Column_1=3
Column_7=3
Column_12=3
Column_16=3
Column_18=3
Column_4=2
Column_11=2
Column_21=2
Column_28=2
Column_3=1
Column_15=1

parameters:
[boosting: gbdt]
[objective: regression]
[metric: rmse]
[tree_learner: serial]
[device_type: cpu]
[data_sample_strategy: bagging]
[data: ]
[valid: ]
[num_iterations: 10000]
[learning_rate: 0.05]
[num_leaves: 15]
[num_threads: 0]
[seed: 1235]
[deterministic: 0]
[force_col_wise: 0]
[force_row_wise: 0]
[histogram_pool_size: -1]
[max_depth: -1]
[min_data_in_leaf: 50]
[min_sum_hessian_in_leaf: 0.001]
[bagging_fraction: 0.5]
[pos_bagging_fraction: 1]
[neg_bagging_fraction: 1]
[bagging_freq: 0]
[bagging_seed: 10961]
[bagging_by_query: 0]
[feature_fraction: 0.8]
[feature_fraction_bynode: 1]
[feature_fraction_seed: 53]
[extra_trees: 0]
[extra_seed: 11644]
[early_stopping_round: 0]
[early_stopping_min_delta: 0]
[first_metric_only: 0]
[max_delta_step: 0]
[lambda_l1: 0]
[lambda_l2: 0]
[linear_lambda: 0]
[min_gain_to_split: 0]
[drop_rate: 0.1]
[max_drop: 50]
[skip_drop: 0.5]
[xgboost_dart_mode: 0]
[uniform_drop: 0]
[drop_seed: 30626]
[top_rate: 0.2]
[other_rate: 0.1]
[min_data_per_group: 100]
[max_cat_threshold: 32]
[cat_l2: 10]
[cat_smooth: 10]
[max_cat_to_onehot: 4]
[top_k: 20]
[monotone_constraints: ]
[monotone_constraints_method: basic]
[monotone_penalty: 0]
[feature_contri: ]
[forcedsplits_filename: ]
[refit_decay_rate: 0.9]
[cegb_tradeoff: 1]
[cegb_penalty_split: 0]
[cegb_penalty_feature_lazy: ]
[cegb_penalty_feature_coupled: ]
[path_smooth: 0]
[interaction_constraints: ]
[verbosity: -1]
[saved_feature_importance_type: 0]
[use_quantized_grad: 0]
[num_grad_quant_bins: 4]
[quant_train_renew_leaf: 0]
[stochastic_rounding: 1]
[linear_tree: 0]
[max_bin: 255]
[max_bin_by_feature: ]
[min_data_in_bin: 3]
[bin_construct_sample_cnt: 200000]
[data_random_seed: 4071]
[is_enable_sparse: 1]
[enable_bundle: 1]
[use_missing: 1]
[zero_as_missing: 0]
[feature_pre_filter: 1]
[pre_partition: 0]
[two_round: 0]
[header: 0]
[label_column: ]
[weight_column: ]
[group_column: ]
[ignore_column: ]
[categorical_feature: ]
[forcedbins_filename: ]
[precise_float_parser: 0]
[parser_config_file: ]
[objective_seed: 602]
[num_class: 1]
[is_unbalance: 0]
[scale_pos_weight: 1]
[sigmoid: 1]
[boost_from_average: 1]
[reg_sqrt: 0]
[alpha: 0.9]
[fair_c: 1]
[poisson_max_delta_step: 0.7]
[tweedie_variance_power: 1.5]
[lambdarank_truncation_level: 30]
[lambdarank_norm: 1]
[label_gain: ]
[lambdarank_position_bias_regularization: 0]
[eval_at: ]
[multi_error_top_k: 1]
[auc_mu_weights: ]
[num_machines: 1]
[local_listen_port: 12400]
[time_out: 120]
[machine_list_filename: ]
[machines: ]
[gpu_platform_id: -1]
[gpu_device_id: -1]
[gpu_use_dp: 0]
[num_gpu: 1]

end of parameters

pandas_categorical:null
