tree
version=v4
num_class=1
num_tree_per_iteration=1
label_index=0
max_feature_idx=29
objective=regression
feature_names=Column_0 Column_1 Column_2 Column_3 Column_4 Column_5 Column_6 Column_7 Column_8 Column_9 Column_10 Column_11 Column_12 Column_13 Column_14 Column_15 Column_16 Column_17 Column_18 Column_19 Column_20 Column_21 Column_22 Column_23 Column_24 Column_25 Column_26 Column_27 Column_28 Column_29
feature_infos=[2.6600000000000001:4996.7700000000004] [-2.9015240000000002:3.2546469999999998] [-3.2394379999999998:3.260491] [-2.6490999999999998:2.76614] [-3.7087970000000001:2.8408859999999998] [-3.064457:3.5994670000000002] [-2.8147150000000001:3.5556169999999998] [-3.4089670000000001:3.0755859999999999] [-4.0540500000000002:3.0517110000000001] [-2.706518:2.7845879999999998] [-3.1747489999999998:3.155538] [-3.1005180000000001:3.1011869999999999] [-2.8422070000000001:3.0654750000000002] [-3.1997610000000001:3.1983980000000001] [-2.7324739999999998:3.2160199999999999] [-2.957525:2.659996] [-3.4897800000000001:2.5634999999999999] [-2.697479:2.5167920000000001] [-3.036178:2.9856400000000001] [-3.1822810000000001:2.8418239999999999] [-3.053153:3.9027989999999999] [-3.285666:3.5886809999999998] [-2.9122379999999999:2.915063] [-3.144962:3.9385029999999999] [-2.750909:3.4135260000000001] [-2.7363729999999999:3.8091650000000001] [-3.5927470000000001:3.1989800000000002] [-3.0278:3.5420950000000002] [-3.5433189999999999:3.2020010000000001] [0:1]
tree_sizes=6100

Tree=0
num_leaves=62
num_cat=0
split_feature=16 24 8 8 11 20 11 11 19 7 19 17 20 15 19 11 4 24 17 12 12 7 19 7 27 20 15 4 28 28 24 20 27 7 8 27 4 4 10 4 16 8 12 10 17 8 8 24 19 20 4 24 17 28 17 12 20 20 4 15 19
split_gain=7.46631 6.32881 5.93461 20.3898 21.6413 10.5891 7.10119 6.3622 7.63692 6.12598 6.46174 10.9409 7.89318 9.65189 5.47239 5.03558 4.46251 7.75276 5.39631 5.75446 6.34033 8.11055 5.40568 3.80661 3.42388 3.22343 3.06641 5.78088 4.30612 3.46488 9.18585 3.76923 4.10541 3.76442 3.04909 2.79688 2.77164 2.51065 2.10126 3.03084 2.0072 1.74347 2.71218 1.72319 1.26884 1.1482 1.11368 1.09333 1.08733 1.00877 0.954549 0.833072 1.15115 2.01109 1.87331 1.0121 0.795819 0.697635 0.714646 0.657743 0.33878
threshold=-2.1075884999999994 1.7268380000000003 -0.30982849999999995 -0.37162249999999991 0.17629600000000004 1.7661495000000003 -1.6313119999999997 -1.0394944999999998 1.5443340000000003 0.13242300000000004 -0.49092799999999998 0.35701250000000007 0.24242350000000004 -0.36470649999999999 -0.97593899999999978 0.31424600000000008 0.080487000000000017 -1.5415909999999997 0.85969150000000016 -0.94796949999999991 0.29735750000000005 0.61619800000000013 -0.33380999999999994 -0.93545949999999989 0.64264900000000014 0.86915600000000015 1.0426555000000002 -0.31797299999999995 0.25864200000000004 0.47245650000000006 0.89559000000000011 -0.5972194999999999 -0.24566799999999997 -0.14433149999999997 1.6658750000000002 -0.75384749999999989 0.37337750000000008 0.73825500000000011 0.52668450000000011 0.49282000000000009 1.0000000180025095e-35 0.42292200000000008 -0.53695149999999991 -0.072017999999999985 0.58789200000000019 -1.1596609999999998 0.89240000000000008 -0.40404849999999998 -0.098169999999999993 -0.062704999999999983 0.55870050000000016 -1.1058494999999997 -0.49428599999999995 -0.68285149999999983 0.020369000000000005 0.10741100000000002 -0.3619639999999999 0.064219500000000013 0.09295100000000002 0.37097000000000008 0.29954400000000009
decision_type=2 2 2 2 2 2 2 2 2 2 2 2 2 2 2 2 2 2 2 2 2 2 2 2 2 2 2 2 2 2 2 2 2 2 2 2 2 2 2 2 2 2 2 2 2 2 2 2 2 2 2 2 2 2 2 2 2 2 2 2 2
left_child=-1 2 3 5 -5 6 -2 57 9 15 11 14 13 -12 -11 24 26 -18 19 50 21 23 37 -21 38 46 29 28 -28 31 35 32 -4 -34 44 -31 -24 -22 39 -9 -3 -37 -43 -26 51 -17 49 -14 -20 -25 -19 -33 55 -54 -55 -53 -47 58 -8 -40 -38
right_child=1 40 16 4 -6 -7 7 8 -10 10 12 -13 47 -15 -16 45 17 18 48 20 22 -23 36 25 43 -27 27 -29 -30 30 -32 34 33 -35 -36 41 60 -39 59 -41 -42 42 -44 -45 -46 56 -48 -49 -50 -51 -52 52 53 54 -56 -57 -58 -59 -60 -61 -62
leaf_value=-0.15657072842256942 -0.14564063870316693 0.1524535074797369 0.11194471036258619 -0.010228146042791193 -0.42631715136405546 -0.21114910426374991 0.15175979790452393 -0.12513310057460328 -0.17653817402955613 -0.095059579637018041 -0.21943684027863616 0.041883491797877169 0.031075273049735602 0.015972496080242933 -0.30429423457768273 0.12219525388409641 -0.1305587718152674 0.038436381269129911 0.045430971556537157 -0.11811274956870225 -0.105507277441017 -0.18337596862816202 -0.01101594705174928 -0.036326715972390955 -0.0058770019077928719 -0.095278374280896971 -0.18431153836485459 0.077017600429660105 -0.0066088593764773874 -0.052095893647638149 -0.11993786883986712 0.14228411544155931 0.028726974798870892 -0.12156107803321597 -0.028758788284030744 0.11327874585022477 0.13059626517060674 0.020288945559295828 -0.020311562892165957 0.011242666462150571 0.046651847485336476 -0.050270205911365322 0.078410008492125927 0.10130474554859878 0.039199561274597526 0.095551202271017224 0.090334500048193156 0.10812477535194964 0.12293065289875293 0.053507432389887956 0.12210253285729171 0.15108788666490008 0.1233971546443018 -0.038857635169406386 0.083561514887842359 0.081004569109851113 0.029815437294207242 0.049255985367926775 0.076147824648651302 0.052227701518568204 0.084203955750357745
leaf_weight=11.999999999999998 12.999999999999998 13.000000000000002 9.9999999999999982 10.000000000000002 9.9999999999999982 9.9999999999999982 10.000000000000005 16.000000000000004 9.9999999999999982 9.9999999999999982 11.000000000000002 11.999999999999998 13.000000000000002 19 10.000000000000002 18 19 10.000000000000002 15.000000000000002 13.999999999999998 15.000000000000002 18 12.999999999999998 10 10.000000000000002 9.9999999999999982 10.000000000000002 13.999999999999998 11.999999999999998 9.9999999999999982 18 13.999999999999998 15 12 9.9999999999999982 18 10.000000000000002 10.999999999999998 10.000000000000002 10.999999999999998 15.999999999999998 10.000000000000002 19 14.999999999999998 18 13.000000000000002 9.9999999999999982 17 13.999999999999998 10.000000000000004 11.999999999999998 15.999999999999991 12.999999999999998 10.000000000000009 9.9999999999999982 17 17 9.9999999999999982 9.9999999999999982 9.9999999999999982 17
leaf_count=12 13 13 10 10 10 10 10 16 10 10 11 12 13 19 10 18 19 10 15 14 15 18 13 10 10 10 10 14 12 10 18 14 15 12 10 18 10 11 10 11 16 10 19 15 18 13 10 17 14 10 12 16 13 10 10 17 17 10 10 10 17
internal_value=6.82427e-10 0.00238433 -0.0011192 -0.0232988 -0.218273 -0.00911885 -0.00149507 0.00594101 -0.005741 0.00231547 -0.0365127 -0.109092 0.0021962 -0.0703443 -0.199677 0.0320837 0.012982 -0.00877747 0.00346509 -0.0109224 -0.0260666 -0.0671108 0.018709 -0.0283557 -0.00136802 0.00305921 0.0306616 -0.0234493 -0.0873828 0.0395161 0.00461687 0.0575675 0.00247618 -0.0380677 0.0764414 0.0439499 0.0648556 -0.0522858 -0.0331766 -0.0695726 0.0940802 0.0643852 0.0340375 0.058432 0.0871761 0.0822613 0.0358384 0.0747367 0.0828446 0.00859036 0.0840725 0.0979708 0.088571 0.0621576 0.0223519 0.114984 0.0583009 0.0923879 0.113954 0.0159581 0.101386
internal_weight=800 788 759 295 20 275 265 252 222 212 92 32 60 30 20 120 464 208 189 160 138 72 66 54 72 40 256 36 22 220 75 145 37 27 108 57 40 26 47 27 29 47 29 25 98 48 30 30 29 20 22 80 66 33 20 33 30 30 20 20 27
internal_count=800 788 759 295 20 275 265 252 222 212 92 32 60 30 20 120 464 208 189 160 138 72 66 54 72 40 256 36 22 220 75 145 37 27 108 57 40 26 47 27 29 47 29 25 98 48 30 30 29 20 22 80 66 33 20 33 30 30 20 20 27
is_linear=0
shrinkage=1


end of trees

feature_importances:
Column_4=7
Column_20=7
Column_8=6
Column_19=6
Column_17=5
Column_24=5
Column_7=4
Column_11=4
Column_12=4
Column_15=3
Column_27=3
Column_28=3
Column_10=2
Column_16=2

parameters:
[boosting: gbdt]
[objective: regression]
[metric: rmse]
[tree_learner: serial]
[device_type: cpu]
[data_sample_strategy: bagging]
[data: ]
[valid: ]
[num_iterations: 10000]
[learning_rate: 0.2]
[num_leaves: 63]
[num_threads: 0]
[seed: 1236]
[deterministic: 0]
[force_col_wise: 0]
[force_row_wise: 0]
[histogram_pool_size: -1]
[max_depth: -1]
[min_data_in_leaf: 10]
[min_sum_hessian_in_leaf: 0.001]
[bagging_fraction: 1]
[pos_bagging_fraction: 1]
[neg_bagging_fraction: 1]
[bagging_freq: 0]
[bagging_seed: 21709]
[bagging_by_query: 0]
[feature_fraction: 0.5]
[feature_fraction_bynode: 1]
[feature_fraction_seed: 24116]
[extra_trees: 0]
[extra_seed: 15571]
[early_stopping_round: 0]
[early_stopping_min_delta: 0]
[first_metric_only: 0]
[max_delta_step: 0]
[lambda_l1: 0]
[lambda_l2: 0]
[linear_lambda: 0]
[min_gain_to_split: 0]
[drop_rate: 0.1]
[max_drop: 50]
[skip_drop: 0.5]
[xgboost_dart_mode: 0]
[uniform_drop: 0]
[drop_seed: 15722]
[top_rate: 0.2]
[other_rate: 0.1]
[min_data_per_group: 100]
[max_cat_threshold: 32]
[cat_l2: 10]
[cat_smooth: 10]
[max_cat_to_onehot: 4]
[top_k: 20]
[monotone_constraints: ]
[monotone_constraints_method: basic]
[monotone_penalty: 0]
[feature_contri: ]
[forcedsplits_filename: ]
[refit_decay_rate: 0.9]
[cegb_tradeoff: 1]
[cegb_penalty_split: 0]
[cegb_penalty_feature_lazy: ]
[cegb_penalty_feature_coupled: ]
[path_smooth: 0]
[interaction_constraints: ]
[verbosity: -1]
[saved_feature_importance_type: 0]
[use_quantized_grad: 0]
[num_grad_quant_bins: 4]
[quant_train_renew_leaf: 0]
[stochastic_rounding: 1]
[linear_tree: 0]
[max_bin: 255]
[max_bin_by_feature: ]
[min_data_in_bin: 3]
[bin_construct_sample_cnt: 200000]
[data_random_seed: 4074]
[is_enable_sparse: 1]
[enable_bundle: 1]
[use_missing: 1]
[zero_as_missing: 0]
[feature_pre_filter: 1]
[pre_partition: 0]
[two_round: 0]
[header: 0]
[label_column: ]
[weight_column: ]
[group_column: ]
[ignore_column: ]
[categorical_feature: ]
[forcedbins_filename: ]
[precise_float_parser: 0]
[parser_config_file: ]
[objective_seed: 10917]
[num_class: 1]
[is_unbalance: 0]
[scale_pos_weight: 1]
[sigmoid: 1]
[boost_from_average: 1]
[reg_sqrt: 0]
[alpha: 0.9]
[fair_c: 1]
[poisson_max_delta_step: 0.7]
[tweedie_variance_power: 1.5]
[lambdarank_truncation_level: 30]
[lambdarank_norm: 1]
[label_gain: ]
[lambdarank_position_bias_regularization: 0]
[eval_at: ]
[multi_error_top_k: 1]
[auc_mu_weights: ]
[num_machines: 1]
[local_listen_port: 12400]
[time_out: 120]
[machine_list_filename: ]
[machines: ]
[gpu_platform_id: -1]
[gpu_device_id: -1]
[gpu_use_dp: 0]
[num_gpu: 1]

end of parameters

pandas_categorical:null
