tree
version=v4
num_class=1
num_tree_per_iteration=1
label_index=0
max_feature_idx=29
objective=regression
feature_names=Column_0 Column_1 Column_2 Column_3 Column_4 Column_5 Column_6 Column_7 Column_8 Column_9 Column_10 Column_11 Column_12 Column_13 Column_14 Column_15 Column_16 Column_17 Column_18 Column_19 Column_20 Column_21 Column_22 Column_23 Column_24 Column_25 Column_26 Column_27 Column_28 Column_29
feature_infos=[2.1899999999999999:4996.7700000000004] [-2.8062170000000002:3.2546469999999998] [-3.2394379999999998:3.260491] [-2.6490999999999998:3.657702] [-3.047777:2.8408859999999998] [-3.064457:2.7566389999999998] [-2.8147150000000001:3.5556169999999998] [-3.4089670000000001:3.0934300000000001] [-4.0540500000000002:3.0517110000000001] [-2.706518:2.7845879999999998] [-3.1747489999999998:3.155538] [-3.1005180000000001:3.1011869999999999] [-2.9309310000000002:2.8074560000000002] [-3.1997610000000001:3.1983980000000001] [-3.1046049999999998:3.2160199999999999] [-2.957525:2.659996] [-3.0698400000000001:3.3176869999999998] [-2.697479:2.7323620000000002] [-3.036178:2.9856400000000001] [-3.2646359999999999:2.8418239999999999] [-3.053153:3.9027989999999999] [-3.285666:3.5886809999999998] [-2.9122379999999999:2.915063] [-3.144962:3.9385029999999999] [-2.695662:3.4135260000000001] [-3.091996:3.8091650000000001] [-3.5927470000000001:3.1989800000000002] [-3.3637260000000002:3.5420950000000002] [-2.7407430000000002:3.2020010000000001] [0:1]
tree_sizes=6197

Tree=0
num_leaves=62
num_cat=0
split_feature=27 12 10 12 4 16 19 24 16 20 28 12 12 15 28 7 24 24 7 16 10 11 20 12 15 24 17 20 17 28 12 7 27 27 19 4 27 10 11 16 12 20 7 19 7 7 11 15 28 27 11 10 16 15 17 8 17 4 12 4 10
split_gain=9.00293 14.2141 14.2969 10.7774 9.17482 8.07204 7.24597 12.4118 5.89864 6.74559 5.63997 6.51007 10.7201 5.13177 4.95018 4.86337 4.53703 4.54445 7.08613 5.82854 4.39752 4.33663 3.93806 6.6203 6.93842 7.16036 4.21748 4.29884 3.48801 3.43156 3.22654 4.58917 3.11451 3.49002 3.02467 3.01445 2.82248 2.7399 2.27116 2.0202 1.95568 2.26713 1.89932 1.84992 1.54974 1.54941 1.47213 1.26548 1.2824 1.16202 1.14668 0.79887 0.789767 0.772519 0.644083 0.611323 0.519082 0.518248 0.632443 0.348739 0.276548
threshold=0.6023170000000001 0.32764350000000003 -1.0775539999999997 -0.7051099999999999 -0.85666999999999993 0.82947300000000013 -1.2715409999999998 0.69138250000000012 -0.029800999999999998 0.57741700000000018 0.18081000000000003 -0.98189249999999995 -0.82263599999999992 1.5683475000000002 1.5903580000000004 -0.52149949999999989 1.2051850000000002 -0.79422949999999981 1.2446810000000001 -1.1991984999999998 0.14109600000000003 -0.34421999999999991 -0.23961199999999996 -0.34235649999999995 0.13773400000000005 0.36482900000000001 -0.43148049999999999 0.39682900000000004 0.67402000000000017 0.21802650000000004 -0.23247349999999997 1.3096780000000001 -0.67727899999999985 -0.95404949999999988 0.57001950000000012 0.25449100000000008 -1.3777339999999998 -0.40459949999999995 0.028035000000000004 0.27187700000000004 -1.2816399999999997 -0.043311499999999996 -1.1988919999999996 0.91672500000000012 -0.4510714999999999 -0.44403049999999994 0.2966545000000001 -0.44237449999999995 0.57454850000000013 -0.33562599999999992 0.076473500000000014 0.50263700000000011 -0.29164649999999998 -0.21845299999999998 -0.20521049999999999 0.28213350000000009 -0.38467949999999995 0.23193050000000004 -0.82263599999999992 0.32033550000000005 -0.22981699999999997
decision_type=2 2 2 2 2 2 2 2 2 2 2 2 2 2 2 2 2 2 2 2 2 2 2 2 2 2 2 2 2 2 2 2 2 2 2 2 2 2 2 2 2 2 2 2 2 2 2 2 2 2 2 2 2 2 2 2 2 2 2 2 2
left_child=6 2 -2 21 -5 34 7 15 51 50 11 39 -13 16 30 -1 17 32 19 -19 -16 -4 28 -24 26 -26 -25 -28 44 -23 40 36 33 -14 46 54 -32 -34 -18 49 41 -12 -38 57 -21 59 -6 -47 -49 -8 -10 -3 -50 -20 -17 -39 -46 60 -59 -44 -42
right_child=1 8 3 4 5 -7 10 -9 9 -11 14 12 13 -15 20 35 38 18 53 22 -22 29 23 24 25 -27 27 -29 -30 -31 31 -33 37 -35 -36 -37 42 55 -40 -41 43 -43 45 -45 56 47 -48 48 52 -51 -52 -53 -54 -55 -56 -57 -58 58 -60 -61 -62
leaf_value=0.12651300636905943 -0.23966700218970399 0.12551155690993054 0.096769347876619782 -0.23298093731194969 -0.019673101368617996 -0.20365786191842442 0.15352040524950444 -0.19827629836421695 0.0026283682289833543 -0.1590101772747585 -0.033337024321372144 -0.19296985926252094 0.069049731323902935 -0.11335533650737489 -0.10157381232042097 0.046180299202387677 0.13069679191190517 -0.18368975566845622 0.11403252019616326 -0.0068452286176034251 0.062696701349420694 -0.078030837982583562 0.053019509769893426 0.043930118353130071 -0.28617775136073087 -0.062782248415266306 0.018688901046698427 -0.1484711492076167 -0.058444692015861326 0.055321928815750515 -0.047560364302348307 -0.094600620140845429 -0.001874660944158677 -0.098043502663786058 0.050725776132603644 -0.1241974196038791 -0.010253421432146123 0.089467226436430444 0.024133190175925849 0.025575034057148612 0.11859404315349158 0.10133686451095857 0.13921053670822103 0.032694338458743671 0.060066549112185987 0.098866592104022918 -0.12014490706060316 0.090120130906288856 -0.034378368143092822 0.067213607211694282 0.08629904893081404 0.064091343934123884 0.039813500752303874 0.042017668597638315 -0.025601748918707014 0.15474152354378021 0.12176423607248577 0.1368402737178257 0.067345211512901279 0.089909353913469464 0.16034435280142736
leaf_weight=9.9999999999999982 18 18 19 15.999999999999998 14.000000000000002 11.999999999999998 13.000000000000002 17 19.000000000000004 9.9999999999999982 10.000000000000002 11.999999999999998 10.000000000000002 14.999999999999998 16.000000000000004 10.000000000000002 15.999999999999998 9.9999999999999982 13.000000000000002 9.9999999999999982 10.999999999999998 19 19 16.999999999999993 11.000000000000002 11.999999999999998 10.000000000000009 15.999999999999998 14.999999999999998 12.999999999999998 10.999999999999998 9.9999999999999982 9.9999999999999982 9.9999999999999982 15.999999999999998 9.9999999999999982 12.999999999999998 11.000000000000002 15.999999999999998 19 11 9.9999999999999982 11.999999999999995 10.999999999999998 11.999999999999998 15.999999999999991 9.9999999999999982 10.000000000000012 10.999999999999993 11.999999999999998 9.9999999999999982 15.999999999999998 12.000000000000007 10.999999999999998 10.000000000000002 11.999999999999998 10.000000000000002 10.000000000000002 10.999999999999998 10.999999999999998 15
leaf_count=10 18 18 19 16 14 12 13 17 19 10 10 12 10 15 16 10 16 10 13 10 11 19 19 17 11 12 10 16 15 13 11 10 10 10 16 10 13 11 16 19 11 10 12 11 12 16 10 10 11 12 10 16 12 11 10 12 10 10 11 11 15
internal_value=1.04692e-09 -0.0355626 -0.0735448 -0.0484171 -0.100542 -0.0597914 0.0126579 -0.0551185 0.0357191 -0.0173634 0.019906 0.00325201 -0.00806153 0.000280196 0.0453211 0.00572353 0.00707116 -0.00320739 -0.0194866 -0.0364746 -0.0346488 0.0210827 -0.0253219 -0.0510095 -0.0809573 -0.169624 -0.0335311 -0.0841788 0.0211344 -0.0238563 0.0570558 0.0343371 0.0477803 -0.0144969 -0.0166315 -0.0345396 0.0477681 0.085524 0.077415 0.0747331 0.0879299 0.0339999 0.0601047 0.106527 0.0584371 0.0728083 -0.0615364 0.0527075 0.0303273 0.112093 0.0314803 0.0966079 0.00433043 0.0810257 0.0102893 0.123523 0.088111 0.123806 0.100438 0.115632 0.142681
internal_weight=800 210 137 119 68 52 590 57 73 39 533 322 278 266 211 40 251 219 166 142 27 51 132 85 66 23 43 26 47 32 184 106 53 20 40 30 96 33 32 44 78 20 85 58 32 72 24 49 33 25 29 34 23 24 20 23 22 47 21 23 26
internal_count=800 210 137 119 68 52 590 57 73 39 533 322 278 266 211 40 251 219 166 142 27 51 132 85 66 23 43 26 47 32 184 106 53 20 40 30 96 33 32 44 78 20 85 58 32 72 24 49 33 25 29 34 23 24 20 23 22 47 21 23 26
is_linear=0
shrinkage=1


end of trees

feature_importances:
Column_12=8
Column_7=6
Column_10=5
Column_16=5
Column_27=5
Column_4=4
Column_11=4
Column_15=4
Column_17=4
Column_20=4
Column_24=4
Column_28=4
Column_19=3
Column_8=1

parameters:
[boosting: gbdt]
[objective: regression]
[metric: rmse]
[tree_learner: serial]
[device_type: cpu]
[data_sample_strategy: bagging]
[data: ]
[valid: ]
[num_iterations: 10000]
[learning_rate: 0.2]
[num_leaves: 63]
[num_threads: 0]
[seed: 1236]
[deterministic: 0]
[force_col_wise: 0]
[force_row_wise: 0]
[histogram_pool_size: -1]
[max_depth: -1]
[min_data_in_leaf: 10]
[min_sum_hessian_in_leaf: 0.001]
[bagging_fraction: 1]
[pos_bagging_fraction: 1]
[neg_bagging_fraction: 1]
[bagging_freq: 0]
[bagging_seed: 21709]
[bagging_by_query: 0]
[feature_fraction: 0.5]
[feature_fraction_bynode: 1]
[feature_fraction_seed: 24116]
[extra_trees: 0]
[extra_seed: 15571]
[early_stopping_round: 0]
[early_stopping_min_delta: 0]
[first_metric_only: 0]
[max_delta_step: 0]
[lambda_l1: 0]
[lambda_l2: 0]
[linear_lambda: 0]
[min_gain_to_split: 0]
[drop_rate: 0.1]
[max_drop: 50]
[skip_drop: 0.5]
[xgboost_dart_mode: 0]
[uniform_drop: 0]
[drop_seed: 15722]
[top_rate: 0.2]
[other_rate: 0.1]
[min_data_per_group: 100]
[max_cat_threshold: 32]
[cat_l2: 10]
[cat_smooth: 10]
[max_cat_to_onehot: 4]
[top_k: 20]
[monotone_constraints: ]
[monotone_constraints_method: basic]
[monotone_penalty: 0]
[feature_contri: ]
[forcedsplits_filename: ]
[refit_decay_rate: 0.9]
[cegb_tradeoff: 1]
[cegb_penalty_split: 0]
[cegb_penalty_feature_lazy: ]
[cegb_penalty_feature_coupled: ]
[path_smooth: 0]
[interaction_constraints: ]
[verbosity: -1]
[saved_feature_importance_type: 0]
[use_quantized_grad: 0]
[num_grad_quant_bins: 4]
[quant_train_renew_leaf: 0]
[stochastic_rounding: 1]
[linear_tree: 0]
[max_bin: 255]
[max_bin_by_feature: ]
[min_data_in_bin: 3]
[bin_construct_sample_cnt: 200000]
[data_random_seed: 4074]
[is_enable_sparse: 1]
[enable_bundle: 1]
[use_missing: 1]
[zero_as_missing: 0]
[feature_pre_filter: 1]
[pre_partition: 0]
[two_round: 0]
[header: 0]
[label_column: ]
[weight_column: ]
[group_column: ]
[ignore_column: ]
[categorical_feature: ]
[forcedbins_filename: ]
[precise_float_parser: 0]
[parser_config_file: ]
[objective_seed: 10917]
[num_class: 1]
[is_unbalance: 0]
[scale_pos_weight: 1]
[sigmoid: 1]
[boost_from_average: 1]
[reg_sqrt: 0]
[alpha: 0.9]
[fair_c: 1]
[poisson_max_delta_step: 0.7]
[tweedie_variance_power: 1.5]
[lambdarank_truncation_level: 30]
[lambdarank_norm: 1]
[label_gain: ]
[lambdarank_position_bias_regularization: 0]
[eval_at: ]
[multi_error_top_k: 1]
[auc_mu_weights: ]
[num_machines: 1]
[local_listen_port: 12400]
[time_out: 120]
[machine_list_filename: ]
[machines: ]
[gpu_platform_id: -1]
[gpu_device_id: -1]
[gpu_use_dp: 0]
[num_gpu: 1]

end of parameters

pandas_categorical:null
