tree
version=v4
num_class=1
num_tree_per_iteration=1
label_index=0
max_feature_idx=29
objective=regression
feature_names=Column_0 Column_1 Column_2 Column_3 Column_4 Column_5 Column_6 Column_7 Column_8 Column_9 Column_10 Column_11 Column_12 Column_13 Column_14 Column_15 Column_16 Column_17 Column_18 Column_19 Column_20 Column_21 Column_22 Column_23 Column_24 Column_25 Column_26 Column_27 Column_28 Column_29
feature_infos=[2.1899999999999999:4988.4700000000003] [-2.9015240000000002:3.2546469999999998] [-3.2394379999999998:3.1218970000000001] [-2.6490999999999998:3.657702] [-3.7087970000000001:2.8408859999999998] [-2.8647100000000001:3.5994670000000002] [-2.8147150000000001:3.0948289999999998] [-3.4089670000000001:3.0934300000000001] [-4.0540500000000002:3.0517110000000001] [-2.706518:2.490224] [-3.0464250000000002:2.8273239999999999] [-3.1005180000000001:2.9676990000000001] [-2.9309310000000002:3.0654750000000002] [-3.1997610000000001:3.1983980000000001] [-3.1046049999999998:3.2160199999999999] [-2.957525:2.571431] [-3.4897800000000001:3.3176869999999998] [-2.6629320000000001:2.7323620000000002] [-2.8139439999999998:2.9856400000000001] [-3.2646359999999999:2.8418239999999999] [-3.053153:2.8918949999999999] [-3.285666:2.9311240000000001] [-2.8714659999999999:2.915063] [-3.144962:3.9385029999999999] [-2.750909:3.4135260000000001] [-3.091996:3.8091650000000001] [-3.5927470000000001:3.1989800000000002] [-3.3637260000000002:3.5420950000000002] [-3.5433189999999999:3.2020010000000001] [0:1]
tree_sizes=6008

Tree=0
num_leaves=60
num_cat=0
split_feature=16 17 12 24 24 11 16 11 12 24 28 10 24 8 27 12 4 17 16 12 4 24 11 17 10 17 8 17 17 7 4 7 27 19 24 19 16 19 16 12 27 12 17 12 20 24 15 28 27 4 19 11 17 27 10 10 20 19 8
split_gain=9.36279 15.2124 5.82788 6.53908 7.68607 9.93603 7.81195 6.07058 10.583 6.67037 6.92575 8.75688 6.80762 11.1193 5.13335 6.79036 5.45729 8.53576 6.03813 4.95903 5.16971 4.83865 4.42025 4.2481 4.11123 4.01283 3.98185 5.64084 4.43751 3.32877 4.62477 3.25269 4.56543 3.12161 3.04957 2.49939 2.45205 3.11531 2.33407 2.13303 4.77729 2.03792 1.82651 1.6446 1.49352 1.44479 1.35788 1.15532 2.30167 1.11408 0.967077 0.895423 0.813128 0.751308 0.677822 0.575171 0.517132 0.288286 0.257486
threshold=-1.7090399999999997 -0.41794299999999995 -1.0108199999999996 1.1097305000000002 0.64879950000000008 -0.86897299999999988 -0.56873999999999991 -1.7007604999999997 0.070745000000000016 0.50090450000000009 1.6602145000000001 0.30039500000000008 0.28247450000000002 0.9147550000000001 0.024977000000000003 0.43867150000000005 -0.45305999999999996 -0.98458299999999987 0.82784550000000012 0.72745850000000012 0.7242995000000001 -0.42127099999999995 0.45096050000000004 0.053018000000000003 -1.5298589999999999 1.2998645000000002 0.42903550000000007 0.16919800000000004 0.1285125 0.13663600000000001 0.15136150000000004 0.27995400000000009 0.87636900000000006 -1.0639009999999998 -0.35888199999999998 0.84357500000000007 -0.30531349999999996 0.88698600000000016 0.38791700000000007 -1.4540849999999998 0.67484250000000012 0.081128500000000006 -0.59516449999999987 -0.09293549999999999 -0.14258349999999995 -0.13461799999999999 0.21444550000000004 0.11710300000000001 -0.072378499999999998 -0.36849399999999993 0.28883900000000007 0.44581100000000007 0.52767950000000019 0.66470700000000005 0.37528350000000005 -0.64073949999999991 -0.5223454999999998 -0.15780449999999999 0.10306000000000001
decision_type=2 2 2 2 2 2 2 2 2 2 2 2 2 2 2 2 2 2 2 2 2 2 2 2 2 2 2 2 2 2 2 2 2 2 2 2 2 2 2 2 2 2 2 2 2 2 2 2 2 2 2 2 2 2 2 2 2 2 2
left_child=1 -1 24 4 7 -6 -7 8 -4 10 12 -12 14 23 15 25 43 -18 22 20 34 -20 31 49 -2 36 28 -28 -8 46 -31 32 -19 -21 -17 38 37 42 55 40 44 -24 -9 -16 -26 53 51 48 -41 -14 -49 -5 56 -45 -11 -35 -38 -58 -44
right_child=2 -3 3 29 5 6 26 9 -10 54 11 -13 13 -15 16 19 17 18 21 33 -22 -23 41 -25 39 -27 27 -29 -30 30 -32 -33 -34 35 -36 -37 52 -39 -40 47 -42 -43 58 45 -46 -47 -48 50 -50 -51 -52 -53 -54 -55 -56 -57 57 -59 -60
leaf_value=-0.28225972563038026 -0.068965616949902719 0.036198681373207371 -0.21420971719469109 0.13769864734252524 0.078176030355098194 -0.21021333207075565 0.052468993229073627 0.0088995624750334013 0.031705967654332722 0.072982096294857135 -0.21668917254864933 0.03225211764365668 0.089877383621933413 -0.25489619606494673 -0.012976902611650683 -0.054423495916125809 -0.18390226885863484 -0.13434384948127179 -0.023841582462288589 -0.076314937410352293 0.038179109050146182 -0.21221204691886669 0.0056288313926779647 -0.097792006718712701 0.02578609892370878 -0.024268278882150569 -0.2352657242989516 -0.031879011578954911 -0.094821482487119899 -0.085549051103589568 0.071853468033077669 0.043517162365121001 0.014504249604942742 0.069344538458046223 -0.21061753291491184 -0.044160592046973764 0.084550395297410444 -0.046518300059489606 0.0069935929743223831 0.12254909298062557 -0.080330970175661306 0.12072224703297253 0.083859812977316303 0.13160549606215102 0.11362995412190986 0.0026539329314255152 0.041154803036892867 0.14480084456128461 0.0050331532084965146 -0.0023586411289711982 0.066418561848404362 0.067168017385120043 0.070590739349427167 0.060586153468354435 0.13536637372017138 0.12955518251896131 0.16283432191848987 0.12214976856507985 0.12654712880354893
leaf_weight=12.000000000000002 10.999999999999998 11.999999999999998 14.000000000000002 18.000000000000004 15.999999999999998 18 18 10.999999999999998 13.999999999999998 19.000000000000004 13.000000000000002 9.9999999999999982 9.9999999999999982 9.9999999999999982 14.999999999999998 10.000000000000002 13.999999999999998 17 12.000000000000002 9.9999999999999982 10.999999999999998 9.9999999999999982 10.000000000000002 14.999999999999998 15.999999999999998 17 10.000000000000002 11.999999999999998 14.999999999999998 14.000000000000002 15.999999999999998 18 15.999999999999998 10.999999999999996 10.000000000000002 9.9999999999999982 9.9999999999999982 10.999999999999998 15.999999999999998 12 11.999999999999998 15.999999999999998 10.000000000000002 10.999999999999998 15.000000000000002 10.000000000000002 19 17.000000000000004 15 11.000000000000002 9.9999999999999982 11.999999999999998 15.999999999999998 12.999999999999998 10.999999999999998 15.000000000000004 10.999999999999998 19.000000000000004 12.999999999999998
leaf_count=12 11 12 14 18 16 18 18 11 14 19 13 10 10 10 15 10 14 17 12 10 11 10 10 15 16 17 10 12 15 14 16 18 16 11 10 10 10 11 16 12 12 16 10 11 15 10 19 17 15 11 10 12 16 13 11 15 11 19 13
internal_value=-6.39586e-10 -0.123031 0.00380507 -0.00316405 -0.010411 -0.064563 -0.0958483 -0.000771961 -0.0912519 0.00459549 -0.00159868 -0.108454 0.00426687 -0.0683264 0.0132194 0.0337779 -0.0135575 -0.0377299 -0.017059 -0.00663635 -0.0719497 -0.109465 0.00934254 -0.0165014 0.0469104 0.0656299 -0.0584197 -0.124328 -0.0144812 0.0508671 -0.00160104 -0.0248719 -0.0621751 0.0260203 -0.132521 0.0457002 0.0807612 0.0459979 0.0670956 0.0600509 0.0268152 0.0764555 0.0759296 0.0421871 0.0682912 0.0665241 0.0829905 0.0865164 0.0572625 0.0415633 0.11577 0.109486 0.108696 0.0931367 0.0958563 0.104081 0.123938 0.137067 0.107987
internal_weight=800 24 776 668 589 89 73 500 28 472 442 23 419 46 373 211 162 113 99 93 31 22 77 36 108 118 55 22 33 79 30 51 33 62 20 52 101 45 42 97 43 26 34 49 31 34 49 54 27 21 27 30 56 24 30 26 40 30 23
internal_count=800 24 776 668 589 89 73 500 28 472 442 23 419 46 373 211 162 113 99 93 31 22 77 36 108 118 55 22 33 79 30 51 33 62 20 52 101 45 42 97 43 26 34 49 31 34 49 54 27 21 27 30 56 24 30 26 40 30 23
is_linear=0
shrinkage=1


end of trees

feature_importances:
Column_17=8
Column_12=7
Column_24=7
Column_16=5
Column_19=5
Column_27=5
Column_4=4
Column_10=4
Column_11=4
Column_8=3
Column_7=2
Column_20=2
Column_28=2
Column_15=1

parameters:
[boosting: gbdt]
[objective: regression]
[metric: rmse]
[tree_learner: serial]
[device_type: cpu]
[data_sample_strategy: bagging]
[data: ]
[valid: ]
[num_iterations: 10000]
[learning_rate: 0.2]
[num_leaves: 63]
[num_threads: 0]
[seed: 1236]
[deterministic: 0]
[force_col_wise: 0]
[force_row_wise: 0]
[histogram_pool_size: -1]
[max_depth: -1]
[min_data_in_leaf: 10]
[min_sum_hessian_in_leaf: 0.001]
[bagging_fraction: 1]
[pos_bagging_fraction: 1]
[neg_bagging_fraction: 1]
[bagging_freq: 0]
[bagging_seed: 21709]
[bagging_by_query: 0]
[feature_fraction: 0.5]
[feature_fraction_bynode: 1]
[feature_fraction_seed: 24116]
[extra_trees: 0]
[extra_seed: 15571]
[early_stopping_round: 0]
[early_stopping_min_delta: 0]
[first_metric_only: 0]
[max_delta_step: 0]
[lambda_l1: 0]
[lambda_l2: 0]
[linear_lambda: 0]
[min_gain_to_split: 0]
[drop_rate: 0.1]
[max_drop: 50]
[skip_drop: 0.5]
[xgboost_dart_mode: 0]
[uniform_drop: 0]
[drop_seed: 15722]
[top_rate: 0.2]
[other_rate: 0.1]
[min_data_per_group: 100]
[max_cat_threshold: 32]
[cat_l2: 10]
[cat_smooth: 10]
[max_cat_to_onehot: 4]
[top_k: 20]
[monotone_constraints: ]
[monotone_constraints_method: basic]
[monotone_penalty: 0]
[feature_contri: ]
[forcedsplits_filename: ]
[refit_decay_rate: 0.9]
[cegb_tradeoff: 1]
[cegb_penalty_split: 0]
[cegb_penalty_feature_lazy: ]
[cegb_penalty_feature_coupled: ]
[path_smooth: 0]
[interaction_constraints: ]
[verbosity: -1]
[saved_feature_importance_type: 0]
[use_quantized_grad: 0]
[num_grad_quant_bins: 4]
[quant_train_renew_leaf: 0]
[stochastic_rounding: 1]
[linear_tree: 0]
[max_bin: 255]
[max_bin_by_feature: ]
[min_data_in_bin: 3]
[bin_construct_sample_cnt: 200000]
[data_random_seed: 4074]
[is_enable_sparse: 1]
[enable_bundle: 1]
[use_missing: 1]
[zero_as_missing: 0]
[feature_pre_filter: 1]
[pre_partition: 0]
[two_round: 0]
[header: 0]
[label_column: ]
[weight_column: ]
[group_column: ]
[ignore_column: ]
[categorical_feature: ]
[forcedbins_filename: ]
[precise_float_parser: 0]
[parser_config_file: ]
[objective_seed: 10917]
[num_class: 1]
[is_unbalance: 0]
[scale_pos_weight: 1]
[sigmoid: 1]
[boost_from_average: 1]
[reg_sqrt: 0]
[alpha: 0.9]
[fair_c: 1]
[poisson_max_delta_step: 0.7]
[tweedie_variance_power: 1.5]
[lambdarank_truncation_level: 30]
[lambdarank_norm: 1]
[label_gain: ]
[lambdarank_position_bias_regularization: 0]
[eval_at: ]
[multi_error_top_k: 1]
[auc_mu_weights: ]
[num_machines: 1]
[local_listen_port: 12400]
[time_out: 120]
[machine_list_filename: ]
[machines: ]
[gpu_platform_id: -1]
[gpu_device_id: -1]
[gpu_use_dp: 0]
[num_gpu: 1]

end of parameters

pandas_categorical:null
