{"learner":{"attributes":{"best_iteration":"2","best_score":"0.9883456543339392"},"feature_names":[],"feature_types":[],"gradient_booster":{"model":{"gbtree_model_param":{"num_parallel_tree":"1","num_trees":"53"},"iteration_indptr":[0,1,2,3,4,5,6,7,8,9,10,11,12,13,14,15,16,17,18,19,20,21,22,23,24,25,26,27,28,29,30,31,32,33,34,35,36,37,38,39,40,41,42,43,44,45,46,47,48,49,50,51,52,53],"tree_info":[0,0,0,0,0,0,0,0,0,0,0,0,0,0,0,0,0,0,0,0,0,0,0,0,0,0,0,0,0,0,0,0,0,0,0,0,0,0,0,0,0,0,0,0,0,0,0,0,0,0,0,0,0],"trees":[{"base_weights":[3.3695746E-2,2.1189855E-1,-6.2363293E-2,1.728119E-4,3.8088378E-2,-2.1178682E-1,1.02886945E-1,-3.6327642E-1,8.962008E-3,3.4882072E-2,-3.2056067E-2,-6.585084E-2,-6.687131E-3,-1.483867E-2,8.490312E-3],"categories":[],"categories_nodes":[],"categories_segments":[],"categories_sizes":[],"default_left":[0,0,0,0,0,0,0,0,0,0,0,0,0,0,0],"id":0,"left_children":[1,3,5,-1,-1,7,9,11,-1,-1,13,-1,-1,-1,-1],"loss_changes":[8.555092E0,6.2145886E0,8.046779E0,0E0,0E0,7.840419E0,5.155174E0,9.931906E0,0E0,0E0,1.386798E0,0E0,0E0,0E0,0E0],"parents":[2147483647,0,0,1,1,2,2,5,5,6,6,7,7,10,10],"right_children":[2,4,6,-1,-1,8,10,12,-1,-1,14,-1,-1,-1,-1],"split_conditions":[-4.05203E-1,5.16E-4,1.46083E-1,1.728119E-4,3.8088378E-2,3.58581E-1,-3.90682E-1,2.51194E3,8.962008E-3,3.4882072E-2,-1.4167E-1,-6.585084E-2,-6.687131E-3,-1.483867E-2,8.490312E-3],"split_indices":[13,22,18,0,0,22,16,0,0,0,3,0,0,0,0],"split_type":[0,0,0,0,0,0,0,0,0,0,0,0,0,0,0],"sum_hessian":[4.98E2,1.74E2,3.24E2,7.8E1,9.6E1,1.7E2,1.54E2,1.13E2,5.7E1,5.4E1,1E2,5.6E1,5.7E1,5E1,5E1],"tree_param":{"num_deleted":"0","num_feature":"30","num_nodes":"15","size_leaf_vector":"1"}},{"base_weights":[1.790641E-2,-4.077219E-2,3.3268224E-2,-1.6837719E-1,1.03660405E-1,-2.7388442E-2,-4.001588E-2,2.5191233E-1,-9.8286215E-3,-2.5225474E-2,1.8202795E-2,5.6779026E-3,4.357793E-2],"categories":[],"categories_nodes":[],"categories_segments":[],"categories_sizes":[],"default_left":[0,0,0,0,0,0,0,0,0,0,0,0,0],"id":1,"left_children":[1,3,-1,5,7,9,-1,11,-1,-1,-1,-1,-1],"loss_changes":[8.934866E0,7.5370255E0,0E0,7.0802975E0,5.7730417E0,6.4502506E0,0E0,3.9577785E0,0E0,0E0,0E0,0E0,0E0],"parents":[2147483647,0,0,1,1,3,3,4,4,5,5,7,7],"right_children":[2,4,-1,6,8,10,-1,12,-1,-1,-1,-1,-1],"split_conditions":[1.057234E0,9.9616E-2,3.3268224E-2,4.13244E-1,-2.3394E-2,-7.8071E-2,-4.001588E-2,-2.52E-3,-9.8286215E-3,-2.5225474E-2,1.8202795E-2,5.6779026E-3,4.357793E-2],"split_indices":[6,8,0,15,6,28,0,16,0,0,0,0,0],"split_type":[0,0,0,0,0,0,0,0,0,0,0,0,0],"sum_hessian":[4.82E2,4.07E2,7.5E1,2.16E2,1.91E2,1.35E2,8.1E1,1.1E2,8.1E1,6.5E1,7E1,5.4E1,5.6E1],"tree_param":{"num_deleted":"0","num_feature":"30","num_nodes":"13","size_leaf_vector":"1"}},{"base_weights":[-2.6147878E-2,-3.1034335E-1,5.818541E-2,-3.289215E-3,-6.1917562E-2,2.962019E-1,-6.691416E-2,4.619391E-2,1.0066745E-2,-2.9103732E-2,6.8290055E-2,2.9391399E-2,-5.0782803E-2,-2.5033323E-2,1.4976335E-2],"categories":[],"categories_nodes":[],"categories_segments":[],"categories_sizes":[],"default_left":[0,0,0,0,0,0,0,0,0,0,0,0,0,0,0],"id":2,"left_children":[1,3,5,-1,-1,7,9,-1,-1,-1,11,-1,13,-1,-1],"loss_changes":[1.1522284E1,9.405081E0,1.10666275E1,0E0,0E0,4.101636E0,7.41366E0,0E0,0E0,0E0,4.1253757E0,0E0,4.0794168E0,0E0,0E0],"parents":[2147483647,0,0,1,1,2,2,5,5,6,6,10,10,12,12],"right_children":[2,4,6,-1,-1,8,10,-1,-1,-1,12,-1,14,-1,-1],"split_conditions":[-6.98977E-1,7.6954E-2,-3.32072E-1,-3.289215E-3,-6.1917562E-2,1.10821E-1,-1.27754E-1,4.619391E-2,1.0066745E-2,-2.9103732E-2,2.1149E-2,2.9391399E-2,-1.10224E-1,-2.5033323E-2,1.4976335E-2],"split_indices":[7,2,13,0,0,1,21,0,0,0,7,0,17,0,0],"split_type":[0,0,0,0,0,0,0,0,0,0,0,0,0,0,0],"sum_hessian":[4.79E2,1.09E2,3.7E2,5.8E1,5.1E1,1.27E2,2.43E2,6.8E1,5.9E1,9.1E1,1.52E2,5.2E1,1E2,5E1,5E1],"tree_param":{"num_deleted":"0","num_feature":"30","num_nodes":"15","size_leaf_vector":"1"}},{"base_weights":[2.230807E-2,-3.023053E-2,3.303635E-2,3.172231E-2,-4.4228945E-2,-1.2514074E-1,1.4039896E-1,2.7546475E-3,-3.6135163E-2,2.6269197E-1,-5.2209618E-3,1.5404718E-2,3.6562387E-2],"categories":[],"categories_nodes":[],"categories_segments":[],"categories_sizes":[],"default_left":[0,0,0,0,0,0,0,0,0,0,0,0,0],"id":3,"left_children":[1,3,-1,5,-1,7,9,-1,-1,11,-1,-1,-1],"loss_changes":[7.6653986E0,1.035296E1,0E0,6.0352845E0,0E0,5.2395797E0,4.9366436E0,0E0,0E0,1.375102E0,0E0,0E0,0E0],"parents":[2147483647,0,0,1,1,3,3,5,5,6,6,9,9],"right_children":[2,4,-1,6,-1,8,10,-1,-1,12,-1,-1,-1],"split_conditions":[1.032858E0,1.019705E0,3.303635E-2,-2.22453E-1,-4.4228945E-2,1.33579E-1,-1.5979E-2,2.7546475E-3,-3.6135163E-2,1.14476E-1,-5.2209618E-3,1.5404718E-2,3.6562387E-2],"split_indices":[6,27,0,28,0,11,6,0,0,4,0,0,0],"split_type":[0,0,0,0,0,0,0,0,0,0,0,0,0],"sum_hessian":[4.72E2,4.04E2,6.8E1,3.52E2,5.2E1,1.44E2,2.08E2,8.8E1,5.6E1,1.27E2,8.1E1,6.3E1,6.4E1],"tree_param":{"num_deleted":"0","num_feature":"30","num_nodes":"13","size_leaf_vector":"1"}},{"base_weights":[7.721795E-4,4.9222868E-2,-3.37601E-2,-9.8114386E-2,1.6273119E-1,-2.1227498E-1,7.7537806E-3,-4.457676E-3,2.214115E-1,-3.5721216E-2,-3.538308E-3,2.681334E-3,2.9561952E-1,4.0660914E-2,1.9992653E-2],"categories":[],"categories_nodes":[],"categories_segments":[],"categories_sizes":[],"default_left":[0,0,0,0,0,0,0,0,0,0,0,0,0,0,0],"id":4,"left_children":[1,3,-1,5,7,9,-1,-1,11,-1,-1,-1,13,-1,-1],"loss_changes":[7.9843025E0,7.1403933E0,0E0,3.7462354E0,2.9416094E0,2.884479E0,0E0,0E0,2.706933E0,0E0,0E0,0E0,1.3631544E0,0E0,0E0],"parents":[2147483647,0,0,1,1,3,3,4,4,5,5,8,8,12,12],"right_children":[2,4,-1,6,8,10,-1,-1,12,-1,-1,-1,14,-1,-1],"split_conditions":[1.184235E0,-2.22563E-1,-3.37601E-2,2.54342E-1,-7.692E-1,1.14584E-1,7.7537806E-3,-4.457676E-3,-6.89935E-1,-3.5721216E-2,-3.538308E-3,2.681334E-3,-1.5677E-1,4.0660914E-2,1.9992653E-2],"split_indices":[23,26,0,17,5,6,0,0,17,0,0,0,23,0,0],"split_type":[0,0,0,0,0,0,0,0,0,0,0,0,0,0,0],"sum_hessian":[4.85E2,4.25E2,6E1,1.85E2,2.4E2,1.12E2,7.3E1,5.3E1,1.87E2,6.1E1,5.1E1,5.2E1,1.35E2,6.1E1,7.4E1],"tree_param":{"num_deleted":"0","num_feature":"30","num_nodes":"15","size_leaf_vector":"1"}},{"base_weights":[1.6684702E-2,-6.607563E-2,1.430739E-1,-2.897974E-2,3.212031E-2,3.0357433E-2,4.023136E-2,1.4195113E-1,-2.3488104E-2,2.1169025E-2,-1.1825829E-2,2.8248796E-2,-6.305719E-4],"categories":[],"categories_nodes":[],"categories_segments":[],"categories_sizes":[],"default_left":[0,0,0,0,0,0,0,0,0,0,0,0,0],"id":5,"left_children":[1,3,5,-1,7,-1,9,11,-1,-1,-1,-1,-1],"loss_changes":[5.15578E0,6.5559416E0,3.2065103E0,0E0,6.1329374E0,0E0,3.2859693E0,3.0854423E0,0E0,0E0,0E0,0E0,0E0],"parents":[2147483647,0,0,1,1,2,2,4,4,6,6,7,7],"right_children":[2,4,6,-1,8,-1,10,12,-1,-1,-1,-1,-1],"split_conditions":[3.78243E-1,-4.60554E-1,-1.26648E-1,-2.897974E-2,4.73142E-1,3.0357433E-2,-3.7755E-2,-1.1434E-2,-2.3488104E-2,2.1169025E-2,-1.1825829E-2,2.8248796E-2,-6.305719E-4],"split_indices":[21,14,19,0,25,0,10,6,0,0,0,0,0],"split_type":[0,0,0,0,0,0,0,0,0,0,0,0,0],"sum_hessian":[4.91E2,2.97E2,1.94E2,9E1,2.07E2,7.5E1,1.19E2,1.47E2,6E1,5.7E1,6.2E1,7.5E1,7.2E1],"tree_param":{"num_deleted":"0","num_feature":"30","num_nodes":"13","size_leaf_vector":"1"}},{"base_weights":[-8.172908E-3,3.635347E-2,-3.5908908E-2,8.176901E-2,-2.5826994E-2,-1.5152005E-2,1.4669654E-1,-8.589005E-3,2.0289905E-1,3.0605447E-1,7.774356E-2,4.6169646E-2,1.9312577E-2,-1.0713552E-2,2.6112756E-2],"categories":[],"categories_nodes":[],"categories_segments":[],"categories_sizes":[],"default_left":[0,0,0,0,0,0,0,0,0,0,0,0,0,0,0],"id":6,"left_children":[1,3,-1,5,-1,-1,7,-1,9,11,13,-1,-1,-1,-1],"loss_changes":[7.2161913E0,5.507117E0,0E0,5.414517E0,0E0,0E0,3.6645012E0,0E0,2.8810625E0,2.0727367E0,3.5200744E0,0E0,0E0,0E0,0E0],"parents":[2147483647,0,0,1,1,3,3,6,6,8,8,9,9,10,10],"right_children":[2,4,-1,6,-1,-1,8,-1,10,12,14,-1,-1,-1,-1],"split_conditions":[1.123937E0,1.1904E0,-3.5908908E-2,-8.42381E-1,-2.5826994E-2,-1.5152005E-2,-1.126029E0,-8.589005E-3,2.74704E-1,-2.46111E-1,1.1939E-1,4.6169646E-2,1.9312577E-2,-1.0713552E-2,2.6112756E-2],"split_indices":[15,27,0,25,0,0,15,0,25,12,22,0,0,0,0],"split_type":[0,0,0,0,0,0,0,0,0,0,0,0,0,0,0],"sum_hessian":[4.6E2,4.09E2,5.1E1,3.55E2,5.4E1,7.7E1,2.78E2,5.4E1,2.24E2,1.22E2,1.02E2,5E1,7.2E1,5.1E1,5.1E1],"tree_param":{"num_deleted":"0","num_feature":"30","num_nodes":"15","size_leaf_vector":"1"}},{"base_weights":[8.636216E-3,2.8054342E-2,-2.2828417E-2,-2.1880366E-2,3.0173026E-2,-1.2567979E-1,1.319622E-1,-2.9832155E-2,1.5682722E-2,2.743243E-1,-2.880298E-3,4.5165557E-2,6.102563E-3],"categories":[],"categories_nodes":[],"categories_segments":[],"categories_sizes":[],"default_left":[0,0,0,0,0,0,0,0,0,0,0,0,0],"id":7,"left_children":[1,-1,3,-1,5,7,9,-1,-1,11,-1,-1,-1],"loss_changes":[4.207135E0,0E0,4.587256E0,0E0,5.537302E0,6.7773905E0,4.8370304E0,0E0,0E0,4.208785E0,0E0,0E0,0E0],"parents":[2147483647,0,0,2,2,4,4,5,5,6,6,9,9],"right_children":[2,-1,4,-1,6,8,10,-1,-1,12,-1,-1,-1],"split_conditions":[-1.217983E0,2.8054342E-2,-7.0864E-1,-2.1880366E-2,-1.24459E-1,2.88419E-1,1.06759E-1,-2.9832155E-2,1.5682722E-2,2.61355E-1,-2.880298E-3,4.5165557E-2,6.102563E-3],"split_indices":[21,0,14,0,20,12,12,0,0,21,0,0,0],"split_type":[0,0,0,0,0,0,0,0,0,0,0,0,0],"sum_hessian":[4.9E2,5E1,4.4E2,9.3E1,3.47E2,1.37E2,2.1E2,8.5E1,5.2E1,1.11E2,9.9E1,6E1,5.1E1],"tree_param":{"num_deleted":"0","num_feature":"30","num_nodes":"13","size_leaf_vector":"1"}},{"base_weights":[-2.797605E-2,5.277387E-2,-2.4470735E-1,-1.06767595E-1,1.5242922E-1,-3.479392E-3,-4.9534485E-2,-3.461314E-2,1.4108163E-2,3.6861163E-2,6.635474E-2,2.6045177E-2,-4.656761E-2,-1.888132E-2,9.938018E-3],"categories":[],"categories_nodes":[],"categories_segments":[],"categories_sizes":[],"default_left":[0,0,0,0,0,0,0,0,0,0,0,0,0,0,0],"id":8,"left_children":[1,3,5,7,9,-1,-1,-1,-1,-1,11,-1,13,-1,-1],"loss_changes":[8.640924E0,5.739972E0,7.032797E0,8.295165E0,4.10647E0,0E0,0E0,0E0,0E0,0E0,3.5189915E0,0E0,2.136328E0,0E0,0E0],"parents":[2147483647,0,0,1,1,2,2,3,3,4,4,10,10,12,12],"right_children":[2,4,6,8,10,-1,-1,-1,-1,-1,12,-1,14,-1,-1],"split_conditions":[5.63442E-1,-1.09772E-1,3.5057E-2,-2.1239E-2,-5.28472E-1,-3.479392E-3,-4.9534485E-2,-3.461314E-2,1.4108163E-2,3.6861163E-2,-4.47032E-1,2.6045177E-2,-9.2897E-2,-1.888132E-2,9.938018E-3],"split_indices":[9,20,23,12,12,0,0,0,0,0,16,0,11,0,0],"split_type":[0,0,0,0,0,0,0,0,0,0,0,0,0,0,0],"sum_hessian":[4.92E2,3.59E2,1.33E2,1.38E2,2.21E2,7.3E1,6E1,7E1,6.8E1,6.2E1,1.59E2,5.8E1,1.01E2,5.1E1,5E1],"tree_param":{"num_deleted":"0","num_feature":"30","num_nodes":"15","size_leaf_vector":"1"}},{"base_weights":[-3.1186217E-2,9.1831625E-2,-1.5258364E-1,1.8794875E-1,-7.7675157E-3,-2.694202E-1,9.468043E-3,2.474864E-3,3.1052917E-2,4.1194023E-3,-4.5148885E-1,-7.427815E-2,-1.572296E-2],"categories":[],"categories_nodes":[],"categories_segments":[],"categories_sizes":[],"default_left":[0,0,0,0,0,0,0,0,0,0,0,0,0],"id":9,"left_children":[1,3,5,7,-1,9,-1,-1,-1,-1,11,-1,-1],"loss_changes":[7.3316965E0,3.9899702E0,7.1612115E0,3.1131163E0,0E0,9.519522E0,0E0,0E0,0E0,0E0,8.969061E0,0E0,0E0],"parents":[2147483647,0,0,1,1,2,2,3,3,5,5,10,10],"right_children":[2,4,6,8,-1,10,-1,-1,-1,-1,12,-1,-1],"split_conditions":[-8.1531E-2,3.15342E-1,4.25932E-1,-1.27763E-1,-7.7675157E-3,-4.1396E-1,9.468043E-3,2.474864E-3,3.1052917E-2,4.1194023E-3,-1.23014E-1,-7.427815E-2,-1.572296E-2],"split_indices":[27,2,7,18,0,8,0,0,0,0,1,0,0],"split_type":[0,0,0,0,0,0,0,0,0,0,0,0,0],"sum_hessian":[4.89E2,2.43E2,2.46E2,1.55E2,8.8E1,1.67E2,7.9E1,6.7E1,8.8E1,6.2E1,1.05E2,5.2E1,5.3E1],"tree_param":{"num_deleted":"0","num_feature":"30","num_nodes":"13","size_leaf_vector":"1"}},{"base_weights":[2.4299929E-2,-1.6301693E-2,3.189334E-2,3.0049203E-2,-6.377785E-2,2.0088915E-2,-1.4305061E-1,-2.9935065E-1,2.0755364E-2,-4.5258816E-2,-2.6438802E-3,2.9960115E-2,-1.307541E-2],"categories":[],"categories_nodes":[],"categories_segments":[],"categories_sizes":[],"default_left":[0,0,0,0,0,0,0,0,0,0,0,0,0],"id":10,"left_children":[1,3,-1,-1,5,-1,7,9,11,-1,-1,-1,-1],"loss_changes":[5.926684E0,6.576669E0,0E0,0E0,8.001472E0,0E0,7.507857E0,6.2610865E0,6.122853E0,0E0,0E0,0E0,0E0],"parents":[2147483647,0,0,1,1,4,4,6,6,7,7,8,8],"right_children":[2,4,-1,-1,6,-1,8,10,12,-1,-1,-1,-1],"split_conditions":[1.269233E0,-1.238924E0,3.189334E-2,3.0049203E-2,-7.97713E-1,2.0088915E-2,1.9702E-2,2.26429E-1,-3.62738E-1,-4.5258816E-2,-2.6438802E-3,2.9960115E-2,-1.307541E-2],"split_indices":[6,6,0,0,13,0,5,10,1,0,0,0,0],"split_type":[0,0,0,0,0,0,0,0,0,0,0,0,0],"sum_hessian":[4.94E2,4.35E2,5.9E1,5.6E1,3.79E2,8.7E1,2.92E2,1.49E2,1.43E2,9.5E1,5.4E1,5E1,9.3E1],"tree_param":{"num_deleted":"0","num_feature":"30","num_nodes":"13","size_leaf_vector":"1"}},{"base_weights":[3.3071738E-2,2.0909771E-1,-3.3207983E-2,4.2282096E-3,3.6591973E-2,-1.0123163E-1,1.5987162E-2,-3.2197263E-2,-1.0820447E-2,7.678157E-2,-2.5151793E-2,2.569334E-2,-1.3728849E-2],"categories":[],"categories_nodes":[],"categories_segments":[],"categories_sizes":[],"default_left":[0,0,0,0,0,0,0,0,0,0,0,0,0],"id":11,"left_children":[1,3,5,-1,-1,7,-1,-1,9,11,-1,-1,-1],"loss_changes":[5.8870873E0,3.5946584E0,4.8363543E0,0E0,0E0,5.4249434E0,0E0,0E0,4.109915E0,5.550085E0,0E0,0E0,0E0],"parents":[2147483647,0,0,1,1,2,2,5,5,8,8,9,9],"right_children":[2,4,6,-1,-1,8,-1,-1,10,12,-1,-1,-1],"split_conditions":[-5.96726E-1,-5.4255E-2,6.62165E-1,4.2282096E-3,3.6591973E-2,1.64258E3,1.5987162E-2,-3.2197263E-2,4.24079E3,1.0776E-1,-2.5151793E-2,2.569334E-2,-1.3728849E-2],"split_indices":[11,23,6,0,0,0,0,0,0,13,0,0,0],"split_type":[0,0,0,0,0,0,0,0,0,0,0,0,0],"sum_hessian":[5.03E2,1.37E2,3.66E2,6.7E1,7E1,2.71E2,9.5E1,7.8E1,1.93E2,1.42E2,5.1E1,7.7E1,6.5E1],"tree_param":{"num_deleted":"0","num_feature":"30","num_nodes":"13","size_leaf_vector":"1"}},{"base_weights":[-1.8017663E-3,-2.2062916E-1,7.469893E-2,-1.8571792E-3,-4.5071967E-2,1.8273397E-1,-2.0959368E-2,3.2428093E-2,6.8433285E-3,2.5799384E-2,-1.3406098E-1,2.392672E-3,-3.885496E-2],"categories":[],"categories_nodes":[],"categories_segments":[],"categories_sizes":[],"default_left":[0,0,0,0,0,0,0,0,0,0,0,0,0],"id":12,"left_children":[1,3,5,-1,-1,7,9,-1,-1,-1,11,-1,-1],"loss_changes":[7.8844914E0,5.6635904E0,3.6105523E0,0E0,0E0,2.6311502E0,5.902899E0,0E0,0E0,0E0,5.3567038E0,0E0,0E0],"parents":[2147483647,0,0,1,1,2,2,5,5,6,6,10,10],"right_children":[2,4,6,-1,-1,8,10,-1,-1,-1,12,-1,-1],"split_conditions":[-7.17029E-1,-1.5685E-2,-1.0678E-2,-1.8571792E-3,-4.5071967E-2,-2.28538E-1,-5.50911E-1,3.2428093E-2,6.8433285E-3,2.5799384E-2,1.2222E-1,2.392672E-3,-3.885496E-2],"split_indices":[25,18,4,0,0,16,1,0,0,0,27,0,0],"split_type":[0,0,0,0,0,0,0,0,0,0,0,0,0],"sum_hessian":[4.69E2,1.21E2,3.48E2,6.5E1,5.6E1,1.63E2,1.85E2,7.2E1,9.1E1,5.3E1,1.32E2,8.2E1,5E1],"tree_param":{"num_deleted":"0","num_feature":"30","num_nodes":"13","size_leaf_vector":"1"}},{"base_weights":[5.2806508E-2,-2.0667296E-2,8.653082E-2,-1.25005115E-2,1.3212323E-1,2.035565E-1,-7.171375E-3,3.1033248E-1,9.047762E-2,1.8991072E-2,-2.105976E-2,2.0903317E-2,4.049926E-2,2.3878518E-2,-8.696982E-3],"categories":[],"categories_nodes":[],"categories_segments":[],"categories_sizes":[],"default_left":[0,0,0,0,0,0,0,0,0,0,0,0,0,0,0],"id":13,"left_children":[1,-1,3,-1,5,7,9,11,13,-1,-1,-1,-1,-1,-1],"loss_changes":[4.3320107E0,0E0,4.2311344E0,0E0,3.5835562E0,2.84556E0,4.9712696E0,1.0852013E0,3.0998323E0,0E0,0E0,0E0,0E0,0E0,0E0],"parents":[2147483647,0,0,2,2,4,4,5,5,6,6,7,7,8,8],"right_children":[2,-1,4,-1,6,8,10,12,14,-1,-1,-1,-1,-1,-1],"split_conditions":[-1.180036E0,-2.0667296E-2,-1.005146E0,-1.25005115E-2,5.9149E-1,-8.2484E-2,-1.70301E-1,-6.4609E-2,9.2404E-2,1.8991072E-2,-2.105976E-2,2.0903317E-2,4.049926E-2,2.3878518E-2,-8.696982E-3],"split_indices":[25,0,8,0,20,17,3,15,7,0,0,0,0,0,0],"split_type":[0,0,0,0,0,0,0,0,0,0,0,0,0,0,0],"sum_hessian":[4.92E2,5.6E1,4.36E2,7.7E1,3.59E2,2.37E2,1.22E2,1.21E2,1.16E2,6.2E1,6E1,6E1,6.1E1,6.3E1,5.3E1],"tree_param":{"num_deleted":"0","num_feature":"30","num_nodes":"15","size_leaf_vector":"1"}},{"base_weights":[1.07830325E-2,-2.5212968E-2,7.2657235E-2,-4.927035E-2,1.8612708E-1,1.143147E-2,-2.3109196E-2,-1.1275127E-2,2.9483837E-1,4.2921536E-2,1.75632E-2],"categories":[],"categories_nodes":[],"categories_segments":[],"categories_sizes":[],"default_left":[0,0,0,0,0,0,0,0,0,0,0],"id":14,"left_children":[1,-1,3,5,7,-1,-1,-1,9,-1,-1],"loss_changes":[7.59898E0,0E0,5.2388396E0,5.46944E0,6.401568E0,0E0,0E0,0E0,2.2312918E0,0E0,0E0],"parents":[2147483647,0,0,2,2,3,3,4,4,8,8],"right_children":[2,-1,4,6,8,-1,-1,-1,10,-1,-1],"split_conditions":[-8.74858E-1,-2.5212968E-2,-8.7356E-2,-3.225E-2,-7.29614E-1,1.143147E-2,-2.3109196E-2,-1.1275127E-2,1.67842E-1,4.2921536E-2,1.75632E-2],"split_indices":[19,0,26,16,24,0,0,0,10,0,0],"split_type":[0,0,0,0,0,0,0,0,0,0,0],"sum_hessian":[4.65E2,8.8E1,3.77E2,1.82E2,1.95E2,9.6E1,8.6E1,5.2E1,1.43E2,6.6E1,7.7E1],"tree_param":{"num_deleted":"0","num_feature":"30","num_nodes":"11","size_leaf_vector":"1"}},{"base_weights":[-3.4732137E-2,-3.158646E-2,1.3752303E-2,2.0694781E-2,-2.635288E-2,1.7098734E-2,-9.68386E-2,1.1183168E-2,-1.9532146E-1,-3.6046144E-3,-3.355747E-2],"categories":[],"categories_nodes":[],"categories_segments":[],"categories_sizes":[],"default_left":[0,0,0,0,0,0,0,0,0,0,0],"id":15,"left_children":[1,-1,3,-1,5,-1,7,-1,9,-1,-1],"loss_changes":[6.765096E0,0E0,3.2906651E0,0E0,4.912761E0,0E0,5.364959E0,0E0,3.941885E0,0E0,0E0],"parents":[2147483647,0,0,2,2,4,4,6,6,8,8],"right_children":[2,-1,4,-1,6,-1,8,-1,10,-1,-1],"split_conditions":[-1.078744E0,-3.158646E-2,-1.11682E0,2.0694781E-2,-6.796E-1,1.7098734E-2,-4.78523E-1,1.1183168E-2,-2.4178E-2,-3.6046144E-3,-3.355747E-2],"split_indices":[25,0,17,0,15,0,28,0,11,0,0],"split_type":[0,0,0,0,0,0,0,0,0,0,0],"sum_hessian":[4.95E2,7.2E1,4.23E2,7.2E1,3.51E2,9.2E1,2.59E2,8.3E1,1.76E2,8.3E1,9.3E1],"tree_param":{"num_deleted":"0","num_feature":"30","num_nodes":"11","size_leaf_vector":"1"}},{"base_weights":[1.7236387E-2,1.553966E-1,-4.8150323E-2,-2.8708735E-3,2.4424641E-1,1.3027503E-2,-1.0253867E-1,3.5703376E-2,1.371678E-2,-3.838305E-2,3.875148E-3,1.03576675E-1,-1.8331656E-2,-2.7885942E-3,2.271351E-2],"categories":[],"categories_nodes":[],"categories_segments":[],"categories_sizes":[],"default_left":[0,0,0,0,0,0,0,0,0,0,0,0,0,0,0],"id":16,"left_children":[1,3,5,-1,7,-1,9,-1,-1,-1,11,13,-1,-1,-1],"loss_changes":[4.415997E0,2.5751753E0,3.2351718E0,0E0,1.2312002E0,0E0,7.634489E0,0E0,0E0,0E0,3.4903607E0,1.988018E0,0E0,0E0,0E0],"parents":[2147483647,0,0,1,1,2,2,4,4,6,6,10,10,11,11],"right_children":[2,4,6,-1,8,-1,10,-1,-1,-1,12,14,-1,-1,-1],"split_conditions":[-5.25653E-1,-4.6108E-1,-6.94448E-1,-2.8708735E-3,4.199E-3,1.3027503E-2,-4.7648E-2,3.5703376E-2,1.371678E-2,-3.838305E-2,4.08592E-1,3.49217E-1,-1.8331656E-2,-2.7885942E-3,2.271351E-2],"split_indices":[4,18,20,0,6,0,20,0,0,0,18,4,0,0,0],"split_type":[0,0,0,0,0,0,0,0,0,0,0,0,0,0,0],"sum_hessian":[4.87E2,1.56E2,3.31E2,5.1E1,1.05E2,7.7E1,2.54E2,5E1,5.5E1,6.9E1,1.85E2,1.21E2,6.4E1,5.9E1,6.2E1],"tree_param":{"num_deleted":"0","num_feature":"30","num_nodes":"15","size_leaf_vector":"1"}},{"base_weights":[1.0997358E-2,-1.3984436E-1,1.10494964E-1,-3.7832078E-4,-3.9826117E-2,1.8379149E-1,-3.8622136E-4,-1.9768074E-2,1.4827937E-2,1.0063053E-1,3.2553606E-2,-1.2757718E-2,1.2896706E-2,2.235872E-2,-3.7851501E-3],"categories":[],"categories_nodes":[],"categories_segments":[],"categories_sizes":[],"default_left":[0,0,0,0,0,0,0,0,0,0,0,0,0,0,0],"id":17,"left_children":[1,3,5,7,-1,9,11,-1,-1,13,-1,-1,-1,-1,-1],"loss_changes":[7.3245378E0,6.991681E0,2.389469E0,3.7542882E0,0E0,2.0536494E0,1.9578562E0,0E0,0E0,1.9325466E0,0E0,0E0,0E0,0E0,0E0],"parents":[2147483647,0,0,1,1,2,2,3,3,5,5,6,6,9,9],"right_children":[2,4,6,8,-1,10,12,-1,-1,14,-1,-1,-1,-1,-1],"split_conditions":[-3.7752E-1,3.69061E-1,5.93641E-1,-5.15246E-1,-3.9826117E-2,4.31532E-1,6.015E-3,-1.9768074E-2,1.4827937E-2,1.4019E-2,3.2553606E-2,-1.2757718E-2,1.2896706E-2,2.235872E-2,-3.7851501E-3],"split_indices":[26,15,26,15,0,10,22,0,0,27,0,0,0,0,0],"split_type":[0,0,0,0,0,0,0,0,0,0,0,0,0,0,0],"sum_hessian":[4.86E2,1.93E2,2.93E2,1.26E2,6.7E1,1.76E2,1.17E2,5.4E1,7.2E1,1.12E2,6.4E1,5.9E1,5.8E1,5.9E1,5.3E1],"tree_param":{"num_deleted":"0","num_feature":"30","num_nodes":"15","size_leaf_vector":"1"}},{"base_weights":[-2.495891E-3,2.8750023E-2,-4.2860787E-2,-3.0378891E-2,3.4694236E-3,2.2447182E-2,-3.372612E-2,1.1914931E-2,-2.4052097E-2,1.297655E-1,-7.875874E-2,-2.0849046E-3,2.6315583E-2,1.0841534E-2,-2.4572575E-2],"categories":[],"categories_nodes":[],"categories_segments":[],"categories_sizes":[],"default_left":[0,0,0,0,0,0,0,0,0,0,0,0,0,0,0],"id":18,"left_children":[1,-1,3,-1,5,-1,7,9,-1,11,13,-1,-1,-1,-1],"loss_changes":[5.7480974E0,0E0,5.2113504E0,0E0,3.024422E0,0E0,2.9759412E0,2.7778795E0,0E0,2.2757154E0,4.620669E0,0E0,0E0,0E0,0E0],"parents":[2147483647,0,0,2,2,4,4,6,6,7,7,9,9,10,10],"right_children":[2,-1,4,-1,6,-1,8,10,-1,12,14,-1,-1,-1,-1],"split_conditions":[-1.012193E0,2.8750023E-2,-1.035102E0,-3.0378891E-2,-1.122656E0,2.2447182E-2,1.030316E0,-1.55829E-1,-2.4052097E-2,2.3576E-2,-4.4224E-2,-2.0849046E-3,2.6315583E-2,1.0841534E-2,-2.4572575E-2],"split_indices":[12,0,25,0,20,0,25,24,0,6,6,0,0,0,0],"split_type":[0,0,0,0,0,0,0,0,0,0,0,0,0,0,0],"sum_hessian":[4.89E2,5.9E1,4.3E2,6.4E1,3.66E2,5.2E1,3.14E2,2.58E2,5.6E1,1.12E2,1.46E2,5.3E1,5.9E1,6.9E1,7.7E1],"tree_param":{"num_deleted":"0","num_feature":"30","num_nodes":"15","size_leaf_vector":"1"}},{"base_weights":[-8.361933E-3,4.5236874E-2,-1.8316853E-1,-2.0051343E-2,2.3404984E-2,1.3546345E-3,-4.2467825E-2,-1.6447654E-1,8.621327E-2,-3.6944862E-2,1.0934461E-2,2.8226335E-2,-3.0370709E-2,-2.5178347E-2,1.9161507E-2],"categories":[],"categories_nodes":[],"categories_segments":[],"categories_sizes":[],"default_left":[0,0,0,0,0,0,0,0,0,0,0,0,0,0,0],"id":19,"left_children":[1,3,5,7,-1,-1,-1,9,11,-1,-1,-1,13,-1,-1],"loss_changes":[4.7117376E0,4.7506886E0,5.611762E0,4.418852E0,0E0,0E0,0E0,6.8877316E0,3.8027182E0,0E0,0E0,0E0,5.209046E0,0E0,0E0],"parents":[2147483647,0,0,1,1,2,2,3,3,7,7,8,8,12,12],"right_children":[2,4,6,8,-1,-1,-1,10,12,-1,-1,-1,14,-1,-1],"split_conditions":[6.84391E-1,6.96759E-1,1.6361E-1,-1.54466E-1,2.3404984E-2,1.3546345E-3,-4.2467825E-2,2.37084E-1,-3.40917E-1,-3.6944862E-2,1.0934461E-2,2.8226335E-2,1.88242E-1,-2.5178347E-2,1.9161507E-2],"split_indices":[27,4,24,1,0,0,0,13,3,0,0,0,18,0,0],"split_type":[0,0,0,0,0,0,0,0,0,0,0,0,0,0,0],"sum_hessian":[5.01E2,3.84E2,1.17E2,2.86E2,9.8E1,6.5E1,5.2E1,1.21E2,1.65E2,6.9E1,5.2E1,6.1E1,1.04E2,5.2E1,5.2E1],"tree_param":{"num_deleted":"0","num_feature":"30","num_nodes":"15","size_leaf_vector":"1"}},{"base_weights":[-2.228745E-2,-3.07915E-2,2.8089333E-2,1.3385549E-1,-9.97927E-2,-1.3799967E-2,2.1415234E-1,4.5108903E-2,-3.4551024E-2,3.404829E-2,1.0950385E-2,-1.3744523E-2,2.177835E-2],"categories":[],"categories_nodes":[],"categories_segments":[],"categories_sizes":[],"default_left":[0,0,0,0,0,0,0,0,0,0,0,0,0],"id":20,"left_children":[1,-1,3,5,7,-1,9,11,-1,-1,-1,-1,-1],"loss_changes":[6.8146453E0,0E0,5.4641714E0,4.853786E0,6.5312753E0,0E0,2.2233868E0,3.6865392E0,0E0,0E0,0E0,0E0,0E0],"parents":[2147483647,0,0,2,2,3,3,4,4,6,6,7,7],"right_children":[2,-1,4,6,8,-1,10,12,-1,-1,-1,-1,-1],"split_conditions":[-1.126029E0,-3.07915E-2,1.30893E-1,-7.1787E-1,3.14579E-1,-1.3799967E-2,2.84561E-1,-1.21886E-1,-3.4551024E-2,3.404829E-2,1.0950385E-2,-1.3744523E-2,2.177835E-2],"split_indices":[15,0,3,14,5,0,14,25,0,0,0,0,0],"split_type":[0,0,0,0,0,0,0,0,0,0,0,0,0],"sum_hessian":[4.72E2,7E1,4.02E2,2.2E2,1.82E2,5E1,1.7E2,1.15E2,6.7E1,7.6E1,9.4E1,5.6E1,5.9E1],"tree_param":{"num_deleted":"0","num_feature":"30","num_nodes":"13","size_leaf_vector":"1"}},{"base_weights":[-3.949379E-2,-1.0017192E-1,1.2359116E-1,7.226565E-2,-2.730371E-1,2.3852086E-2,-1.9718825E-3,-1.50910495E-2,2.0843719E-1,-6.685138E-2,-9.6445374E-2,3.36041E-2,8.850448E-3,9.217229E-3,-3.1417422E-2],"categories":[],"categories_nodes":[],"categories_segments":[],"categories_sizes":[],"default_left":[0,0,0,0,0,0,0,0,0,0,0,0,0,0,0],"id":21,"left_children":[1,3,5,7,9,-1,-1,-1,11,-1,13,-1,-1,-1,-1],"loss_changes":[4.5940847E0,1.009499E1,2.0799956E0,5.1977963E0,1.17381315E1,0E0,0E0,0E0,1.5924697E0,0E0,4.8749237E0,0E0,0E0,0E0,0E0],"parents":[2147483647,0,0,1,1,2,2,3,3,4,4,8,8,10,10],"right_children":[2,4,6,8,10,-1,-1,-1,12,-1,14,-1,-1,-1,-1],"split_conditions":[6.3697E-1,-5.6112E-2,1.099327E0,-2.57391E-1,4.11869E-1,2.3852086E-2,-1.9718825E-3,-1.50910495E-2,-3.981E-3,-6.685138E-2,-2.4278E-2,3.36041E-2,8.850448E-3,9.217229E-3,-3.1417422E-2],"split_indices":[14,22,14,12,22,0,0,0,4,0,27,0,0,0,0],"split_type":[0,0,0,0,0,0,0,0,0,0,0,0,0,0,0],"sum_hessian":[4.62E2,3.37E2,1.25E2,1.69E2,1.68E2,6.9E1,5.6E1,6.4E1,1.05E2,5.1E1,1.17E2,5E1,5.5E1,6.3E1,5.4E1],"tree_param":{"num_deleted":"0","num_feature":"30","num_nodes":"15","size_leaf_vector":"1"}},{"base_weights":[-1.54474825E-2,-2.5429386E-1,5.239028E-2,-5.3366322E-2,5.5961584E-5,-2.0659933E-2,1.0289946E-1,-4.245795E-2,2.1494614E-1,1.6308917E-2,-2.4170574E-2,7.4407207E-3,3.320201E-2],"categories":[],"categories_nodes":[],"categories_segments":[],"categories_sizes":[],"default_left":[0,0,0,0,0,0,0,0,0,0,0,0,0],"id":22,"left_children":[1,3,5,-1,-1,-1,7,9,11,-1,-1,-1,-1],"loss_changes":[7.985102E0,7.760909E0,5.044498E0,0E0,0E0,0E0,5.25348E0,5.8140473E0,2.9698238E0,0E0,0E0,0E0,0E0],"parents":[2147483647,0,0,1,1,2,2,6,6,7,7,8,8],"right_children":[2,4,6,-1,-1,-1,8,10,12,-1,-1,-1,-1],"split_conditions":[-8.05529E-1,5.3322E-2,-1.005146E0,-5.3366322E-2,5.5961584E-5,-2.0659933E-2,-2.32035E-1,5.4837E-2,-1.39041E-1,1.6308917E-2,-2.4170574E-2,7.4407207E-3,3.320201E-2],"split_indices":[19,4,8,0,0,0,28,9,22,0,0,0,0],"split_type":[0,0,0,0,0,0,0,0,0,0,0,0,0],"sum_hessian":[4.91E2,1.08E2,3.83E2,5.1E1,5.7E1,6.2E1,3.21E2,1.4E2,1.81E2,6.9E1,7.1E1,8.3E1,9.8E1],"tree_param":{"num_deleted":"0","num_feature":"30","num_nodes":"13","size_leaf_vector":"1"}},{"base_weights":[-2.3599844E-2,-3.6249373E-2,3.6686037E-2,-3.1458233E-2,1.6046403E-1,1.6162151E-2,-1.2729867E-1,2.8618023E-2,3.4290643E-3,-4.041429E-2,-2.018322E-2,1.26642035E-2,-2.1222694E-2],"categories":[],"categories_nodes":[],"categories_segments":[],"categories_sizes":[],"default_left":[0,0,0,0,0,0,0,0,0,0,0,0,0],"id":23,"left_children":[1,-1,3,5,7,-1,9,-1,-1,-1,11,-1,-1],"loss_changes":[1.0146833E1,0E0,3.564517E0,5.072397E0,2.3694923E0,0E0,5.418578E0,0E0,0E0,0E0,3.7770603E0,0E0,0E0],"parents":[2147483647,0,0,2,2,3,3,4,4,6,6,10,10],"right_children":[2,-1,4,6,8,-1,10,-1,-1,-1,12,-1,-1],"split_conditions":[-1.06402E0,-3.6249373E-2,5.09141E-1,-2.1116E-1,-9.5323E-2,1.6162151E-2,-6.30975E-1,2.8618023E-2,3.4290643E-3,-4.041429E-2,4.38488E-1,1.26642035E-2,-2.1222694E-2],"split_indices":[25,0,6,25,11,0,26,0,0,0,26,0,0],"split_type":[0,0,0,0,0,0,0,0,0,0,0,0,0],"sum_hessian":[4.95E2,7.4E1,4.21E2,2.72E2,1.49E2,9E1,1.82E2,7.4E1,7.5E1,5E1,1.32E2,7.5E1,5.7E1],"tree_param":{"num_deleted":"0","num_feature":"30","num_nodes":"13","size_leaf_vector":"1"}},{"base_weights":[-1.5720878E-2,-8.2065E-2,1.7169462E-1,-3.3089425E-2,-2.0212116E-2,3.1911504E-2,4.0775496E-3,1.9189285E-2,-1.0276845E-1,-2.0880964E-1,9.113224E-3,-4.8967652E-2,-3.3289262E-3],"categories":[],"categories_nodes":[],"categories_segments":[],"categories_sizes":[],"default_left":[0,0,0,0,0,0,0,0,0,0,0,0,0],"id":24,"left_children":[1,3,5,-1,7,-1,-1,-1,9,11,-1,-1,-1],"loss_changes":[6.1813135E0,5.6417384E0,2.4960072E0,0E0,5.1853504E0,0E0,0E0,0E0,4.3986197E0,6.7868032E0,0E0,0E0,0E0],"parents":[2147483647,0,0,1,1,2,2,4,4,8,8,9,9],"right_children":[2,4,6,-1,8,-1,-1,-1,10,12,-1,-1,-1],"split_conditions":[6.3862E-1,-8.26117E-1,-2.05501E-1,-3.3089425E-2,-1.72582E-1,3.1911504E-2,4.0775496E-3,1.9189285E-2,2.10391E-1,2.0169E3,9.113224E-3,-4.8967652E-2,-3.3289262E-3],"split_indices":[6,9,7,0,9,0,0,0,19,0,0,0,0],"split_type":[0,0,0,0,0,0,0,0,0,0,0,0,0],"sum_hessian":[4.95E2,3.66E2,1.29E2,7.2E1,2.94E2,6E1,6.9E1,8.2E1,2.12E2,1.37E2,7.5E1,5.2E1,8.5E1],"tree_param":{"num_deleted":"0","num_feature":"30","num_nodes":"13","size_leaf_vector":"1"}},{"base_weights":[9.240605E-3,-1.5607035E-1,1.0351451E-1,2.5633518E-2,-3.4507743E-1,1.7558938E-1,-2.126427E-2,-6.1459392E-2,-1.2750267E-2,5.9013955E-2,3.3029474E-2,1.8737324E-2,-2.185478E-2,-5.8882143E-3,1.7164566E-2],"categories":[],"categories_nodes":[],"categories_segments":[],"categories_sizes":[],"default_left":[0,0,0,0,0,0,0,0,0,0,0,0,0,0,0],"id":25,"left_children":[1,3,5,-1,7,9,11,-1,-1,13,-1,-1,-1,-1,-1],"loss_changes":[7.2941213E0,1.33395405E1,2.6837711E0,0E0,6.7825165E0,3.3890924E0,4.568632E0,0E0,0E0,1.4575003E0,0E0,0E0,0E0,0E0,0E0],"parents":[2147483647,0,0,1,1,2,2,4,4,5,5,6,6,9,9],"right_children":[2,4,6,-1,8,10,12,-1,-1,14,-1,-1,-1,-1,-1],"split_conditions":[-3.0155E-1,-4.19753E-1,4.24264E-1,2.5633518E-2,2.53469E3,6.54631E-1,-3.4167E-2,-6.1459392E-2,-1.2750267E-2,7.457E-2,3.3029474E-2,1.8737324E-2,-2.185478E-2,-5.8882143E-3,1.7164566E-2],"split_indices":[21,13,9,0,0,21,11,0,0,25,0,0,0,0,0],"split_type":[0,0,0,0,0,0,0,0,0,0,0,0,0,0,0],"sum_hessian":[4.66E2,1.69E2,2.97E2,5.3E1,1.16E2,1.88E2,1.09E2,5.1E1,6.5E1,1.08E2,8E1,5.3E1,5.6E1,5.3E1,5.5E1],"tree_param":{"num_deleted":"0","num_feature":"30","num_nodes":"15","size_leaf_vector":"1"}},{"base_weights":[-8.4535E-3,3.745324E-2,-2.9187083E-2,-8.442553E-3,2.3879688E-2,-2.1454168E-2,6.2436998E-2,-2.1380013E-2,1.6348979E-1,2.355314E-1,-2.9456208E-3,3.7369475E-2,1.5183185E-2],"categories":[],"categories_nodes":[],"categories_segments":[],"categories_sizes":[],"default_left":[0,0,0,0,0,0,0,0,0,0,0,0,0],"id":26,"left_children":[1,3,-1,5,-1,-1,7,-1,9,11,-1,-1,-1],"loss_changes":[6.3471737E0,3.8831632E0,0E0,5.0240126E0,0E0,0E0,7.181074E0,0E0,2.6201644E0,1.5275583E0,0E0,0E0,0E0],"parents":[2147483647,0,0,1,1,3,3,6,6,8,8,9,9],"right_children":[2,4,-1,6,-1,-1,8,-1,10,12,-1,-1,-1],"split_conditions":[1.152434E0,6.57334E-1,-2.9187083E-2,-5.73194E-1,2.3879688E-2,-2.1454168E-2,-6.13249E-1,-2.1380013E-2,4.03899E-1,-5.77395E-1,-2.9456208E-3,3.7369475E-2,1.5183185E-2],"split_indices":[23,23,0,22,0,0,26,0,17,23,0,0,0],"split_type":[0,0,0,0,0,0,0,0,0,0,0,0,0],"sum_hessian":[4.86E2,4.19E2,6.7E1,3.42E2,7.7E1,8.7E1,2.55E2,6.8E1,1.87E2,1.36E2,5.1E1,5E1,8.6E1],"tree_param":{"num_deleted":"0","num_feature":"30","num_nodes":"13","size_leaf_vector":"1"}},{"base_weights":[3.5971332E-2,-1.4842483E-1,9.395749E-2,-4.4889826E-2,1.895729E-2,2.7678674E-2,4.233763E-2,-1.5182649E-2,1.0434003E-1,2.0058723E-1,-8.552006E-3,3.0939788E-2,1.037701E-2],"categories":[],"categories_nodes":[],"categories_segments":[],"categories_sizes":[],"default_left":[0,0,0,0,0,0,0,0,0,0,0,0,0],"id":27,"left_children":[1,3,5,-1,-1,-1,7,-1,9,11,-1,-1,-1],"loss_changes":[4.868307E0,1.1155066E1,3.2536986E0,0E0,0E0,0E0,3.2783132E0,0E0,3.7814958E0,1.4111524E0,0E0,0E0,0E0],"parents":[2147483647,0,0,1,1,2,2,6,6,8,8,9,9],"right_children":[2,4,6,-1,-1,-1,8,-1,10,12,-1,-1,-1],"split_conditions":[-7.44537E-1,1.17166E-1,-7.47602E-1,-4.4889826E-2,1.895729E-2,2.7678674E-2,-6.13249E-1,-1.5182649E-2,6.54896E-1,-1.4392E-1,-8.552006E-3,3.0939788E-2,1.037701E-2],"split_indices":[25,14,8,0,0,0,26,0,26,9,0,0,0],"split_type":[0,0,0,0,0,0,0,0,0,0,0,0,0],"sum_hessian":[4.53E2,1.08E2,3.45E2,5.7E1,5.1E1,7.5E1,2.7E2,6.5E1,2.05E2,1.36E2,6.9E1,6.3E1,7.3E1],"tree_param":{"num_deleted":"0","num_feature":"30","num_nodes":"13","size_leaf_vector":"1"}},{"base_weights":[1.0237914E-2,-6.909162E-2,1.7860721E-1,-2.2517689E-1,6.766413E-2,3.4605313E-2,-2.9600754E-3,-2.766775E-3,-5.4787066E-2,2.2898361E-1,-1.8652435E-2,1.360738E-2,3.192253E-2],"categories":[],"categories_nodes":[],"categories_segments":[],"categories_sizes":[],"default_left":[0,0,0,0,0,0,0,0,0,0,0,0,0],"id":28,"left_children":[1,3,5,7,9,-1,-1,-1,-1,11,-1,-1,-1],"loss_changes":[6.0896196E0,6.632359E0,5.1003256E0,9.22641E0,6.8496327E0,0E0,0E0,0E0,0E0,8.1176424E-1,0E0,0E0,0E0],"parents":[2147483647,0,0,1,1,2,2,3,3,4,4,9,9],"right_children":[2,4,6,8,10,-1,-1,-1,-1,12,-1,-1,-1],"split_conditions":[4.83056E-1,-8.0552E-2,3.0641E-1,-5.50911E-1,2.30495E-1,3.4605313E-2,-2.9600754E-3,-2.766775E-3,-5.4787066E-2,8.871E-2,-1.8652435E-2,1.360738E-2,3.192253E-2],"split_indices":[11,1,1,1,5,0,0,0,0,10,0,0,0],"split_type":[0,0,0,0,0,0,0,0,0,0,0,0,0],"sum_hessian":[4.54E2,3.09E2,1.45E2,1.44E2,1.65E2,8E1,6.5E1,9E1,5.4E1,1.01E2,6.4E1,5.1E1,5E1],"tree_param":{"num_deleted":"0","num_feature":"30","num_nodes":"13","size_leaf_vector":"1"}},{"base_weights":[-2.4476284E-2,-2.434063E-2,2.238216E-2,1.2955941E-1,-1.1350004E-1,-1.0175621E-2,2.391581E-1,7.1767503E-3,-3.4329098E-2,1.3500405E-2,4.208768E-2,-1.3927706E-2,1.309888E-2],"categories":[],"categories_nodes":[],"categories_segments":[],"categories_sizes":[],"default_left":[0,0,0,0,0,0,0,0,0,0,0,0,0],"id":29,"left_children":[1,-1,3,5,7,-1,9,11,-1,-1,-1,-1,-1],"loss_changes":[5.062997E0,0E0,5.942042E0,5.8045654E0,4.993942E0,0E0,2.8768253E0,2.1760402E0,0E0,0E0,0E0,0E0,0E0],"parents":[2147483647,0,0,2,2,3,3,4,4,6,6,7,7],"right_children":[2,-1,4,6,8,-1,10,12,-1,-1,-1,-1,-1],"split_conditions":[-8.396E-1,-2.434063E-2,1.56757E-1,-4.51588E-1,5.29011E-1,-1.0175621E-2,2.57683E-1,-2.84134E-1,-3.4329098E-2,1.3500405E-2,4.208768E-2,-1.3927706E-2,1.309888E-2],"split_indices":[14,0,16,22,25,0,28,22,0,0,0,0,0],"split_type":[0,0,0,0,0,0,0,0,0,0,0,0,0],"sum_hessian":[4.92E2,8.6E1,4.06E2,2.27E2,1.79E2,7.3E1,1.54E2,1.18E2,6.1E1,9.9E1,5.5E1,5.4E1,6.4E1],"tree_param":{"num_deleted":"0","num_feature":"30","num_nodes":"13","size_leaf_vector":"1"}},{"base_weights":[-6.5626734E-4,-7.411476E-2,1.22741185E-1,1.0052547E-2,-1.5847431E-1,3.2194924E-2,4.2410307E-2,5.0849696E-3,-2.8249124E-1,1.9306365E-2,-9.335828E-3,-4.8641484E-2,-3.1506047E-3],"categories":[],"categories_nodes":[],"categories_segments":[],"categories_sizes":[],"default_left":[0,0,0,0,0,0,0,0,0,0,0,0,0],"id":30,"left_children":[1,3,5,-1,7,-1,9,-1,11,-1,-1,-1,-1],"loss_changes":[4.323842E0,4.4209695E0,2.8348014E0,0E0,5.2582273E0,0E0,2.636135E0,0E0,6.484765E0,0E0,0E0,0E0,0E0],"parents":[2147483647,0,0,1,1,2,2,4,4,6,6,8,8],"right_children":[2,4,6,-1,8,-1,10,-1,12,-1,-1,-1,-1],"split_conditions":[2.05374E-1,-4.71636E-1,-7.08194E-1,1.0052547E-2,-3.77432E-1,3.2194924E-2,-8.5611E-2,5.0849696E-3,3.17736E-1,1.9306365E-2,-9.335828E-3,-4.8641484E-2,-3.1506047E-3],"split_indices":[17,28,15,0,8,0,24,0,28,0,0,0,0],"split_type":[0,0,0,0,0,0,0,0,0,0,0,0,0],"sum_hessian":[4.75E2,2.98E2,1.77E2,9.7E1,2.01E2,5E1,1.27E2,7.5E1,1.26E2,6E1,6.7E1,6.9E1,5.7E1],"tree_param":{"num_deleted":"0","num_feature":"30","num_nodes":"13","size_leaf_vector":"1"}},{"base_weights":[1.905701E-2,1.7868225E-1,-3.5919033E-2,1.0273367E-3,2.9009238E-2,1.5750274E-2,-8.860785E-2,4.5816783E-2,-2.1191023E-1,-1.9974774E-2,2.0995045E-2,-7.5854175E-4,-4.6054356E-2],"categories":[],"categories_nodes":[],"categories_segments":[],"categories_sizes":[],"default_left":[0,0,0,0,0,0,0,0,0,0,0,0,0],"id":31,"left_children":[1,3,5,-1,-1,-1,7,9,11,-1,-1,-1,-1],"loss_changes":[4.3854246E0,2.3986144E0,3.8050687E0,0E0,0E0,0E0,4.866149E0,5.7249994E0,7.769206E0,0E0,0E0,0E0,0E0],"parents":[2147483647,0,0,1,1,2,2,6,6,7,7,8,8],"right_children":[2,4,6,-1,-1,-1,8,10,12,-1,-1,-1,-1],"split_conditions":[-6.08079E-1,-1.260911E0,-7.94778E-1,1.0273367E-3,2.9009238E-2,1.5750274E-2,6.6766E-2,-2.16428E-1,1.81765E-1,-1.9974774E-2,2.0995045E-2,-7.5854175E-4,-4.6054356E-2],"split_indices":[11,11,20,0,0,0,9,2,2,0,0,0,0],"split_type":[0,0,0,0,0,0,0,0,0,0,0,0,0],"sum_hessian":[4.98E2,1.27E2,3.71E2,5.1E1,7.6E1,7.9E1,2.92E2,1.4E2,1.52E2,5.6E1,8.4E1,8.4E1,6.8E1],"tree_param":{"num_deleted":"0","num_feature":"30","num_nodes":"13","size_leaf_vector":"1"}},{"base_weights":[1.9255674E-2,6.3743554E-2,-2.7643034E-2,1.554556E-1,-7.197632E-2,-1.998007E-3,2.4716088E-1,-2.5707034E-2,1.25585785E-2,3.866066E-2,1.0462568E-2],"categories":[],"categories_nodes":[],"categories_segments":[],"categories_sizes":[],"default_left":[0,0,0,0,0,0,0,0,0,0,0],"id":32,"left_children":[1,3,-1,5,7,-1,9,-1,-1,-1,-1],"loss_changes":[6.134437E0,5.0522833E0,0E0,3.8983269E0,6.0293646E0,0E0,3.1198225E0,0E0,0E0,0E0,0E0],"parents":[2147483647,0,0,1,1,3,3,4,4,6,6],"right_children":[2,4,-1,6,8,-1,10,-1,-1,-1,-1],"split_conditions":[1.194232E0,2.36223E-1,-2.7643034E-2,-4.40276E-1,2.2313E-2,-1.998007E-3,7.594E-3,-2.5707034E-2,1.25585785E-2,3.866066E-2,1.0462568E-2],"split_indices":[5,26,0,6,22,0,4,0,0,0,0],"split_type":[0,0,0,0,0,0,0,0,0,0,0],"sum_hessian":[4.64E2,4.04E2,6E1,2.41E2,1.63E2,8.3E1,1.58E2,8.4E1,7.9E1,7.9E1,7.9E1],"tree_param":{"num_deleted":"0","num_feature":"30","num_nodes":"11","size_leaf_vector":"1"}},{"base_weights":[4.2461148E-3,5.5616308E-2,-3.1649277E-2,9.885876E-4,2.0746228E-1,1.1227734E-1,-1.0531277E-1,3.749081E-2,3.6244416E-3,-2.3227445E-4,2.7764011E-2,2.3234095E-3,-2.7641583E-2],"categories":[],"categories_nodes":[],"categories_segments":[],"categories_sizes":[],"default_left":[0,0,0,0,0,0,0,0,0,0,0,0,0],"id":33,"left_children":[1,3,-1,5,7,9,11,-1,-1,-1,-1,-1,-1],"loss_changes":[7.876853E0,3.4173343E0,0E0,3.6081884E0,3.1114106E0,2.8242824E0,3.437605E0,0E0,0E0,0E0,0E0,0E0,0E0],"parents":[2147483647,0,0,1,1,3,3,4,4,5,5,6,6],"right_children":[2,4,-1,6,8,10,12,-1,-1,-1,-1,-1,-1],"split_conditions":[1.109772E0,6.63695E-1,-3.1649277E-2,-5.622E-2,1.67848E-1,-6.56782E-1,1.72047E-1,3.749081E-2,3.6244416E-3,-2.3227445E-4,2.7764011E-2,2.3234095E-3,-2.7641583E-2],"split_indices":[23,21,0,13,19,13,16,0,0,0,0,0,0],"split_type":[0,0,0,0,0,0,0,0,0,0,0,0,0],"sum_hessian":[4.76E2,4.11E2,6.5E1,3.03E2,1.08E2,1.48E2,1.55E2,5.4E1,5.4E1,8.8E1,6E1,8.9E1,6.6E1],"tree_param":{"num_deleted":"0","num_feature":"30","num_nodes":"13","size_leaf_vector":"1"}},{"base_weights":[-9.303175E-3,1.9382102E-2,-3.8782395E-2,-9.632278E-2,9.9348865E-2,-8.559135E-3,-2.412131E-1,-8.780787E-3,2.3130504E-2,1.8259458E-2,-1.3648744E-1,-5.739195E-3,-4.522107E-2,-2.8063947E-2,-1.1366239E-3],"categories":[],"categories_nodes":[],"categories_segments":[],"categories_sizes":[],"default_left":[0,0,0,0,0,0,0,0,0,0,0,0,0,0,0],"id":34,"left_children":[1,-1,3,5,7,9,11,-1,-1,-1,13,-1,-1,-1,-1],"loss_changes":[2.8817296E0,0E0,3.3477824E0,3.774618E0,3.082675E0,4.5733604E0,4.3180594E0,0E0,0E0,0E0,2.0168955E0,0E0,0E0,0E0,0E0],"parents":[2147483647,0,0,2,2,3,3,4,4,5,5,6,6,10,10],"right_children":[2,-1,4,6,8,10,12,-1,-1,-1,14,-1,-1,-1,-1],"split_conditions":[-1.167567E0,1.9382102E-2,6.63695E-1,3.69061E-1,-1.8167E-1,-6.9977E-2,6.9702E-2,-8.780787E-3,2.3130504E-2,1.8259458E-2,-1.09772E-1,-5.739195E-3,-4.522107E-2,-2.8063947E-2,-1.1366239E-3],"split_indices":[13,0,21,15,8,13,2,0,0,0,20,0,0,0,0],"split_type":[0,0,0,0,0,0,0,0,0,0,0,0,0,0,0],"sum_hessian":[4.79E2,6E1,4.19E2,2.96E2,1.23E2,1.85E2,1.11E2,5.1E1,7.2E1,7.4E1,1.11E2,6E1,5.1E1,5.1E1,6E1],"tree_param":{"num_deleted":"0","num_feature":"30","num_nodes":"15","size_leaf_vector":"1"}},{"base_weights":[2.260131E-2,-2.2224208E-2,5.744217E-2,1.6277976E-1,-5.648086E-2,2.6496926E-1,-3.6957022E-3,5.8926433E-2,-2.4218392E-2,3.779661E-2,1.3145869E-2,-1.3478512E-2,2.0608213E-2],"categories":[],"categories_nodes":[],"categories_segments":[],"categories_sizes":[],"default_left":[0,0,0,0,0,0,0,0,0,0,0,0,0],"id":35,"left_children":[1,-1,3,5,7,9,-1,11,-1,-1,-1,-1,-1],"loss_changes":[4.1074324E0,0E0,5.0613527E0,4.4798026E0,4.3648624E0,2.1378222E0,0E0,3.619502E0,0E0,0E0,0E0,0E0,0E0],"parents":[2147483647,0,0,2,2,3,3,4,4,5,5,7,7],"right_children":[2,-1,4,6,8,10,-1,12,-1,-1,-1,-1,-1],"split_conditions":[-1.29266E0,-2.2224208E-2,9.4525E-2,2.88142E-1,1.38217E-1,6.4514E-2,-3.6957022E-3,-4.02308E-1,-2.4218392E-2,3.779661E-2,1.3145869E-2,-1.3478512E-2,2.0608213E-2],"split_indices":[28,0,13,15,3,16,0,15,0,0,0,0,0],"split_type":[0,0,0,0,0,0,0,0,0,0,0,0,0],"sum_hessian":[4.79E2,5.9E1,4.2E2,2.18E2,2.02E2,1.44E2,7.4E1,1.25E2,7.7E1,7.7E1,6.7E1,5.4E1,7.1E1],"tree_param":{"num_deleted":"0","num_feature":"30","num_nodes":"13","size_leaf_vector":"1"}},{"base_weights":[-1.3668606E-2,4.531678E-2,-1.909993E-1,8.6166896E-2,-1.9078879E-2,2.5944721E-3,-4.194141E-2,1.4026743E-1,-1.6819682E-2,2.7625322E-2,5.4714832E-2,-2.0631077E-2,2.0579591E-2,9.590796E-3,-1.3678806E-2],"categories":[],"categories_nodes":[],"categories_segments":[],"categories_sizes":[],"default_left":[0,0,0,0,0,0,0,0,0,0,0,0,0,0,0],"id":36,"left_children":[1,3,5,7,-1,-1,-1,9,-1,-1,11,13,-1,-1,-1],"loss_changes":[5.0712566E0,3.5271974E0,6.0068207E0,4.3033295E0,0E0,0E0,0E0,2.9748068E0,0E0,0E0,1.8141971E0,1.461559E0,0E0,0E0,0E0],"parents":[2147483647,0,0,1,1,2,2,3,3,7,7,10,10,11,11],"right_children":[2,4,6,8,-1,-1,-1,10,-1,-1,12,14,-1,-1,-1],"split_conditions":[6.70328E-1,1.198714E0,-9.2121E-2,1.082951E0,-1.9078879E-2,2.5944721E-3,-4.194141E-2,-4.85201E-1,-1.6819682E-2,2.7625322E-2,7.0215E-1,-6.25E-3,2.0579591E-2,9.590796E-3,-1.3678806E-2],"split_indices":[24,18,18,25,0,0,0,17,0,0,17,16,0,0,0],"split_type":[0,0,0,0,0,0,0,0,0,0,0,0,0,0,0],"sum_hessian":[4.83E2,3.63E2,1.2E2,3.1E2,5.3E1,6.2E1,5.8E1,2.56E2,5.4E1,9.8E1,1.58E2,1.06E2,5.2E1,5.3E1,5.3E1],"tree_param":{"num_deleted":"0","num_feature":"30","num_nodes":"15","size_leaf_vector":"1"}},{"base_weights":[1.5391411E-2,-3.136696E-2,2.4044221E-2,-2.6983768E-2,1.7292328E-2,2.1097807E-2,-4.0728968E-2,7.7179454E-2,-1.5378915E-1,1.8218296E-2,-6.4254464E-3,-6.1771966E-4,-2.72613E-2],"categories":[],"categories_nodes":[],"categories_segments":[],"categories_sizes":[],"default_left":[0,0,0,0,0,0,0,0,0,0,0,0,0],"id":37,"left_children":[1,3,-1,-1,5,-1,7,9,11,-1,-1,-1,-1],"loss_changes":[5.016494E0,4.588173E0,0E0,0E0,3.7058613E0,0E0,3.3978791E0,1.8680884E0,2.2784925E0,0E0,0E0,0E0,0E0],"parents":[2147483647,0,0,1,1,4,4,6,6,7,7,8,8],"right_children":[2,4,-1,-1,6,-1,8,10,12,-1,-1,-1,-1],"split_conditions":[1.032858E0,-8.69522E-1,2.4044221E-2,-2.6983768E-2,-8.33485E-1,2.1097807E-2,-8.1128E-2,3.30617E-1,8.253E-3,1.8218296E-2,-6.4254464E-3,-6.1771966E-4,-2.72613E-2],"split_indices":[6,14,0,0,6,0,24,8,21,0,0,0,0],"split_type":[0,0,0,0,0,0,0,0,0,0,0,0,0],"sum_hessian":[4.75E2,3.94E2,8.1E1,6.6E1,3.28E2,7.5E1,2.53E2,1.24E2,1.29E2,7.1E1,5.3E1,5.8E1,7.1E1],"tree_param":{"num_deleted":"0","num_feature":"30","num_nodes":"13","size_leaf_vector":"1"}},{"base_weights":[2.4294633E-2,-4.9630124E-2,1.5543517E-1,7.785768E-2,-2.3294224E-1,-5.038368E-3,2.4118432E-1,1.6762626E-1,-1.5151367E-2,-2.1062202E-3,-5.189826E-2,3.506235E-2,1.2785509E-2,1.0776996E-3,2.830576E-2],"categories":[],"categories_nodes":[],"categories_segments":[],"categories_sizes":[],"default_left":[0,0,0,0,0,0,0,0,0,0,0,0,0,0,0],"id":38,"left_children":[1,3,5,7,9,-1,11,13,-1,-1,-1,-1,-1,-1,-1],"loss_changes":[4.680479E0,7.239485E0,3.0830417E0,3.79343E0,7.686062E0,0E0,1.4806981E0,2.3868523E0,0E0,0E0,0E0,0E0,0E0,0E0,0E0],"parents":[2147483647,0,0,1,1,2,2,3,3,4,4,6,6,7,7],"right_children":[2,4,6,8,10,-1,12,14,-1,-1,-1,-1,-1,-1,-1],"split_conditions":[3.72352E-1,1.31007E-1,-3.62738E-1,5.04781E-1,4.4671E-2,-5.038368E-3,9.97148E-1,-2.1239E-2,-1.5151367E-2,-2.1062202E-3,-5.189826E-2,3.506235E-2,1.2785509E-2,1.0776996E-3,2.830576E-2],"split_indices":[10,15,1,7,24,0,10,12,0,0,0,0,0,0,0],"split_type":[0,0,0,0,0,0,0,0,0,0,0,0,0,0,0],"sum_hessian":[4.81E2,3.08E2,1.73E2,1.82E2,1.26E2,5.1E1,1.22E2,1.31E2,5.1E1,7.3E1,5.3E1,6.1E1,6.1E1,5.6E1,7.5E1],"tree_param":{"num_deleted":"0","num_feature":"30","num_nodes":"15","size_leaf_vector":"1"}},{"base_weights":[2.3019224E-2,-1.9162633E-2,2.2833059E-2,-9.9835254E-2,9.732007E-2,-2.4555314E-2,-1.2510476E-2,2.4769705E-2,9.739484E-3,-1.650587E-2,1.3454226E-2,1.8413376E-2,-1.4156453E-2],"categories":[],"categories_nodes":[],"categories_segments":[],"categories_sizes":[],"default_left":[0,0,0,0,0,0,0,0,0,0,0,0,0],"id":39,"left_children":[1,3,-1,5,7,-1,9,-1,11,-1,-1,-1,-1],"loss_changes":[4.421187E0,3.9940295E0,0E0,3.1908479E0,2.2891855E0,0E0,3.5665631E0,0E0,2.9549742E0,0E0,0E0,0E0,0E0],"parents":[2147483647,0,0,1,1,3,3,4,4,6,6,8,8],"right_children":[2,4,-1,6,8,-1,10,-1,12,-1,-1,-1,-1],"split_conditions":[9.48883E-1,1.85123E-1,2.2833059E-2,-2.71159E-1,6.35532E-1,-2.4555314E-2,-2.21806E-1,2.4769705E-2,-1.33404E-1,-1.650587E-2,1.3454226E-2,1.8413376E-2,-1.4156453E-2],"split_indices":[26,11,0,21,11,0,17,0,24,0,0,0,0],"split_type":[0,0,0,0,0,0,0,0,0,0,0,0,0],"sum_hessian":[5.09E2,4.23E2,8.6E1,2.5E2,1.73E2,9.3E1,1.57E2,6.3E1,1.1E2,7.7E1,8E1,5.1E1,5.9E1],"tree_param":{"num_deleted":"0","num_feature":"30","num_nodes":"13","size_leaf_vector":"1"}},{"base_weights":[-2.1253763E-2,-8.658853E-2,1.1336081E-1,-1.9269727E-1,8.539884E-2,2.0312085E-3,2.410207E-2,-5.2660134E-2,-7.954229E-2,-1.35429595E-2,2.168912E-2,-2.2394288E-2,1.1756627E-2],"categories":[],"categories_nodes":[],"categories_segments":[],"categories_sizes":[],"default_left":[0,0,0,0,0,0,0,0,0,0,0,0,0],"id":40,"left_children":[1,3,5,7,9,-1,-1,-1,11,-1,-1,-1,-1],"loss_changes":[4.6008115E0,6.4402323E0,2.026343E0,8.194787E0,3.9494023E0,0E0,0E0,0E0,4.6941934E0,0E0,0E0,0E0,0E0],"parents":[2147483647,0,0,1,1,2,2,3,3,4,4,8,8],"right_children":[2,4,6,8,10,-1,-1,-1,12,-1,-1,-1,-1],"split_conditions":[4.85962E-1,3.91324E-1,2.10159E-1,-5.33301E-1,-2.7946E-1,2.0312085E-3,2.410207E-2,-5.2660134E-2,3.39994E-1,-1.35429595E-2,2.168912E-2,-2.2394288E-2,1.1756627E-2],"split_indices":[1,28,22,6,19,0,0,0,16,0,0,0,0],"split_type":[0,0,0,0,0,0,0,0,0,0,0,0,0],"sum_hessian":[5.21E2,3.51E2,1.7E2,2.17E2,1.34E2,9.9E1,7.1E1,5.4E1,1.63E2,5E1,8.4E1,9.4E1,6.9E1],"tree_param":{"num_deleted":"0","num_feature":"30","num_nodes":"13","size_leaf_vector":"1"}},{"base_weights":[-8.34115E-3,7.382081E-2,-1.17850706E-1,2.0782473E-2,1.2338084E-2,-4.008006E-2,6.2922485E-2,-6.304766E-2,2.1265982E-2,-1.082521E-2,2.6784575E-2,-2.1369886E-2,5.7889964E-3],"categories":[],"categories_nodes":[],"categories_segments":[],"categories_sizes":[],"default_left":[0,0,0,0,0,0,0,0,0,0,0,0,0],"id":41,"left_children":[1,3,5,-1,7,-1,9,11,-1,-1,-1,-1,-1],"loss_changes":[4.408487E0,2.304335E0,1.0766668E1,0E0,2.9279788E0,0E0,4.554013E0,2.5813057E0,0E0,0E0,0E0,0E0,0E0],"parents":[2147483647,0,0,1,1,2,2,4,4,6,6,7,7],"right_children":[2,4,6,-1,8,-1,10,12,-1,-1,-1,-1,-1],"split_conditions":[1.81765E-1,-6.10625E-1,-3.99256E-1,2.0782473E-2,5.54307E-1,-4.008006E-2,-2.1239E-2,-1.45959E-1,2.1265982E-2,-1.082521E-2,2.6784575E-2,-2.1369886E-2,5.7889964E-3],"split_indices":[2,17,17,0,4,0,12,27,0,0,0,0,0],"split_type":[0,0,0,0,0,0,0,0,0,0,0,0,0],"sum_hessian":[4.88E2,2.79E2,2.09E2,8.7E1,1.92E2,8.1E1,1.28E2,1.4E2,5.2E1,7E1,5.8E1,6.2E1,7.8E1],"tree_param":{"num_deleted":"0","num_feature":"30","num_nodes":"13","size_leaf_vector":"1"}},{"base_weights":[-1.4353776E-2,-9.6597366E-2,1.54499E-1,-2.349006E-1,2.9790496E-2,8.7523356E-2,2.8048044E-2,-4.0944576E-2,-6.18384E-3,1.5020615E-2,-1.2567336E-2,1.786453E-2,-3.529384E-4],"categories":[],"categories_nodes":[],"categories_segments":[],"categories_sizes":[],"default_left":[0,0,0,0,0,0,0,0,0,0,0,0,0],"id":42,"left_children":[1,3,5,7,9,11,-1,-1,-1,-1,-1,-1,-1],"loss_changes":[6.527954E0,5.53063E0,1.2748554E0,4.535963E0,3.1264439E0,8.469145E-1,0E0,0E0,0E0,0E0,0E0,0E0,0E0],"parents":[2147483647,0,0,1,1,2,2,3,3,4,4,5,5],"right_children":[2,4,6,8,10,12,-1,-1,-1,-1,-1,-1,-1],"split_conditions":[5.35473E-1,-1.02836E-1,2.54706E-1,-3.7719E-2,1.42909E-1,-2.729E-2,2.8048044E-2,-4.0944576E-2,-6.18384E-3,1.5020615E-2,-1.2567336E-2,1.786453E-2,-3.529384E-4],"split_indices":[6,1,10,23,5,1,0,0,0,0,0,0,0],"split_type":[0,0,0,0,0,0,0,0,0,0,0,0,0],"sum_hessian":[4.68E2,3.15E2,1.53E2,1.5E2,1.65E2,1.01E2,5.2E1,7.4E1,7.6E1,9.3E1,7.2E1,5E1,5.1E1],"tree_param":{"num_deleted":"0","num_feature":"30","num_nodes":"13","size_leaf_vector":"1"}},{"base_weights":[1.1420492E-2,1.2547183E-1,-6.313112E-2,4.2229112E-2,3.613143E-2,-2.9512351E-2,6.1387415E-3,-1.3035814E-2,1.9436104E-2,1.4766517E-2,-9.664443E-2,5.2477447E-3,-3.0794991E-2],"categories":[],"categories_nodes":[],"categories_segments":[],"categories_sizes":[],"default_left":[0,0,0,0,0,0,0,0,0,0,0,0,0],"id":43,"left_children":[1,3,5,7,-1,-1,9,-1,-1,-1,11,-1,-1],"loss_changes":[4.216763E0,3.832647E0,4.822836E0,3.8587172E0,0E0,0E0,3.3890672E0,0E0,0E0,0E0,4.270046E0,0E0,0E0],"parents":[2147483647,0,0,1,1,2,2,3,3,6,6,10,10],"right_children":[2,4,6,8,-1,-1,10,-1,-1,-1,12,-1,-1],"split_conditions":[-2.15473E-1,4.40699E-1,1.17166E-1,-4.9916E-2,3.613143E-2,-2.9512351E-2,-3.01602E-1,-1.3035814E-2,1.9436104E-2,1.4766517E-2,3.62318E-1,5.2477447E-3,-3.0794991E-2],"split_indices":[14,5,14,16,0,0,4,0,0,0,2,0,0],"split_type":[0,0,0,0,0,0,0,0,0,0,0,0,0],"sum_hessian":[4.94E2,1.95E2,2.99E2,1.45E2,5E1,6.8E1,2.31E2,6.8E1,7.7E1,9.7E1,1.34E2,7.9E1,5.5E1],"tree_param":{"num_deleted":"0","num_feature":"30","num_nodes":"13","size_leaf_vector":"1"}},{"base_weights":[2.831511E-3,6.3184686E-2,-1.573583E-1,1.6603664E-2,2.123823E-2,-3.3246797E-2,5.900196E-3,-5.2543633E-2,1.5549535E-2,8.831805E-3,-1.59413E-1,3.8609558E-3,-3.543098E-2],"categories":[],"categories_nodes":[],"categories_segments":[],"categories_sizes":[],"default_left":[0,0,0,0,0,0,0,0,0,0,0,0,0],"id":44,"left_children":[1,3,5,7,-1,-1,-1,9,-1,-1,11,-1,-1],"loss_changes":[4.5925574E0,2.394147E0,4.944897E0,2.5436223E0,0E0,0E0,0E0,2.6786013E0,0E0,0E0,3.9116697E0,0E0,0E0],"parents":[2147483647,0,0,1,1,2,2,3,3,7,7,10,10],"right_children":[2,4,6,8,-1,-1,-1,10,-1,-1,12,-1,-1],"split_conditions":[6.02359E-1,6.96759E-1,1.85136E-1,5.04536E-1,2.123823E-2,-3.3246797E-2,5.900196E-3,-5.57905E-1,1.5549535E-2,8.831805E-3,1.04018E-1,3.8609558E-3,-3.543098E-2],"split_indices":[27,4,12,23,0,0,0,23,0,0,5,0,0],"split_type":[0,0,0,0,0,0,0,0,0,0,0,0,0],"sum_hessian":[4.73E2,3.44E2,1.29E2,2.63E2,8.1E1,7.1E1,5.8E1,1.76E2,8.7E1,7.6E1,1E2,5E1,5E1],"tree_param":{"num_deleted":"0","num_feature":"30","num_nodes":"13","size_leaf_vector":"1"}},{"base_weights":[1.5307027E-3,-6.005032E-2,1.13423474E-1,-1.3320416E-1,1.7064163E-2,1.963505E-2,3.2894336E-2,-7.5991765E-2,-3.459802E-2,1.911561E-2,-1.5783153E-2,1.4184685E-2,-3.0087102E-2,-1.0589904E-2,2.0876989E-2],"categories":[],"categories_nodes":[],"categories_segments":[],"categories_sizes":[],"default_left":[0,0,0,0,0,0,0,0,0,0,0,0,0,0,0],"id":45,"left_children":[1,3,5,7,-1,9,-1,11,-1,-1,-1,13,-1,-1,-1],"loss_changes":[3.3969228E0,5.3893E0,3.5308633E0,2.9196773E0,0E0,3.7741988E0,0E0,3.897799E0,0E0,0E0,0E0,3.2466881E0,0E0,0E0,0E0],"parents":[2147483647,0,0,1,1,2,2,3,3,5,5,7,7,11,11],"right_children":[2,4,6,8,-1,10,-1,12,-1,-1,-1,14,-1,-1,-1],"split_conditions":[3.72859E-1,8.82882E-1,4.66743E-1,8.92287E-1,1.7064163E-2,7.519E-2,3.2894336E-2,6.34169E-1,-3.459802E-2,1.911561E-2,-1.5783153E-2,7.2415E-2,-3.0087102E-2,-1.0589904E-2,2.0876989E-2],"split_indices":[24,21,19,5,0,21,0,26,0,0,0,10,0,0,0],"split_type":[0,0,0,0,0,0,0,0,0,0,0,0,0,0,0],"sum_hessian":[4.91E2,3.17E2,1.74E2,2.41E2,7.6E1,1.22E2,5.2E1,1.91E2,5E1,6.2E1,6E1,1.37E2,5.4E1,8.5E1,5.2E1],"tree_param":{"num_deleted":"0","num_feature":"30","num_nodes":"15","size_leaf_vector":"1"}},{"base_weights":[4.209125E-3,1.400046E-1,-6.259649E-2,1.5398455E-3,3.452253E-2,6.9153294E-2,-2.473806E-1,1.7528006E-1,-1.0822139E-2,-4.1591223E-2,-4.3234928E-3,5.751813E-3,2.6782895E-2],"categories":[],"categories_nodes":[],"categories_segments":[],"categories_sizes":[],"default_left":[0,0,0,0,0,0,0,0,0,0,0,0,0],"id":46,"left_children":[1,3,5,-1,-1,7,9,11,-1,-1,-1,-1,-1],"loss_changes":[4.1546226E0,3.8560195E0,7.491104E0,0E0,0E0,3.4073253E0,4.3858595E0,1.216152E0,0E0,0E0,0E0,0E0,0E0],"parents":[2147483647,0,0,1,1,2,2,5,5,6,6,7,7],"right_children":[2,4,6,-1,-1,8,10,12,-1,-1,-1,-1,-1],"split_conditions":[-3.51719E-1,2.1243E-1,1.45456E-1,1.5398455E-3,3.452253E-2,3.17346E-1,1.25996E-1,-3.67717E-1,-1.0822139E-2,-4.1591223E-2,-4.3234928E-3,5.751813E-3,2.6782895E-2],"split_indices":[23,27,27,0,0,10,6,19,0,0,0,0,0],"split_type":[0,0,0,0,0,0,0,0,0,0,0,0,0],"sum_hessian":[4.56E2,1.5E2,3.06E2,9.4E1,5.6E1,1.79E2,1.27E2,1.12E2,6.7E1,6.9E1,5.8E1,5E1,6.2E1],"tree_param":{"num_deleted":"0","num_feature":"30","num_nodes":"13","size_leaf_vector":"1"}},{"base_weights":[1.6640984E-2,-7.198465E-2,8.227733E-2,-9.811932E-3,-2.6309663E-2,3.539274E-2,2.0398138E-2,-2.2387184E-2,9.436226E-2,7.29008E-2,-1.36565715E-2,-4.9268855E-3,2.2625852E-2,1.5107355E-1,-9.295235E-3,3.960411E-3,2.8658057E-2],"categories":[],"categories_nodes":[],"categories_segments":[],"categories_sizes":[],"default_left":[0,0,0,0,0,0,0,0,0,0,0,0,0,0,0,0,0],"id":47,"left_children":[1,3,5,7,-1,-1,9,-1,11,13,-1,-1,-1,15,-1,-1,-1],"loss_changes":[2.8970027E0,2.5163922E0,4.800292E0,3.6113474E0,0E0,0E0,1.9383545E0,0E0,2.076088E0,2.2959175E0,0E0,0E0,0E0,1.8012373E0,0E0,0E0,0E0],"parents":[2147483647,0,0,1,1,2,2,3,3,6,6,8,8,9,9,13,13],"right_children":[2,4,6,8,-1,-1,10,-1,12,14,-1,-1,-1,16,-1,-1,-1],"split_conditions":[-1.86363E-1,-4.34645E-1,-7.65606E-1,-3.33936E-1,-2.6309663E-2,3.539274E-2,7.08964E-1,-2.2387184E-2,1.66653E-1,4.31704E-1,-1.36565715E-2,-4.9268855E-3,2.2625852E-2,-4.74998E-1,-9.295235E-3,3.960411E-3,2.8658057E-2],"split_indices":[1,1,21,21,0,0,27,0,9,6,0,0,0,6,0,0,0],"split_type":[0,0,0,0,0,0,0,0,0,0,0,0,0,0,0,0,0],"sum_hessian":[4.96E2,2.11E2,2.85E2,1.6E2,5.1E1,5.2E1,2.33E2,5.2E1,1.08E2,1.75E2,5.8E1,5.2E1,5.6E1,1.19E2,5.6E1,6.6E1,5.3E1],"tree_param":{"num_deleted":"0","num_feature":"30","num_nodes":"17","size_leaf_vector":"1"}},{"base_weights":[-2.5340123E-3,-3.8336553E-2,2.047772E-2,2.0205906E-2,-8.436291E-2,-2.1722376E-1,-8.887311E-3,-4.0695313E-2,-7.5790444E-3,-1.8992163E-1,1.2464082E-1,-1.2938761E-3,-3.6318056E-2,2.7390128E-2,-6.033394E-3],"categories":[],"categories_nodes":[],"categories_segments":[],"categories_sizes":[],"default_left":[0,0,0,0,0,0,0,0,0,0,0,0,0,0,0],"id":48,"left_children":[1,3,-1,-1,5,7,9,-1,-1,11,13,-1,-1,-1,-1],"loss_changes":[3.8303185E0,4.8854413E0,0E0,0E0,3.7083375E0,3.5649195E0,5.7527146E0,0E0,0E0,3.0923505E0,3.7990155E0,0E0,0E0,0E0,0E0],"parents":[2147483647,0,0,1,1,4,4,5,5,6,6,9,9,10,10],"right_children":[2,4,-1,-1,6,8,10,-1,-1,12,14,-1,-1,-1,-1],"split_conditions":[1.026231E0,-9.93663E-1,2.047772E-2,2.0205906E-2,-1.25933E-1,-3.59709E-1,2.15488E3,-4.0695313E-2,-7.5790444E-3,-1.807E-2,1.42909E-1,-1.2938761E-3,-3.6318056E-2,2.7390128E-2,-6.033394E-3],"split_indices":[24,12,0,0,12,24,0,0,0,9,5,0,0,0,0],"split_type":[0,0,0,0,0,0,0,0,0,0,0,0,0,0,0],"sum_hessian":[5.14E2,4.39E2,7.5E1,7E1,3.69E2,1.33E2,2.36E2,5.6E1,7.7E1,1E2,1.36E2,5E1,5E1,7.5E1,6.1E1],"tree_param":{"num_deleted":"0","num_feature":"30","num_nodes":"15","size_leaf_vector":"1"}},{"base_weights":[-2.1097748E-2,-1.585223E-1,6.0455583E-2,-1.0668318E-3,-4.708764E-2,1.7786907E-1,-4.2555336E-2,1.9140778E-2,-1.4273471E-2,1.6051297E-3,2.8433928E-2,-1.9541338E-2,9.039448E-3],"categories":[],"categories_nodes":[],"categories_segments":[],"categories_sizes":[],"default_left":[0,0,0,0,0,0,0,0,0,0,0,0,0],"id":49,"left_children":[1,3,5,7,-1,9,11,-1,-1,-1,-1,-1,-1],"loss_changes":[5.5684686E0,9.098142E0,3.781169E0,3.4084868E0,0E0,2.510837E0,3.411513E0,0E0,0E0,0E0,0E0,0E0,0E0],"parents":[2147483647,0,0,1,1,2,2,3,3,5,5,6,6],"right_children":[2,4,6,8,-1,10,12,-1,-1,-1,-1,-1,-1],"split_conditions":[-2.65604E-1,-5.74802E-1,2.3324E-2,-1.158459E0,-4.708764E-2,-2.36985E-1,6.3697E-1,1.9140778E-2,-1.4273471E-2,1.6051297E-3,2.8433928E-2,-1.9541338E-2,9.039448E-3],"split_indices":[21,21,14,21,0,16,14,0,0,0,0,0,0],"split_type":[0,0,0,0,0,0,0,0,0,0,0,0,0],"sum_hessian":[4.95E2,1.84E2,3.11E2,1.23E2,6.1E1,1.45E2,1.66E2,5.2E1,7.1E1,5.8E1,8.7E1,7.7E1,8.9E1],"tree_param":{"num_deleted":"0","num_feature":"30","num_nodes":"13","size_leaf_vector":"1"}},{"base_weights":[3.704302E-2,3.8598063E-3,2.6356185E-2,-2.671075E-2,2.0866847E-2,-2.2183608E-2,1.4745285E-2,-1.191409E-2,5.7639E-2,-8.528641E-3,1.1009646E-1,-6.6665205E-4,2.167786E-2],"categories":[],"categories_nodes":[],"categories_segments":[],"categories_sizes":[],"default_left":[0,0,0,0,0,0,0,0,0,0,0,0,0],"id":50,"left_children":[1,3,-1,5,-1,-1,7,-1,9,-1,11,-1,-1],"loss_changes":[3.7648106E0,2.7479422E0,0E0,3.0933156E0,0E0,0E0,1.8216159E0,0E0,1.8087908E0,0E0,2.1937933E0,0E0,0E0],"parents":[2147483647,0,0,1,1,3,3,6,6,8,8,10,10],"right_children":[2,4,-1,6,-1,-1,8,-1,10,-1,12,-1,-1],"split_conditions":[1.225249E0,1.140763E0,2.6356185E-2,-1.014023E0,2.0866847E-2,-2.2183608E-2,-7.05606E-1,-1.191409E-2,-7.42907E-1,-8.528641E-3,-1.87511E-1,-6.6665205E-4,2.167786E-2],"split_indices":[7,24,0,8,0,0,2,0,7,0,15,0,0],"split_type":[0,0,0,0,0,0,0,0,0,0,0,0,0],"sum_hessian":[5E2,4.37E2,6.3E1,3.81E2,5.6E1,6.6E1,3.15E2,7.6E1,2.39E2,6.4E1,1.75E2,8.4E1,9.1E1],"tree_param":{"num_deleted":"0","num_feature":"30","num_nodes":"13","size_leaf_vector":"1"}},{"base_weights":[1.8575214E-2,1.1015001E-1,-1.0223083E-1,2.7065078E-2,5.106041E-2,-4.2255897E-2,1.1777968E-2,1.5260263E-1,-1.5440844E-2,1.6696095E-2,-8.835971E-3,2.779306E-2,2.876031E-3],"categories":[],"categories_nodes":[],"categories_segments":[],"categories_sizes":[],"default_left":[0,0,0,0,0,0,0,0,0,0,0,0,0],"id":51,"left_children":[1,3,5,-1,7,-1,9,11,-1,-1,-1,-1,-1],"loss_changes":[5.078018E0,2.461485E0,7.235981E0,0E0,4.0294056E0,0E0,2.2990832E0,1.9942033E0,0E0,0E0,0E0,0E0,0E0],"parents":[2147483647,0,0,1,1,2,2,4,4,6,6,7,7],"right_children":[2,4,6,-1,8,-1,10,12,-1,-1,-1,-1,-1],"split_conditions":[1.20859E-1,-6.54853E-1,4.40642E-1,2.7065078E-2,3.55889E-1,-4.2255897E-2,9.14692E-1,-3.1839E-2,-1.5440844E-2,1.6696095E-2,-8.835971E-3,2.779306E-2,2.876031E-3],"split_indices":[28,27,28,0,2,0,28,7,0,0,0,0,0],"split_type":[0,0,0,0,0,0,0,0,0,0,0,0,0],"sum_hessian":[4.57E2,2.6E2,1.97E2,6.9E1,1.91E2,5.1E1,1.46E2,1.28E2,6.3E1,5.7E1,8.9E1,6.3E1,6.5E1],"tree_param":{"num_deleted":"0","num_feature":"30","num_nodes":"13","size_leaf_vector":"1"}},{"base_weights":[-3.5531104E-2,2.1656891E-2,-6.710754E-2,-2.7034668E-2,-7.093906E-3,1.52835725E-2,-5.910635E-2,-2.2224322E-2,-1.2125534E-3,-1.7828925E-2,1.1374259E-1,2.3409344E-2,-3.4254447E-3],"categories":[],"categories_nodes":[],"categories_segments":[],"categories_sizes":[],"default_left":[0,0,0,0,0,0,0,0,0,0,0,0,0],"id":52,"left_children":[1,-1,3,-1,5,-1,7,-1,9,-1,11,-1,-1],"loss_changes":[3.8594165E0,0E0,5.242843E0,0E0,2.7790377E0,0E0,2.379773E0,0E0,3.8268278E0,0E0,2.0385375E0,0E0,0E0],"parents":[2147483647,0,0,2,2,4,4,6,6,8,8,10,10],"right_children":[2,-1,4,-1,6,-1,8,-1,10,-1,12,-1,-1],"split_conditions":[-1.074899E0,2.1656891E-2,-7.49777E-1,-2.7034668E-2,-2.03823E-1,1.52835725E-2,1.5118E-1,-2.2224322E-2,-2.94267E-1,-1.7828925E-2,-8.1531E-2,2.3409344E-2,-3.4254447E-3],"split_indices":[1,0,4,0,4,0,4,0,9,0,27,0,0],"split_type":[0,0,0,0,0,0,0,0,0,0,0,0,0],"sum_hessian":[4.82E2,5.3E1,4.29E2,9.7E1,3.32E2,8.1E1,2.51E2,6.5E1,1.86E2,7.3E1,1.13E2,6.2E1,5.1E1],"tree_param":{"num_deleted":"0","num_feature":"30","num_nodes":"13","size_leaf_vector":"1"}}]},"name":"gbtree"},"learner_model_param":{"base_score":"8.7398805E-10","boost_from_average":"1","num_class":"0","num_feature":"30","num_target":"1"},"objective":{"name":"reg:squarederror","reg_loss_param":{"scale_pos_weight":"1"}}},"version":[3,0,5]}