tree
version=v4
num_class=1
num_tree_per_iteration=1
label_index=0
max_feature_idx=2
objective=binary sigmoid:1
feature_names=Column_0 Column_1 Column_2
feature_infos=[0:2] none none
tree_sizes=311 356 357 358 358 358 357 358 358 357 359 360 356 358 359 360 360 359 360 359 356 360 361 359 361 360 360 361 362 362 361 363 363 363 362 363 363 361 362 363 362 361 361 363 362 363 363

Tree=0
num_leaves=2
num_cat=0
split_feature=0
split_gain=2.03175
threshold=1.5000000000000002
decision_type=2
left_child=-1
right_child=-2
leaf_value=0.028571428571428567 -0.02222222222222222
leaf_weight=3.5 4.5
leaf_count=14 18
internal_value=0
internal_weight=8
internal_count=32
is_linear=0
shrinkage=0.05


Tree=1
num_leaves=2
num_cat=0
split_feature=0
split_gain=1.83397
threshold=1.5000000000000002
decision_type=2
left_child=-1
right_child=-2
leaf_value=0.02714849459340702 -0.02111376218937137
leaf_weight=3.4992859065532684 4.4994445145130157
leaf_count=14 18
internal_value=1.78842e-08
internal_weight=7.99873
internal_count=32
is_linear=0
shrinkage=0.05


Tree=2
num_leaves=2
num_cat=0
split_feature=0
split_gain=1.65598
threshold=1.5000000000000002
decision_type=2
left_child=-1
right_child=-2
leaf_value=0.025806170456404598 -0.020065177406616324
leaf_weight=3.497284859418869 4.4978880286216736
leaf_count=14 18
internal_value=7.60418e-08
internal_weight=7.99517
internal_count=32
is_linear=0
shrinkage=0.05


Tree=3
num_leaves=2
num_cat=0
split_feature=0
split_gain=1.49567
threshold=1.5000000000000002
decision_type=2
left_child=-1
right_child=-2
leaf_value=0.024538108186130982 -0.019072379699879682
leaf_weight=3.4941906630992889 4.4954807460308075
leaf_count=14 18
internal_value=1.64311e-07
internal_weight=7.98967
internal_count=32
is_linear=0
shrinkage=0.05


Tree=4
num_leaves=2
num_cat=0
split_feature=0
split_gain=1.35119
threshold=1.5000000000000002
decision_type=2
left_child=-1
right_child=-2
leaf_value=0.023338698620896232 -0.018131680531640788
leaf_weight=3.4901750087738037 4.4923565089702606
leaf_count=14 18
internal_value=2.71795e-07
internal_weight=7.98253
internal_count=32
is_linear=0
shrinkage=0.05


Tree=5
num_leaves=2
num_cat=0
split_feature=0
split_gain=1.22091
threshold=1.5000000000000002
decision_type=2
left_child=-1
right_child=-2
leaf_value=0.022202986690775375 -0.017239749367777515
leaf_weight=3.4853887259960175 4.4886325299739838
leaf_count=14 18
internal_value=3.93738e-07
internal_weight=7.97402
internal_count=32
is_linear=0
shrinkage=0.05


Tree=6
num_leaves=2
num_cat=0
split_feature=0
split_gain=1.10336
threshold=1.5000000000000002
decision_type=2
left_child=-1
right_child=-2
leaf_value=0.021126551445693711 -0.01639356952969789
leaf_weight=3.4799655377864838 4.4844126105308533
leaf_count=14 18
internal_value=5.19944e-07
internal_weight=7.96438
internal_count=32
is_linear=0
shrinkage=0.05


Tree=7
num_leaves=2
num_cat=0
split_feature=0
split_gain=0.997263
threshold=1.5000000000000002
decision_type=2
left_child=-1
right_child=-2
leaf_value=0.020105443869718735 -0.015590380084657096
leaf_weight=3.4740222692489624 4.479788213968277
leaf_count=14 18
internal_value=6.48593e-07
internal_weight=7.95381
internal_count=32
is_linear=0
shrinkage=0.05


Tree=8
num_leaves=2
num_cat=0
split_feature=0
split_gain=0.901465
threshold=1.5000000000000002
decision_type=2
left_child=-1
right_child=-2
leaf_value=0.019136105812738863 -0.014827665460611601
leaf_weight=3.4676623940467834 4.4748392701148987
leaf_count=14 18
internal_value=7.72402e-07
internal_weight=7.9425
internal_count=32
is_linear=0
shrinkage=0.05


Tree=9
num_leaves=2
num_cat=0
split_feature=0
split_gain=0.814938
threshold=1.5000000000000002
decision_type=2
left_child=-1
right_child=-2
leaf_value=0.018215333754030311 -0.01410310249597941
leaf_weight=3.460976243019104 4.4696365892887115
leaf_count=14 18
internal_value=8.94564e-07
internal_weight=7.93061
internal_count=32
is_linear=0
shrinkage=0.05


Tree=10
num_leaves=2
num_cat=0
split_feature=0
split_gain=0.736765
threshold=1.5000000000000002
decision_type=2
left_child=-1
right_child=-2
leaf_value=0.017340203630005716 -0.013414559564779299
leaf_weight=3.4540426731109619 4.4642413258552551
leaf_count=14 18
internal_value=1.0068e-06
internal_weight=7.91828
internal_count=32
is_linear=0
shrinkage=0.05


Tree=11
num_leaves=2
num_cat=0
split_feature=0
split_gain=0.666123
threshold=1.5000000000000002
decision_type=2
left_child=-1
right_child=-2
leaf_value=0.016508066765425836 -0.012760061476089886
leaf_weight=3.4469307363033295 4.4587071239948273
leaf_count=14 18
internal_value=1.11132e-06
internal_weight=7.90564
internal_count=32
is_linear=0
shrinkage=0.05


Tree=12
num_leaves=2
num_cat=0
split_feature=0
split_gain=0.602274
threshold=1.5000000000000002
decision_type=2
left_child=-1
right_child=-2
leaf_value=0.01571648503992 -0.012137773425232038
leaf_weight=3.4397005140781403 4.4530809223651886
leaf_count=14 18
internal_value=1.20545e-06
internal_weight=7.89278
internal_count=32
is_linear=0
shrinkage=0.05


Tree=13
num_leaves=2
num_cat=0
split_feature=0
split_gain=0.544557
threshold=1.5000000000000002
decision_type=2
left_child=-1
right_child=-2
leaf_value=0.014963231414063605 -0.011545987887201486
leaf_weight=3.432403951883316 4.447403222322464
leaf_count=14 18
internal_value=1.29329e-06
internal_weight=7.87981
internal_count=32
is_linear=0
shrinkage=0.05


Tree=14
num_leaves=2
num_cat=0
split_feature=0
split_gain=0.492375
threshold=1.5000000000000002
decision_type=2
left_child=-1
right_child=-2
leaf_value=0.014246232202107892 -0.010983117112438856
leaf_weight=3.4250859022140503 4.441708892583847
leaf_count=14 18
internal_value=1.36779e-06
internal_weight=7.86679
internal_count=32
is_linear=0
shrinkage=0.05


Tree=15
num_leaves=2
num_cat=0
split_feature=0
split_gain=0.445193
threshold=1.5000000000000002
decision_type=2
left_child=-1
right_child=-2
leaf_value=0.013563585088494354 -0.010447671029172175
leaf_weight=3.4177849590778351 4.4360282421112061
leaf_count=14 18
internal_value=1.43285e-06
internal_weight=7.85381
internal_count=32
is_linear=0
shrinkage=0.05


Tree=16
num_leaves=2
num_cat=0
split_feature=0
split_gain=0.402529
threshold=1.5000000000000002
decision_type=2
left_child=-1
right_child=-2
leaf_value=0.012913514862095278 -0.0099382589436064258
leaf_weight=3.4105342924594879 4.430386483669281
leaf_count=14 18
internal_value=1.48671e-06
internal_weight=7.84092
internal_count=32
is_linear=0
shrinkage=0.05


Tree=17
num_leaves=2
num_cat=0
split_feature=0
split_gain=0.363947
threshold=1.5000000000000002
decision_type=2
left_child=-1
right_child=-2
leaf_value=0.01229437129398224 -0.0094535626371265759
leaf_weight=3.4033620655536652 4.424806147813797
leaf_count=14 18
internal_value=1.53482e-06
internal_weight=7.82817
internal_count=32
is_linear=0
shrinkage=0.05


Tree=18
num_leaves=2
num_cat=0
split_feature=0
split_gain=0.329056
threshold=1.5000000000000002
decision_type=2
left_child=-1
right_child=-2
leaf_value=0.011704604634668721 -0.0089923578473449055
leaf_weight=3.3962916433811188 4.4193052053451538
leaf_count=14 18
internal_value=1.57084e-06
internal_weight=7.8156
internal_count=32
is_linear=0
shrinkage=0.05


Tree=19
num_leaves=2
num_cat=0
split_feature=0
split_gain=0.297502
threshold=1.5000000000000002
decision_type=2
left_child=-1
right_child=-2
leaf_value=0.011142764799306917 -0.0085534785548543255
leaf_weight=3.38934326171875 4.4138989448547363
leaf_count=14 18
internal_value=1.59739e-06
internal_weight=7.80324
internal_count=32
is_linear=0
shrinkage=0.05


Tree=20
num_leaves=2
num_cat=0
split_feature=0
split_gain=0.268965
threshold=1.5000000000000002
decision_type=2
left_child=-1
right_child=-2
leaf_value=0.0106074968625487 -0.0081358226779030714
leaf_weight=3.3825329840183258 4.408600777387619
leaf_count=14 18
internal_value=1.619e-06
internal_weight=7.79113
internal_count=32
is_linear=0
shrinkage=0.05


Tree=21
num_leaves=2
num_cat=0
split_feature=0
split_gain=0.243156
threshold=1.5000000000000002
decision_type=2
left_child=-1
right_child=-2
leaf_value=0.010097519546738536 -0.0077383640966388794
leaf_weight=3.3758743703365326 4.403420627117157
leaf_count=14 18
internal_value=1.63066e-06
internal_weight=7.77929
internal_count=32
is_linear=0
shrinkage=0.05


Tree=22
num_leaves=2
num_cat=0
split_feature=0
split_gain=0.219816
threshold=1.5000000000000002
decision_type=2
left_child=-1
right_child=-2
leaf_value=0.0096116218626803342 -0.007360113777098682
leaf_weight=3.3693782687187195 4.3983670771121979
leaf_count=14 18
internal_value=1.63596e-06
internal_weight=7.76775
internal_count=32
is_linear=0
shrinkage=0.05


Tree=23
num_leaves=2
num_cat=0
split_feature=0
split_gain=0.198708
threshold=1.5000000000000002
decision_type=2
left_child=-1
right_child=-2
leaf_value=0.0091486675913423215 -0.007000142260591067
leaf_weight=3.363053023815155 4.3934465646743774
leaf_count=14 18
internal_value=1.63775e-06
internal_weight=7.7565
internal_count=32
is_linear=0
shrinkage=0.05


Tree=24
num_leaves=2
num_cat=0
split_feature=0
split_gain=0.179619
threshold=1.5000000000000002
decision_type=2
left_child=-1
right_child=-2
leaf_value=0.0087075685763100038 -0.0066575714074211508
leaf_weight=3.3569051027297974 4.388664186000824
leaf_count=14 18
internal_value=1.63141e-06
internal_weight=7.74557
internal_count=32
is_linear=0
shrinkage=0.05


Tree=25
num_leaves=2
num_cat=0
split_feature=0
split_gain=0.162356
threshold=1.5000000000000002
decision_type=2
left_child=-1
right_child=-2
leaf_value=0.008287304536756605 -0.006331563027740972
leaf_weight=3.3509388864040375 4.3840234279632568
leaf_count=14 18
internal_value=1.61997e-06
internal_weight=7.73496
internal_count=32
is_linear=0
shrinkage=0.05


Tree=26
num_leaves=2
num_cat=0
split_feature=0
split_gain=0.146746
threshold=1.5000000000000002
decision_type=2
left_child=-1
right_child=-2
leaf_value=0.0078869040380409698 -0.00602132568917782
leaf_weight=3.3451579213142395 4.3795267045497894
leaf_count=14 18
internal_value=1.60303e-06
internal_weight=7.72468
internal_count=32
is_linear=0
shrinkage=0.05


Tree=27
num_leaves=2
num_cat=0
split_feature=0
split_gain=0.132631
threshold=1.5000000000000002
decision_type=2
left_child=-1
right_child=-2
leaf_value=0.0075054377157972273 -0.0057260970123175639
leaf_weight=3.3395636677742004 4.3751756250858307
leaf_count=14 18
internal_value=1.5823e-06
internal_weight=7.71474
internal_count=32
is_linear=0
shrinkage=0.05


Tree=28
num_leaves=2
num_cat=0
split_feature=0
split_gain=0.119868
threshold=1.5000000000000002
decision_type=2
left_child=-1
right_child=-2
leaf_value=0.0071420298857296435 -0.0054451621187167065
leaf_weight=3.3341567516326904 4.3709701895713806
leaf_count=14 18
internal_value=1.55817e-06
internal_weight=7.70513
internal_count=32
is_linear=0
shrinkage=0.05


Tree=29
num_leaves=2
num_cat=0
split_feature=0
split_gain=0.108328
threshold=1.5000000000000002
decision_type=2
left_child=-1
right_child=-2
leaf_value=0.0067958482295916974 -0.0051778420980643051
leaf_weight=3.3289369642734528 4.3669103980064392
leaf_count=14 18
internal_value=1.53042e-06
internal_weight=7.69585
internal_count=32
is_linear=0
shrinkage=0.05


Tree=30
num_leaves=2
num_cat=0
split_feature=0
split_gain=0.0978941
threshold=1.5000000000000002
decision_type=2
left_child=-1
right_child=-2
leaf_value=0.006466089739961935 -0.0049234802497919623
leaf_weight=3.3239028453826904 4.3629951775074005
leaf_count=14 18
internal_value=1.50041e-06
internal_weight=7.6869
internal_count=32
is_linear=0
shrinkage=0.05


Tree=31
num_leaves=2
num_cat=0
split_feature=0
split_gain=0.0884614
threshold=1.5000000000000002
decision_type=2
left_child=-1
right_child=-2
leaf_value=0.0061519998645941723 -0.0046814589653227058
leaf_weight=3.3190523087978363 4.3592229187488556
leaf_count=14 18
internal_value=1.46988e-06
internal_weight=7.67828
internal_count=32
is_linear=0
shrinkage=0.05


Tree=32
num_leaves=2
num_cat=0
split_feature=0
split_gain=0.0799338
threshold=1.5000000000000002
decision_type=2
left_child=-1
right_child=-2
leaf_value=0.0058528468015501302 -0.0044511895278459401
leaf_weight=3.3143832683563232 4.3555920124053955
leaf_count=14 18
internal_value=1.43572e-06
internal_weight=7.66998
internal_count=32
is_linear=0
shrinkage=0.05


Tree=33
num_leaves=2
num_cat=0
split_feature=0
split_gain=0.0722251
threshold=1.5000000000000002
decision_type=2
left_child=-1
right_child=-2
leaf_value=0.0055679471325954452 -0.0042321126698219424
leaf_weight=3.3098921775817871 4.3520992398262024
leaf_count=14 18
internal_value=1.40046e-06
internal_weight=7.66199
internal_count=32
is_linear=0
shrinkage=0.05


Tree=34
num_leaves=2
num_cat=0
split_feature=0
split_gain=0.065257
threshold=1.5000000000000002
decision_type=2
left_child=-1
right_child=-2
leaf_value=0.0052966407008761922 -0.0040236923771003958
leaf_weight=3.3055754899978638 4.3487427234649658
leaf_count=14 18
internal_value=1.36429e-06
internal_weight=7.65432
internal_count=32
is_linear=0
shrinkage=0.05


Tree=35
num_leaves=2
num_cat=0
split_feature=0
split_gain=0.0589585
threshold=1.5000000000000002
decision_type=2
left_child=-1
right_child=-2
leaf_value=0.0050382912711132363 -0.0038254179995184457
leaf_weight=3.3014296591281891 4.3455187082290649
leaf_count=14 18
internal_value=1.32586e-06
internal_weight=7.64695
internal_count=32
is_linear=0
shrinkage=0.05


Tree=36
num_leaves=2
num_cat=0
split_feature=0
split_gain=0.0532657
threshold=1.5000000000000002
decision_type=2
left_child=-1
right_child=-2
leaf_value=0.0047923073547040083 -0.0036368040763944281
leaf_weight=3.2974503040313721 4.3424245119094849
leaf_count=14 18
internal_value=1.28905e-06
internal_weight=7.63987
internal_count=32
is_linear=0
shrinkage=0.05


Tree=37
num_leaves=2
num_cat=0
split_feature=0
split_gain=0.0481206
threshold=1.5000000000000002
decision_type=2
left_child=-1
right_child=-2
leaf_value=0.0045581054499505775 -0.0034573901897171932
leaf_weight=3.2936332523822784 4.3394563794136047
leaf_count=14 18
internal_value=1.249e-06
internal_weight=7.63309
internal_count=32
is_linear=0
shrinkage=0.05


Tree=38
num_leaves=2
num_cat=0
split_feature=0
split_gain=0.0434707
threshold=1.5000000000000002
decision_type=2
left_child=-1
right_child=-2
leaf_value=0.0043351456822987786 -0.0032867326016107392
leaf_weight=3.2899737060070038 4.3366110920906067
leaf_count=14 18
internal_value=1.2108e-06
internal_weight=7.62658
internal_count=32
is_linear=0
shrinkage=0.05


Tree=39
num_leaves=2
num_cat=0
split_feature=0
split_gain=0.0392685
threshold=1.5000000000000002
decision_type=2
left_child=-1
right_child=-2
leaf_value=0.0041228942305004106 -0.0031244100535467913
leaf_weight=3.2864672839641571 4.3338846266269684
leaf_count=14 18
internal_value=1.17111e-06
internal_weight=7.62035
internal_count=32
is_linear=0
shrinkage=0.05


Tree=40
num_leaves=2
num_cat=0
split_feature=0
split_gain=0.0354713
threshold=1.5000000000000002
decision_type=2
left_child=-1
right_child=-2
leaf_value=0.0039208657465550269 -0.0029700241508782651
leaf_weight=3.283109188079834 4.3312737643718719
leaf_count=14 18
internal_value=1.13505e-06
internal_weight=7.61438
internal_count=32
is_linear=0
shrinkage=0.05


Tree=41
num_leaves=2
num_cat=0
split_feature=0
split_gain=0.03204
threshold=1.5000000000000002
decision_type=2
left_child=-1
right_child=-2
leaf_value=0.0037285650117794738 -0.0028231992578841543
leaf_weight=3.2798944115638733 4.3287742137908936
leaf_count=14 18
internal_value=1.09183e-06
internal_weight=7.60867
internal_count=32
is_linear=0
shrinkage=0.05


Tree=42
num_leaves=2
num_cat=0
split_feature=0
split_gain=0.0289396
threshold=1.5000000000000002
decision_type=2
left_child=-1
right_child=-2
leaf_value=0.003545550181593696 -0.0026835602091009364
leaf_weight=3.2768183648586273 4.3263827562332153
leaf_count=14 18
internal_value=1.05421e-06
internal_weight=7.6032
internal_count=32
is_linear=0
shrinkage=0.05


Tree=43
num_leaves=2
num_cat=0
split_feature=0
split_gain=0.0261383
threshold=1.5000000000000002
decision_type=2
left_child=-1
right_child=-2
leaf_value=0.0033713781549895489 -0.0025507644209802507
leaf_weight=3.2738762497901917 4.3240953683853149
leaf_count=14 18
internal_value=1.01688e-06
internal_weight=7.59797
internal_count=32
is_linear=0
shrinkage=0.05


Tree=44
num_leaves=2
num_cat=0
split_feature=0
split_gain=0.0236075
threshold=1.5000000000000002
decision_type=2
left_child=-1
right_child=-2
leaf_value=0.0032056401558072812 -0.0024244878024312737
leaf_weight=3.2710632681846619 4.321908563375473
leaf_count=14 18
internal_value=9.79481e-07
internal_weight=7.59297
internal_count=32
is_linear=0
shrinkage=0.05


Tree=45
num_leaves=2
num_cat=0
split_feature=0
split_gain=0.0213209
threshold=1.5000000000000002
decision_type=2
left_child=-1
right_child=-2
leaf_value=0.0030479264225290801 -0.0023044052375645096
leaf_weight=3.2683748304843903 4.3198183178901672
leaf_count=14 18
internal_value=9.42787e-07
internal_weight=7.58819
internal_count=32
is_linear=0
shrinkage=0.05


Tree=46
num_leaves=2
num_cat=0
split_feature=0
split_gain=0.0192552
threshold=1.5000000000000002
decision_type=2
left_child=-1
right_child=-2
leaf_value=0.0028978704336485544 -0.0021902230880299898
leaf_weight=3.2658059298992157 4.3178214132785797
leaf_count=14 18
internal_value=9.08575e-07
internal_weight=7.58363
internal_count=32
is_linear=0
shrinkage=0.05


end of trees

feature_importances:
Column_0=47

parameters:
[boosting: gbdt]
[objective: binary]
[metric: binary_logloss]
[tree_learner: serial]
[device_type: cpu]
[data_sample_strategy: bagging]
[data: ]
[valid: ]
[num_iterations: 10000]
[learning_rate: 0.05]
[num_leaves: 63]
[num_threads: 0]
[seed: 2]
[deterministic: 0]
[force_col_wise: 0]
[force_row_wise: 0]
[histogram_pool_size: -1]
[max_depth: -1]
[min_data_in_leaf: 10]
[min_sum_hessian_in_leaf: 0.001]
[bagging_fraction: 0.8]
[pos_bagging_fraction: 1]
[neg_bagging_fraction: 1]
[bagging_freq: 0]
[bagging_seed: 29216]
[bagging_by_query: 0]
[feature_fraction: 0.9]
[feature_fraction_bynode: 1]
[feature_fraction_seed: 17795]
[extra_trees: 0]
[extra_seed: 19650]
[early_stopping_round: 0]
[early_stopping_min_delta: 0]
[first_metric_only: 0]
[max_delta_step: 0]
[lambda_l1: 0]
[lambda_l2: 0]
[linear_lambda: 0]
[min_gain_to_split: 0]
[drop_rate: 0.1]
[max_drop: 50]
[skip_drop: 0.5]
[xgboost_dart_mode: 0]
[uniform_drop: 0]
[drop_seed: 24198]
[top_rate: 0.2]
[other_rate: 0.1]
[min_data_per_group: 100]
[max_cat_threshold: 32]
[cat_l2: 10]
[cat_smooth: 10]
[max_cat_to_onehot: 4]
[top_k: 20]
[monotone_constraints: ]
[monotone_constraints_method: basic]
[monotone_penalty: 0]
[feature_contri: ]
[forcedsplits_filename: ]
[refit_decay_rate: 0.9]
[cegb_tradeoff: 1]
[cegb_penalty_split: 0]
[cegb_penalty_feature_lazy: ]
[cegb_penalty_feature_coupled: ]
[path_smooth: 0]
[interaction_constraints: ]
[verbosity: -1]
[saved_feature_importance_type: 0]
[use_quantized_grad: 0]
[num_grad_quant_bins: 4]
[quant_train_renew_leaf: 0]
[stochastic_rounding: 1]
[linear_tree: 0]
[max_bin: 255]
[max_bin_by_feature: ]
[min_data_in_bin: 3]
[bin_construct_sample_cnt: 200000]
[data_random_seed: 45]
[is_enable_sparse: 1]
[enable_bundle: 1]
[use_missing: 1]
[zero_as_missing: 0]
[feature_pre_filter: 1]
[pre_partition: 0]
[two_round: 0]
[header: 0]
[label_column: ]
[weight_column: ]
[group_column: ]
[ignore_column: ]
[categorical_feature: ]
[forcedbins_filename: ]
[precise_float_parser: 0]
[parser_config_file: ]
[objective_seed: 29484]
[num_class: 1]
[is_unbalance: 0]
[scale_pos_weight: 1]
[sigmoid: 1]
[boost_from_average: 1]
[reg_sqrt: 0]
[alpha: 0.9]
[fair_c: 1]
[poisson_max_delta_step: 0.7]
[tweedie_variance_power: 1.5]
[lambdarank_truncation_level: 30]
[lambdarank_norm: 1]
[label_gain: ]
[lambdarank_position_bias_regularization: 0]
[eval_at: ]
[multi_error_top_k: 1]
[auc_mu_weights: ]
[num_machines: 1]
[local_listen_port: 12400]
[time_out: 120]
[machine_list_filename: ]
[machines: ]
[gpu_platform_id: -1]
[gpu_device_id: -1]
[gpu_use_dp: 0]
[num_gpu: 1]

end of parameters

pandas_categorical:null
