{"learner":{"attributes":{"best_iteration":"0","best_score":"0.9969734872660593"},"feature_names":[],"feature_types":[],"gradient_booster":{"model":{"gbtree_model_param":{"num_parallel_tree":"1","num_trees":"51"},"iteration_indptr":[0,1,2,3,4,5,6,7,8,9,10,11,12,13,14,15,16,17,18,19,20,21,22,23,24,25,26,27,28,29,30,31,32,33,34,35,36,37,38,39,40,41,42,43,44,45,46,47,48,49,50,51],"tree_info":[0,0,0,0,0,0,0,0,0,0,0,0,0,0,0,0,0,0,0,0,0,0,0,0,0,0,0,0,0,0,0,0,0,0,0,0,0,0,0,0,0,0,0,0,0,0,0,0,0,0,0],"trees":[{"base_weights":[8.635953E-10,-2.3688424E0,1.4860994E-2,2.1106822E-2,-4.229495E0,-3.8781226E-2,2.9038516E-1,-9.586427E-2,-3.7995392E-1,-2.6758611E-2,-1.3608166E0,3.381926E-1,-4.8095268E-1,2.614584E-2,-2.790872E-1,-1.6486596E-1,1.5698768E-2,4.0644887E-1,-1.1131383E-1,2.3336262E-2,-7.638334E-2,-4.060037E-1,6.647364E-2,1.00235626E-1,-4.7505856E-1,-6.8690136E-2,4.2756382E-1,-8.0286956E-1,2.437402E-1,-5.5717216E-3,-7.022286E-2,-1.2637064E-2,9.779094E-3,-3.421222E-2,2.2568043E-2,-1.1268311E-1,-2.4907146E-2,3.4814317E-2,-3.0385552E-2,-1.6411558E-2,-7.8014165E-2,3.385363E-2,-2.9348733E-3],"categories":[],"categories_nodes":[],"categories_segments":[],"categories_sizes":[],"default_left":[0,0,0,0,0,0,0,0,0,0,0,0,0,0,0,0,0,0,0,0,0,0,0,0,0,0,0,0,0,0,0,0,0,0,0,0,0,0,0,0,0,0,0],"id":0,"left_children":[1,3,5,-1,7,9,11,-1,-1,13,15,17,19,21,23,-1,-1,25,27,-1,-1,29,31,33,35,-1,37,39,41,-1,-1,-1,-1,-1,-1,-1,-1,-1,-1,-1,-1,-1,-1],"loss_changes":[2.8233088E1,2.5846405E1,1.1790705E1,0E0,9.31427E-1,1.0580995E1,4.9564962E0,0E0,0E0,8.857886E0,8.349066E0,3.8190823E0,3.7228785E0,9.594763E0,8.596305E0,0E0,0E0,3.3791027E0,4.3698654E0,0E0,0E0,8.198133E0,7.575922E0,4.603398E0,1.0663778E1,0E0,3.421011E0,6.040213E-1,7.224946E-1,0E0,0E0,0E0,0E0,0E0,0E0,0E0,0E0,0E0,0E0,0E0,0E0,0E0,0E0],"parents":[2147483647,0,0,1,1,2,2,4,4,5,5,6,6,9,9,10,10,11,11,12,12,13,13,14,14,17,17,18,18,21,21,22,22,23,23,24,24,26,26,27,27,28,28],"right_children":[2,4,6,-1,8,10,12,-1,-1,14,16,18,20,22,24,-1,-1,26,28,-1,-1,30,32,34,36,-1,38,40,42,-1,-1,-1,-1,-1,-1,-1,-1,-1,-1,-1,-1,-1,-1],"split_conditions":[7.18E0,1.14622E-1,1.032858E0,2.1106822E-2,-1.057471E0,2.634226E0,1.499873E0,-9.586427E-2,-3.7995392E-1,9.06066E-1,4.26794E-1,1.453051E0,-3.40336E-1,-1.296876E0,-5.50951E-1,-1.6486596E-1,1.5698768E-2,-2.240674E0,1.32425E-1,2.3336262E-2,-7.638334E-2,6.70328E-1,-8.42381E-1,-7.42421E-1,-3.33683E-1,-6.8690136E-2,1.874709E0,1.511E3,3.36853E-1,-5.5717216E-3,-7.022286E-2,-1.2637064E-2,9.779094E-3,-3.421222E-2,2.2568043E-2,-1.1268311E-1,-2.4907146E-2,3.4814317E-2,-3.0385552E-2,-1.6411558E-2,-7.8014165E-2,3.385363E-2,-2.9348733E-3],"split_indices":[0,2,6,0,1,11,16,0,0,27,8,12,10,19,16,0,0,1,13,0,0,24,25,22,16,0,9,0,17,0,0,0,0,0,0,0,0,0,0,0,0,0,0],"split_type":[0,0,0,0,0,0,0,0,0,0,0,0,0,0,0,0,0,0,0,0,0,0,0,0,0,0,0,0,0,0,0,0,0,0,0,0,0,0,0,0,0,0,0],"sum_hessian":[8E2,4E0,7.96E2,2E0,2E0,6.67E2,1.29E2,1E0,1E0,6.62E2,5E0,1.22E2,7E0,5.48E2,1.14E2,3E0,2E0,1.06E2,1.6E1,3E0,4E0,4.6E1,5.02E2,3.9E1,7.5E1,1E0,1.05E2,5E0,1.1E1,2.9E1,1.7E1,1.07E2,3.95E2,1E1,2.9E1,8E0,6.7E1,1.01E2,4E0,2E0,3E0,6E0,5E0],"tree_param":{"num_deleted":"0","num_feature":"30","num_nodes":"43","size_leaf_vector":"1"}},{"base_weights":[-1.2641434E-3,-2.2821214E0,1.3046459E-2,2.0051483E-2,-4.0708885E0,2.2853192E-2,-1.2836165E0,-9.226936E-2,-3.657056E-1,-2.5095435E-2,2.672154E-1,-1.5559225E-1,1.4913829E-2,2.8225183E-3,-4.4870007E-1,3.1178942E-1,-4.515121E-1,-3.1592086E-1,3.1794254E-2,-1.4279968E0,-2.0508026E-1,4.7129697E-1,1.3645151E-1,2.2023596E-2,-7.1800336E-2,-1.6461172E-3,-6.5248735E-2,-1.3423321E-2,6.1774077E-3,-6.6910083E-3,-1.660068E-1,2.464081E-3,-6.522453E-2,4.1440386E-2,1.0626139E-2,-1.1301769E-2,2.7034694E-2],"categories":[],"categories_nodes":[],"categories_segments":[],"categories_sizes":[],"default_left":[0,0,0,0,0,0,0,0,0,0,0,0,0,0,0,0,0,0,0,0,0,0,0,0,0,0,0,0,0,0,0,0,0,0,0,0,0],"id":1,"left_children":[1,3,5,-1,7,9,11,-1,-1,13,15,-1,-1,17,19,21,23,25,27,29,31,33,35,-1,-1,-1,-1,-1,-1,-1,-1,-1,-1,-1,-1,-1,-1],"loss_changes":[2.6174765E1,2.3890446E1,1.0164008E1,0E0,8.628807E-1,9.286437E0,7.4478464E0,0E0,0E0,7.8420196E0,4.3055305E0,0E0,0E0,5.7631683E0,9.488765E0,3.37572E0,3.2964883E0,8.450621E0,6.111679E0,8.214668E0,5.4048786E0,1.6355352E0,3.913694E0,0E0,0E0,0E0,0E0,0E0,0E0,0E0,0E0,0E0,0E0,0E0,0E0,0E0,0E0],"parents":[2147483647,0,0,1,1,2,2,4,4,5,5,6,6,9,9,10,10,13,13,14,14,15,15,16,16,17,17,18,18,19,19,20,20,21,21,22,22],"right_children":[2,4,6,-1,8,10,12,-1,-1,14,16,-1,-1,18,20,22,24,26,28,30,32,34,36,-1,-1,-1,-1,-1,-1,-1,-1,-1,-1,-1,-1,-1,-1],"split_conditions":[7.18E0,1.14622E-1,2.634226E0,2.0051483E-2,-1.057471E0,1.032858E0,4.26794E-1,-9.226936E-2,-3.657056E-1,1.644398E0,1.499873E0,-1.5559225E-1,1.4913829E-2,-1.296876E0,-8.396E-1,3.6928E-2,-3.40336E-1,6.70328E-1,-8.77999E-1,-5.01855E-1,7.13061E-1,1.069609E0,-1.95298E-1,2.2023596E-2,-7.1800336E-2,-1.6461172E-3,-6.5248735E-2,-1.3423321E-2,6.1774077E-3,-6.6910083E-3,-1.660068E-1,2.464081E-3,-6.522453E-2,4.1440386E-2,1.0626139E-2,-1.1301769E-2,2.7034694E-2],"split_indices":[0,2,11,0,1,6,8,0,0,27,16,0,0,19,14,9,10,24,9,6,1,12,1,0,0,0,0,0,0,0,0,0,0,0,0,0,0],"split_type":[0,0,0,0,0,0,0,0,0,0,0,0,0,0,0,0,0,0,0,0,0,0,0,0,0,0,0,0,0,0,0,0,0,0,0,0,0],"sum_hessian":[8E2,4E0,7.96E2,2E0,2E0,7.91E2,5E0,1E0,1E0,6.62E2,1.29E2,3E0,2E0,6.22E2,4E1,1.22E2,7E0,5.1E1,5.71E2,7E0,3.3E1,6.3E1,5.9E1,3E0,4E0,3.4E1,1.7E1,1.1E2,4.61E2,3E0,4E0,2.5E1,8E0,5E1,1.3E1,2.6E1,3.3E1],"tree_param":{"num_deleted":"0","num_feature":"30","num_nodes":"37","size_leaf_vector":"1"}},{"base_weights":[-2.2557029E-3,-2.198547E0,1.1525617E-2,1.9048909E-2,-3.9182303E0,2.0771045E-2,-1.2107918E0,-8.880926E-2,-3.5199165E-1,-2.368025E-2,2.4731286E-1,-1.4684018E-1,1.4168139E-2,3.7164163E-2,-2.0754498E-1,2.889564E-1,-4.2387077E-1,-3.7365058E-1,7.672268E-2,1.4675513E-1,-3.6286464E-1,1.8436475E-1,5.365983E-1,2.078477E-2,-6.749231E-2,2.8666308E-2,-4.3420285E-2,-1.00598335E-1,6.6805943E-3,-2.9748833E-2,2.295811E-2,-2.209067E-2,-1.16622366E-1,3.464288E-2,4.046013E-3,-1.863255E-2,4.425627E-2],"categories":[],"categories_nodes":[],"categories_segments":[],"categories_sizes":[],"default_left":[0,0,0,0,0,0,0,0,0,0,0,0,0,0,0,0,0,0,0,0,0,0,0,0,0,0,0,0,0,0,0,0,0,0,0,0,0],"id":2,"left_children":[1,3,5,-1,7,9,11,-1,-1,13,15,-1,-1,17,19,21,23,25,27,29,31,33,35,-1,-1,-1,-1,-1,-1,-1,-1,-1,-1,-1,-1,-1,-1],"loss_changes":[2.426984E1,2.208307E1,9.031924E0,0E0,7.9937744E-1,7.9813576E0,6.643964E0,0E0,0E0,7.424788E0,3.756041E0,0E0,0E0,8.138028E0,9.133164E0,3.0869274E0,2.91895E0,7.0487394E0,8.106506E0,4.537682E0,8.90842E0,3.1603491E0,1.6581516E0,0E0,0E0,0E0,0E0,0E0,0E0,0E0,0E0,0E0,0E0,0E0,0E0,0E0,0E0],"parents":[2147483647,0,0,1,1,2,2,4,4,5,5,6,6,9,9,10,10,13,13,14,14,15,15,16,16,17,17,18,18,19,19,20,20,21,21,22,22],"right_children":[2,4,6,-1,8,10,12,-1,-1,14,16,-1,-1,18,20,22,24,26,28,30,32,34,36,-1,-1,-1,-1,-1,-1,-1,-1,-1,-1,-1,-1,-1,-1],"split_conditions":[7.18E0,1.14622E-1,2.634226E0,1.9048909E-2,-1.057471E0,1.032858E0,4.26794E-1,-8.880926E-2,-3.5199165E-1,6.02359E-1,1.499873E0,-1.4684018E-1,1.4168139E-2,-1.296876E0,-5.50951E-1,6.06796E-1,-3.40336E-1,-1.016691E0,-2.389955E0,-7.42421E-1,1.553278E0,-3.98343E-1,-1.706912E0,2.078477E-2,-6.749231E-2,2.8666308E-2,-4.3420285E-2,-1.00598335E-1,6.6805943E-3,-2.9748833E-2,2.295811E-2,-2.209067E-2,-1.16622366E-1,3.464288E-2,4.046013E-3,-1.863255E-2,4.425627E-2],"split_indices":[0,2,11,0,1,6,8,0,0,27,16,0,0,19,16,10,10,13,25,22,20,4,28,0,0,0,0,0,0,0,0,0,0,0,0,0,0],"split_type":[0,0,0,0,0,0,0,0,0,0,0,0,0,0,0,0,0,0,0,0,0,0,0,0,0,0,0,0,0,0,0,0,0,0,0,0,0],"sum_hessian":[8E2,4E0,7.96E2,2E0,2E0,7.91E2,5E0,1E0,1E0,6.62E2,1.29E2,3E0,2E0,4.98E2,1.64E2,1.22E2,7E0,4.3E1,4.55E2,5E1,1.14E2,8.7E1,3.5E1,3E0,4E0,9E0,3.4E1,3E0,4.52E2,1.1E1,3.9E1,1.09E2,5E0,2.7E1,6E1,2E0,3.3E1],"tree_param":{"num_deleted":"0","num_feature":"30","num_nodes":"37","size_leaf_vector":"1"}},{"base_weights":[-3.074027E-3,-2.1180062E0,1.0197912E-2,1.8096462E-2,-3.7712967E0,1.8914523E-2,-1.1420944E0,-8.547891E-2,-3.3879197E-1,-2.2287594E-2,2.2889982E-1,-1.3858041E-1,1.3459731E-2,-2.0319413E-1,3.3776734E-2,2.931192E-1,-1.8697177E-1,-4.2830265E-1,1.136722E-1,2.3116897E-1,-6.38576E-2,3.2814568E-1,-5.290819E-1,-8.407373E-1,2.0997241E-1,-1.2226312E-1,-2.326098E-2,2.5705907E-2,-3.532664E-2,2.2367168E-2,-3.184047E-2,-3.8356262E-3,-1.6404581E-1,-1.9912522E-3,3.0249067E-2,-5.6018036E-2,1.2833211E-2,-1.6186604E-2,-7.8565456E-2,3.0042646E-2,-3.5538923E-3],"categories":[],"categories_nodes":[],"categories_segments":[],"categories_sizes":[],"default_left":[0,0,0,0,0,0,0,0,0,0,0,0,0,0,0,0,0,0,0,0,0,0,0,0,0,0,0,0,0,0,0,0,0,0,0,0,0,0,0,0,0],"id":3,"left_children":[1,3,5,-1,7,9,11,-1,-1,13,15,-1,-1,17,19,21,23,25,27,29,31,33,35,37,39,-1,-1,-1,-1,-1,-1,-1,-1,-1,-1,-1,-1,-1,-1,-1,-1],"loss_changes":[2.250507E1,2.0412937E1,8.026736E0,0E0,7.40551E-1,6.857358E0,5.926899E0,0E0,0E0,6.731277E0,3.5267167E0,0E0,0E0,1.1247387E1,9.785798E0,3.4278812E0,4.8476825E0,1.2559208E1,9.001333E0,7.5138664E0,9.068559E0,2.91712E0,8.9039946E-1,6.7855644E-1,6.075977E-1,0E0,0E0,0E0,0E0,0E0,0E0,0E0,0E0,0E0,0E0,0E0,0E0,0E0,0E0,0E0,0E0],"parents":[2147483647,0,0,1,1,2,2,4,4,5,5,6,6,9,9,10,10,13,13,14,14,15,15,16,16,17,17,18,18,19,19,20,20,21,21,22,22,23,23,24,24],"right_children":[2,4,6,-1,8,10,12,-1,-1,14,16,-1,-1,18,20,22,24,26,28,30,32,34,36,38,40,-1,-1,-1,-1,-1,-1,-1,-1,-1,-1,-1,-1,-1,-1,-1,-1],"split_conditions":[7.18E0,1.14622E-1,2.634226E0,1.8096462E-2,-1.057471E0,1.032858E0,4.26794E-1,-8.547891E-2,-3.3879197E-1,-6.09958E-1,1.453051E0,-1.3858041E-1,1.3459731E-2,3.13465E-1,-4.47032E-1,1.788818E0,1.32425E-1,-1.274343E0,6.17866E-1,1.289291E0,2.328747E0,-9.22876E-1,5.97275E-1,1.511E3,3.36853E-1,-1.2226312E-1,-2.326098E-2,2.5705907E-2,-3.532664E-2,2.2367168E-2,-3.184047E-2,-3.8356262E-3,-1.6404581E-1,-1.9912522E-3,3.0249067E-2,-5.6018036E-2,1.2833211E-2,-1.6186604E-2,-7.8565456E-2,3.0042646E-2,-3.5538923E-3],"split_indices":[0,2,11,0,1,6,8,0,0,14,12,0,0,16,16,16,13,26,27,11,28,22,1,0,17,0,0,0,0,0,0,0,0,0,0,0,0,0,0,0,0],"split_type":[0,0,0,0,0,0,0,0,0,0,0,0,0,0,0,0,0,0,0,0,0,0,0,0,0,0,0,0,0,0,0,0,0,0,0,0,0,0,0,0,0],"sum_hessian":[8E2,4E0,7.96E2,2E0,2E0,7.91E2,5E0,1E0,1E0,6.62E2,1.29E2,3E0,2E0,1.56E2,5.06E2,1.12E2,1.7E1,9.1E1,6.5E1,1.67E2,3.39E2,1.08E2,4E0,6E0,1.1E1,7E0,8.4E1,4.7E1,1.8E1,1.52E2,1.5E1,3.38E2,1E0,1.9E1,8.9E1,3E0,1E0,2E0,4E0,6E0,5E0],"tree_param":{"num_deleted":"0","num_feature":"30","num_nodes":"41","size_leaf_vector":"1"}},{"base_weights":[-4.0257294E-3,-2.0403907E0,8.75451E-3,1.719164E-2,-3.629873E0,1.6971072E-2,-1.0772908E0,-8.227345E-2,-3.260873E-1,-2.1117533E-2,2.1109241E-1,-1.3078527E-1,1.2786745E-2,2.2152185E-1,-6.1094698E-2,2.7100316E-1,-1.7674127E-1,-1.7588297E-1,3.3825314E-1,-3.351332E-2,-4.9492133E-1,3.03794E-1,-4.9803773E-1,-7.912179E-1,1.9643189E-1,-5.4172624E-2,4.1403715E-2,4.165431E-2,1.5473822E-2,-1.3683537E-4,-2.9814314E-2,-1.0625107E-1,-1.8510427E-2,2.7000818E-2,-1.0427958E-2,-5.286702E-2,1.2351965E-2,-1.5377274E-2,-7.3851526E-2,-1.0695989E-2,2.4396963E-2],"categories":[],"categories_nodes":[],"categories_segments":[],"categories_sizes":[],"default_left":[0,0,0,0,0,0,0,0,0,0,0,0,0,0,0,0,0,0,0,0,0,0,0,0,0,0,0,0,0,0,0,0,0,0,0,0,0,0,0,0,0],"id":4,"left_children":[1,3,5,-1,7,9,11,-1,-1,13,15,-1,-1,17,19,21,23,25,27,29,31,33,35,37,39,-1,-1,-1,-1,-1,-1,-1,-1,-1,-1,-1,-1,-1,-1,-1,-1],"loss_changes":[2.0864075E1,1.8869589E1,7.130358E0,0E0,6.860466E-1,5.860356E0,5.287271E0,0E0,0E0,6.4446573E0,3.0684996E0,0E0,0E0,4.4201126E0,6.803769E0,3.0008783E0,4.2829323E0,9.149375E0,1.9767294E0,6.193615E0,7.4262543E0,2.7635803E0,8.015394E-1,5.919738E-1,5.70667E-1,0E0,0E0,0E0,0E0,0E0,0E0,0E0,0E0,0E0,0E0,0E0,0E0,0E0,0E0,0E0,0E0],"parents":[2147483647,0,0,1,1,2,2,4,4,5,5,6,6,9,9,10,10,13,13,14,14,15,15,16,16,17,17,18,18,19,19,20,20,21,21,22,22,23,23,24,24],"right_children":[2,4,6,-1,8,10,12,-1,-1,14,16,-1,-1,18,20,22,24,26,28,30,32,34,36,38,40,-1,-1,-1,-1,-1,-1,-1,-1,-1,-1,-1,-1,-1,-1,-1,-1],"split_conditions":[7.18E0,1.14622E-1,2.634226E0,1.719164E-2,-1.057471E0,1.032858E0,4.26794E-1,-8.227345E-2,-3.260873E-1,-1.012193E0,1.453051E0,-1.3078527E-1,1.2786745E-2,-8.19921E-1,1.644398E0,1.788818E0,1.32425E-1,-1.273036E0,3.5614E-2,1.501704E0,-8.396E-1,1.05934E0,5.97275E-1,1.511E3,-7.19827E-1,-5.4172624E-2,4.1403715E-2,4.165431E-2,1.5473822E-2,-1.3683537E-4,-2.9814314E-2,-1.0625107E-1,-1.8510427E-2,2.7000818E-2,-1.0427958E-2,-5.286702E-2,1.2351965E-2,-1.5377274E-2,-7.3851526E-2,-1.0695989E-2,2.4396963E-2],"split_indices":[0,2,11,0,1,6,8,0,0,12,12,0,0,21,27,16,13,12,7,5,14,17,1,0,15,0,0,0,0,0,0,0,0,0,0,0,0,0,0,0,0],"split_type":[0,0,0,0,0,0,0,0,0,0,0,0,0,0,0,0,0,0,0,0,0,0,0,0,0,0,0,0,0,0,0,0,0,0,0,0,0,0,0,0,0],"sum_hessian":[8E2,4E0,7.96E2,2E0,2E0,7.91E2,5E0,1E0,1E0,6.62E2,1.29E2,3E0,2E0,9.3E1,5.69E2,1.12E2,1.7E1,2.1E1,7.2E1,5.36E2,3.3E1,1.08E2,4E0,6E0,1.1E1,1.2E1,9E0,2.6E1,4.6E1,4.94E2,4.2E1,6E0,2.7E1,9.6E1,1.2E1,3E0,1E0,2E0,4E0,3E0,8E0],"tree_param":{"num_deleted":"0","num_feature":"30","num_nodes":"41","size_leaf_vector":"1"}},{"base_weights":[-4.621422E-3,-1.9655954E0,7.686597E-3,1.6332058E-2,-3.493753E0,1.5433308E-2,-1.0161604E0,-7.91882E-2,-3.1385902E-1,2.459095E-1,-1.4836653E-2,-1.2342859E-1,1.2147407E-2,3.5927904E-1,-4.0323794E-2,-1.4474713E-3,-6.2707204E-1,-4.7300294E-2,3.8421163E-1,1.6381916E-1,-7.821274E-1,3.6078304E-1,-2.203285E-2,-1.3945393E-1,-1.6404481E-1,3.206094E-2,-8.4374165E-3,2.6923988E-2,-4.286603E-2,1.6922312E-2,-7.716039E-2,-1.0678541E-3,3.7515532E-2,-4.55076E-3,1.3635217E-2,-9.184402E-2,1.2789174E-2],"categories":[],"categories_nodes":[],"categories_segments":[],"categories_sizes":[],"default_left":[0,0,0,0,0,0,0,0,0,0,0,0,0,0,0,0,0,0,0,0,0,0,0,0,0,0,0,0,0,0,0,0,0,0,0,0,0],"id":5,"left_children":[1,3,5,-1,7,9,11,-1,-1,13,15,-1,-1,17,19,21,23,-1,25,27,29,31,33,-1,35,-1,-1,-1,-1,-1,-1,-1,-1,-1,-1,-1,-1],"loss_changes":[1.9347809E1,1.7443363E1,6.3370457E0,0E0,6.3555527E-1,5.5290403E0,4.7167125E0,0E0,0E0,2.9999003E0,5.745422E0,0E0,0E0,1.8713245E0,4.2168446E0,5.1306686E0,8.2539E0,0E0,1.445035E0,3.3626058E0,1.7236798E0,1.9417396E0,5.1389694E0,0E0,4.46669E0,0E0,0E0,0E0,0E0,0E0,0E0,0E0,0E0,0E0,0E0,0E0,0E0],"parents":[2147483647,0,0,1,1,2,2,4,4,5,5,6,6,9,9,10,10,13,13,14,14,15,15,16,16,18,18,19,19,20,20,21,21,22,22,24,24],"right_children":[2,4,6,-1,8,10,12,-1,-1,14,16,-1,-1,18,20,22,24,-1,26,28,30,32,34,-1,36,-1,-1,-1,-1,-1,-1,-1,-1,-1,-1,-1,-1],"split_conditions":[7.18E0,1.14622E-1,2.634226E0,1.6332058E-2,-1.057471E0,-1.167567E0,4.26794E-1,-7.91882E-2,-3.1385902E-1,5.24452E-1,2.080519E0,-1.2342859E-1,1.2147407E-2,-2.497765E0,4.94226E-1,-1.571115E0,-7.68686E-1,-4.7300294E-2,1.485659E0,6.91836E-1,7.2964E2,-7.21449E-1,1.032858E0,-1.3945393E-1,-7.56287E-1,3.206094E-2,-8.4374165E-3,2.6923988E-2,-4.286603E-2,1.6922312E-2,-7.716039E-2,-1.0678541E-3,3.7515532E-2,-4.55076E-3,1.3635217E-2,-9.184402E-2,1.2789174E-2],"split_indices":[0,2,11,0,1,13,8,0,0,19,18,0,0,20,5,20,1,0,9,8,0,5,6,0,13,0,0,0,0,0,0,0,0,0,0,0,0],"split_type":[0,0,0,0,0,0,0,0,0,0,0,0,0,0,0,0,0,0,0,0,0,0,0,0,0,0,0,0,0,0,0,0,0,0,0,0,0],"sum_hessian":[8E2,4E0,7.96E2,2E0,2E0,7.91E2,5E0,1E0,1E0,9.1E1,7E2,3E0,2E0,6.5E1,2.6E1,6.86E2,1.4E1,1E0,6.4E1,2.1E1,5E0,3.6E1,6.5E2,3E0,1.1E1,5.9E1,5E0,1.7E1,4E0,1E0,4E0,1E1,2.6E1,5.47E2,1.03E2,2E0,9E0],"tree_param":{"num_deleted":"0","num_feature":"30","num_nodes":"37","size_leaf_vector":"1"}},{"base_weights":[-5.224665E-3,-1.8935187E0,6.6281515E-3,1.5515454E-2,-3.3627372E0,1.3931323E-2,-9.584952E-1,-7.6218635E-2,-3.020893E-1,-8.766674E-2,7.6393E-2,-1.1648574E-1,1.1540037E-2,3.4894562E-1,-1.371054E-1,1.0067599E-1,-5.3214633E-1,-4.6298765E-2,5.393619E-1,-3.020703E-1,1.1627752E-2,2.1045718E-1,6.797186E-3,-1.1477743E0,2.794152E-1,-5.7560593E-2,3.565807E-2,1.9231178E-2,5.203188E-2,-1.819018E-2,-1.5764186E-1,1.3532665E-2,-2.2480212E-2,3.0821089E-2,6.668946E-3,-1.1210554E-2,8.345409E-3,-1.04985945E-1,-6.8011583E-4,-2.0860635E-2,3.588388E-2],"categories":[],"categories_nodes":[],"categories_segments":[],"categories_sizes":[],"default_left":[0,0,0,0,0,0,0,0,0,0,0,0,0,0,0,0,0,0,0,0,0,0,0,0,0,0,0,0,0,0,0,0,0,0,0,0,0,0,0,0,0],"id":6,"left_children":[1,3,5,-1,7,9,11,-1,-1,13,15,-1,-1,17,19,21,23,25,27,29,31,33,35,37,39,-1,-1,-1,-1,-1,-1,-1,-1,-1,-1,-1,-1,-1,-1,-1,-1],"loss_changes":[1.7940212E1,1.6125326E1,5.6309767E0,0E0,5.887871E-1,5.0327177E0,4.2077613E0,0E0,0E0,6.566672E0,7.3091574E0,0E0,0E0,2.3580616E0,6.677236E0,4.8733673E0,9.813485E0,4.503815E0,7.395139E-1,1.3312766E1,7.622816E0,5.275511E0,4.1961975E0,3.1442785E0,1.1318454E0,0E0,0E0,0E0,0E0,0E0,0E0,0E0,0E0,0E0,0E0,0E0,0E0,0E0,0E0,0E0,0E0],"parents":[2147483647,0,0,1,1,2,2,4,4,5,5,6,6,9,9,10,10,13,13,14,14,15,15,16,16,17,17,18,18,19,19,20,20,21,21,22,22,23,23,24,24],"right_children":[2,4,6,-1,8,10,12,-1,-1,14,16,-1,-1,18,20,22,24,26,28,30,32,34,36,38,40,-1,-1,-1,-1,-1,-1,-1,-1,-1,-1,-1,-1,-1,-1,-1,-1],"split_conditions":[7.18E0,1.14622E-1,2.634226E0,1.5515454E-2,-1.057471E0,-3.7752E-1,4.26794E-1,-7.6218635E-2,-3.020893E-1,-1.291047E0,1.685492E0,-1.1648574E-1,1.1540037E-2,-4.05625E-1,5.193E-2,-9.7436E-2,6.06428E-1,7.3311E-2,-1.97448E-1,2.3576E-2,3.45202E-1,-3.87349E-1,-2.35328E-1,3.2742E-1,-8.57431E-1,-5.7560593E-2,3.565807E-2,1.9231178E-2,5.203188E-2,-1.819018E-2,-1.5764186E-1,1.3532665E-2,-2.2480212E-2,3.0821089E-2,6.668946E-3,-1.1210554E-2,8.345409E-3,-1.04985945E-1,-6.8011583E-4,-2.0860635E-2,3.588388E-2],"split_indices":[0,2,11,0,1,26,8,0,0,6,15,0,0,1,6,13,2,19,27,6,3,27,21,1,7,0,0,0,0,0,0,0,0,0,0,0,0,0,0,0,0],"split_type":[0,0,0,0,0,0,0,0,0,0,0,0,0,0,0,0,0,0,0,0,0,0,0,0,0,0,0,0,0,0,0,0,0,0,0,0,0,0,0,0,0],"sum_hessian":[8E2,4E0,7.96E2,2E0,2E0,7.91E2,5E0,1E0,1E0,3.01E2,4.9E2,3E0,2E0,3E1,2.71E2,4.72E2,1.8E1,1E1,2E1,1.28E2,1.43E2,2.17E2,2.55E2,1E1,8E0,4E0,6E0,8E0,1.2E1,1.25E2,3E0,9.3E1,5E1,8.1E1,1.36E2,1.02E2,1.53E2,8E0,2E0,2E0,6E0],"tree_param":{"num_deleted":"0","num_feature":"30","num_nodes":"41","size_leaf_vector":"1"}},{"base_weights":[-5.6557534E-3,-1.8240632E0,5.759169E-3,1.4739681E-2,-3.2366345E0,1.2644762E-2,-9.04099E-1,-7.336044E-2,-2.9076093E-1,2.2021143E-1,-1.4614551E-2,-1.0993341E-1,1.0963035E-2,3.2593247E-1,-6.0693227E-2,-6.5683216E-2,1.2923425E-1,-5.333525E-2,3.5242045E-1,1.2804164E-1,-7.111497E-1,-4.6511184E-2,-8.702279E-1,2.3148143E-1,-1.8253946E-1,3.495726E-2,3.5017263E-3,-2.5316017E-2,3.3039212E-2,-2.3569802E-2,-7.524606E-2,5.7702633E-3,-1.2517214E-2,-1.054183E-1,1.2028263E-2,2.0531777E-2,-3.7125066E-2,-1.326174E-1,-5.270658E-3],"categories":[],"categories_nodes":[],"categories_segments":[],"categories_sizes":[],"default_left":[0,0,0,0,0,0,0,0,0,0,0,0,0,0,0,0,0,0,0,0,0,0,0,0,0,0,0,0,0,0,0,0,0,0,0,0,0,0,0],"id":7,"left_children":[1,3,5,-1,7,9,11,-1,-1,13,15,-1,-1,17,19,21,23,-1,25,27,29,31,33,35,37,-1,-1,-1,-1,-1,-1,-1,-1,-1,-1,-1,-1,-1,-1],"loss_changes":[1.6636848E1,1.4907246E1,5.0045676E0,0E0,5.45454E-1,4.4844537E0,3.7537608E0,0E0,0E0,2.7519546E0,5.1581516E0,0E0,0E0,2.0910993E0,3.282916E0,7.949548E0,5.9078035E0,0E0,2.272025E0,3.2039375E0,3.8036084E-1,7.547514E0,6.8462257E0,4.4045424E0,8.064484E0,0E0,0E0,0E0,0E0,0E0,0E0,0E0,0E0,0E0,0E0,0E0,0E0,0E0,0E0],"parents":[2147483647,0,0,1,1,2,2,4,4,5,5,6,6,9,9,10,10,13,13,14,14,15,15,16,16,18,18,19,19,20,20,21,21,22,22,23,23,24,24],"right_children":[2,4,6,-1,8,10,12,-1,-1,14,16,-1,-1,18,20,22,24,-1,26,28,30,32,34,36,38,-1,-1,-1,-1,-1,-1,-1,-1,-1,-1,-1,-1,-1,-1],"split_conditions":[7.18E0,1.14622E-1,2.634226E0,1.4739681E-2,-1.057471E0,-1.167567E0,4.26794E-1,-7.336044E-2,-2.9076093E-1,7.27471E-1,6.3697E-1,-1.0993341E-1,1.0963035E-2,-1.831574E0,1.060592E0,2.080519E0,3.86434E3,-5.333525E-2,3.37953E3,-5.4511E-1,2.089343E0,-8.0512E-2,5.193E-2,1.864371E0,-1.450973E0,3.495726E-2,3.5017263E-3,-2.5316017E-2,3.3039212E-2,-2.3569802E-2,-7.524606E-2,5.7702633E-3,-1.2517214E-2,-1.054183E-1,1.2028263E-2,2.0531777E-2,-3.7125066E-2,-1.326174E-1,-5.270658E-3],"split_indices":[0,2,11,0,1,13,8,0,0,20,14,0,0,25,3,18,0,0,0,3,3,7,6,5,1,0,0,0,0,0,0,0,0,0,0,0,0,0,0],"split_type":[0,0,0,0,0,0,0,0,0,0,0,0,0,0,0,0,0,0,0,0,0,0,0,0,0,0,0,0,0,0,0,0,0,0,0,0,0,0,0],"sum_hessian":[8E2,4E0,7.96E2,2E0,2E0,7.91E2,5E0,1E0,1E0,9.1E1,7E2,3E0,2E0,6.6E1,2.5E1,5.17E2,1.83E2,1E0,6.5E1,2E1,5E0,5.06E2,1.1E1,1.38E2,4.5E1,4.7E1,1.8E1,8E0,1.2E1,3E0,2E0,2.5E2,2.56E2,7E0,4E0,1.31E2,7E0,2E0,4.3E1],"tree_param":{"num_deleted":"0","num_feature":"30","num_nodes":"39","size_leaf_vector":"1"}},{"base_weights":[-6.2414836E-3,-1.7571348E0,4.750622E-3,1.4002698E-2,-3.1152606E0,1.1241118E-2,-8.527866E-1,-7.060943E-2,-2.798574E-1,-8.265882E-2,6.897338E-2,-1.0374966E-1,1.0414883E-2,-6.787046E-2,-1.5339421E0,9.165053E-2,-4.9919847E-1,-3.082903E-1,1.6526934E-2,-1.5545389E-1,-1.7114606E-2,-1.384225E-1,1.333056E-1,-1.0685687E0,2.5216496E-1,-8.955665E-3,-6.663992E-2,1.0362231E-2,-1.7647725E-2,-3.2216452E-2,2.1988688E-2,1.6187277E-2,2.7569022E-4,-1.0441063E-1,-1.1571038E-2,-1.9372616E-2,3.2618456E-2],"categories":[],"categories_nodes":[],"categories_segments":[],"categories_sizes":[],"default_left":[0,0,0,0,0,0,0,0,0,0,0,0,0,0,0,0,0,0,0,0,0,0,0,0,0,0,0,0,0,0,0,0,0,0,0,0,0],"id":8,"left_children":[1,3,5,-1,7,9,11,-1,-1,13,15,-1,-1,17,19,21,23,25,27,-1,-1,29,31,33,35,-1,-1,-1,-1,-1,-1,-1,-1,-1,-1,-1,-1],"loss_changes":[1.5424397E1,1.37815075E1,4.445562E0,0E0,5.0531197E-1,4.299178E0,3.348774E0,0E0,0E0,6.3774457E0,6.3720493E0,0E0,0E0,6.0923376E0,1.6375341E0,4.5515466E0,8.397731E0,8.442464E0,6.8633614E0,0E0,0E0,9.298623E0,4.288968E0,3.0394487E0,9.5191824E-1,0E0,0E0,0E0,0E0,0E0,0E0,0E0,0E0,0E0,0E0,0E0,0E0],"parents":[2147483647,0,0,1,1,2,2,4,4,5,5,6,6,9,9,10,10,13,13,14,14,15,15,16,16,17,17,18,18,21,21,22,22,23,23,24,24],"right_children":[2,4,6,-1,8,10,12,-1,-1,14,16,-1,-1,18,20,22,24,26,28,-1,-1,30,32,34,36,-1,-1,-1,-1,-1,-1,-1,-1,-1,-1,-1,-1],"split_conditions":[7.18E0,1.14622E-1,2.634226E0,1.4002698E-2,-1.057471E0,-3.7752E-1,4.26794E-1,-7.060943E-2,-2.798574E-1,2.608043E0,1.685492E0,-1.0374966E-1,1.0414883E-2,-7.69053E-1,7.2964E2,-1.06402E0,6.06428E-1,6.60095E-1,4.13244E-1,-1.5545389E-1,-1.7114606E-2,-4.8724E-2,3.55128E-1,9.89131E-1,-8.57431E-1,-8.955665E-3,-6.663992E-2,1.0362231E-2,-1.7647725E-2,-3.2216452E-2,2.1988688E-2,1.6187277E-2,2.7569022E-4,-1.0441063E-1,-1.1571038E-2,-1.9372616E-2,3.2618456E-2],"split_indices":[0,2,11,0,1,26,8,0,0,28,15,0,0,9,0,25,2,7,15,0,0,11,13,12,7,0,0,0,0,0,0,0,0,0,0,0,0],"split_type":[0,0,0,0,0,0,0,0,0,0,0,0,0,0,0,0,0,0,0,0,0,0,0,0,0,0,0,0,0,0,0,0,0,0,0,0,0],"sum_hessian":[8E2,4E0,7.96E2,2E0,2E0,7.91E2,5E0,1E0,1E0,3.01E2,4.9E2,3E0,2E0,2.99E2,2E0,4.72E2,1.8E1,7.7E1,2.22E2,1E0,1E0,7.2E1,4E2,1E1,8E0,5.9E1,1.8E1,1.5E2,7.2E1,4.3E1,2.9E1,2.44E2,1.56E2,7E0,3E0,2E0,6E0],"tree_param":{"num_deleted":"0","num_feature":"30","num_nodes":"37","size_leaf_vector":"1"}},{"base_weights":[-6.749338E-3,-1.6926426E0,3.835625E-3,1.3302563E-2,-2.9984384E0,-2.837527E-2,1.6932057E-1,-6.796157E-2,-2.6936278E-1,2.5634512E-2,-1.8799962E-1,2.2402248E-1,-1.834926E-1,-3.4755617E-1,6.150925E-2,-8.3132595E-1,-9.606773E-2,-6.7679055E-2,2.4213675E-1,-7.2945344E-1,1.5027562E-1,2.5446156E-1,-5.559397E-1,-8.938667E-2,7.2416335E-2,-1.5149516E-1,-4.328334E-1,-4.6266925E-1,8.153796E-3,2.7123237E-1,-4.3475622E-1,-1.513284E-2,-6.7512915E-2,3.2751468E-1,-8.154923E-2,5.3231206E-2,-1.2910264E-2,1.3192617E-2,-6.282821E-2,-3.910037E-3,1.1988252E-2,-9.5987484E-2,2.005191E-3,-7.1700364E-2,4.341162E-3,-6.551237E-2,4.7760014E-3,2.2689816E-2,-3.2551672E-2,-5.994045E-2,5.5959197E-3,3.0879324E-2,5.849533E-3,-2.2873519E-2,1.8099768E-3],"categories":[],"categories_nodes":[],"categories_segments":[],"categories_sizes":[],"default_left":[0,0,0,0,0,0,0,0,0,0,0,0,0,0,0,0,0,0,0,0,0,0,0,0,0,0,0,0,0,0,0,0,0,0,0,0,0,0,0,0,0,0,0,0,0,0,0,0,0,0,0,0,0,0,0],"id":9,"left_children":[1,3,5,-1,7,9,11,-1,-1,13,15,17,19,21,23,25,27,-1,29,31,33,35,37,-1,39,-1,41,43,45,47,49,-1,-1,51,53,-1,-1,-1,-1,-1,-1,-1,-1,-1,-1,-1,-1,-1,-1,-1,-1,-1,-1,-1,-1],"loss_changes":[1.430043E1,1.2741083E1,4.2531476E0,0E0,4.681244E-1,5.763832E0,2.5500488E0,0E0,0E0,6.715437E0,9.915169E0,2.5241628E0,3.389658E0,5.66129E0,6.333586E0,9.072395E0,5.6967306E0,0E0,2.323718E0,4.489677E-1,5.1976967E-1,2.4528751E0,6.9523077E0,0E0,4.9519615E0,0E0,6.651552E0,8.529953E0,5.7833357E0,2.5152311E0,9.8782665E-1,0E0,0E0,1.1497253E-1,1.4903626E-1,0E0,0E0,0E0,0E0,0E0,0E0,0E0,0E0,0E0,0E0,0E0,0E0,0E0,0E0,0E0,0E0,0E0,0E0,0E0,0E0],"parents":[2147483647,0,0,1,1,2,2,4,4,5,5,6,6,9,9,10,10,11,11,12,12,13,13,14,14,15,15,16,16,18,18,19,19,20,20,21,21,22,22,24,24,26,26,27,27,28,28,29,29,30,30,33,33,34,34],"right_children":[2,4,6,-1,8,10,12,-1,-1,14,16,18,20,22,24,26,28,-1,30,32,34,36,38,-1,40,-1,42,44,46,48,50,-1,-1,52,54,-1,-1,-1,-1,-1,-1,-1,-1,-1,-1,-1,-1,-1,-1,-1,-1,-1,-1,-1,-1],"split_conditions":[7.18E0,1.14622E-1,1.032858E0,1.3302563E-2,-1.057471E0,6.02359E-1,1.453051E0,-6.796157E-2,-2.6936278E-1,-1.296876E0,-1.164749E0,-2.240674E0,1.32425E-1,-7.35583E-1,-2.389955E0,-1.014023E0,-7.03752E-1,-6.7679055E-2,1.874709E0,1.511E3,3.36853E-1,-6.33855E-1,-5.05793E-1,-8.938667E-2,-2.4607E-1,-1.5149516E-1,-8.69522E-1,-1.17571E-1,-1.790976E0,1.788818E0,-1.95298E-1,-1.513284E-2,-6.7512915E-2,6.81013E-1,1.94203E-1,5.3231206E-2,-1.2910264E-2,1.3192617E-2,-6.282821E-2,-3.910037E-3,1.1988252E-2,-9.5987484E-2,2.005191E-3,-7.1700364E-2,4.341162E-3,-6.551237E-2,4.7760014E-3,2.2689816E-2,-3.2551672E-2,-5.994045E-2,5.5959197E-3,3.0879324E-2,5.849533E-3,-2.2873519E-2,1.8099768E-3],"split_indices":[0,2,6,0,1,27,12,0,0,19,10,1,13,24,25,8,26,0,9,0,17,7,21,0,28,0,14,9,22,16,1,0,0,16,2,0,0,0,0,0,0,0,0,0,0,0,0,0,0,0,0,0,0,0,0],"split_type":[0,0,0,0,0,0,0,0,0,0,0,0,0,0,0,0,0,0,0,0,0,0,0,0,0,0,0,0,0,0,0,0,0,0,0,0,0,0,0,0,0,0,0,0,0,0,0,0,0,0,0,0,0,0,0],"sum_hessian":[8E2,4E0,7.96E2,2E0,2E0,6.67E2,1.29E2,1E0,1E0,4.99E2,1.68E2,1.12E2,1.7E1,4.3E1,4.56E2,2E1,1.48E2,1E0,1.11E2,6E0,1.1E1,1.1E1,3.2E1,3E0,4.53E2,4E0,1.6E1,3.2E1,1.16E2,1.07E2,4E0,2E0,4E0,6E0,5E0,5E0,6E0,9E0,2.3E1,1.87E2,2.66E2,5E0,1.1E1,1.6E1,1.6E1,6E0,1.1E2,1.03E2,4E0,2E0,2E0,4E0,2E0,1E0,4E0],"tree_param":{"num_deleted":"0","num_feature":"30","num_nodes":"55","size_leaf_vector":"1"}},{"base_weights":[-7.4754534E-3,-1.6304986E0,2.7160041E-3,1.2637435E-2,-2.8859968E0,8.862724E-3,-8.0910367E-1,-6.541301E-2,-2.5926167E-1,1.7308122E-1,-2.1008393E-2,-1.3102089E0,9.655338E-3,2.0758578E-1,-1.5007392E-1,-3.7547928E-1,2.656346E-3,-1.1152079E-1,-2.9250152E-2,3.9731076E-1,3.8017936E-2,-8.205473E-1,1.5512288E-1,-1.5885682E-1,5.4795492E-2,4.138254E-2,1.718655E-2,-3.605107E-2,1.3270238E-2,-7.8869715E-2,4.048756E-2,3.393887E-2,-1.4064322E-2,-6.732148E-2,-5.4507395E-3,1.9908177E-2,2.8272308E-4],"categories":[],"categories_nodes":[],"categories_segments":[],"categories_sizes":[],"default_left":[0,0,0,0,0,0,0,0,0,0,0,0,0,0,0,0,0,0,0,0,0,0,0,0,0,0,0,0,0,0,0,0,0,0,0,0,0],"id":10,"left_children":[1,3,5,-1,7,9,11,-1,-1,13,15,17,-1,19,-1,21,23,-1,-1,25,27,29,31,33,35,-1,-1,-1,-1,-1,-1,-1,-1,-1,-1,-1,-1],"loss_changes":[1.3253748E1,1.1779483E1,3.9842234E0,0E0,4.3367195E-1,3.8887053E0,2.9884171E0,0E0,0E0,9.567232E0,5.629655E0,7.062006E-2,0E0,3.8776174E0,0E0,1.0045755E1,5.3140345E0,0E0,0E0,1.3540144E0,4.7687488E0,7.7969255E0,2.1228914E0,9.739452E0,5.126003E0,0E0,0E0,0E0,0E0,0E0,0E0,0E0,0E0,0E0,0E0,0E0,0E0],"parents":[2147483647,0,0,1,1,2,2,4,4,5,5,6,6,9,9,10,10,11,11,13,13,15,15,16,16,19,19,20,20,21,21,22,22,23,23,24,24],"right_children":[2,4,6,-1,8,10,12,-1,-1,14,16,18,-1,20,-1,22,24,-1,-1,26,28,30,32,34,36,-1,-1,-1,-1,-1,-1,-1,-1,-1,-1,-1,-1],"split_conditions":[7.18E0,1.14622E-1,2.634226E0,1.2637435E-2,-1.057471E0,-9.8494E-1,4.26794E-1,-6.541301E-2,-2.5926167E-1,2.608043E0,-8.1537E-1,1.41743E3,9.655338E-3,-6.25E-3,-1.5007392E-1,1.65555E-1,-6.09958E-1,-1.1152079E-1,-2.9250152E-2,7.0486E-2,1.56757E-1,8.39895E-1,-2.29054E-1,-1.071756E0,-9.04372E-1,4.138254E-2,1.718655E-2,-3.605107E-2,1.3270238E-2,-7.8869715E-2,4.048756E-2,3.393887E-2,-1.4064322E-2,-6.732148E-2,-5.4507395E-3,1.9908177E-2,2.8272308E-4],"split_indices":[0,2,11,0,1,12,8,0,0,28,12,0,0,16,0,28,14,0,0,7,16,11,4,26,6,0,0,0,0,0,0,0,0,0,0,0,0],"split_type":[0,0,0,0,0,0,0,0,0,0,0,0,0,0,0,0,0,0,0,0,0,0,0,0,0,0,0,0,0,0,0,0,0,0,0,0,0],"sum_hessian":[8E2,4E0,7.96E2,2E0,2E0,7.91E2,5E0,1E0,1E0,1.21E2,6.7E2,3E0,2E0,1.2E2,1E0,4.1E1,6.29E2,2E0,1E0,5.6E1,6.4E1,2.2E1,1.9E1,1.53E2,4.76E2,2.8E1,2.8E1,1.3E1,5.1E1,1.9E1,3E0,1E1,9E0,1.5E1,1.38E2,9.2E1,3.84E2],"tree_param":{"num_deleted":"0","num_feature":"30","num_nodes":"37","size_leaf_vector":"1"}},{"base_weights":[-7.699473E-3,-1.5706189E0,2.1152024E-3,1.2005563E-2,-2.7777722E0,2.8865203E-1,-1.5011322E-2,-6.296003E-2,-2.4953936E-1,-4.6489652E-2,3.2338786E-1,3.4017807E-3,-3.3485353E-1,3.8425934E-1,-2.282617E-1,-1.4348425E-1,4.615992E-2,-9.6080357E-1,2.5298486E-2,1.6367397E-1,5.100636E-1,-4.511922E-2,-3.6031187E-2,-9.2692924E-1,-5.0642535E-2,-6.5760124E-1,5.901185E-2,3.1088933E-2,-1.2042778E0,1.8718308E-1,-7.142503E-2,1.3254085E-3,3.6100775E-2,4.135622E-2,1.725388E-3,1.1366289E-3,-5.2696746E-3,-1.45769E-1,1.4454019E-2,-1.3587158E-2,2.6218053E-2,-1.0650928E-1,-9.5948335E-3,2.1002254E-2,1.4805588E-3,-5.850258E-3,-1.1507698E-1,-1.3988131E-2,3.8829777E-2],"categories":[],"categories_nodes":[],"categories_segments":[],"categories_sizes":[],"default_left":[0,0,0,0,0,0,0,0,0,0,0,0,0,0,0,0,0,0,0,0,0,0,0,0,0,0,0,0,0,0,0,0,0,0,0,0,0,0,0,0,0,0,0,0,0,0,0,0,0],"id":11,"left_children":[1,3,5,-1,7,9,11,-1,-1,-1,13,15,17,19,21,23,25,27,29,31,33,35,-1,37,39,41,43,-1,45,47,-1,-1,-1,-1,-1,-1,-1,-1,-1,-1,-1,-1,-1,-1,-1,-1,-1,-1,-1],"loss_changes":[1.2290299E1,1.089071E1,3.915515E0,0E0,4.017582E-1,1.6205652E0,4.435772E0,0E0,0E0,0E0,1.5652199E0,4.484672E0,9.267231E0,1.0265388E0,2.0922464E-1,1.1663615E1,5.0405207E0,5.52203E0,4.4513774E0,7.335795E-1,4.9084377E-1,7.126759E-3,0E0,1.9725668E1,7.6375628E0,3.8571763E0,4.7161856E0,0E0,4.713232E0,3.061106E0,0E0,0E0,0E0,0E0,0E0,0E0,0E0,0E0,0E0,0E0,0E0,0E0,0E0,0E0,0E0,0E0,0E0,0E0,0E0],"parents":[2147483647,0,0,1,1,2,2,4,4,5,5,6,6,10,10,11,11,12,12,13,13,14,14,15,15,16,16,17,17,18,18,19,19,20,20,21,21,23,23,24,24,25,25,26,26,28,28,29,29],"right_children":[2,4,6,-1,8,10,12,-1,-1,-1,14,16,18,20,22,24,26,28,30,32,34,36,-1,38,40,42,44,-1,46,48,-1,-1,-1,-1,-1,-1,-1,-1,-1,-1,-1,-1,-1,-1,-1,-1,-1,-1,-1],"split_conditions":[7.18E0,1.14622E-1,-1.571115E0,1.2005563E-2,-1.057471E0,-2.120339E0,1.571821E0,-6.296003E-2,-2.4953936E-1,-4.6489652E-2,1.173177E0,-6.6893E-1,-4.84967E-1,-1.903311E0,4.26112E3,-1.071756E0,-2.154132E0,-1.561185E0,1.639379E0,7.09056E-1,1.261934E0,1.44414E3,-3.6031187E-2,3.6968E-2,6.99913E-1,-7.99496E-1,-1.121063E0,3.1088933E-2,-2.00929E-1,-2.39081E-1,-7.142503E-2,1.3254085E-3,3.6100775E-2,4.135622E-2,1.725388E-3,1.1366289E-3,-5.2696746E-3,-1.45769E-1,1.4454019E-2,-1.3587158E-2,2.6218053E-2,-1.0650928E-1,-9.5948335E-3,2.1002254E-2,1.4805588E-3,-5.850258E-3,-1.1507698E-1,-1.3988131E-2,3.8829777E-2],"split_indices":[0,2,20,0,1,8,15,0,0,0,24,14,1,20,0,26,18,6,16,19,1,0,0,6,16,23,11,0,21,28,0,0,0,0,0,0,0,0,0,0,0,0,0,0,0,0,0,0,0],"split_type":[0,0,0,0,0,0,0,0,0,0,0,0,0,0,0,0,0,0,0,0,0,0,0,0,0,0,0,0,0,0,0,0,0,0,0,0,0,0,0,0,0,0,0,0,0,0,0,0,0],"sum_hessian":[8E2,4E0,7.96E2,2E0,2E0,4.4E1,7.52E2,1E0,1E0,1E0,4.3E1,7.12E2,4E1,3.9E1,4E0,1.6E2,5.52E2,1.4E1,2.6E1,1.5E1,2.4E1,3E0,1E0,1.6E1,1.44E2,9E0,5.43E2,2E0,1.2E1,2.3E1,3E0,1.1E1,4E0,2.2E1,2E0,1E0,2E0,8E0,8E0,1.09E2,3.5E1,3E0,6E0,8.1E1,4.62E2,3E0,9E0,1.1E1,1.2E1],"tree_param":{"num_deleted":"0","num_feature":"30","num_nodes":"49","size_leaf_vector":"1"}},{"base_weights":[-7.940198E-3,-1.5129212E0,1.511301E-3,1.1405284E-2,-2.6736057E0,2.8632268E-1,-1.43135525E-2,-6.0599025E-2,-2.4018164E-1,3.905889E-1,-2.9080686E-1,-4.6589833E-2,1.474376E-1,-4.1735716E-2,4.3354723E-1,-6.1761063E-1,2.6310133E-2,-3.423417E-2,-6.810832E-1,3.314891E-1,5.1465575E-2,4.0679265E-2,4.9766925E-1,-5.8814403E-2,-1.8386928E-2,8.427948E-2,-9.2129976E-2,-1.2188503E0,3.1556067E-1,-8.957652E-2,4.0219098E-1,-4.0293276E-2,4.1547358E-1,2.7088812E-2,-1.5740192E-2,-1.1124841E-2,3.93795E-2,1.4221267E-2,-1.588769E-2,-3.922409E-2,-4.660651E-3,-1.4611995E-2,-1.1457903E-1,3.474422E-2,4.7008633E-3,1.6542276E-2,-4.324635E-2,8.542393E-3,3.4073655E-2,1.7627744E-2,-1.6224876E-2,3.2971334E-2,1.0937398E-3],"categories":[],"categories_nodes":[],"categories_segments":[],"categories_sizes":[],"default_left":[0,0,0,0,0,0,0,0,0,0,0,0,0,0,0,0,0,0,0,0,0,0,0,0,0,0,0,0,0,0,0,0,0,0,0,0,0,0,0,0,0,0,0,0,0,0,0,0,0,0,0,0,0],"id":12,"left_children":[1,3,5,-1,7,9,11,-1,-1,13,15,17,19,-1,21,23,-1,25,27,29,31,33,35,-1,-1,37,39,41,43,45,47,49,51,-1,-1,-1,-1,-1,-1,-1,-1,-1,-1,-1,-1,-1,-1,-1,-1,-1,-1,-1,-1],"loss_changes":[1.1395972E1,1.0069227E1,3.596256E0,0E0,3.7219048E-1,2.6409407E0,3.9537377E0,0E0,0E0,1.7058945E0,1.6844196E0,4.923462E0,2.2085776E0,0E0,8.614569E-1,1.1796582E-1,0E0,4.261859E0,6.816168E0,1.3161426E0,2.822421E0,5.576135E-1,6.087165E-1,0E0,0E0,6.403341E0,5.3553696E0,2.2326822E0,1.577121E-1,1.184539E0,5.0425625E-1,3.3467126E0,1.5813494E-1,0E0,0E0,0E0,0E0,0E0,0E0,0E0,0E0,0E0,0E0,0E0,0E0,0E0,0E0,0E0,0E0,0E0,0E0,0E0,0E0],"parents":[2147483647,0,0,1,1,2,2,4,4,5,5,6,6,9,9,10,10,11,11,12,12,14,14,15,15,17,17,18,18,19,19,20,20,21,21,22,22,25,25,26,26,27,27,28,28,29,29,30,30,31,31,32,32],"right_children":[2,4,6,-1,8,10,12,-1,-1,14,16,18,20,-1,22,24,-1,26,28,30,32,34,36,-1,-1,38,40,42,44,46,48,50,52,-1,-1,-1,-1,-1,-1,-1,-1,-1,-1,-1,-1,-1,-1,-1,-1,-1,-1,-1,-1],"split_conditions":[7.18E0,1.14622E-1,-1.688117E0,1.1405284E-2,-1.057471E0,7.73143E-1,1.032858E0,-6.0599025E-2,-2.4018164E-1,-2.215141E0,1.03279E-1,2.080519E0,-3.78975E-1,-4.1735716E-2,-1.416141E0,-2.43526E-1,2.6310133E-2,-4.19753E-1,7.3886E-2,-1.087858E0,8.69836E-1,-4.73458E-1,-1.551684E0,-5.8814403E-2,-1.8386928E-2,6.27291E-1,-2.91549E-1,-2.183349E0,6.6444E2,6.83729E-1,-1.020462E0,-5.01924E-1,1.976173E0,2.7088812E-2,-1.5740192E-2,-1.1124841E-2,3.93795E-2,1.4221267E-2,-1.588769E-2,-3.922409E-2,-4.660651E-3,-1.4611995E-2,-1.1457903E-1,3.474422E-2,4.7008633E-3,1.6542276E-2,-4.324635E-2,8.542393E-3,3.4073655E-2,1.7627744E-2,-1.6224876E-2,3.2971334E-2,1.0937398E-3],"split_indices":[0,2,27,0,1,28,6,0,0,19,4,18,4,0,15,3,0,13,12,19,10,1,10,0,0,5,13,4,0,5,26,10,9,0,0,0,0,0,0,0,0,0,0,0,0,0,0,0,0,0,0,0,0],"split_type":[0,0,0,0,0,0,0,0,0,0,0,0,0,0,0,0,0,0,0,0,0,0,0,0,0,0,0,0,0,0,0,0,0,0,0,0,0,0,0,0,0,0,0,0,0,0,0,0,0,0,0,0,0],"sum_hessian":[8E2,4E0,7.96E2,2E0,2E0,4.1E1,7.55E2,1E0,1E0,3.5E1,6E0,6.3E2,1.25E2,1E0,3.4E1,4E0,2E0,6.19E2,1.1E1,4.2E1,8.3E1,5E0,2.9E1,2E0,2E0,2.03E2,4.16E2,7E0,4E0,6E0,3.6E1,6.7E1,1.6E1,2E0,3E0,1E0,2.8E1,1.5E2,5.3E1,2.6E1,3.9E2,2E0,5E0,2E0,2E0,4E0,2E0,6E0,3E1,2.6E1,4.1E1,1.5E1,1E0],"tree_param":{"num_deleted":"0","num_feature":"30","num_nodes":"53","size_leaf_vector":"1"}},{"base_weights":[-7.876913E-3,-1.4573271E0,1.2261334E-3,1.083502E-2,-2.5733454E0,6.887859E-3,-7.46326E-1,-5.8326565E-2,-2.3117481E-1,2.247185E-2,-2.5855073E-1,-1.2128048E0,9.331576E-3,3.8189147E-2,-2.7261198E-1,-1.06787E0,-7.657492E-2,-1.02591135E-1,-2.803402E-2,6.1759442E-2,-2.014251E-1,8.825749E-2,-1.0618507E0,1.7656088E-3,-1.2825035E-1,1.2679663E-1,-7.233749E-1,5.4180133E-3,-3.754594E-2,-1.1246188E-1,-1.0152498E-2,2.4956467E-2,-7.9055466E-2,-1.1615774E-1,2.2438517E-2,-9.173635E-3,1.4025295E-2,-2.0880772E-2,2.2081412E-2,1.0758603E-2,-8.855209E-2],"categories":[],"categories_nodes":[],"categories_segments":[],"categories_sizes":[],"default_left":[0,0,0,0,0,0,0,0,0,0,0,0,0,0,0,0,0,0,0,0,0,0,0,0,0,0,0,0,0,0,0,0,0,0,0,0,0,0,0,0,0],"id":13,"left_children":[1,3,5,-1,7,9,11,-1,-1,13,15,17,-1,19,21,23,25,-1,-1,27,29,31,33,35,-1,37,39,-1,-1,-1,-1,-1,-1,-1,-1,-1,-1,-1,-1,-1,-1],"loss_changes":[1.0570511E1,9.30992E0,3.3783915E0,0E0,3.4480095E-1,3.2819922E0,2.588008E0,0E0,0E0,3.4842124E0,6.3983955E0,9.153366E-3,0E0,4.033659E0,1.0916578E1,5.497819E0,4.9587283E0,0E0,0E0,3.8614142E0,5.2849092E0,7.8916974E0,8.415906E0,1.1481145E-1,0E0,2.0516973E0,3.737104E0,0E0,0E0,0E0,0E0,0E0,0E0,0E0,0E0,0E0,0E0,0E0,0E0,0E0,0E0],"parents":[2147483647,0,0,1,1,2,2,4,4,5,5,6,6,9,9,10,10,11,11,13,13,14,14,15,15,16,16,19,19,20,20,21,21,22,22,23,23,25,25,26,26],"right_children":[2,4,6,-1,8,10,12,-1,-1,14,16,18,-1,20,22,24,26,-1,-1,28,30,32,34,36,-1,38,40,-1,-1,-1,-1,-1,-1,-1,-1,-1,-1,-1,-1,-1,-1],"split_conditions":[7.18E0,1.14622E-1,2.634226E0,1.083502E-2,-1.057471E0,1.66617E0,4.26794E-1,-5.8326565E-2,-2.3117481E-1,1.635015E0,-8.396E-1,1.41743E3,9.331576E-3,4.55179E3,3.51785E-1,-5.01855E-1,7.13061E-1,-1.02591135E-1,-2.803402E-2,2.123895E0,-1.391769E0,6.65251E-1,1.470715E0,3.79868E-1,-1.2825035E-1,-7.42421E-1,-2.05677E-1,5.4180133E-3,-3.754594E-2,-1.1246188E-1,-1.0152498E-2,2.4956467E-2,-7.9055466E-2,-1.1615774E-1,2.2438517E-2,-9.173635E-3,1.4025295E-2,-2.0880772E-2,2.2081412E-2,1.0758603E-2,-8.855209E-2],"split_indices":[0,2,11,0,1,27,8,0,0,5,14,0,0,0,23,6,1,0,0,18,28,17,12,1,0,22,10,0,0,0,0,0,0,0,0,0,0,0,0,0,0],"split_type":[0,0,0,0,0,0,0,0,0,0,0,0,0,0,0,0,0,0,0,0,0,0,0,0,0,0,0,0,0,0,0,0,0,0,0,0,0,0,0,0,0],"sum_hessian":[8E2,4E0,7.96E2,2E0,2E0,7.91E2,5E0,1E0,1E0,7.48E2,4.3E1,3E0,2E0,7.11E2,3.7E1,7E0,3.6E1,2E0,1E0,6.48E2,6.3E1,2.6E1,1.1E1,3E0,4E0,2.8E1,8E0,6.37E2,1.1E1,2E0,6.1E1,2.2E1,4E0,8E0,3E0,2E0,1E0,8E0,2E1,3E0,5E0],"tree_param":{"num_deleted":"0","num_feature":"30","num_nodes":"41","size_leaf_vector":"1"}},{"base_weights":[-8.412877E-3,-1.4037608E0,3.5143015E-4,1.02932695E-2,-2.476845E0,2.6225144E-1,-1.530043E-2,-5.6139316E-2,-2.2250575E-1,-4.435368E-2,2.950927E-1,4.1081065E-1,-2.7487377E-2,-8.8400515E-3,3.966715E-1,5.904206E-1,1.5419765E-1,5.0277566E-3,-1.8878217E-1,-3.1513415E-2,1.1544559E-1,4.3997878E-1,-2.7300976E-2,4.7948983E-2,1.729624E-2,2.1394053E-2,-3.3909567E-2,-1.1043757E-1,7.5509146E-2,-1.446571E-1,-1.099004E-1,1.9498117E-2,-6.0809036E-3,9.391947E-3,3.8508695E-2,3.049928E-3,-4.7633834E-3,2.1436762E-3,-1.0645396E-2,-4.352018E-3,-6.107662E-2,8.79645E-3,-2.452124E-2,-5.010196E-2,-4.3286607E-3],"categories":[],"categories_nodes":[],"categories_segments":[],"categories_sizes":[],"default_left":[0,0,0,0,0,0,0,0,0,0,0,0,0,0,0,0,0,0,0,0,0,0,0,0,0,0,0,0,0,0,0,0,0,0,0,0,0,0,0,0,0,0,0,0,0],"id":14,"left_children":[1,3,5,-1,7,9,11,-1,-1,-1,13,15,17,19,21,23,25,27,29,-1,31,33,35,-1,-1,-1,37,39,41,43,-1,-1,-1,-1,-1,-1,-1,-1,-1,-1,-1,-1,-1,-1,-1],"loss_changes":[9.796128E0,8.608068E0,3.2710927E0,0E0,3.1942368E-1,1.4360621E0,3.9216154E0,0E0,0E0,0E0,1.3619244E0,8.768537E-1,3.8451838E0,6.6198987E-1,6.1792755E-1,6.369209E-2,2.561994E-1,4.9807525E0,6.7163897E0,0E0,3.0511364E-1,6.2945414E-1,1.2427262E-2,0E0,0E0,0E0,3.7811648E-2,8.511869E0,6.427465E0,5.421751E0,0E0,0E0,0E0,0E0,0E0,0E0,0E0,0E0,0E0,0E0,0E0,0E0,0E0,0E0,0E0],"parents":[2147483647,0,0,1,1,2,2,4,4,5,5,6,6,10,10,11,11,12,12,13,13,14,14,15,15,16,16,17,17,18,18,20,20,21,21,22,22,26,26,27,27,28,28,29,29],"right_children":[2,4,6,-1,8,10,12,-1,-1,-1,14,16,18,20,22,24,26,28,30,-1,32,34,36,-1,-1,-1,38,40,42,44,-1,-1,-1,-1,-1,-1,-1,-1,-1,-1,-1,-1,-1,-1,-1],"split_conditions":[7.18E0,1.14622E-1,-1.571115E0,1.02932695E-2,-1.057471E0,-2.120339E0,-1.803967E0,-5.6139316E-2,-2.2250575E-1,-4.435368E-2,-7.21449E-1,-3.29113E-1,9.11511E-1,-1.337999E0,1.091974E0,3.35452E-1,3.6428E-1,-3.7752E-1,2.031793E0,-3.1513415E-2,4.65082E-1,-1.983489E0,1.44414E3,4.7948983E-2,1.729624E-2,2.1394053E-2,1.64258E3,1.440297E0,1.272128E0,-1.29266E0,-1.099004E-1,1.9498117E-2,-6.0809036E-3,9.391947E-3,3.8508695E-2,3.049928E-3,-4.7633834E-3,2.1436762E-3,-1.0645396E-2,-4.352018E-3,-6.107662E-2,8.79645E-3,-2.452124E-2,-5.010196E-2,-4.3286607E-3],"split_indices":[0,2,20,0,1,8,3,0,0,0,5,15,9,11,24,19,5,26,18,0,7,20,0,0,0,0,0,25,15,28,0,0,0,0,0,0,0,0,0,0,0,0,0,0,0],"split_type":[0,0,0,0,0,0,0,0,0,0,0,0,0,0,0,0,0,0,0,0,0,0,0,0,0,0,0,0,0,0,0,0,0,0,0,0,0,0,0,0,0,0,0,0,0],"sum_hessian":[8E2,4E0,7.96E2,2E0,2E0,4.4E1,7.52E2,1E0,1E0,1E0,4.3E1,2E1,7.32E2,1.1E1,3.2E1,1.1E1,9E0,6.1E2,1.22E2,2E0,9E0,2.9E1,3E0,9E0,2E0,5E0,4E0,2.31E2,3.79E2,1.19E2,3E0,5E0,4E0,6E0,2.3E1,1E0,2E0,3E0,1E0,2.16E2,1.5E1,3.44E2,3.5E1,1.6E1,1.03E2],"tree_param":{"num_deleted":"0","num_feature":"30","num_nodes":"45","size_leaf_vector":"1"}},{"base_weights":[-8.346157E-3,-1.3521491E0,9.469734E-5,9.778605E-3,-2.3839633E0,5.4586716E-3,-7.079657E-1,-5.403409E-2,-2.141618E-1,1.9066477E-1,-1.4753264E-2,-8.6211555E-2,8.753886E-3,3.0551183E-1,-2.091317E-1,-1.5322721E-1,4.6696372E-2,4.0523356E-1,-1.8460809E-1,2.4257E-2,-6.155953E-2,1.0750013E-1,-2.6325804E-1,7.333747E-2,-3.695733E-1,6.091679E-3,3.5454802E-2,3.588637E-2,-4.7390506E-2,2.8462438E-2,-2.8889952E-2,-4.2183008E-2,1.4738809E-2,-6.826183E-2,-1.5564115E-2,6.7818523E-3,-3.1047E-2,-6.6252224E-2,-1.9217524E-3],"categories":[],"categories_nodes":[],"categories_segments":[],"categories_sizes":[],"default_left":[0,0,0,0,0,0,0,0,0,0,0,0,0,0,0,0,0,0,0,0,0,0,0,0,0,0,0,0,0,0,0,0,0,0,0,0,0,0,0],"id":15,"left_children":[1,3,5,-1,7,9,11,-1,-1,13,15,-1,-1,17,19,21,23,25,27,29,-1,31,33,35,37,-1,-1,-1,-1,-1,-1,-1,-1,-1,-1,-1,-1,-1,-1],"loss_changes":[9.085747E0,7.959305E0,3.0308847E0,0E0,2.959175E-1,2.9675648E0,2.3188622E0,0E0,0E0,3.6452973E0,6.0912147E0,0E0,0E0,3.056221E0,2.5895E0,6.339669E0,5.527685E0,1.0769644E0,3.5647054E0,2.182569E0,0E0,4.046524E0,5.399791E0,3.9259343E0,5.2789035E0,0E0,0E0,0E0,0E0,0E0,0E0,0E0,0E0,0E0,0E0,0E0,0E0,0E0,0E0],"parents":[2147483647,0,0,1,1,2,2,4,4,5,5,6,6,9,9,10,10,13,13,14,14,15,15,16,16,17,17,18,18,19,19,21,21,22,22,23,23,24,24],"right_children":[2,4,6,-1,8,10,12,-1,-1,14,16,-1,-1,18,20,22,24,26,28,30,-1,32,34,36,38,-1,-1,-1,-1,-1,-1,-1,-1,-1,-1,-1,-1,-1,-1],"split_conditions":[7.18E0,1.14622E-1,2.634226E0,9.778605E-3,-1.057471E0,-1.217983E0,4.26794E-1,-5.403409E-2,-2.141618E-1,4.34471E-1,-2.65604E-1,-8.6211555E-2,8.753886E-3,4.15948E3,2.76272E-1,-4.19753E-1,1.715307E0,-1.041403E0,-1.93E-1,-3.5503E-1,-6.155953E-2,-1.238696E0,-1.528223E0,1.823281E0,-3.99105E-1,6.091679E-3,3.5454802E-2,3.588637E-2,-4.7390506E-2,2.8462438E-2,-2.8889952E-2,-4.2183008E-2,1.4738809E-2,-6.826183E-2,-1.5564115E-2,6.7818523E-3,-3.1047E-2,-6.6252224E-2,-1.9217524E-3],"split_indices":[0,2,11,0,1,21,8,0,0,13,21,0,0,0,22,13,27,22,27,9,0,28,22,15,24,0,0,0,0,0,0,0,0,0,0,0,0,0,0],"split_type":[0,0,0,0,0,0,0,0,0,0,0,0,0,0,0,0,0,0,0,0,0,0,0,0,0,0,0,0,0,0,0,0,0,0,0,0,0,0,0],"sum_hessian":[8E2,4E0,7.96E2,2E0,2E0,7.91E2,5E0,1E0,1E0,7.7E1,7.14E2,3E0,2E0,6E1,1.7E1,2.19E2,4.95E2,5E1,1E1,1.3E1,4E0,6.5E1,1.54E2,4.66E2,2.9E1,9E0,4.1E1,4E0,6E0,7E0,6E0,7E0,5.8E1,1.1E1,1.43E2,4.51E2,1.5E1,1.1E1,1.8E1],"tree_param":{"num_deleted":"0","num_feature":"30","num_nodes":"39","size_leaf_vector":"1"}},{"base_weights":[-8.433715E-3,-1.3024215E0,-3.0526854E-4,9.289674E-3,-2.2945647E0,-2.1874938E-2,1.6321003E-1,-5.2007813E-2,-2.0613073E-1,1.2508653E-1,-6.0150832E-2,-6.2187444E-2,1.830094E-1,-3.0222762E-1,2.116256E-1,-1.1938111E-1,7.643264E-2,2.462344E-1,-1.8683235E-1,-1.0539607E0,1.1352684E-1,2.7545407E-1,-1.2767233E-1,-4.3587878E-1,-7.169559E-2,2.1443978E-1,-1.2378386E-1,2.8293213E-1,-3.8443588E-2,-6.5812725E-1,6.7498334E-2,-1.0302681E-1,3.2547119E-3,-2.8606286E-2,2.6365371E-2,-6.442236E-2,2.212478E-2,-4.492127E-2,5.201274E-3,-9.767188E-3,-8.70567E-2,-1.9528655E-2,4.106395E-3,3.182329E-2,1.2271744E-3,-8.426848E-2,-9.3727955E-4,2.6055606E-2,4.190695E-3,-6.830775E-2,1.3216628E-2,-2.3809273E-2,1.5256447E-2],"categories":[],"categories_nodes":[],"categories_segments":[],"categories_sizes":[],"default_left":[0,0,0,0,0,0,0,0,0,0,0,0,0,0,0,0,0,0,0,0,0,0,0,0,0,0,0,0,0,0,0,0,0,0,0,0,0,0,0,0,0,0,0,0,0,0,0,0,0,0,0,0,0],"id":16,"left_children":[1,3,5,-1,7,9,11,-1,-1,13,15,-1,17,19,21,23,25,27,29,31,33,35,37,39,41,43,45,47,-1,49,51,-1,-1,-1,-1,-1,-1,-1,-1,-1,-1,-1,-1,-1,-1,-1,-1,-1,-1,-1,-1,-1,-1],"loss_changes":[8.424608E0,7.359599E0,2.8145661E0,0E0,2.7414036E-1,3.9732068E0,1.9790475E0,0E0,0E0,5.462947E0,4.5394554E0,0E0,2.1972632E0,7.9330626E0,2.6773067E0,5.86986E0,4.723867E0,2.3449235E0,1.7225292E0,3.2173338E0,2.136722E0,2.5368948E0,1.8985858E0,1.1148316E1,8.150154E0,4.191694E0,7.7744446E0,1.0932021E0,0E0,1.2144582E0,5.8781177E-1,0E0,0E0,0E0,0E0,0E0,0E0,0E0,0E0,0E0,0E0,0E0,0E0,0E0,0E0,0E0,0E0,0E0,0E0,0E0,0E0,0E0,0E0],"parents":[2147483647,0,0,1,1,2,2,4,4,5,5,6,6,9,9,10,10,12,12,13,13,14,14,15,15,16,16,17,17,18,18,19,19,20,20,21,21,22,22,23,23,24,24,25,25,26,26,27,27,29,29,30,30],"right_children":[2,4,6,-1,8,10,12,-1,-1,14,16,-1,18,20,22,24,26,28,30,32,34,36,38,40,42,44,46,48,-1,50,52,-1,-1,-1,-1,-1,-1,-1,-1,-1,-1,-1,-1,-1,-1,-1,-1,-1,-1,-1,-1,-1,-1],"split_conditions":[7.18E0,1.14622E-1,1.269233E0,9.289674E-3,-1.057471E0,-8.84141E-1,-2.240674E0,-5.2007813E-2,-2.0613073E-1,-1.034415E0,5.96785E-1,-6.2187444E-2,1.224277E0,-9.27338E-1,7.0904E-1,-5.97491E-1,1.57475E-1,1.335043E0,-5.72935E-1,1.160258E0,-8.52E-1,-2.182975E0,8.62306E-1,4.91153E-1,2.09348E3,6.6766E-2,2.68144E-1,1.036816E0,-3.8443588E-2,-1.95298E-1,-7.9865E-2,-1.0302681E-1,3.2547119E-3,-2.8606286E-2,2.6365371E-2,-6.442236E-2,2.212478E-2,-4.492127E-2,5.201274E-3,-9.767188E-3,-8.70567E-2,-1.9528655E-2,4.106395E-3,3.182329E-2,1.2271744E-3,-8.426848E-2,-9.3727955E-4,2.6055606E-2,4.190695E-3,-6.830775E-2,1.3216628E-2,-2.3809273E-2,1.5256447E-2],"split_indices":[0,2,6,0,1,6,1,0,0,28,21,0,9,25,13,6,10,16,27,9,21,14,13,9,0,9,10,12,0,1,18,0,0,0,0,0,0,0,0,0,0,0,0,0,0,0,0,0,0,0,0,0,0],"split_type":[0,0,0,0,0,0,0,0,0,0,0,0,0,0,0,0,0,0,0,0,0,0,0,0,0,0,0,0,0,0,0,0,0,0,0,0,0,0,0,0,0,0,0,0,0,0,0,0,0,0,0,0,0],"sum_hessian":[8E2,4E0,7.96E2,2E0,2E0,7.04E2,9.2E1,1E0,1E0,1.45E2,5.59E2,1E0,9.1E1,2.4E1,1.21E2,3.9E2,1.69E2,7.8E1,1.3E1,8E0,1.6E1,1.02E2,1.9E1,5E1,3.4E2,1E2,6.9E1,7.5E1,3E0,4E0,9E0,6E0,2E0,5E0,1.1E1,1E0,1.01E2,5E0,1.4E1,3.6E1,1.4E1,1.36E2,2.04E2,4.8E1,5.2E1,6E0,6.3E1,5.8E1,1.7E1,3E0,1E0,2E0,7E0],"tree_param":{"num_deleted":"0","num_feature":"30","num_nodes":"53","size_leaf_vector":"1"}},{"base_weights":[-8.714182E-3,-1.2545096E0,-8.877189E-4,1.1766922E-1,-2.2085185E0,1.6197678E-1,-2.2109598E-2,2.7669603E-3,1.0470827E-2,-5.005752E-2,-1.9840083E-1,2.5996682E-1,-7.128499E-2,1.5653947E-1,-4.9468327E-2,-4.3098725E-2,2.819866E-1,-3.9859512E-1,2.389568E-1,-1.7052859E-1,2.5296354E-1,-1.0813165E0,-4.091544E-2,8.558047E-2,3.7591565E-1,-6.173534E-1,2.2697914E-2,3.2424897E-1,-1.5772115E-2,-5.0703E-1,3.7186572E-1,3.7800014E-1,6.1144426E-2,-9.765323E-2,-7.4403677E-3,-2.8769925E-1,-7.81256E-3,2.701832E-2,-2.6338743E-2,-1.3440932E-2,3.0552458E-2,-7.154983E-2,-1.6935453E-3,2.8470675E-2,-1.2752678E-2,-6.3431084E-2,6.41637E-3,3.7629303E-2,6.308386E-3,4.445756E-3,3.43698E-2,-7.672581E-3,2.6456961E-2,-5.2645423E-2,1.8674309E-3,1.947154E-2,-3.431843E-3],"categories":[],"categories_nodes":[],"categories_segments":[],"categories_sizes":[],"default_left":[0,0,0,0,0,0,0,0,0,0,0,0,0,0,0,0,0,0,0,0,0,0,0,0,0,0,0,0,0,0,0,0,0,0,0,0,0,0,0,0,0,0,0,0,0,0,0,0,0,0,0,0,0,0,0,0,0],"id":17,"left_children":[1,3,5,7,9,11,13,-1,-1,-1,-1,15,17,19,21,-1,23,25,27,29,31,33,35,37,39,41,-1,43,-1,45,47,49,51,-1,-1,53,55,-1,-1,-1,-1,-1,-1,-1,-1,-1,-1,-1,-1,-1,-1,-1,-1,-1,-1,-1,-1],"loss_changes":[7.8087745E0,6.805229E0,2.758245E0,1.6650185E-4,2.5396442E-1,2.121406E0,3.4583979E0,0E0,0E0,0E0,0E0,1.3566184E0,2.9385147E0,3.0076375E0,5.365655E0,0E0,1.1485162E0,2.3344452E0,6.429527E-1,4.203909E0,1.7277493E0,9.547224E-1,4.9728284E0,2.7657015E0,8.2374287E-1,2.180954E0,0E0,4.2027414E-1,0E0,2.8824058E0,2.9410434E-1,1.0984416E0,1.4659827E0,0E0,0E0,9.340803E0,5.4714174E0,0E0,0E0,0E0,0E0,0E0,0E0,0E0,0E0,0E0,0E0,0E0,0E0,0E0,0E0,0E0,0E0,0E0,0E0,0E0,0E0],"parents":[2147483647,0,0,1,1,2,2,3,3,4,4,5,5,6,6,11,11,12,12,13,13,14,14,16,16,17,17,18,18,19,19,20,20,21,21,22,22,23,23,24,24,25,25,27,27,29,29,30,30,31,31,32,32,35,35,36,36],"right_children":[2,4,6,8,10,12,14,-1,-1,-1,-1,16,18,20,22,-1,24,26,28,30,32,34,36,38,40,42,-1,44,-1,46,48,50,52,-1,-1,54,56,-1,-1,-1,-1,-1,-1,-1,-1,-1,-1,-1,-1,-1,-1,-1,-1,-1,-1,-1,-1],"split_conditions":[7.18E0,1.14622E-1,-1.167567E0,-1.079691E0,-1.057471E0,5.05719E-1,-1.122656E0,2.7669603E-3,1.0470827E-2,-5.005752E-2,-1.9840083E-1,-2.497765E0,-3.86511E-1,-5.35415E-1,-2.066513E0,-4.3098725E-2,-1.010486E0,1.004E-3,1.481516E0,1.68691E-1,2.12592E-1,4.12275E3,-1.241218E0,-6.7681E-2,-1.709737E0,8.55167E-1,2.2697914E-2,4.79407E-1,-1.5772115E-2,5.60152E-1,4.21816E-1,-1.234121E0,6.36833E-1,-9.765323E-2,-7.4403677E-3,-1.91822E-1,-1.143268E0,2.701832E-2,-2.6338743E-2,-1.3440932E-2,3.0552458E-2,-7.154983E-2,-1.6935453E-3,2.8470675E-2,-1.2752678E-2,-6.3431084E-2,6.41637E-3,3.7629303E-2,6.308386E-3,4.445756E-3,3.43698E-2,-7.672581E-3,2.6456961E-2,-5.2645423E-2,1.8674309E-3,1.947154E-2,-3.431843E-3],"split_indices":[0,2,13,1,1,19,20,0,0,0,0,20,11,6,19,0,19,23,2,2,7,0,15,18,4,19,0,5,0,12,7,2,23,0,0,18,6,0,0,0,0,0,0,0,0,0,0,0,0,0,0,0,0,0,0,0,0],"split_type":[0,0,0,0,0,0,0,0,0,0,0,0,0,0,0,0,0,0,0,0,0,0,0,0,0,0,0,0,0,0,0,0,0,0,0,0,0,0,0,0,0,0,0,0,0,0,0,0,0,0,0,0,0,0,0,0,0],"sum_hessian":[8E2,4E0,7.96E2,2E0,2E0,9.1E1,7.05E2,1E0,1E0,1E0,1E0,6.4E1,2.7E1,9.3E1,6.12E2,1E0,6.3E1,1.3E1,1.4E1,2.1E1,7.2E1,4E0,6.08E2,2.1E1,4.2E1,1E1,3E0,1.2E1,2E0,1.3E1,8E0,4.3E1,2.9E1,3E0,1E0,7.1E1,5.37E2,1.3E1,8E0,2E0,4E1,6E0,4E0,1.1E1,1E0,8E0,5E0,5E0,3E0,9E0,3.4E1,1.9E1,1E1,3E1,4.1E1,6.6E1,4.71E2],"tree_param":{"num_deleted":"0","num_feature":"30","num_nodes":"57","size_leaf_vector":"1"}},{"base_weights":[-8.56803E-3,-1.2074654E0,-1.0359659E-3,1.1325661E-1,-2.125699E0,2.4568641E-1,-1.4741395E-2,2.6631989E-3,1.007817E-2,-4.818036E-2,-1.909608E-1,3.4124538E-1,-2.808577E-1,-4.0329108E-4,-2.7138337E-1,-3.656367E-2,3.7885326E-1,-5.774256E-1,2.3028102E-2,-9.263289E-2,5.617892E-2,-9.521595E-2,-1.2537961E0,1.5628116E-2,4.3886986E-1,-5.536716E-2,-1.6811041E-2,-2.3292001E-2,-3.7341738E-1,1.1310629E-1,-9.894192E-2,2.5596177E-2,-1.0379089E0,-2.5337941E-3,-1.11828126E-1,2.1633273E-2,-1.4466791E-2,-1.09192785E-2,3.48033E-2,3.927198E-3,-2.818123E-2,1.7359788E-2,-5.3129606E-2,1.0002183E-2,-3.5930995E-2,-4.7364473E-2,-3.6812478E-4,1.0322709E-2,-5.948193E-2,-1.13335205E-2,-9.6235216E-2],"categories":[],"categories_nodes":[],"categories_segments":[],"categories_sizes":[],"default_left":[0,0,0,0,0,0,0,0,0,0,0,0,0,0,0,0,0,0,0,0,0,0,0,0,0,0,0,0,0,0,0,0,0,0,0,0,0,0,0,0,0,0,0,0,0,0,0,0,0,0,0],"id":18,"left_children":[1,3,5,7,9,11,13,-1,-1,-1,-1,15,17,19,21,-1,23,25,-1,27,29,31,33,35,37,-1,-1,39,41,43,45,47,49,-1,-1,-1,-1,-1,-1,-1,-1,-1,-1,-1,-1,-1,-1,-1,-1,-1,-1],"loss_changes":[7.231918E0,6.304405E0,2.6986263E0,1.5424937E-4,2.3527527E-1,2.2091136E0,2.7817883E0,0E0,0E0,0E0,0E0,1.3067431E0,1.3977575E0,3.7469077E0,6.803382E0,0E0,7.56125E-1,1.1856961E-1,0E0,5.30657E0,3.9408176E0,4.012672E0,1.6862831E0,3.9696074E-1,5.089598E-1,0E0,0E0,5.885989E0,1.110553E1,3.9743958E0,6.0065985E0,3.0443842E0,6.7596626E-1,0E0,0E0,0E0,0E0,0E0,0E0,0E0,0E0,0E0,0E0,0E0,0E0,0E0,0E0,0E0,0E0,0E0,0E0],"parents":[2147483647,0,0,1,1,2,2,3,3,4,4,5,5,6,6,11,11,12,12,13,13,14,14,16,16,17,17,19,19,20,20,21,21,22,22,23,23,24,24,27,27,28,28,29,29,30,30,31,31,32,32],"right_children":[2,4,6,8,10,12,14,-1,-1,-1,-1,16,18,20,22,-1,24,26,-1,28,30,32,34,36,38,-1,-1,40,42,44,46,48,50,-1,-1,-1,-1,-1,-1,-1,-1,-1,-1,-1,-1,-1,-1,-1,-1,-1,-1],"split_conditions":[7.18E0,1.14622E-1,-1.688117E0,-1.079691E0,-1.057471E0,7.73143E-1,1.571821E0,2.6631989E-3,1.007817E-2,-4.818036E-2,-1.909608E-1,-2.215141E0,1.03279E-1,-3.7752E-1,1.221627E0,-3.656367E-2,-1.416141E0,-2.43526E-1,2.3028102E-2,8.77082E-1,6.56392E-1,1.468275E0,-1.420985E0,-4.73458E-1,-1.551684E0,-5.536716E-2,-1.6811041E-2,9.49351E-1,-2.93797E-1,1.797804E0,-1.126029E0,1.788818E0,4.8787E2,-2.5337941E-3,-1.11828126E-1,2.1633273E-2,-1.4466791E-2,-1.09192785E-2,3.48033E-2,3.927198E-3,-2.818123E-2,1.7359788E-2,-5.3129606E-2,1.0002183E-2,-3.5930995E-2,-4.7364473E-2,-3.6812478E-4,1.0322709E-2,-5.948193E-2,-1.13335205E-2,-9.6235216E-2],"split_indices":[0,2,27,1,1,28,15,0,0,0,0,19,4,26,18,0,15,3,0,5,9,21,1,1,10,0,0,8,1,21,15,16,0,0,0,0,0,0,0,0,0,0,0,0,0,0,0,0,0,0,0],"split_type":[0,0,0,0,0,0,0,0,0,0,0,0,0,0,0,0,0,0,0,0,0,0,0,0,0,0,0,0,0,0,0,0,0,0,0,0,0,0,0,0,0,0,0,0,0,0,0,0,0,0,0],"sum_hessian":[8E2,4E0,7.96E2,2E0,2E0,4.1E1,7.55E2,1E0,1E0,1E0,1E0,3.5E1,6E0,7.16E2,3.9E1,1E0,3.4E1,4E0,2E0,2.72E2,4.44E2,3.4E1,5E0,5E0,2.9E1,2E0,2E0,2.19E2,5.3E1,3.25E2,1.19E2,3.1E1,3E0,1E0,4E0,2E0,3E0,1E0,2.8E1,1.81E2,3.8E1,1.9E1,3.4E1,3.15E2,1E1,1.7E1,1.02E2,2.8E1,3E0,1E0,2E0],"tree_param":{"num_deleted":"0","num_feature":"30","num_nodes":"51","size_leaf_vector":"1"}},{"base_weights":[-8.781655E-3,-1.1621854E0,-1.5347274E-3,1.090095E-1,-2.0459852E0,3.2755942E-3,-6.362414E-1,2.5633292E-3,9.70024E-3,-4.63736E-2,-1.8379976E-1,-1.05061494E-1,3.417357E-2,-7.859765E-2,9.360651E-3,-2.1637468E-1,1.8785991E-1,1.5244226E-1,-2.083789E-2,1.3711922E-1,-3.4569287E-1,3.7393048E-1,-2.5882876E-1,3.1060535E-1,-2.2485817E-2,-1.2069043E-2,-1.3921961E-1,1.9933345E-2,-1.9806925E-2,-1.2795642E-2,-5.4918017E-2,-3.1437803E-2,3.0718917E-2,-5.6361433E-2,3.0867223E-2,2.7710648E-2,-1.2496113E-2,-2.3992892E-2,1.4567103E-2,-3.2646316E-3,2.5209496E-2],"categories":[],"categories_nodes":[],"categories_segments":[],"categories_sizes":[],"default_left":[0,0,0,0,0,0,0,0,0,0,0,0,0,0,0,0,0,0,0,0,0,0,0,0,0,0,0,0,0,0,0,0,0,0,0,0,0,0,0,0,0],"id":19,"left_children":[1,3,5,7,9,11,13,-1,-1,-1,-1,15,17,-1,-1,19,21,23,25,27,29,31,33,35,37,39,-1,-1,-1,-1,-1,-1,-1,-1,-1,-1,-1,-1,-1,-1,-1],"loss_changes":[6.6934814E0,5.8404417E0,2.435439E0,1.4289469E-4,2.179594E-1,2.654729E0,2.0108657E0,0E0,0E0,0E0,0E0,5.7793064E0,4.0174613E0,0E0,0E0,5.8986917E0,4.169449E0,5.4297485E0,6.7694974E0,1.8768674E0,6.2368402E0,1.161418E0,5.2633815E0,2.9552355E0,6.1208963E0,4.626272E0,0E0,0E0,0E0,0E0,0E0,0E0,0E0,0E0,0E0,0E0,0E0,0E0,0E0,0E0,0E0],"parents":[2147483647,0,0,1,1,2,2,3,3,4,4,5,5,6,6,11,11,12,12,15,15,16,16,17,17,18,18,19,19,20,20,21,21,22,22,23,23,24,24,25,25],"right_children":[2,4,6,8,10,12,14,-1,-1,-1,-1,16,18,-1,-1,20,22,24,26,28,30,32,34,36,38,40,-1,-1,-1,-1,-1,-1,-1,-1,-1,-1,-1,-1,-1,-1,-1],"split_conditions":[7.18E0,1.14622E-1,2.634226E0,-1.079691E0,-1.057471E0,-6.6893E-1,4.26794E-1,2.5633292E-3,9.70024E-3,-4.63736E-2,-1.8379976E-1,6.99913E-1,-4.47032E-1,-7.859765E-2,9.360651E-3,-5.20447E-1,5.91569E-1,1.21248E-1,2.328747E0,5.43456E-1,4.65216E-1,-2.106284E0,2.131E-1,1.024731E0,-9.4943E-2,1.533357E0,-1.3921961E-1,1.9933345E-2,-1.9806925E-2,-1.2795642E-2,-5.4918017E-2,-3.1437803E-2,3.0718917E-2,-5.6361433E-2,3.0867223E-2,2.7710648E-2,-1.2496113E-2,-2.3992892E-2,1.4567103E-2,-3.2646316E-3,2.5209496E-2],"split_indices":[0,2,11,1,1,14,8,0,0,0,0,16,16,0,0,23,27,11,28,3,15,10,18,17,28,22,0,0,0,0,0,0,0,0,0,0,0,0,0,0,0],"split_type":[0,0,0,0,0,0,0,0,0,0,0,0,0,0,0,0,0,0,0,0,0,0,0,0,0,0,0,0,0,0,0,0,0,0,0,0,0,0,0,0,0],"sum_hessian":[8E2,4E0,7.96E2,2E0,2E0,7.91E2,5E0,1E0,1E0,1E0,1E0,1.75E2,6.16E2,3E0,2E0,1.27E2,4.8E1,1.95E2,4.21E2,3.4E1,9.3E1,3.4E1,1.4E1,1.02E2,9.3E1,4.2E2,1E0,2.6E1,8E0,6.5E1,2.8E1,1E0,3.3E1,8E0,6E0,9.1E1,1.1E1,3.9E1,5.4E1,3.86E2,3.4E1],"tree_param":{"num_deleted":"0","num_feature":"30","num_nodes":"41","size_leaf_vector":"1"}},{"base_weights":[-8.737804E-3,-1.1186035E0,-1.7640697E-3,1.0492164E-1,-1.9692608E0,-2.5762178E-2,1.2156285E-1,2.4672044E-3,9.336481E-3,-4.4634588E-2,-1.7690727E-1,1.5658712E-2,-1.4815675E-1,2.7407023E-1,3.19012E-2,-1.6113995E-2,3.3727416E-1,-6.582347E-1,-7.5272225E-2,3.210796E-1,-1.0850866E-1,-1.702956E-1,1.8288419E-1,2.1624709E-2,-3.3734348E-1,4.564616E-1,-2.710254E-1,-1.2855181E-1,-3.0898878E-1,-3.716074E-1,8.952845E-3,3.4365812E-1,-2.3520663E-2,2.0867728E-2,-3.7144026E-1,-5.893321E-1,-8.789641E-3,2.1783859E-1,-3.1053359E-2,-2.4313701E-2,3.962776E-3,-1.2929244E-1,-1.2908508E-2,1.4110155E-2,4.822923E-2,-4.0336102E-2,9.766317E-3,4.619828E-3,-7.489977E-2,-5.925377E-2,5.152107E-3,-2.1807801E-2,8.673598E-3,2.735825E-2,-1.9582594E-2,-3.543867E-3,-3.478145E-2,-1.417246E-3,-7.248548E-2,1.5557789E-2,-2.222697E-2,2.2738343E-2,-1.6584996E-3],"categories":[],"categories_nodes":[],"categories_segments":[],"categories_sizes":[],"default_left":[0,0,0,0,0,0,0,0,0,0,0,0,0,0,0,0,0,0,0,0,0,0,0,0,0,0,0,0,0,0,0,0,0,0,0,0,0,0,0,0,0,0,0,0,0,0,0,0,0,0,0,0,0,0,0,0,0,0,0,0,0,0,0],"id":20,"left_children":[1,3,5,7,9,11,13,-1,-1,-1,-1,15,17,19,21,23,25,27,29,31,33,35,37,39,41,43,45,-1,47,49,51,53,-1,-1,55,57,59,61,-1,-1,-1,-1,-1,-1,-1,-1,-1,-1,-1,-1,-1,-1,-1,-1,-1,-1,-1,-1,-1,-1,-1,-1,-1],"loss_changes":[6.197694E0,5.4106207E0,2.361943E0,1.3237819E-4,2.0191956E-1,3.3888743E0,1.7688855E0,0E0,0E0,0E0,0E0,5.114732E0,6.2333307E0,8.9811015E-1,2.564991E0,5.535284E0,3.3862867E0,7.2137184E0,3.7221956E0,7.2397757E-1,7.134731E-1,2.4311879E0,1.0917293E0,4.431648E0,1.0700127E1,1.7816124E0,9.264114E-1,0E0,4.4064465E0,6.134235E0,3.7751746E0,6.3165283E-1,0E0,0E0,9.779346E-2,2.1330824E0,1.7403454E0,9.486613E-1,0E0,0E0,0E0,0E0,0E0,0E0,0E0,0E0,0E0,0E0,0E0,0E0,0E0,0E0,0E0,0E0,0E0,0E0,0E0,0E0,0E0,0E0,0E0,0E0,0E0],"parents":[2147483647,0,0,1,1,2,2,3,3,4,4,5,5,6,6,11,11,12,12,13,13,14,14,15,15,16,16,17,17,18,18,19,19,20,20,21,21,22,22,23,23,24,24,25,25,26,26,28,28,29,29,30,30,31,31,34,34,35,35,36,36,37,37],"right_children":[2,4,6,8,10,12,14,-1,-1,-1,-1,16,18,20,22,24,26,28,30,32,34,36,38,40,42,44,46,-1,48,50,52,54,-1,-1,56,58,60,62,-1,-1,-1,-1,-1,-1,-1,-1,-1,-1,-1,-1,-1,-1,-1,-1,-1,-1,-1,-1,-1,-1,-1,-1,-1],"split_conditions":[7.18E0,1.14622E-1,1.032858E0,-1.079691E0,-1.057471E0,6.02359E-1,-3.44469E-1,2.4672044E-3,9.336481E-3,-4.4634588E-2,-1.7690727E-1,3.48492E-1,-1.164749E0,1.634667E0,-1.95298E-1,1.45456E-1,4.13417E3,-1.014023E0,-7.03752E-1,1.609133E0,-1.252734E0,-6.67733E-1,1.788818E0,-1.393011E0,1.53012E-1,-1.02542E-1,2.16069E-1,-1.2855181E-1,2.5166E-1,-1.17571E-1,-7.42421E-1,1.24137E0,-2.3520663E-2,2.0867728E-2,1.86487E3,-5.60726E-1,3.5183E-1,9.14022E-1,-3.1053359E-2,-2.4313701E-2,3.962776E-3,-1.2929244E-1,-1.2908508E-2,1.4110155E-2,4.822923E-2,-4.0336102E-2,9.766317E-3,4.619828E-3,-7.489977E-2,-5.925377E-2,5.152107E-3,-2.1807801E-2,8.673598E-3,2.735825E-2,-1.9582594E-2,-3.543867E-3,-3.478145E-2,-1.417246E-3,-7.248548E-2,1.5557789E-2,-2.222697E-2,2.2738343E-2,-1.6584996E-3],"split_indices":[0,2,6,1,1,27,9,0,0,0,0,27,10,7,1,27,0,8,26,15,9,19,16,19,27,13,14,0,16,9,22,19,0,0,0,14,12,1,0,0,0,0,0,0,0,0,0,0,0,0,0,0,0,0,0,0,0,0,0,0,0,0,0],"split_type":[0,0,0,0,0,0,0,0,0,0,0,0,0,0,0,0,0,0,0,0,0,0,0,0,0,0,0,0,0,0,0,0,0,0,0,0,0,0,0,0,0,0,0,0,0,0,0,0,0,0,0,0,0,0,0,0,0,0,0,0,0,0,0],"sum_hessian":[8E2,4E0,7.96E2,2E0,2E0,6.67E2,1.29E2,1E0,1E0,1E0,1E0,4.99E2,1.68E2,4.7E1,8.2E1,4.55E2,4.4E1,2E1,1.48E2,4.2E1,5E0,3.5E1,4.7E1,4.08E2,4.7E1,3.7E1,7E0,4E0,1.6E1,3.2E1,1.16E2,4.1E1,1E0,2E0,3E0,9E0,2.6E1,4.5E1,2E0,3.3E1,3.75E2,4E0,4.3E1,1.6E1,2.1E1,4E0,3E0,1.1E1,5E0,1.6E1,1.6E1,3E1,8.6E1,4E1,1E0,1E0,2E0,4E0,5E0,1.5E1,1.1E1,3.3E1,1.2E1],"tree_param":{"num_deleted":"0","num_feature":"30","num_nodes":"63","size_leaf_vector":"1"}},{"base_weights":[-8.99425E-3,-1.076656E0,-2.284961E-3,1.0098708E-1,-1.8954136E0,2.1508226E-1,-1.5272E-2,2.3746837E-3,8.986363E-3,-4.2960793E-2,-1.7027324E-1,-4.006931E-2,2.4425492E-1,3.4722352E-1,-2.5636438E-2,2.8746155E-1,-2.5967675E-1,5.020692E-1,1.2668635E-1,-3.7677184E-2,2.7887794E-1,5.714567E-2,3.599136E-1,-5.4382468E-3,-3.0794144E-2,4.1034732E-2,1.3838312E-2,1.7248515E-2,-8.574944E-2,-8.6229965E-3,-1.8847942E-1,4.241405E-1,-1.37296E-1,-1.3804326E-2,1.279531E-2,2.8752154E-2,-1.2882741E-2,-1.0912791E-4,-8.502192E-3,-1.06657315E-2,2.9542614E-3,2.9938387E-2,-2.1116298E-2,8.257814E-3,4.566931E-2,1.9884523E-2,-2.3671864E-2],"categories":[],"categories_nodes":[],"categories_segments":[],"categories_sizes":[],"default_left":[0,0,0,0,0,0,0,0,0,0,0,0,0,0,0,0,0,0,0,0,0,0,0,0,0,0,0,0,0,0,0,0,0,0,0,0,0,0,0,0,0,0,0,0,0,0,0],"id":21,"left_children":[1,3,5,7,9,11,13,-1,-1,-1,-1,-1,15,17,19,21,23,25,27,29,31,33,35,-1,-1,-1,-1,-1,37,39,41,43,45,-1,-1,-1,-1,-1,-1,-1,-1,-1,-1,-1,-1,-1,-1],"loss_changes":[5.735303E0,5.0124335E0,2.253181E0,1.2263842E-4,1.8706036E-1,1.1142056E0,2.8379698E0,0E0,0E0,0E0,0E0,0E0,1.0326672E0,6.5352845E-1,2.6981106E0,6.63594E-1,8.3210975E-2,7.0760965E-2,2.3915371E-1,3.0916693E0,1.7509589E0,3.3243313E-1,4.5233154E-1,0E0,0E0,0E0,0E0,0E0,9.145582E-3,3.8090565E0,6.347506E0,1.1515589E0,6.577896E-1,0E0,0E0,0E0,0E0,0E0,0E0,0E0,0E0,0E0,0E0,0E0,0E0,0E0,0E0],"parents":[2147483647,0,0,1,1,2,2,3,3,4,4,5,5,6,6,12,12,13,13,14,14,15,15,16,16,17,17,18,18,19,19,20,20,21,21,22,22,28,28,29,29,30,30,31,31,32,32],"right_children":[2,4,6,8,10,12,14,-1,-1,-1,-1,-1,16,18,20,22,24,26,28,30,32,34,36,-1,-1,-1,-1,-1,38,40,42,44,46,-1,-1,-1,-1,-1,-1,-1,-1,-1,-1,-1,-1,-1,-1],"split_conditions":[7.18E0,1.14622E-1,-1.571115E0,-1.079691E0,-1.057471E0,-2.120339E0,-1.803967E0,2.3746837E-3,8.986363E-3,-4.2960793E-2,-1.7027324E-1,-4.006931E-2,1.523837E0,-3.29113E-1,1.750453E0,-7.21449E-1,4.26112E3,3.35452E-1,4.57131E-1,9.11511E-1,6.21173E-1,-1.120986E0,1.858715E0,-5.4382468E-3,-3.0794144E-2,4.1034732E-2,1.3838312E-2,1.7248515E-2,3.4659E2,-7.69053E-1,-1.076043E0,-1.308494E0,1.965317E0,-1.3804326E-2,1.279531E-2,2.8752154E-2,-1.2882741E-2,-1.0912791E-4,-8.502192E-3,-1.06657315E-2,2.9542614E-3,2.9938387E-2,-2.1116298E-2,8.257814E-3,4.566931E-2,1.9884523E-2,-2.3671864E-2],"split_indices":[0,2,20,1,1,8,3,0,0,0,0,0,24,15,24,5,0,19,5,9,15,26,17,0,0,0,0,0,0,9,4,27,24,0,0,0,0,0,0,0,0,0,0,0,0,0,0],"split_type":[0,0,0,0,0,0,0,0,0,0,0,0,0,0,0,0,0,0,0,0,0,0,0,0,0,0,0,0,0,0,0,0,0,0,0,0,0,0,0,0,0,0,0,0,0,0,0],"sum_hessian":[8E2,4E0,7.96E2,2E0,2E0,4.4E1,7.52E2,1E0,1E0,1E0,1E0,1E0,4.3E1,2E1,7.32E2,4E1,3E0,1.1E1,9E0,7.05E2,2.7E1,1E1,3E1,2E0,1E0,9E0,2E0,6E0,3E0,5.92E2,1.13E2,2E1,7E0,3E0,7E0,2.9E1,1E0,1E0,2E0,1.56E2,4.36E2,1.5E1,9.8E1,8E0,1.2E1,2E0,5E0],"tree_param":{"num_deleted":"0","num_feature":"30","num_nodes":"47","size_leaf_vector":"1"}},{"base_weights":[-8.505141E-3,-1.0362813E0,-2.0466894E-3,9.7200066E-2,-1.8243356E0,2.1733081E-1,-1.4231621E-2,2.2856332E-3,8.649374E-3,-4.134976E-2,-1.63888E-1,3.0637097E-1,-2.716372E-1,-9.695956E-4,-2.5159764E-1,-3.4269128E-2,3.4123424E-1,-5.423689E-1,2.7012798E-1,-8.079151E-2,4.8001982E-2,-9.706057E-2,-1.111131E0,-4.070652E-3,3.9892074E-1,-5.128218E-2,-1.6513934E-2,2.4742167E-2,5.6472314E-3,-6.668005E-2,-1.3285964E0,2.8331742E-1,1.6823294E-2,1.6707208E-2,-9.829377E-1,-6.9098064E-4,-9.9725395E-2,1.8229503E-2,-1.4130076E-2,-1.0646772E-2,3.168501E-2,7.187131E-3,-1.2284468E-2,-1.3425827E-1,-1.5208838E-2,2.442943E-2,-3.88445E-2,4.5788605E-3,-1.2678002E-2,8.985357E-3,-5.5119514E-2,-1.14260055E-2,-9.0676434E-2],"categories":[],"categories_nodes":[],"categories_segments":[],"categories_sizes":[],"default_left":[0,0,0,0,0,0,0,0,0,0,0,0,0,0,0,0,0,0,0,0,0,0,0,0,0,0,0,0,0,0,0,0,0,0,0,0,0,0,0,0,0,0,0,0,0,0,0,0,0,0,0,0,0],"id":22,"left_children":[1,3,5,7,9,11,13,-1,-1,-1,-1,15,17,19,21,-1,23,25,27,29,31,33,35,37,39,-1,-1,-1,-1,41,43,45,47,49,51,-1,-1,-1,-1,-1,-1,-1,-1,-1,-1,-1,-1,-1,-1,-1,-1,-1,-1],"loss_changes":[5.3147917E0,4.643549E0,2.1335535E0,1.136139E-4,1.7329407E-1,1.9118086E0,2.3796093E0,0E0,0E0,0E0,0E0,1.113909E0,1.1732199E0,2.8066351E0,5.205343E0,0E0,6.988039E-1,7.7218175E-2,1.0093883E-2,4.7184887E0,3.2601213E0,3.5438714E0,1.4326348E0,3.191149E-1,4.4203806E-1,0E0,0E0,0E0,0E0,4.2925253E0,1.1957264E0,1.9356303E0,3.249156E0,2.5677795E0,5.669348E-1,0E0,0E0,0E0,0E0,0E0,0E0,0E0,0E0,0E0,0E0,0E0,0E0,0E0,0E0,0E0,0E0,0E0,0E0],"parents":[2147483647,0,0,1,1,2,2,3,3,4,4,5,5,6,6,11,11,12,12,13,13,14,14,16,16,17,17,18,18,19,19,20,20,21,21,22,22,23,23,24,24,29,29,30,30,31,31,32,32,33,33,34,34],"right_children":[2,4,6,8,10,12,14,-1,-1,-1,-1,16,18,20,22,-1,24,26,28,30,32,34,36,38,40,-1,-1,-1,-1,42,44,46,48,50,52,-1,-1,-1,-1,-1,-1,-1,-1,-1,-1,-1,-1,-1,-1,-1,-1,-1,-1],"split_conditions":[7.18E0,1.14622E-1,-1.688117E0,-1.079691E0,-1.057471E0,7.73143E-1,1.571821E0,2.2856332E-3,8.649374E-3,-4.134976E-2,-1.63888E-1,-2.215141E0,1.03279E-1,-3.7752E-1,1.221627E0,-3.4269128E-2,-1.416141E0,-2.43526E-1,1.66851E3,2.608043E0,-1.141368E0,1.468275E0,-1.420985E0,-4.73458E-1,-1.551684E0,-5.128218E-2,-1.6513934E-2,2.4742167E-2,5.6472314E-3,-1.33404E-1,7.2964E2,1.797874E0,4.00395E3,1.788818E0,4.8787E2,-6.9098064E-4,-9.9725395E-2,1.8229503E-2,-1.4130076E-2,-1.0646772E-2,3.168501E-2,7.187131E-3,-1.2284468E-2,-1.3425827E-1,-1.5208838E-2,2.442943E-2,-3.88445E-2,4.5788605E-3,-1.2678002E-2,8.985357E-3,-5.5119514E-2,-1.14260055E-2,-9.0676434E-2],"split_indices":[0,2,27,1,1,28,15,0,0,0,0,19,4,26,18,0,15,3,0,28,23,21,1,1,10,0,0,0,0,24,0,18,0,16,0,0,0,0,0,0,0,0,0,0,0,0,0,0,0,0,0,0,0],"split_type":[0,0,0,0,0,0,0,0,0,0,0,0,0,0,0,0,0,0,0,0,0,0,0,0,0,0,0,0,0,0,0,0,0,0,0,0,0,0,0,0,0,0,0,0,0,0,0,0,0,0,0,0,0],"sum_hessian":[8E2,4E0,7.96E2,2E0,2E0,4.1E1,7.55E2,1E0,1E0,1E0,1E0,3.5E1,6E0,7.16E2,3.9E1,1E0,3.4E1,4E0,2E0,2.72E2,4.44E2,3.4E1,5E0,5E0,2.9E1,2E0,2E0,1E0,1E0,2.7E2,2E0,5.1E1,3.93E2,3.1E1,3E0,1E0,4E0,2E0,3E0,1E0,2.8E1,1.01E2,1.69E2,1E0,1E0,4.9E1,2E0,3.18E2,7.5E1,2.8E1,3E0,1E0,2E0],"tree_param":{"num_deleted":"0","num_feature":"30","num_nodes":"53","size_leaf_vector":"1"}},{"base_weights":[-8.69943E-3,-9.974208E-1,-2.4857465E-3,9.355506E-2,-1.755923E0,-3.4294095E-2,7.903425E-2,2.1999222E-3,8.325023E-3,-3.9799146E-2,-1.577422E-1,5.1311553E-2,-1.17143765E-1,3.2570323E-1,2.5662808E-3,-2.514604E-1,1.321821E-1,-7.123499E-2,-5.6509155E-1,3.9512694E-1,-1.8695648E-1,3.179613E-1,-8.623058E-2,1.6649044E-1,-5.1576746E-1,2.5390893E-1,-1.8573422E-2,-2.2078858E-1,7.552284E-2,-7.5497735E-1,-1.9740557E-2,4.2744395E-1,-5.9142027E-2,-3.766619E-1,1.43653555E-2,-6.98825E-2,3.769206E-1,-4.8477313E-1,1.3282064E-2,3.2137066E-2,-3.8446388E-3,-6.03952E-2,6.048104E-3,-2.1443807E-2,2.2398185E-2,-3.4810822E-2,9.475024E-3,-9.859966E-3,-6.451193E-2,-6.700564E-2,8.974635E-3,-6.601812E-2,1.862001E-2,-4.120008E-2,1.8625984E-2,4.423321E-2,2.1036038E-2,-1.0258162E-2,9.24572E-4,-6.757444E-3,-3.1933334E-2,3.24996E-2,8.87084E-3,5.979327E-4,-6.596258E-2,1.732618E-2,-1.6585119E-2],"categories":[],"categories_nodes":[],"categories_segments":[],"categories_sizes":[],"default_left":[0,0,0,0,0,0,0,0,0,0,0,0,0,0,0,0,0,0,0,0,0,0,0,0,0,0,0,0,0,0,0,0,0,0,0,0,0,0,0,0,0,0,0,0,0,0,0,0,0,0,0,0,0,0,0,0,0,0,0,0,0,0,0,0,0,0,0],"id":23,"left_children":[1,3,5,7,9,11,13,-1,-1,-1,-1,15,17,19,21,23,25,27,29,31,33,35,37,39,41,43,45,47,49,51,53,55,57,59,-1,-1,61,63,65,-1,-1,-1,-1,-1,-1,-1,-1,-1,-1,-1,-1,-1,-1,-1,-1,-1,-1,-1,-1,-1,-1,-1,-1,-1,-1,-1,-1],"loss_changes":[4.918546E0,4.301813E0,2.0693448E0,1.0525063E-4,1.6054058E-1,4.0770483E0,4.2243137E0,0E0,0E0,0E0,0E0,6.9625893E0,5.9646482E0,1.9601808E0,4.8444653E0,6.71391E0,4.115339E0,5.854885E0,2.781066E0,7.1526957E-1,5.747624E-1,3.1511598E0,5.3605423E0,1.3912115E0,6.453414E0,3.0797806E0,6.5798407E0,7.4254494E0,5.880536E0,2.731945E0,1.2722428E0,8.842821E-1,2.3879867E-2,3.201157E-2,0E0,0E0,4.8855305E-1,5.258523E0,5.614496E0,0E0,0E0,0E0,0E0,0E0,0E0,0E0,0E0,0E0,0E0,0E0,0E0,0E0,0E0,0E0,0E0,0E0,0E0,0E0,0E0,0E0,0E0,0E0,0E0,0E0,0E0,0E0,0E0],"parents":[2147483647,0,0,1,1,2,2,3,3,4,4,5,5,6,6,11,11,12,12,13,13,14,14,15,15,16,16,17,17,18,18,19,19,20,20,21,21,22,22,23,23,24,24,25,25,26,26,27,27,28,28,29,29,30,30,31,31,32,32,33,33,36,36,37,37,38,38],"right_children":[2,4,6,8,10,12,14,-1,-1,-1,-1,16,18,20,22,24,26,28,30,32,34,36,38,40,42,44,46,48,50,52,54,56,58,60,-1,-1,62,64,66,-1,-1,-1,-1,-1,-1,-1,-1,-1,-1,-1,-1,-1,-1,-1,-1,-1,-1,-1,-1,-1,-1,-1,-1,-1,-1,-1,-1],"split_conditions":[7.18E0,1.14622E-1,6.63695E-1,-1.079691E0,-1.057471E0,-4.3167E-2,-8.1913E-1,2.1999222E-3,8.325023E-3,-3.9799146E-2,-1.577422E-1,-8.74858E-1,1.17067E0,1.466824E0,-7.5779E-1,-1.016691E0,1.57044E-1,-1.76308E-1,5.40869E-1,1.51168E0,2.23035E3,-2.009316E0,-8.23671E-1,-3.98343E-1,8.94554E-1,-1.862552E0,1.1439E3,1.239039E0,-2.009316E0,7.85608E-1,-2.04333E-1,1.23892E-1,9.282E1,-7.05606E-1,1.43653555E-2,-6.98825E-2,9.89442E-1,6.1839E-2,1.59743E-1,3.2137066E-2,-3.8446388E-3,-6.03952E-2,6.048104E-3,-2.1443807E-2,2.2398185E-2,-3.4810822E-2,9.475024E-3,-9.859966E-3,-6.451193E-2,-6.700564E-2,8.974635E-3,-6.601812E-2,1.862001E-2,-4.120008E-2,1.8625984E-2,4.423321E-2,2.1036038E-2,-1.0258162E-2,9.24572E-4,-6.757444E-3,-3.1933334E-2,3.24996E-2,8.87084E-3,5.979327E-4,-6.596258E-2,1.732618E-2,-1.6585119E-2],"split_indices":[0,2,21,1,1,13,24,0,0,0,0,19,8,4,11,13,2,10,1,13,0,28,16,4,12,8,0,25,28,26,25,26,0,2,0,0,3,9,3,0,0,0,0,0,0,0,0,0,0,0,0,0,0,0,0,0,0,0,0,0,0,0,0,0,0,0,0],"split_type":[0,0,0,0,0,0,0,0,0,0,0,0,0,0,0,0,0,0,0,0,0,0,0,0,0,0,0,0,0,0,0,0,0,0,0,0,0,0,0,0,0,0,0,0,0,0,0,0,0,0,0,0,0,0,0,0,0,0,0,0,0,0,0,0,0,0,0],"sum_hessian":[8E2,4E0,7.96E2,2E0,2E0,5.73E2,2.23E2,1E0,1E0,1E0,1E0,2.82E2,2.91E2,5.2E1,1.71E2,5.9E1,2.23E2,2.65E2,2.6E1,4.6E1,6E0,3.7E1,1.34E2,2.3E1,3.6E1,1.23E2,1E2,1.31E2,1.34E2,1.9E1,7E0,4.3E1,3E0,4E0,2E0,1E0,3.6E1,2.6E1,1.08E2,1E1,1.3E1,2.4E1,1.2E1,9E0,1.14E2,2.4E1,7.6E1,1.16E2,1.5E1,5E0,1.29E2,1.7E1,2E0,2E0,5E0,1.9E1,2.4E1,1E0,2E0,1E0,3E0,2.9E1,7E0,1.2E1,1.4E1,5.6E1,5.2E1],"tree_param":{"num_deleted":"0","num_feature":"30","num_nodes":"67","size_leaf_vector":"1"}},{"base_weights":[-8.672882E-3,-9.6001756E-1,-2.6937143E-3,9.0046756E-2,-1.690076E0,-2.4863932E-2,1.1124782E-1,2.1174252E-3,8.012835E-3,-3.830668E-2,-1.5182687E-1,3.151191E-2,-9.981413E-2,1.5355572E-1,-1.6053216E-1,-6.357374E-2,1.6384059E-1,-5.865402E-1,-4.4930466E-2,-5.488996E-2,1.6799578E-1,-5.797526E-1,9.73908E-2,-1.4928249E-1,2.3596418E-1,2.7769586E-1,-2.0603161E-2,-4.4517845E-1,-1.7042512E-1,-5.613728E-1,6.353103E-4,2.1078627E-1,-1.7408457E-1,-9.854279E-2,-5.6439605E-2,-1.7902915E-1,2.094229E-1,-3.9651424E-2,-4.504504E-3,2.381157E-2,-3.1109149E-2,2.492376E-2,-5.8251154E-3,4.590201E-3,-9.165665E-2,-1.1468431E-2,-7.169746E-2,-7.178901E-2,5.454986E-3,3.2859936E-3,-4.529217E-2,-4.689391E-3,1.8925846E-2,3.0944773E-3,-6.79239E-2,-9.771263E-3,-1.314801E-3,-2.252951E-2,-2.8832417E-3,-6.552611E-4,2.0475179E-2],"categories":[],"categories_nodes":[],"categories_segments":[],"categories_sizes":[],"default_left":[0,0,0,0,0,0,0,0,0,0,0,0,0,0,0,0,0,0,0,0,0,0,0,0,0,0,0,0,0,0,0,0,0,0,0,0,0,0,0,0,0,0,0,0,0,0,0,0,0,0,0,0,0,0,0,0,0,0,0,0,0],"id":24,"left_children":[1,3,5,7,9,11,13,-1,-1,-1,-1,15,17,19,21,23,25,27,29,-1,31,33,35,37,39,41,43,45,-1,47,49,51,53,55,-1,57,59,-1,-1,-1,-1,-1,-1,-1,-1,-1,-1,-1,-1,-1,-1,-1,-1,-1,-1,-1,-1,-1,-1,-1,-1],"loss_changes":[4.5537014E0,3.9852276E0,2.016075E0,9.750575E-5,1.4872456E-1,2.8256996E0,1.5194474E0,0E0,0E0,0E0,0E0,4.816953E0,7.640368E0,1.567718E0,2.0027413E0,5.7603083E0,3.3657045E0,5.8993063E0,6.0951695E0,0E0,1.6761265E0,5.078323E-1,4.0910774E-1,5.8583684E0,2.784269E0,1.9474316E0,6.1686835E0,4.0338254E0,0E0,5.3403673E0,6.264931E0,1.1516147E0,2.085372E0,5.43019E-3,0E0,5.6700364E-2,1.2721947E-1,0E0,0E0,0E0,0E0,0E0,0E0,0E0,0E0,0E0,0E0,0E0,0E0,0E0,0E0,0E0,0E0,0E0,0E0,0E0,0E0,0E0,0E0,0E0,0E0],"parents":[2147483647,0,0,1,1,2,2,3,3,4,4,5,5,6,6,11,11,12,12,13,13,14,14,15,15,16,16,17,17,18,18,20,20,21,21,22,22,23,23,24,24,25,25,26,26,27,27,29,29,30,30,31,31,32,32,33,33,35,35,36,36],"right_children":[2,4,6,8,10,12,14,-1,-1,-1,-1,16,18,20,22,24,26,28,30,-1,32,34,36,38,40,42,44,46,-1,48,50,52,54,56,-1,58,60,-1,-1,-1,-1,-1,-1,-1,-1,-1,-1,-1,-1,-1,-1,-1,-1,-1,-1,-1,-1,-1,-1,-1,-1],"split_conditions":[7.18E0,1.14622E-1,1.032858E0,-1.079691E0,-1.057471E0,-1.5979E-2,1.453051E0,2.1174252E-3,8.012835E-3,-3.830668E-2,-1.5182687E-1,1.98393E-1,5.193E-2,-2.240674E0,1.32425E-1,7.65706E-1,3.41729E-1,1.390991E0,-1.508442E0,-5.488996E-2,1.05934E0,1.511E3,-7.19827E-1,-8.77999E-1,1.356434E0,9.68441E-1,1.544753E0,-9.852E-3,-1.7042512E-1,7.11064E-1,1.571821E0,-1.368177E0,8.29899E-1,1.1439E3,-5.6439605E-2,2.3296E3,2.4603E-1,-3.9651424E-2,-4.504504E-3,2.381157E-2,-3.1109149E-2,2.492376E-2,-5.8251154E-3,4.590201E-3,-9.165665E-2,-1.1468431E-2,-7.169746E-2,-7.178901E-2,5.454986E-3,3.2859936E-3,-4.529217E-2,-4.689391E-3,1.8925846E-2,3.0944773E-3,-6.79239E-2,-9.771263E-3,-1.314801E-3,-2.252951E-2,-2.8832417E-3,-6.552611E-4,2.0475179E-2],"split_indices":[0,2,6,1,1,6,12,0,0,0,0,28,6,1,13,12,1,22,22,0,17,0,15,9,4,10,25,8,0,20,15,7,13,0,0,0,13,0,0,0,0,0,0,0,0,0,0,0,0,0,0,0,0,0,0,0,0,0,0,0,0],"split_type":[0,0,0,0,0,0,0,0,0,0,0,0,0,0,0,0,0,0,0,0,0,0,0,0,0,0,0,0,0,0,0,0,0,0,0,0,0,0,0,0,0,0,0,0,0,0,0,0,0,0,0,0,0,0,0,0,0,0,0,0,0],"sum_hessian":[8E2,4E0,7.96E2,2E0,2E0,6.67E2,1.29E2,1E0,1E0,1E0,1E0,3.81E2,2.86E2,1.12E2,1.7E1,2.22E2,1.59E2,2.8E1,2.58E2,1E0,1.11E2,6E0,1.1E1,1.73E2,4.9E1,9.8E1,6.1E1,2.7E1,1E0,2E1,2.38E2,9.9E1,1.2E1,2E0,4E0,3E0,8E0,3.2E1,1.41E2,4.4E1,5E0,8.5E1,1.3E1,5.8E1,3E0,1.8E1,9E0,1.2E1,8E0,2.23E2,1.5E1,1.3E1,8.6E1,1E1,2E0,1E0,1E0,1E0,2E0,2E0,6E0],"tree_param":{"num_deleted":"0","num_feature":"30","num_nodes":"61","size_leaf_vector":"1"}},{"base_weights":[-9.071052E-3,-9.240169E-1,-3.3197345E-3,8.6670004E-2,-1.6266981E0,6.86303E-2,-3.749319E-2,2.0380218E-3,7.7123535E-3,-3.6870178E-2,-1.4613336E-1,-1.4994512E-1,1.4494404E-1,-3.468168E-1,-9.410582E-3,-4.5536375E-1,1.7852752E-1,1.9101766E-1,-2.5853637E-1,1.6514163E-2,-6.950688E-1,5.259424E-3,-5.5599076E-1,-2.733336E-1,-1.797764E0,2.8064567E-1,-2.408607E-1,2.1781257E-1,-4.7169274E-1,2.9527757E-1,-6.523521E-1,1.5475813E-1,-6.7883414E-1,-9.520399E-1,2.8299432E-2,-4.129515E-1,2.3197105E-2,-1.5511056E0,2.598442E-1,-7.616154E-2,-4.7257654E-3,-1.5918954E-1,-3.0880287E-2,3.9119303E-2,9.839689E-3,6.896142E-3,-3.850911E-2,1.93692E-2,-4.398521E-3,2.6149748E-2,-8.805942E-2,3.541951E-2,4.4429624E-3,-7.785584E-2,7.1459617E-3,-2.4002425E-2,1.930276E-2,-6.747108E-2,-2.29027E-2,-1.0217718E-1,-4.5328237E-2,2.0465855E-2,-5.3968962E-2,-1.1515281E-3,-6.728988E-2,2.4858804E-3,-6.754758E-2,-3.0452691E-2,-1.2741843E-1,2.858132E-2,8.316252E-3],"categories":[],"categories_nodes":[],"categories_segments":[],"categories_sizes":[],"default_left":[0,0,0,0,0,0,0,0,0,0,0,0,0,0,0,0,0,0,0,0,0,0,0,0,0,0,0,0,0,0,0,0,0,0,0,0,0,0,0,0,0,0,0,0,0,0,0,0,0,0,0,0,0,0,0,0,0,0,0,0,0,0,0,0,0,0,0,0,0,0,0],"id":25,"left_children":[1,3,5,7,9,11,13,-1,-1,-1,-1,15,17,19,21,23,25,27,29,31,33,35,37,39,41,43,45,47,49,51,53,55,57,59,61,63,65,67,69,-1,-1,-1,-1,-1,-1,-1,-1,-1,-1,-1,-1,-1,-1,-1,-1,-1,-1,-1,-1,-1,-1,-1,-1,-1,-1,-1,-1,-1,-1,-1,-1],"loss_changes":[4.2119102E0,3.6919389E0,1.9622219E0,9.0327114E-5,1.3778019E-1,4.308573E0,4.6961946E0,0E0,0E0,0E0,0E0,6.802846E0,3.6000376E0,5.705361E0,3.9880364E0,8.061117E0,1.4808923E0,3.15699E0,4.5546374E0,2.315992E0,4.302291E0,3.6479204E0,1.0957088E1,4.9309664E0,9.265995E-1,9.038179E-1,6.822642E-1,1.8711872E0,4.4430895E0,3.4799504E-1,3.5594769E0,1.0567505E0,5.5099964E-2,1.6017408E0,1.476777E0,3.8369343E0,4.3125057E0,3.25675E-1,1.0222423E-1,0E0,0E0,0E0,0E0,0E0,0E0,0E0,0E0,0E0,0E0,0E0,0E0,0E0,0E0,0E0,0E0,0E0,0E0,0E0,0E0,0E0,0E0,0E0,0E0,0E0,0E0,0E0,0E0,0E0,0E0,0E0,0E0],"parents":[2147483647,0,0,1,1,2,2,3,3,4,4,5,5,6,6,11,11,12,12,13,13,14,14,15,15,16,16,17,17,18,18,19,19,20,20,21,21,22,22,23,23,24,24,25,25,26,26,27,27,28,28,29,29,30,30,31,31,32,32,33,33,34,34,35,35,36,36,37,37,38,38],"right_children":[2,4,6,8,10,12,14,-1,-1,-1,-1,16,18,20,22,24,26,28,30,32,34,36,38,40,42,44,46,48,50,52,54,56,58,60,62,64,66,68,70,-1,-1,-1,-1,-1,-1,-1,-1,-1,-1,-1,-1,-1,-1,-1,-1,-1,-1,-1,-1,-1,-1,-1,-1,-1,-1,-1,-1,-1,-1,-1,-1],"split_conditions":[7.18E0,1.14622E-1,-4.47032E-1,-1.079691E0,-1.057471E0,-5.60726E-1,-2.94733E-1,2.0380218E-3,7.7123535E-3,-3.6870178E-2,-1.4613336E-1,-9.17387E-1,1.289291E0,-1.71972E-1,1.869615E0,1.02499E0,8.4515E-1,1.783771E0,-2.38763E-1,1.119458E0,5.16616E-1,-1.805066E0,2.49589E-1,-7.11461E-1,3.49525E3,-7.90104E-1,-3.92543E-1,1.002452E0,3.7922E3,2.05239E-1,-9.4943E-2,-5.26031E-1,-1.468337E0,4.2892E-1,2.25698E-1,4.40642E-1,2.078414E0,-9.67068E-1,2.265713E0,-7.616154E-2,-4.7257654E-3,-1.5918954E-1,-3.0880287E-2,3.9119303E-2,9.839689E-3,6.896142E-3,-3.850911E-2,1.93692E-2,-4.398521E-3,2.6149748E-2,-8.805942E-2,3.541951E-2,4.4429624E-3,-7.785584E-2,7.1459617E-3,-2.4002425E-2,1.930276E-2,-6.747108E-2,-2.29027E-2,-1.0217718E-1,-4.5328237E-2,2.0465855E-2,-5.3968962E-2,-1.1515281E-3,-6.728988E-2,2.4858804E-3,-6.754758E-2,-3.0452691E-2,-1.2741843E-1,2.858132E-2,8.316252E-3],"split_indices":[0,2,16,1,1,14,16,0,0,0,0,16,11,3,2,25,10,21,4,18,25,25,22,7,0,21,3,15,0,28,28,18,2,3,2,28,5,1,2,0,0,0,0,0,0,0,0,0,0,0,0,0,0,0,0,0,0,0,0,0,0,0,0,0,0,0,0,0,0,0,0],"split_type":[0,0,0,0,0,0,0,0,0,0,0,0,0,0,0,0,0,0,0,0,0,0,0,0,0,0,0,0,0,0,0,0,0,0,0,0,0,0,0,0,0,0,0,0,0,0,0,0,0,0,0,0,0,0,0,0,0,0,0,0,0,0,0,0,0,0,0,0,0,0,0],"sum_hessian":[8E2,4E0,7.96E2,2E0,2E0,2.56E2,5.4E2,1E0,1E0,1E0,1E0,6.6E1,1.9E2,4.4E1,4.96E2,3.4E1,3.2E1,1.71E2,1.9E1,2.2E1,2.2E1,4.84E2,1.2E1,3.1E1,3E0,2.6E1,6E0,1.65E2,6E0,8E0,1.1E1,1.9E1,3E0,1.6E1,6E0,1.9E1,4.65E2,5E0,7E0,6E0,2.5E1,2E0,1E0,9E0,1.7E1,3E0,3E0,1.44E2,2.1E1,3E0,3E0,4E0,4E0,7E0,4E0,3E0,1.6E1,1E0,2E0,6E0,1E1,5E0,1E0,1.1E1,8E0,4.61E2,4E0,1E0,4E0,3E0,4E0],"tree_param":{"num_deleted":"0","num_feature":"30","num_nodes":"71","size_leaf_vector":"1"}},{"base_weights":[-9.683118E-3,-8.8936627E-1,-4.1522537E-3,8.341987E-2,-1.565697E0,-1.2122041E-2,2.909276E-1,1.9615956E-3,7.42314E-3,-3.5487548E-2,-1.4065337E-1,1.6819995E-2,-1.1177876E-1,4.0157863E-1,-2.7973402E-1,9.125065E-2,-6.4365044E-2,-1.163332E0,-8.0377914E-2,4.7862947E-1,1.2243431E-2,-3.7630673E-2,1.4485908E-2,-9.989097E-3,2.0702118E-1,-3.5515946E-1,-4.973795E-3,1.0274757E-2,-1.1419976E-1,-5.0249588E-2,-6.753989E-2,6.292452E-3,5.329034E-1,-1.2225982E-2,9.374998E-3,-1.7010424E-2,7.245368E-3,1.7461307E-2,-5.8004923E-2,2.4568627E-2,-4.2106174E-2,7.3660543E-4,-8.865002E-2,-1.5108238E-2,6.9553475E-3,4.5557063E-2,1.6002545E-2],"categories":[],"categories_nodes":[],"categories_segments":[],"categories_sizes":[],"default_left":[0,0,0,0,0,0,0,0,0,0,0,0,0,0,0,0,0,0,0,0,0,0,0,0,0,0,0,0,0,0,0,0,0,0,0,0,0,0,0,0,0,0,0,0,0,0,0],"id":26,"left_children":[1,3,5,7,9,11,13,-1,-1,-1,-1,15,17,19,21,23,25,27,29,31,33,-1,-1,35,37,39,41,-1,-1,43,-1,-1,45,-1,-1,-1,-1,-1,-1,-1,-1,-1,-1,-1,-1,-1,-1],"loss_changes":[3.8934991E0,3.4202354E0,1.8778504E0,8.368306E-5,1.2763977E-1,2.2429566E0,1.4383657E0,0E0,0E0,0E0,0E0,3.6495948E0,5.684935E0,5.3411436E-1,5.168419E-1,3.6940506E0,4.9894495E0,2.544845E0,4.1801353E0,2.7664304E-1,9.94219E-2,0E0,0E0,3.9277272E0,3.8978605E0,7.084068E0,4.2084656E0,0E0,0E0,3.6074026E0,0E0,0E0,1.7996573E-1,0E0,0E0,0E0,0E0,0E0,0E0,0E0,0E0,0E0,0E0,0E0,0E0,0E0,0E0],"parents":[2147483647,0,0,1,1,2,2,3,3,4,4,5,5,6,6,11,11,12,12,13,13,14,14,15,15,16,16,17,17,18,18,19,19,20,20,23,23,24,24,25,25,26,26,29,29,32,32],"right_children":[2,4,6,8,10,12,14,-1,-1,-1,-1,16,18,20,22,24,26,28,30,32,34,-1,-1,36,38,40,42,-1,-1,44,-1,-1,46,-1,-1,-1,-1,-1,-1,-1,-1,-1,-1,-1,-1,-1,-1],"split_conditions":[7.18E0,1.14622E-1,1.931111E0,-1.079691E0,-1.057471E0,6.8708E-1,5.09483E-1,1.9615956E-3,7.42314E-3,-3.5487548E-2,-1.4065337E-1,-2.4736E-2,-2.065272E0,1.488235E0,2.23035E3,-2.0661E-2,-9.16818E-1,-9.92765E-1,2.039849E0,-1.189303E0,9.282E1,-3.7630673E-2,1.4485908E-2,-3.10972E-1,2.048814E0,-9.96002E-1,2.608043E0,1.0274757E-2,-1.1419976E-1,2.61265E3,-6.753989E-2,6.292452E-3,6.62531E-1,-1.2225982E-2,9.374998E-3,-1.7010424E-2,7.245368E-3,1.7461307E-2,-5.8004923E-2,2.4568627E-2,-4.2106174E-2,7.3660543E-4,-8.865002E-2,-1.5108238E-2,6.9553475E-3,4.5557063E-2,1.6002545E-2],"split_indices":[0,2,4,1,1,15,26,0,0,0,0,7,24,2,0,22,2,2,17,14,0,0,0,19,12,24,28,0,0,0,0,0,28,0,0,0,0,0,0,0,0,0,0,0,0,0,0],"split_type":[0,0,0,0,0,0,0,0,0,0,0,0,0,0,0,0,0,0,0,0,0,0,0,0,0,0,0,0,0,0,0,0,0,0,0,0,0,0,0,0,0,0,0,0,0,0,0],"sum_hessian":[8E2,4E0,7.96E2,2E0,2E0,7.76E2,2E1,1E0,1E0,1E0,1E0,6.02E2,1.74E2,1.7E1,3E0,3.14E2,2.88E2,4E0,1.7E2,1.4E1,3E0,2E0,1E0,1.68E2,1.46E2,4.8E1,2.4E2,1E0,3E0,1.65E2,5E0,2E0,1.2E1,1E0,2E0,5.5E1,1.13E2,1.43E2,3E0,1.1E1,3.7E1,2.38E2,2E0,8E1,8.5E1,9E0,3E0],"tree_param":{"num_deleted":"0","num_feature":"30","num_nodes":"47","size_leaf_vector":"1"}},{"base_weights":[-9.531511E-3,-8.5601497E-1,-4.2091166E-3,8.029163E-2,-1.5069833E0,-9.214591E-3,4.350719E-1,1.888036E-3,7.1447724E-3,-3.4156766E-2,-1.3537885E-1,-2.5491193E-1,1.5082969E-3,1.1463303E-2,4.130338E-2,1.919701E-1,-4.8707885E-1,1.5056017E-2,-2.2379701E-1,-3.1175576E-3,3.4928724E-2,8.6994216E-2,-7.607792E-1,2.357838E-1,-1.2090006E-4,-4.6104766E-2,-8.8995606E-1,6.14582E-3,-2.2445638E-2,-1.5711525E-2,2.3008525E-2,1.4502814E-2,-6.918347E-2,-3.4993716E-2,2.2172768E-2,-2.974012E-2,6.7077216E-4,-5.3329904E-2,6.631813E-3,-1.5723057E-3,-9.907185E-2],"categories":[],"categories_nodes":[],"categories_segments":[],"categories_sizes":[],"default_left":[0,0,0,0,0,0,0,0,0,0,0,0,0,0,0,0,0,0,0,0,0,0,0,0,0,0,0,0,0,0,0,0,0,0,0,0,0,0,0,0,0],"id":27,"left_children":[1,3,5,7,9,11,13,-1,-1,-1,-1,15,17,-1,-1,19,21,23,25,27,-1,29,31,33,35,37,39,-1,-1,-1,-1,-1,-1,-1,-1,-1,-1,-1,-1,-1,-1],"loss_changes":[3.6051576E0,3.1685274E0,1.7564607E0,7.752329E-5,1.1824608E-1,2.079072E0,2.0955801E-1,0E0,0E0,0E0,0E0,3.517295E0,2.314016E0,0E0,0E0,6.4230597E-1,3.5229115E0,2.395255E0,5.048934E0,2.2605753E-1,0E0,5.855661E-1,2.4921932E0,2.0717247E0,2.4110618E0,3.1938508E0,3.3431425E0,0E0,0E0,0E0,0E0,0E0,0E0,0E0,0E0,0E0,0E0,0E0,0E0,0E0,0E0],"parents":[2147483647,0,0,1,1,2,2,3,3,4,4,5,5,6,6,11,11,12,12,15,15,16,16,17,17,18,18,19,19,21,21,22,22,23,23,24,24,25,25,26,26],"right_children":[2,4,6,8,10,12,14,-1,-1,-1,-1,16,18,-1,-1,20,22,24,26,28,-1,30,32,34,36,38,40,-1,-1,-1,-1,-1,-1,-1,-1,-1,-1,-1,-1,-1,-1],"split_conditions":[7.18E0,1.14622E-1,2.559488E0,-1.079691E0,-1.057471E0,-1.706912E0,-8.41661E-1,1.888036E-3,7.1447724E-3,-3.4156766E-2,-1.3537885E-1,-7.05251E-1,1.66617E0,1.1463303E-2,4.130338E-2,-2.23926E-1,-3.51719E-1,3.7407E2,7.13061E-1,2.23088E-1,3.4928724E-2,-2.84134E-1,-1.450811E0,-1.766383E0,-2.002364E0,-8.396E-1,-7.8071E-2,6.14582E-3,-2.2445638E-2,-1.5711525E-2,2.3008525E-2,1.4502814E-2,-6.918347E-2,-3.4993716E-2,2.2172768E-2,-2.974012E-2,6.7077216E-4,-5.3329904E-2,6.631813E-3,-1.5723057E-3,-9.907185E-2],"split_indices":[0,2,10,1,1,28,11,0,0,0,0,24,27,0,0,15,23,0,1,3,0,22,16,9,18,14,28,0,0,0,0,0,0,0,0,0,0,0,0,0,0],"split_type":[0,0,0,0,0,0,0,0,0,0,0,0,0,0,0,0,0,0,0,0,0,0,0,0,0,0,0,0,0,0,0,0,0,0,0,0,0,0,0,0,0],"sum_hessian":[8E2,4E0,7.96E2,2E0,2E0,7.88E2,8E0,1E0,1E0,1E0,1E0,3.2E1,7.56E2,3E0,5E0,1.1E1,2.1E1,7.14E2,4.2E1,7E0,4E0,7E0,1.4E1,4.5E1,6.69E2,3.4E1,8E0,6E0,1E0,3E0,4E0,2E0,1.2E1,3E0,4.2E1,1.4E1,6.55E2,5E0,2.9E1,3E0,5E0],"tree_param":{"num_deleted":"0","num_feature":"30","num_nodes":"41","size_leaf_vector":"1"}},{"base_weights":[-9.223294E-3,-8.239144E-1,-4.100736E-3,7.728069E-2,-1.4504714E0,-2.3972828E-2,1.0092505E-1,1.8172347E-3,6.8768435E-3,-3.2875888E-2,-1.3030215E-1,3.5572033E-2,-1.1309032E-1,-9.698596E-2,2.2240245E-1,8.950126E-2,-1.6723968E-1,-1.0192985E-1,-1.1640364E-1,-1.1304831E-1,-4.9016965E-3,-3.684405E-1,2.8496274E-1,-7.488121E-3,1.9882588E-1,-5.2739274E-2,-9.327207E-1,1.0207865E-1,-1.7044054E-1,4.5457523E-2,-5.689921E-2,1.7240562E-1,-7.14291E-2,3.4535423E-1,-1.7615032E-1,6.2046945E-4,-1.0016644E-1,1.670573E-2,-5.4737817E-2,-3.4387832E-4,-6.79748E-2,-1.6187906E-2,-1.12061195E-1,1.2810338E-4,2.7062945E-2,-3.9337534E-2,-6.5522245E-3,1.2645125E-2,-1.5905315E-2,1.6064767E-2,1.9652212E-4,3.444432E-3,3.212068E-2,-4.3819267E-2,2.0038974E-2],"categories":[],"categories_nodes":[],"categories_segments":[],"categories_sizes":[],"default_left":[0,0,0,0,0,0,0,0,0,0,0,0,0,0,0,0,0,0,0,0,0,0,0,0,0,0,0,0,0,0,0,0,0,0,0,0,0,0,0,0,0,0,0,0,0,0,0,0,0,0,0,0,0,0,0],"id":28,"left_children":[1,3,5,7,9,11,13,-1,-1,-1,-1,15,17,19,21,23,25,27,-1,-1,29,31,33,35,37,39,41,43,45,47,-1,49,-1,51,53,-1,-1,-1,-1,-1,-1,-1,-1,-1,-1,-1,-1,-1,-1,-1,-1,-1,-1,-1,-1],"loss_changes":[3.3394365E0,2.9353437E0,1.6658239E0,7.181801E-5,1.0954428E-1,3.564677E0,3.0748682E0,0E0,0E0,0E0,0E0,4.4227724E0,4.1617928E0,6.356179E0,3.0250928E0,3.3839507E0,7.400881E0,3.7631702E0,0E0,0E0,1.8185354E0,2.690803E0,2.0658398E0,3.5694351E0,3.4942198E0,3.0786467E0,4.104763E0,1.7654768E0,5.8664784E0,1.4628454E0,0E0,3.4916446E-2,0E0,1.5693889E0,1.7844629E0,0E0,0E0,0E0,0E0,0E0,0E0,0E0,0E0,0E0,0E0,0E0,0E0,0E0,0E0,0E0,0E0,0E0,0E0,0E0,0E0],"parents":[2147483647,0,0,1,1,2,2,3,3,4,4,5,5,6,6,11,11,12,12,13,13,14,14,15,15,16,16,17,17,20,20,21,21,22,22,23,23,24,24,25,25,26,26,27,27,28,28,29,29,31,31,33,33,34,34],"right_children":[2,4,6,8,10,12,14,-1,-1,-1,-1,16,18,20,22,24,26,28,-1,-1,30,32,34,36,38,40,42,44,46,48,-1,50,-1,52,54,-1,-1,-1,-1,-1,-1,-1,-1,-1,-1,-1,-1,-1,-1,-1,-1,-1,-1,-1,-1],"split_conditions":[7.18E0,1.14622E-1,1.066306E0,-1.079691E0,-1.057471E0,-2.4736E-2,-4.36798E-1,1.8172347E-3,6.8768435E-3,-3.2875888E-2,-1.3030215E-1,6.8708E-1,2.608043E0,-1.479575E0,-1.551684E0,-2.0661E-2,1.365398E0,-8.13435E-1,-1.1640364E-1,-1.1304831E-1,1.482895E0,2.36486E-1,9.24197E-1,-3.3734E-2,2.048814E0,1.498312E0,-7.9859E-2,-9.96002E-1,-9.16818E-1,3.14579E-1,-5.689921E-2,2.23035E3,-7.14291E-2,-1.083782E0,-3.08286E-1,6.2046945E-4,-1.0016644E-1,1.670573E-2,-5.4737817E-2,-3.4387832E-4,-6.79748E-2,-1.6187906E-2,-1.12061195E-1,1.2810338E-4,2.7062945E-2,-3.9337534E-2,-6.5522245E-3,1.2645125E-2,-1.5905315E-2,1.6064767E-2,1.9652212E-4,3.444432E-3,3.212068E-2,-4.3819267E-2,2.0038974E-2],"split_indices":[0,2,7,1,1,7,9,0,0,0,0,15,28,15,10,22,18,24,0,0,19,22,6,22,12,21,17,24,2,5,0,0,0,27,27,0,0,0,0,0,0,0,0,0,0,0,0,0,0,0,0,0,0,0,0],"split_type":[0,0,0,0,0,0,0,0,0,0,0,0,0,0,0,0,0,0,0,0,0,0,0,0,0,0,0,0,0,0,0,0,0,0,0,0,0,0,0,0,0,0,0,0,0,0,0,0,0,0,0,0,0,0,0],"sum_hessian":[8E2,4E0,7.96E2,2E0,2E0,6.7E2,1.26E2,1E0,1E0,1E0,1E0,4.02E2,2.68E2,4.8E1,7.8E1,3.18E2,8.4E1,2.67E2,1E0,2E0,4.6E1,7E0,7.1E1,1.69E2,1.49E2,7.4E1,1E1,6.7E1,2E2,4.4E1,2E0,4E0,3E0,6.3E1,8E0,1.68E2,1E0,1.46E2,3E0,7.1E1,3E0,5E0,5E0,4.9E1,1.8E1,3.7E1,1.63E2,3E1,1.4E1,3E0,1E0,1.4E1,4.9E1,4E0,4E0],"tree_param":{"num_deleted":"0","num_feature":"30","num_nodes":"55","size_leaf_vector":"1"}},{"base_weights":[-9.580639E-3,-7.930176E-1,-4.653706E-3,7.438266E-2,-1.3960787E0,1.0133912E-1,-2.396106E-2,1.7490886E-3,6.618961E-3,-3.164304E-2,-1.2541583E-1,1.2665907E-1,-1.120385E-1,-2.9896635E-1,-5.7052514E-3,-2.2411226E-1,2.0181064E-1,-6.234607E-1,8.9150466E-2,1.2560445E-1,-3.5042863E-2,4.18735E-2,-1.1368386E0,1.1588346E-2,3.1160185E-1,-8.022761E-1,3.1986102E-2,3.3353803E-1,-1.8859088E-1,-6.3625865E-2,2.3386526E-1,-1.6944245E-1,1.2648246E-2,1.9884674E-2,-1.5813056E-2,-9.422098E-2,-2.4715262E-2,-2.1428073E-2,2.4294117E-2,2.5624666E-2,-1.6853917E-2,-9.060559E-2,-2.0675266E-2,-5.4919217E-3,2.8615272E-2,6.203258E-3,-3.573254E-2,-1.6737692E-2,2.4128849E-2,-1.5507844E-2,2.068393E-2,2.0499611E-3,-2.9343128E-2,-1.0805841E-2,5.6469524E-3],"categories":[],"categories_nodes":[],"categories_segments":[],"categories_sizes":[],"default_left":[0,0,0,0,0,0,0,0,0,0,0,0,0,0,0,0,0,0,0,0,0,0,0,0,0,0,0,0,0,0,0,0,0,0,0,0,0,0,0,0,0,0,0,0,0,0,0,0,0,0,0,0,0,0,0],"id":29,"left_children":[1,3,5,7,9,11,13,-1,-1,-1,-1,15,-1,17,19,21,23,25,27,29,31,33,35,37,39,41,-1,43,45,47,49,51,53,-1,-1,-1,-1,-1,-1,-1,-1,-1,-1,-1,-1,-1,-1,-1,-1,-1,-1,-1,-1,-1,-1],"loss_changes":[3.0881226E0,2.7193208E0,1.6334416E0,6.653182E-5,1.0148287E-1,5.15718E0,3.3870938E0,0E0,0E0,0E0,0E0,3.2612724E0,0E0,5.345134E0,2.4467683E0,5.388592E0,2.1057472E0,4.660309E0,1.4204327E0,2.3912823E0,3.3287594E0,1.071457E0,6.8134785E-2,3.6210518E0,1.1085854E0,3.9408865E0,0E0,2.4270463E-1,8.203268E-1,2.7153966E0,1.4239287E0,5.9463596E0,3.7809682E0,0E0,0E0,0E0,0E0,0E0,0E0,0E0,0E0,0E0,0E0,0E0,0E0,0E0,0E0,0E0,0E0,0E0,0E0,0E0,0E0,0E0,0E0],"parents":[2147483647,0,0,1,1,2,2,3,3,4,4,5,5,6,6,11,11,13,13,14,14,15,15,16,16,17,17,18,18,19,19,20,20,21,21,22,22,23,23,24,24,25,25,27,27,28,28,29,29,30,30,31,31,32,32],"right_children":[2,4,6,8,10,12,14,-1,-1,-1,-1,16,-1,18,20,22,24,26,28,30,32,34,36,38,40,42,-1,44,46,48,50,52,54,-1,-1,-1,-1,-1,-1,-1,-1,-1,-1,-1,-1,-1,-1,-1,-1,-1,-1,-1,-1,-1,-1],"split_conditions":[7.18E0,1.14622E-1,-9.8494E-1,-1.079691E0,-1.057471E0,2.608043E0,-8.1537E-1,1.7490886E-3,6.618961E-3,-3.164304E-2,-1.2541583E-1,-1.133108E0,-1.120385E-1,1.65555E-1,-9.04372E-1,5.68365E-1,-4.83285E-1,8.39895E-1,-2.29054E-1,-3.21609E-1,-6.13249E-1,4.39371E-1,3.63075E3,6.26927E-1,1.729115E0,3.81645E-1,3.1986102E-2,-1.00318E0,-5.1701E-1,5.49859E-1,-1.62515E0,7.1643E-2,-5.73194E-1,1.9884674E-2,-1.5813056E-2,-9.422098E-2,-2.4715262E-2,-2.1428073E-2,2.4294117E-2,2.5624666E-2,-1.6853917E-2,-9.060559E-2,-2.0675266E-2,-5.4919217E-3,2.8615272E-2,6.203258E-3,-3.573254E-2,-1.6737692E-2,2.4128849E-2,-1.5507844E-2,2.068393E-2,2.0499611E-3,-2.9343128E-2,-1.0805841E-2,5.6469524E-3],"split_indices":[0,2,12,1,1,28,12,0,0,0,0,10,0,28,6,24,22,11,4,7,26,16,0,23,2,13,0,2,13,24,15,15,22,0,0,0,0,0,0,0,0,0,0,0,0,0,0,0,0,0,0,0,0,0,0],"split_type":[0,0,0,0,0,0,0,0,0,0,0,0,0,0,0,0,0,0,0,0,0,0,0,0,0,0,0,0,0,0,0,0,0,0,0,0,0,0,0,0,0,0,0,0,0,0,0,0,0,0,0,0,0,0,0],"sum_hessian":[8E2,4E0,7.96E2,2E0,2E0,1.22E2,6.74E2,1E0,1E0,1E0,1E0,1.21E2,1E0,4.1E1,6.33E2,2.1E1,1E2,2.2E1,1.9E1,1.15E2,5.18E2,1.7E1,4E0,3.7E1,6.3E1,1.9E1,3E0,1E1,9E0,4.2E1,7.3E1,1.35E2,3.83E2,9E0,8E0,3E0,1E0,1.9E1,1.8E1,6E1,3E0,1E1,9E0,1E0,9E0,5E0,4E0,3E1,1.2E1,6E0,6.7E1,7.2E1,6.3E1,1.09E2,2.74E2],"tree_param":{"num_deleted":"0","num_feature":"30","num_nodes":"55","size_leaf_vector":"1"}},{"base_weights":[-9.448287E-3,-7.632795E-1,-4.7072526E-3,7.1593314E-2,-1.3437258E0,-2.1008043E-2,1.18913874E-1,1.6834975E-3,6.3707507E-3,-3.0456426E-2,-1.20712735E-1,9.529504E-2,-4.57513E-2,-4.9092267E-2,1.3443606E-1,1.4383902E-1,-3.6976862E-1,-1.6598283E-1,-2.4846182E-3,1.57582E-1,-3.1062756E-2,2.3644945E-1,-1.5989977E-1,-6.934887E-2,2.3254354E-2,-9.768578E-2,-1.3477778E-1,2.0930742E-1,-5.933002E-2,-3.2715946E-1,1.842423E-1,-2.4566682E-2,2.0612596E-2,6.1956784E-3,-5.596383E-2,2.7405104E-2,-1.913356E-2,7.152428E-3,-2.1567654E-2,1.3932327E-3,2.3065662E-2,-1.0545413E-5,-2.4282807E-2,7.0048035E-3,-4.789974E-2,1.5765255E-2,-2.0488204E-2],"categories":[],"categories_nodes":[],"categories_segments":[],"categories_sizes":[],"default_left":[0,0,0,0,0,0,0,0,0,0,0,0,0,0,0,0,0,0,0,0,0,0,0,0,0,0,0,0,0,0,0,0,0,0,0,0,0,0,0,0,0,0,0,0,0,0,0],"id":30,"left_children":[1,3,5,7,9,11,13,-1,-1,-1,-1,15,17,-1,19,21,23,25,27,29,-1,31,33,-1,35,-1,37,39,41,43,45,-1,-1,-1,-1,-1,-1,-1,-1,-1,-1,-1,-1,-1,-1,-1,-1],"loss_changes":[2.8591328E0,2.5191963E0,1.6085503E0,6.163772E-5,9.401417E-2,2.0331504E0,1.2045605E0,0E0,0E0,0E0,0E0,2.8526154E0,3.027162E0,0E0,1.2334821E0,3.2164288E0,2.638484E0,5.285963E0,5.1773224E0,1.2104547E0,0E0,1.9735231E0,3.9004798E0,0E0,8.551626E-1,0E0,5.337164E0,1.6993005E0,5.3060145E0,7.1467435E-1,1.0668049E0,0E0,0E0,0E0,0E0,0E0,0E0,0E0,0E0,0E0,0E0,0E0,0E0,0E0,0E0,0E0,0E0],"parents":[2147483647,0,0,1,1,2,2,3,3,4,4,5,5,6,6,11,11,12,12,14,14,15,15,16,16,17,17,18,18,19,19,21,21,22,22,24,24,26,26,27,27,28,28,29,29,30,30],"right_children":[2,4,6,8,10,12,14,-1,-1,-1,-1,16,18,-1,20,22,24,26,28,30,-1,32,34,-1,36,-1,38,40,42,44,46,-1,-1,-1,-1,-1,-1,-1,-1,-1,-1,-1,-1,-1,-1,-1,-1],"split_conditions":[7.18E0,1.14622E-1,1.269233E0,-1.079691E0,-1.057471E0,-9.09162E-1,-2.240674E0,1.6834975E-3,6.3707507E-3,-3.0456426E-2,-1.20712735E-1,1.441748E0,-6.54628E-1,-4.9092267E-2,1.335043E0,6.75099E-1,1.00509E3,-2.002364E0,-2.15598E-1,-1.791016E0,-3.1062756E-2,-1.551684E0,1.198714E0,-6.934887E-2,1.42909E-1,-9.768578E-2,-2.61046E-1,-5.03156E-1,8.83538E-1,3.3681E2,1.874709E0,-2.4566682E-2,2.0612596E-2,6.1956784E-3,-5.596383E-2,2.7405104E-2,-1.913356E-2,7.152428E-3,-2.1567654E-2,1.3932327E-3,2.3065662E-2,-1.0545413E-5,-2.4282807E-2,7.0048035E-3,-4.789974E-2,1.5765255E-2,-2.0488204E-2],"split_indices":[0,2,6,1,1,23,1,0,0,0,0,20,25,0,16,26,0,18,25,14,0,10,18,0,5,0,3,2,27,0,9,0,0,0,0,0,0,0,0,0,0,0,0,0,0,0,0],"split_type":[0,0,0,0,0,0,0,0,0,0,0,0,0,0,0,0,0,0,0,0,0,0,0,0,0,0,0,0,0,0,0,0,0,0,0,0,0,0,0,0,0,0,0,0,0,0,0],"sum_hessian":[8E2,4E0,7.96E2,2E0,2E0,7.04E2,9.2E1,1E0,1E0,1E0,1E0,1.23E2,5.81E2,1E0,9.1E1,1.12E2,1.1E1,1.53E2,4.28E2,8.8E1,3E0,8.6E1,2.6E1,4E0,7E0,3E0,1.5E2,9E1,3.38E2,4E0,8.4E1,5E0,8.1E1,1.9E1,7E0,3E0,4E0,6E1,9E1,3.1E1,5.9E1,2.77E2,6.1E1,2E0,2E0,8E1,4E0],"tree_param":{"num_deleted":"0","num_feature":"30","num_nodes":"47","size_leaf_vector":"1"}},{"base_weights":[-9.358419E-3,-7.346565E-1,-4.7965003E-3,6.8908565E-2,-1.293336E0,1.2831305E-1,-1.9415218E-2,1.6203661E-3,6.1318474E-3,-2.9314311E-2,-1.16186E-1,2.1053995E-1,-1.6204146E-1,-1.2280267E-1,2.7012985E-2,2.854866E-1,-1.6289335E-1,3.641959E-2,-5.139931E-2,-3.8461205E-1,-5.4454166E-2,4.6186462E-2,-2.7299365E-1,3.2638305E-1,-3.6846228E-2,2.8418338E-2,-5.266261E-1,3.19238E-1,-2.9200426E-1,-5.6286705E-1,1.6734943E-1,8.725353E-2,-2.0706302E-1,9.23516E-2,-8.262935E-2,2.3102687E-1,-5.0000376E-1,3.5184506E-2,1.7897436E-2,-5.857887E-2,5.471877E-3,2.7245939E-2,9.355729E-3,-1.2248856E-3,-3.7100676E-2,-5.1873133E-2,2.6108202E-2,2.4640039E-2,-9.301165E-3,-4.3612067E-2,1.3804125E-2,-8.2099184E-2,-8.591938E-3,1.4825526E-2,1.7293783E-4,-6.759598E-2,-2.1839685E-4,-2.0444454E-3,3.7107367E-2,-8.1432484E-2,-1.8681938E-2],"categories":[],"categories_nodes":[],"categories_segments":[],"categories_sizes":[],"default_left":[0,0,0,0,0,0,0,0,0,0,0,0,0,0,0,0,0,0,0,0,0,0,0,0,0,0,0,0,0,0,0,0,0,0,0,0,0,0,0,0,0,0,0,0,0,0,0,0,0,0,0,0,0,0,0,0,0,0,0,0,0],"id":31,"left_children":[1,3,5,7,9,11,13,-1,-1,-1,-1,15,17,19,21,23,25,27,-1,29,31,33,35,37,-1,-1,39,41,43,45,47,49,51,53,55,57,59,-1,-1,-1,-1,-1,-1,-1,-1,-1,-1,-1,-1,-1,-1,-1,-1,-1,-1,-1,-1,-1,-1,-1,-1],"loss_changes":[2.6467855E0,2.3337986E0,1.5533663E0,5.710032E-5,8.709526E-2,1.9202374E0,3.4545846E0,0E0,0E0,0E0,0E0,1.7817342E0,1.8942811E0,3.9694812E0,2.871437E0,1.8122363E0,2.367337E0,1.3935993E0,0E0,4.6201305E0,3.867468E0,2.7907336E0,3.5480468E0,5.1434326E-1,0E0,0E0,1.1248312E0,2.3209691E-2,3.8301748E-1,4.3466415E0,6.0430515E-1,6.127453E0,6.935692E0,3.2714572E0,8.089699E0,6.9468564E-1,2.8160071E0,0E0,0E0,0E0,0E0,0E0,0E0,0E0,0E0,0E0,0E0,0E0,0E0,0E0,0E0,0E0,0E0,0E0,0E0,0E0,0E0,0E0,0E0,0E0,0E0],"parents":[2147483647,0,0,1,1,2,2,3,3,4,4,5,5,6,6,11,11,12,12,13,13,14,14,15,15,16,16,17,17,19,19,20,20,21,21,22,22,23,23,26,26,27,27,28,28,29,29,30,30,31,31,32,32,33,33,34,34,35,35,36,36],"right_children":[2,4,6,8,10,12,14,-1,-1,-1,-1,16,18,20,22,24,26,28,-1,30,32,34,36,38,-1,-1,40,42,44,46,48,50,52,54,56,58,60,-1,-1,-1,-1,-1,-1,-1,-1,-1,-1,-1,-1,-1,-1,-1,-1,-1,-1,-1,-1,-1,-1,-1,-1],"split_conditions":[7.18E0,1.14622E-1,-1.217983E0,-1.079691E0,-1.057471E0,4.34471E-1,-2.65604E-1,1.6203661E-3,6.1318474E-3,-2.9314311E-2,-1.16186E-1,4.15948E3,2.76272E-1,-8.66605E-1,1.715307E0,1.883262E0,-1.93E-1,-3.5503E-1,-5.139931E-2,7.23112E-1,1.1837E-1,6.70328E-1,-6.56911E-1,-2.89993E-1,-3.6846228E-2,2.8418338E-2,-1.289601E0,3.11201E-1,-7.37998E-1,1.101957E0,7.36892E-1,-1.238696E0,1.75649E-1,-1.5897E-1,-1.444005E0,1.06682E-1,1.885341E0,3.5184506E-2,1.7897436E-2,-5.857887E-2,5.471877E-3,2.7245939E-2,9.355729E-3,-1.2248856E-3,-3.7100676E-2,-5.1873133E-2,2.6108202E-2,2.4640039E-2,-9.301165E-3,-4.3612067E-2,1.3804125E-2,-8.2099184E-2,-8.591938E-3,1.4825526E-2,1.7293783E-4,-6.759598E-2,-2.1839685E-4,-2.0444454E-3,3.7107367E-2,-8.1432484E-2,-1.8681938E-2],"split_indices":[0,2,21,1,1,13,21,0,0,0,0,0,22,25,27,11,27,9,0,12,13,24,1,6,0,0,21,3,4,2,24,28,13,3,19,21,27,0,0,0,0,0,0,0,0,0,0,0,0,0,0,0,0,0,0,0,0,0,0,0,0],"split_type":[0,0,0,0,0,0,0,0,0,0,0,0,0,0,0,0,0,0,0,0,0,0,0,0,0,0,0,0,0,0,0,0,0,0,0,0,0,0,0,0,0,0,0,0,0,0,0,0,0,0,0,0,0,0,0,0,0,0,0,0,0],"sum_hessian":[8E2,4E0,7.96E2,2E0,2E0,7.8E1,7.18E2,1E0,1E0,1E0,1E0,6.1E1,1.7E1,2.22E2,4.96E2,5.1E1,1E1,1.3E1,4E0,4.5E1,1.77E2,4.67E2,2.9E1,4.9E1,2E0,4E0,6E0,7E0,6E0,3.4E1,1.1E1,9.2E1,8.5E1,3.44E2,1.23E2,9E0,2E1,1.7E1,3.2E1,4E0,2E0,5E0,2E0,3E0,3E0,3E1,4E0,7E0,4E0,1.1E1,8.1E1,7E0,7.8E1,1.58E2,1.86E2,1E1,1.13E2,5E0,4E0,5E0,1.5E1],"tree_param":{"num_deleted":"0","num_feature":"30","num_nodes":"61","size_leaf_vector":"1"}},{"base_weights":[-9.2159845E-3,-7.071069E-1,-4.826185E-3,6.6324495E-2,-1.244836E0,1.04857944E-1,-2.1256045E-2,1.5596029E-3,5.901903E-3,-2.8215025E-2,-1.1182902E-1,-4.75391E-1,1.4523432E-1,-1.1190957E-1,2.0775598E-2,-5.5329774E-2,-9.420398E-2,2.6146016E-1,-2.2725036E-2,-2.1393588E-1,8.819378E-2,3.3865023E-2,-5.3443885E-1,-1.3112111E-2,-6.7899056E-4,-1.5285899E-1,2.949812E-1,-1.9192226E-1,3.1729263E-1,3.108582E-1,-2.7195084E-1,-3.4433894E-2,1.1737511E-1,1.5639785E-1,-2.6724461E-2,2.733323E-1,-7.763024E-2,-1.692951E-2,5.197959E-3,2.5340252E-2,-3.0940194E-3,-1.9278263E-3,-4.531905E-2,2.983655E-2,6.958353E-3,3.109884E-2,-1.818982E-2,2.2115892E-2,-2.4443837E-2,1.9073127E-2,1.8342037E-3,1.487193E-2,-2.0753346E-2,-2.6964484E-2,1.5557023E-3,2.6765706E-2,-2.2816078E-3],"categories":[],"categories_nodes":[],"categories_segments":[],"categories_sizes":[],"default_left":[0,0,0,0,0,0,0,0,0,0,0,0,0,0,0,0,0,0,0,0,0,0,0,0,0,0,0,0,0,0,0,0,0,0,0,0,0,0,0,0,0,0,0,0,0,0,0,0,0,0,0,0,0,0,0,0,0],"id":32,"left_children":[1,3,5,7,9,11,13,-1,-1,-1,-1,15,17,19,21,-1,23,25,27,29,31,33,35,-1,-1,37,39,41,43,45,47,-1,49,51,53,55,-1,-1,-1,-1,-1,-1,-1,-1,-1,-1,-1,-1,-1,-1,-1,-1,-1,-1,-1,-1,-1],"loss_changes":[2.4505317E0,2.162046E0,1.4384986E0,5.289633E-5,8.0685616E-2,2.5055912E0,2.6466846E0,0E0,0E0,0E0,0E0,6.305052E-1,1.9190214E0,4.5103455E0,3.4701319E0,0E0,2.5878083E-2,8.506179E-1,2.4196274E0,4.529641E0,1.2517366E0,3.4564328E0,4.731266E0,0E0,0E0,9.658766E-2,7.926564E-1,1.9035017E0,2.1620703E-1,9.621347E-1,4.133993E0,0E0,9.098875E-1,2.8491857E0,4.936172E0,1.3774034E-1,0E0,0E0,0E0,0E0,0E0,0E0,0E0,0E0,0E0,0E0,0E0,0E0,0E0,0E0,0E0,0E0,0E0,0E0,0E0,0E0,0E0],"parents":[2147483647,0,0,1,1,2,2,3,3,4,4,5,5,6,6,11,11,12,12,13,13,14,14,16,16,17,17,18,18,19,19,20,20,21,21,22,22,25,25,26,26,27,27,28,28,29,29,30,30,32,32,33,33,34,34,35,35],"right_children":[2,4,6,8,10,12,14,-1,-1,-1,-1,16,18,20,22,-1,24,26,28,30,32,34,36,-1,-1,38,40,42,44,46,48,-1,50,52,54,56,-1,-1,-1,-1,-1,-1,-1,-1,-1,-1,-1,-1,-1,-1,-1,-1,-1,-1,-1,-1,-1],"split_conditions":[7.18E0,1.14622E-1,-1.122656E0,-1.079691E0,-1.057471E0,-1.563841E0,-1.5571E-1,1.5596029E-3,5.901903E-3,-2.8215025E-2,-1.1182902E-1,5.50095E-1,2.12592E-1,4.29594E-1,1.931931E0,-5.5329774E-2,2.6437E2,-1.70021E0,6.36833E-1,-1.279718E0,-1.748014E0,-4.47032E-1,-4.78523E-1,-1.3112111E-2,-6.7899056E-4,1.26339E3,1.600411E0,3.57774E3,8.15818E-1,8.43167E-1,-1.532212E0,-3.4433894E-2,-2.01658E-1,1.562098E0,-2.65481E-1,2.69967E3,-7.763024E-2,-1.692951E-2,5.197959E-3,2.5340252E-2,-3.0940194E-3,-1.9278263E-3,-4.531905E-2,2.983655E-2,6.958353E-3,3.109884E-2,-1.818982E-2,2.2115892E-2,-2.4443837E-2,1.9073127E-2,1.8342037E-3,1.487193E-2,-2.0753346E-2,-2.6964484E-2,1.5557023E-3,2.6765706E-2,-2.2816078E-3],"split_indices":[0,2,20,1,1,25,20,0,0,0,0,1,7,22,23,0,0,2,23,6,8,16,28,0,0,0,24,0,25,9,27,0,8,22,16,0,0,0,0,0,0,0,0,0,0,0,0,0,0,0,0,0,0,0,0,0,0],"split_type":[0,0,0,0,0,0,0,0,0,0,0,0,0,0,0,0,0,0,0,0,0,0,0,0,0,0,0,0,0,0,0,0,0,0,0,0,0,0,0,0,0,0,0,0,0,0,0,0,0,0,0,0,0,0,0,0,0],"sum_hessian":[8E2,4E0,7.96E2,2E0,2E0,1.03E2,6.93E2,1E0,1E0,1E0,1E0,6E0,9.7E1,2.19E2,4.74E2,3E0,3E0,5.7E1,4E1,1.45E2,7.4E1,4.64E2,1E1,1E0,2E0,4E0,5.3E1,2.7E1,1.3E1,1.4E1,1.31E2,3E0,7.1E1,1.53E2,3.11E2,4E0,6E0,3E0,1E0,4.7E1,6E0,2E1,7E0,9E0,4E0,1.2E1,2E0,1.1E1,1.2E2,2.8E1,4.3E1,1.4E2,1.3E1,3.8E1,2.73E2,3E0,1E0],"tree_param":{"num_deleted":"0","num_feature":"30","num_nodes":"57","size_leaf_vector":"1"}},{"base_weights":[-8.885613E-3,-6.805904E-1,-4.6605063E-3,6.383732E-2,-1.1981547E0,3.207988E-1,-1.0044342E-2,1.5011174E-3,5.6805816E-3,-2.715696E-2,-1.07635446E-1,-1.2586208E-2,3.755014E-1,8.569523E-5,-1.9871843E-1,3.4088656E-2,1.3048409E-2,-9.055861E-2,2.6588812E-2,-7.261133E-1,5.324059E-2,-1.9094166E-1,1.7407277E-1,-4.99313E-1,3.5784647E-2,2.112288E-2,-9.349444E-1,-2.5522465E-1,3.375921E-1,-4.8768884E-3,-3.5316437E-2,-4.553545E-2,1.808519E-2,-8.995163E-2,-1.3078732E-2,3.1017375E-3,-5.7118405E-2,-3.2116727E-3,-8.463268E-2,7.2656414E-3,-3.985567E-2,3.572756E-2,-1.2234905E-2],"categories":[],"categories_nodes":[],"categories_segments":[],"categories_sizes":[],"default_left":[0,0,0,0,0,0,0,0,0,0,0,0,0,0,0,0,0,0,0,0,0,0,0,0,0,0,0,0,0,0,0,0,0,0,0,0,0,0,0,0,0,0,0],"id":33,"left_children":[1,3,5,7,9,11,13,-1,-1,-1,-1,-1,15,17,19,-1,-1,21,23,25,27,29,31,33,35,-1,37,39,41,-1,-1,-1,-1,-1,-1,-1,-1,-1,-1,-1,-1,-1,-1],"loss_changes":[2.2700853E0,2.0029328E0,1.3997412E0,4.9005263E-5,7.474756E-2,4.1048563E-1,1.5003684E0,0E0,0E0,0E0,0E0,0E0,1.120013E-1,1.7945658E0,5.3539352E0,0E0,0E0,4.5226393E0,2.8131366E0,2.9991646E0,2.5421133E0,4.3050795E0,2.608756E0,2.0654988E0,2.5594444E0,0E0,1.8504744E0,1.4129024E0,1.1200333E0,0E0,0E0,0E0,0E0,0E0,0E0,0E0,0E0,0E0,0E0,0E0,0E0,0E0,0E0],"parents":[2147483647,0,0,1,1,2,2,3,3,4,4,5,5,6,6,12,12,13,13,14,14,17,17,18,18,19,19,20,20,21,21,22,22,23,23,24,24,26,26,27,27,28,28],"right_children":[2,4,6,8,10,12,14,-1,-1,-1,-1,-1,16,18,20,-1,-1,22,24,26,28,30,32,34,36,-1,38,40,42,-1,-1,-1,-1,-1,-1,-1,-1,-1,-1,-1,-1,-1,-1],"split_conditions":[7.18E0,1.14622E-1,8.856E1,-1.079691E0,-1.057471E0,-2.006779E0,1.571821E0,1.5011174E-3,5.6805816E-3,-2.715696E-2,-1.07635446E-1,-1.2586208E-2,9.88029E-1,-6.6893E-1,-4.84967E-1,3.4088656E-2,1.3048409E-2,6.99913E-1,-2.154132E0,-1.628864E0,-2.39081E-1,4.65216E-1,-1.725496E0,-1.139069E0,2.608043E0,2.112288E-2,-1.782244E0,-4.8563E-1,3.9234E-1,-4.8768884E-3,-3.5316437E-2,-4.553545E-2,1.808519E-2,-8.995163E-2,-1.3078732E-2,3.1017375E-3,-5.7118405E-2,-3.2116727E-3,-8.463268E-2,7.2656414E-3,-3.985567E-2,3.572756E-2,-1.2234905E-2],"split_indices":[0,2,0,1,1,2,15,0,0,0,0,0,6,14,1,0,0,16,18,18,28,15,11,25,28,0,26,19,26,0,0,0,0,0,0,0,0,0,0,0,0,0,0],"split_type":[0,0,0,0,0,0,0,0,0,0,0,0,0,0,0,0,0,0,0,0,0,0,0,0,0,0,0,0,0,0,0,0,0,0,0,0,0,0,0,0,0,0,0],"sum_hessian":[8E2,4E0,7.96E2,2E0,2E0,1.2E1,7.84E2,1E0,1E0,1E0,1E0,1E0,1.1E1,7.45E2,3.9E1,7E0,4E0,1.68E2,5.77E2,1.2E1,2.7E1,1.22E2,4.6E1,9E0,5.68E2,2E0,1E1,1.3E1,1.4E1,8.5E1,3.7E1,3E0,4.3E1,2E0,7E0,5.65E2,3E0,2E0,8E0,6E0,