{"learner":{"attributes":{"best_iteration":"0","best_score":"0.8878056036423316"},"feature_names":[],"feature_types":[],"gradient_booster":{"model":{"gbtree_model_param":{"num_parallel_tree":"1","num_trees":"51"},"iteration_indptr":[0,1,2,3,4,5,6,7,8,9,10,11,12,13,14,15,16,17,18,19,20,21,22,23,24,25,26,27,28,29,30,31,32,33,34,35,36,37,38,39,40,41,42,43,44,45,46,47,48,49,50,51],"tree_info":[0,0,0,0,0,0,0,0,0,0,0,0,0,0,0,0,0,0,0,0,0,0,0,0,0,0,0,0,0,0,0,0,0,0,0,0,0,0,0,0,0,0,0,0,0,0,0,0,0,0,0],"trees":[{"base_weights":[-7.6914737E-3,1.6897614E-1,-1.0841324E-1,-1.7567405E-2,2.338035E-1,-6.487484E-2,-7.401641E-2,-1.1958777E-2,3.0139124E-1,-3.1779356E-2,-5.2333813E-2,8.670337E-2,3.8165987E-1,-9.5438816E-2,2.860491E-1,-1.2500356E-2,2.801918E-2,1.4627884E-2,4.3244082E-1,-3.0869448E-1,4.546341E-2,4.669356E-2,1.0963579E-3,5.3229785E-1,3.2857123E-1,1.3484593E-2,-5.629774E-1,1.7434439E-1,-1.5398826E-1,6.413255E-2,4.0036574E-2,1.8775878E-2,4.9465742E-2,-2.783053E-2,-8.833926E-2,-2.605099E-3,2.8352275E-2,-4.0504117E-2,6.6329874E-3],"categories":[],"categories_nodes":[],"categories_segments":[],"categories_sizes":[],"default_left":[0,0,0,0,0,0,0,0,0,0,0,0,0,0,0,0,0,0,0,0,0,0,0,0,0,0,0,0,0,0,0,0,0,0,0,0,0,0,0],"id":0,"left_children":[1,3,5,-1,7,-1,9,-1,11,13,-1,15,17,19,21,-1,-1,-1,23,25,27,-1,-1,29,31,-1,33,35,37,-1,-1,-1,-1,-1,-1,-1,-1,-1,-1],"loss_changes":[1.31327E1,6.028933E0,8.687316E0,0E0,5.4340363E0,0E0,8.390635E0,0E0,3.2411213E0,8.241812E0,0E0,2.2060559E0,1.5862389E0,1.0200373E1,3.37851E0,0E0,0E0,0E0,9.971504E-1,1.5301856E1,5.29648E0,0E0,0E0,5.487528E-1,1.2635694E0,0E0,7.5984898E0,2.742241E0,4.507098E0,0E0,0E0,0E0,0E0,0E0,0E0,0E0,0E0,0E0,0E0],"parents":[2147483647,0,0,1,1,2,2,4,4,6,6,8,8,9,9,11,11,12,12,13,13,14,14,18,18,19,19,20,20,23,23,24,24,26,26,27,27,28,28],"right_children":[2,4,6,-1,8,-1,10,-1,12,14,-1,16,18,20,22,-1,-1,-1,24,26,28,-1,-1,30,32,-1,34,36,38,-1,-1,-1,-1,-1,-1,-1,-1,-1,-1],"split_conditions":[-4.0695E-1,-1.063926E0,-1.461685E0,-1.7567405E-2,-1.034611E0,-6.487484E-2,1.406095E0,-1.1958777E-2,-6.39621E-1,8.15539E-1,-5.2333813E-2,8.5195E-2,-8.26678E-1,2.18639E3,-6.4609E-2,-1.2500356E-2,2.801918E-2,1.4627884E-2,1.7325E-2,-2.82188E-1,2.62434E-1,4.669356E-2,1.0963579E-3,5.36647E-1,3.69069E-1,1.3484593E-2,4.9555E-2,-4.68028E-1,-2.35126E-1,6.413255E-2,4.0036574E-2,1.8775878E-2,4.9465742E-2,-2.783053E-2,-8.833926E-2,-2.605099E-3,2.8352275E-2,-4.0504117E-2,6.6329874E-3],"split_indices":[13,19,16,0,8,0,21,0,10,21,0,23,4,0,15,0,0,0,19,4,27,0,0,8,16,0,27,23,3,0,0,0,0,0,0,0,0,0,0],"split_type":[0,0,0,0,0,0,0,0,0,0,0,0,0,0,0,0,0,0,0,0,0,0,0,0,0,0,0,0,0,0,0,0,0,0,0,0,0,0,0],"sum_hessian":[7.36E2,2.67E2,4.69E2,4.2E1,2.25E2,2.7E1,4.42E2,3.6E1,1.89E2,4.05E2,3.7E1,5.2E1,1.37E2,3.38E2,6.7E1,2.5E1,2.7E1,2.5E1,1.12E2,1.34E2,2.04E2,4E1,2.7E1,5.5E1,5.7E1,4.9E1,8.5E1,1.24E2,8E1,2.8E1,2.7E1,3.2E1,2.5E1,4.6E1,3.9E1,4.4E1,8E1,3.7E1,4.3E1],"tree_param":{"num_deleted":"0","num_feature":"30","num_nodes":"39","size_leaf_vector":"1"}},{"base_weights":[1.2577401E-2,-1.2785353E-1,9.323601E-2,-4.7975138E-2,-4.5739007E-1,1.2638918E-1,-3.4999307E-2,5.651726E-2,-2.9600504E-1,-6.49864E-2,-2.473242E-2,-3.2193646E-2,1.5641023E-1,2.1449536E-1,-1.9776689E-1,-6.445725E-2,4.040693E-3,1.9239211E-1,-2.7693573E-2,3.6398944E-2,5.3838636E-3,8.751511E-3,-5.0655168E-2,-1.0527793E-2,2.4860014E-1,1.5864028E-2,-2.159882E-2,3.8492584E-1,1.522764E-1,2.6245832E-2,5.4868188E-2,9.316881E-4,3.634728E-2],"categories":[],"categories_nodes":[],"categories_segments":[],"categories_sizes":[],"default_left":[0,0,0,0,0,0,0,0,0,0,0,0,0,0,0,0,0,0,0,0,0,0,0,0,0,0,0,0,0,0,0,0,0],"id":1,"left_children":[1,3,5,7,9,11,-1,13,15,-1,-1,-1,17,19,21,-1,-1,23,-1,-1,-1,-1,-1,25,27,-1,-1,29,31,-1,-1,-1,-1],"loss_changes":[8.133352E0,6.8746424E0,6.7449026E0,5.511184E0,1.9013166E0,5.770518E0,0E0,6.0681186E0,7.413567E0,0E0,0E0,0E0,6.274729E0,2.2140055E0,5.153595E0,0E0,0E0,4.2113333E0,0E0,0E0,0E0,0E0,0E0,2.8496084E0,3.7363586E0,0E0,0E0,2.2425156E0,5.1595383E0,0E0,0E0,0E0,0E0],"parents":[2147483647,0,0,1,1,2,2,3,3,4,4,5,5,7,7,8,8,12,12,13,13,14,14,17,17,23,23,24,24,27,27,28,28],"right_children":[2,4,6,8,10,12,-1,14,16,-1,-1,-1,18,20,22,-1,-1,24,-1,-1,-1,-1,-1,26,28,-1,-1,30,32,-1,-1,-1,-1],"split_conditions":[-3.7663E-1,9.80737E-1,1.789373E0,6.07272E-1,-1.38383E-1,-1.550255E0,-3.4999307E-2,2.89824E-1,2.4512E-2,-6.49864E-2,-2.473242E-2,-3.2193646E-2,4.55927E3,1.449E-2,-1.2957E-2,-6.445725E-2,4.040693E-3,-7.96989E-1,-2.7693573E-2,3.6398944E-2,5.3838636E-3,8.751511E-3,-5.0655168E-2,1.7882E-1,-2.22026E-1,1.5864028E-2,-2.159882E-2,3.36587E-1,1.98396E-1,2.6245832E-2,5.4868188E-2,9.316881E-4,3.634728E-2],"split_indices":[26,5,26,7,7,11,0,4,25,0,0,0,0,3,27,0,0,5,0,0,0,0,0,27,11,0,0,3,28,0,0,0,0],"split_type":[0,0,0,0,0,0,0,0,0,0,0,0,0,0,0,0,0,0,0,0,0,0,0,0,0,0,0,0,0,0,0,0,0],"sum_hessian":[7.16E2,2.61E2,4.55E2,2.11E2,5E1,4.24E2,3.1E1,1.49E2,6.2E1,2.5E1,2.5E1,2.6E1,3.98E2,9.2E1,5.7E1,3E1,3.2E1,3.68E2,3E1,4.7E1,4.5E1,3E1,2.7E1,8E1,2.88E2,4.4E1,3.6E1,1.18E2,1.7E2,6.9E1,4.9E1,1.02E2,6.8E1],"tree_param":{"num_deleted":"0","num_feature":"30","num_nodes":"33","size_leaf_vector":"1"}},{"base_weights":[2.6457798E-2,-1.1600396E-1,1.0634036E-1,4.668985E-2,-3.0506644E-1,2.600476E-1,-5.1220976E-2,-2.2666094E-1,2.7626565E-1,1.1945076E-2,-5.0569737E-1,-3.0611595E-4,2.9913834E-1,-2.5618818E-1,1.3045435E-1,-6.017778E-2,2.9228784E-3,4.8835717E-2,1.4237151E-2,-8.763948E-2,-1.7981234E-3,1.6698119E-1,4.270671E-1,-4.0748138E-2,-8.6258166E-2,2.9719594E-1,-6.1978262E-2,-6.549417E-3,3.746058E-2,2.3945091E-2,5.019148E-1,2.1478644E-2,-3.435258E-2,4.5141898E-2,1.240466E-2,-3.5969015E-2,2.179521E-2,1.4446436E-2,-1.3299487E-2,3.494135E-2,6.0252495E-2],"categories":[],"categories_nodes":[],"categories_segments":[],"categories_sizes":[],"default_left":[0,0,0,0,0,0,0,0,0,0,0,0,0,0,0,0,0,0,0,0,0,0,0,0,0,0,0,0,0,0,0,0,0,0,0,0,0,0,0,0,0],"id":2,"left_children":[1,3,5,7,9,11,13,15,17,-1,19,-1,21,23,25,-1,-1,-1,-1,-1,-1,27,29,31,-1,33,35,37,-1,-1,39,-1,-1,-1,-1,-1,-1,-1,-1,-1,-1],"loss_changes":[8.137806E0,7.9193826E0,1.1105311E1,8.785525E0,1.0195787E1,2.3870592E0,8.48633E0,6.1608562E0,2.0887055E0,0E0,1.4628643E1,0E0,3.3438416E0,1.3943485E1,3.9008887E0,0E0,0E0,0E0,0E0,0E0,0E0,3.6414058E0,1.3121681E0,6.2633967E0,0E0,1.679738E0,4.8286943E0,1.0885333E0,0E0,0E0,8.941784E-1,0E0,0E0,0E0,0E0,0E0,0E0,0E0,0E0,0E0,0E0],"parents":[2147483647,0,0,1,1,2,2,3,3,4,4,5,5,6,6,7,7,8,8,10,10,12,12,13,13,14,14,21,21,22,22,23,23,25,25,26,26,27,27,30,30],"right_children":[2,4,6,8,10,12,14,16,18,-1,20,-1,22,24,26,-1,-1,-1,-1,-1,-1,28,30,32,-1,34,36,38,-1,-1,40,-1,-1,-1,-1,-1,-1,-1,-1,-1,-1],"split_conditions":[-3.7663E-1,8.6463E-2,-1.25573E-1,-3.68744E-1,-5.55784E-1,-1.130843E0,-1.09772E-1,-6.10979E-1,-4.66942E-1,1.1945076E-2,3.9685E-2,-3.0611595E-4,3.2398E-2,4.12745E-1,-9.6385E-2,-6.017778E-2,2.9228784E-3,4.8835717E-2,1.4237151E-2,-8.763948E-2,-1.7981234E-3,1.68922E-1,-7.30262E-1,-7.43886E-1,-8.6258166E-2,1.7562E-1,3.3697E-1,-1.51771E-1,3.746058E-2,2.3945091E-2,6.12018E-1,2.1478644E-2,-3.435258E-2,4.5141898E-2,1.240466E-2,-3.5969015E-2,2.179521E-2,1.4446436E-2,-1.3299487E-2,3.494135E-2,6.0252495E-2],"split_indices":[26,15,13,9,22,28,20,15,4,0,6,0,22,9,11,0,0,0,0,0,0,7,23,20,0,4,5,14,0,0,22,0,0,0,0,0,0,0,0,0,0],"split_type":[0,0,0,0,0,0,0,0,0,0,0,0,0,0,0,0,0,0,0,0,0,0,0,0,0,0,0,0,0,0,0,0,0,0,0,0,0,0,0,0,0],"sum_hessian":[7.13E2,2.56E2,4.57E2,1.38E2,1.18E2,2.31E2,2.26E2,6.3E1,7.5E1,3.8E1,8E1,3E1,2.01E2,1.06E2,1.2E2,2.5E1,3.8E1,2.8E1,4.7E1,4.5E1,3.5E1,1E2,1.01E2,7.9E1,2.7E1,6.4E1,5.6E1,5.5E1,4.5E1,3E1,7.1E1,4.3E1,3.6E1,3.3E1,3.1E1,2.7E1,2.9E1,2.5E1,3E1,3E1,4.1E1],"tree_param":{"num_deleted":"0","num_feature":"30","num_nodes":"41","size_leaf_vector":"1"}},{"base_weights":[1.9814488E-3,1.5046795E-1,-8.062247E-2,-1.34204E-2,2.0201111E-1,-1.264631E-1,2.6089746E-1,4.21783E-2,2.773227E-1,8.3395034E-2,-2.1523044E-1,4.844275E-2,5.8474815E-3,-1.2729645E-2,3.2307405E-2,3.7907183E-1,7.6367155E-2,-6.397637E-2,3.6562573E-2,-1.6157892E-1,-7.258903E-2,2.6882297E-1,4.97857E-2,2.438916E-2,-9.409449E-3,-2.8128475E-2,2.6063234E-2,-9.644719E-2,-4.8953872E-2,1.2787615E-2,4.1027255E-2,-3.03516E-1,7.067732E-2,-6.483258E-2,-1.4919992E-2,4.3994498E-2,-3.3915434E-3],"categories":[],"categories_nodes":[],"categories_segments":[],"categories_sizes":[],"default_left":[0,0,0,0,0,0,0,0,0,0,0,0,0,0,0,0,0,0,0,0,0,0,0,0,0,0,0,0,0,0,0,0,0,0,0,0,0],"id":3,"left_children":[1,3,5,-1,7,9,11,13,15,17,19,-1,-1,-1,-1,21,23,25,-1,27,-1,29,-1,-1,-1,-1,-1,31,-1,-1,-1,33,35,-1,-1,-1,-1],"loss_changes":[8.818808E0,3.7980442E0,7.2658277E0,0E0,2.6124268E0,7.618397E0,2.460288E0,3.4210627E0,2.9972143E0,5.097705E0,7.745844E0,0E0,0E0,0E0,0E0,1.1495647E0,1.4793298E0,5.787068E0,0E0,5.5278983E0,0E0,1.0041897E0,0E0,0E0,0E0,0E0,0E0,7.6002254E0,0E0,0E0,0E0,5.117819E0,4.726893E0,0E0,0E0,0E0,0E0],"parents":[2147483647,0,0,1,1,2,2,4,4,5,5,6,6,7,7,8,8,9,9,10,10,15,15,16,16,17,17,19,19,21,21,27,27,31,31,32,32],"right_children":[2,4,6,-1,8,10,12,14,16,18,20,-1,-1,-1,-1,22,24,26,-1,28,-1,30,-1,-1,-1,-1,-1,32,-1,-1,-1,34,36,-1,-1,-1,-1],"split_conditions":[-4.0695E-1,-1.034611E0,1.239039E0,-1.34204E-2,-3.85163E-1,-5.61118E-1,-1.04372E-1,3.18556E-1,8.65791E-1,5.28254E-1,1.258067E0,4.844275E-2,5.8474815E-3,-1.2729645E-2,3.2307405E-2,6.8323E-2,3.5127E-2,2.30735E-1,3.6562573E-2,1.075334E0,-7.258903E-2,-8.20922E-1,4.97857E-2,2.438916E-2,-9.409449E-3,-2.8128475E-2,2.6063234E-2,-1.46037E-1,-4.8953872E-2,1.2787615E-2,4.1027255E-2,-8.48458E-1,1.97326E-1,-6.483258E-2,-1.4919992E-2,4.3994498E-2,-3.3915434E-3],"split_indices":[13,8,10,0,26,24,11,10,26,14,25,0,0,0,0,24,2,20,0,23,0,13,0,0,0,0,0,2,0,0,0,9,2,0,0,0,0],"split_type":[0,0,0,0,0,0,0,0,0,0,0,0,0,0,0,0,0,0,0,0,0,0,0,0,0,0,0,0,0,0,0,0,0,0,0,0,0],"sum_hessian":[7.17E2,2.56E2,4.61E2,3.9E1,2.17E2,4.07E2,5.4E1,7E1,1.47E2,1.21E2,2.86E2,2.5E1,2.9E1,4.4E1,2.6E1,9.7E1,5E1,8E1,4.1E1,2.6E2,2.6E1,5.2E1,4.5E1,2.5E1,2.5E1,4.8E1,3.2E1,2.18E2,4.2E1,2.7E1,2.5E1,9.7E1,1.21E2,2.9E1,6.8E1,2.6E1,9.5E1],"tree_param":{"num_deleted":"0","num_feature":"30","num_nodes":"37","size_leaf_vector":"1"}},{"base_weights":[-9.300073E-3,-4.6648886E-2,1.8910248E-2,4.148376E-2,-4.2560857E-2,5.4529484E-4,2.3990133E-1,5.9967205E-2,-2.009139E-1,-7.49416E-3,3.6283973E-1,2.0326984E-1,-1.6365578E-2,-5.7234228E-2,-6.953758E-2,4.7450554E-2,2.131786E-2,4.5323357E-2,1.3412075E-1,1.3507275E-1,-1.3602357E-1,-2.475321E-1,1.786994E-2,2.3062004E-2,-1.0255757E-2,-2.553694E-2,2.3941051E-2,-3.37783E-2,5.7241996E-3,-4.568988E-3,-4.3332525E-2],"categories":[],"categories_nodes":[],"categories_segments":[],"categories_sizes":[],"default_left":[0,0,0,0,0,0,0,0,0,0,0,0,0,0,0,0,0,0,0,0,0,0,0,0,0,0,0,0,0,0,0],"id":4,"left_children":[1,-1,3,5,-1,7,9,11,13,-1,15,17,19,-1,21,-1,-1,-1,23,25,27,29,-1,-1,-1,-1,-1,-1,-1,-1,-1],"loss_changes":[9.320774E0,0E0,6.8510494E0,5.2716384E0,0E0,6.464466E0,4.3235893E0,4.56476E0,5.9622183E0,0E0,1.2358084E0,2.4455032E0,4.9653535E0,0E0,4.109237E0,0E0,0E0,0E0,2.6501703E0,4.9904184E0,5.9852877E0,2.0052495E0,0E0,0E0,0E0,0E0,0E0,0E0,0E0,0E0,0E0],"parents":[2147483647,0,0,2,2,3,3,5,5,6,6,7,7,8,8,10,10,11,11,12,12,14,14,18,18,19,19,20,20,21,21],"right_children":[2,-1,4,6,-1,8,10,12,14,-1,16,18,20,-1,22,-1,-1,-1,24,26,28,30,-1,-1,-1,-1,-1,-1,-1,-1,-1],"split_conditions":[-1.461685E0,-4.6648886E-2,1.722414E0,1.03116E0,-4.2560857E-2,6.90746E-1,-8.20091E-1,-3.44796E-1,-7.39762E-1,-7.49416E-3,-3.5044E-2,-8.38488E-1,-1.4994E-1,-5.7234228E-2,2.65608E-1,4.7450554E-2,2.131786E-2,4.5323357E-2,4.50923E-1,8.6959E2,-1.83912E-1,-5.8848E-2,1.786994E-2,2.3062004E-2,-1.0255757E-2,-2.553694E-2,2.3941051E-2,-3.37783E-2,5.7241996E-3,-4.568988E-3,-4.3332525E-2],"split_indices":[16,0,5,6,0,27,8,7,26,0,17,17,13,0,12,0,0,0,10,0,10,6,0,0,0,0,0,0,0,0,0],"split_type":[0,0,0,0,0,0,0,0,0,0,0,0,0,0,0,0,0,0,0,0,0,0,0,0,0,0,0,0,0,0,0],"sum_hessian":[7.21E2,4.1E1,6.8E2,6.48E2,3.2E1,5.38E2,1.1E2,4.16E2,1.22E2,3.1E1,7.9E1,1.44E2,2.72E2,3.1E1,9.1E1,4.4E1,3.5E1,3E1,1.14E2,1.2E2,1.52E2,5.3E1,3.8E1,8.1E1,3.3E1,2.5E1,9.5E1,7.4E1,7.8E1,2.6E1,2.7E1],"tree_param":{"num_deleted":"0","num_feature":"30","num_nodes":"31","size_leaf_vector":"1"}},{"base_weights":[-9.558948E-4,-3.782357E-2,2.3615085E-2,2.3606236E-1,-9.819129E-3,5.1456776E-2,8.4018186E-2,-1.3604379E-1,8.000875E-2,2.927733E-2,-1.4841305E-2,-3.6554003E-1,-3.5022173E-2,1.784813E-2,2.797562E-1,-6.504747E-2,4.6572476E-3,6.44618E-2,-5.790446E-2,1.356717E-1,-1.3537435E-1,4.378906E-1,2.6889227E-3,2.3407745E-1,-1.3852835E-1,-1.626727E-2,2.0435166E-1,1.5228889E-2,-3.04588E-1,5.3171594E-2,3.2722328E-2,-2.626824E-4,4.2349927E-2,-3.3519994E-2,1.0702164E-2,-4.4226903E-3,3.1057734E-2,-8.202133E-3,-5.9414357E-2],"categories":[],"categories_nodes":[],"categories_segments":[],"categories_sizes":[],"default_left":[0,0,0,0,0,0,0,0,0,0,0,0,0,0,0,0,0,0,0,0,0,0,0,0,0,0,0,0,0,0,0,0,0,0,0,0,0,0,0],"id":5,"left_children":[1,-1,3,5,7,-1,9,11,13,-1,-1,15,17,19,21,-1,-1,23,-1,25,27,29,-1,31,33,-1,35,-1,37,-1,-1,-1,-1,-1,-1,-1,-1,-1,-1],"loss_changes":[6.822481E0,0E0,4.910496E0,3.9372082E0,6.791303E0,0E0,3.0517666E0,5.760034E0,4.3407555E0,0E0,0E0,8.954606E0,9.454469E0,4.8566294E0,3.3071442E0,0E0,0E0,5.1281114E0,0E0,3.1477654E0,5.74154E0,3.5556316E-1,0E0,3.632906E0,3.319778E0,0E0,3.2880082E0,0E0,4.7202287E0,0E0,0E0,0E0,0E0,0E0,0E0,0E0,0E0,0E0,0E0],"parents":[2147483647,0,0,2,2,3,3,4,4,6,6,7,7,8,8,11,11,12,12,13,13,14,14,17,17,19,19,20,20,21,21,23,23,24,24,26,26,28,28],"right_children":[2,-1,4,6,8,-1,10,12,14,-1,-1,16,18,20,22,-1,-1,24,-1,26,28,30,-1,32,34,-1,36,-1,38,-1,-1,-1,-1,-1,-1,-1,-1,-1,-1],"split_conditions":[-1.461685E0,-3.782357E-2,-1.009447E0,-3.33991E-1,-2.18453E-1,5.1456776E-2,1.3534E-2,-1.49291E-1,7.75742E-1,2.927733E-2,-1.4841305E-2,2.25723E-1,1.022432E0,6.54896E-1,2.7801E-1,-6.504747E-2,4.6572476E-3,9.9924E-2,-5.790446E-2,-6.717E-1,-6.54164E-1,2.9638E-2,2.6889227E-3,-3.04334E-1,4.67205E-1,-1.626727E-2,-5.7884E-1,1.5228889E-2,5.08299E-1,5.3171594E-2,3.2722328E-2,-2.626824E-4,4.2349927E-2,-3.3519994E-2,1.0702164E-2,-4.4226903E-3,3.1057734E-2,-8.202133E-3,-5.9414357E-2],"split_indices":[16,0,12,25,26,0,27,12,25,0,0,22,22,26,17,0,0,28,0,16,6,22,0,27,6,0,22,0,12,0,0,0,0,0,0,0,0,0,0],"split_type":[0,0,0,0,0,0,0,0,0,0,0,0,0,0,0,0,0,0,0,0,0,0,0,0,0,0,0,0,0,0,0,0,0,0,0,0,0,0,0],"sum_hessian":[7.34E2,4.4E1,6.9E2,9.3E1,5.97E2,3.2E1,6.1E1,2.48E2,3.49E2,3.2E1,2.9E1,7.5E1,1.73E2,2.67E2,8.2E1,4.4E1,3.1E1,1.47E2,2.6E1,1.51E2,1.16E2,5E1,3.2E1,8E1,6.7E1,2.8E1,1.23E2,4.3E1,7.3E1,2.5E1,2.5E1,3.6E1,4.4E1,3.7E1,3E1,3.7E1,8.6E1,4.2E1,3.1E1],"tree_param":{"num_deleted":"0","num_feature":"30","num_nodes":"39","size_leaf_vector":"1"}},{"base_weights":[1.1510326E-2,-3.2808695E-2,3.34351E-2,5.171158E-2,-3.6488835E-2,-3.7414778E-2,1.477693E-1,-2.681619E-1,2.040956E-2,-2.6283583E-2,1.9047241E-1,-5.3572636E-2,8.861067E-3,1.4312376E-1,-1.8877116E-1,3.733483E-1,1.1975903E-1,6.0631007E-2,3.431935E-2,4.8211697E-2,-5.228236E-2,5.6567248E-2,2.7383393E-1,-2.4244009E-2,2.0796505E-1,1.52934715E-2,-2.1823598E-2,2.6183365E-2,-1.7413802E-2,1.2826529E-2,4.1465204E-2,-4.9804607E-3,2.791827E-2],"categories":[],"categories_nodes":[],"categories_segments":[],"categories_sizes":[],"default_left":[0,0,0,0,0,0,0,0,0,0,0,0,0,0,0,0,0,0,0,0,0,0,0,0,0,0,0,0,0,0,0,0,0],"id":6,"left_children":[1,-1,3,5,-1,7,9,11,13,-1,15,-1,-1,17,19,21,23,25,-1,27,-1,-1,29,-1,31,-1,-1,-1,-1,-1,-1,-1,-1],"loss_changes":[5.4015784E0,0E0,4.9765162E0,5.5874796E0,0E0,4.5286818E0,5.555775E0,6.5387287E0,7.009107E0,0E0,3.6408434E0,0E0,0E0,2.817932E0,8.02084E0,1.3570814E0,6.663684E0,3.199452E0,0E0,2.8955219E0,0E0,0E0,1.0537443E0,0E0,3.079649E0,0E0,0E0,0E0,0E0,0E0,0E0,0E0,0E0],"parents":[2147483647,0,0,2,2,3,3,5,5,6,6,7,7,8,8,10,10,13,13,14,14,15,15,16,16,17,17,19,19,22,22,24,24],"right_children":[2,-1,4,6,-1,8,10,12,14,-1,16,-1,-1,18,20,22,24,26,-1,28,-1,-1,30,-1,32,-1,-1,-1,-1,-1,-1,-1,-1],"split_conditions":[-1.461685E0,-3.2808695E-2,1.722414E0,3.376E-3,-3.6488835E-2,1.01869E3,-1.359281E0,1.59165E-1,3.77848E-1,-2.6283583E-2,-3.35984E-1,-5.3572636E-2,8.861067E-3,5.87578E-1,-5.39939E-1,-5.4927E-1,-8.20091E-1,5.94569E-1,3.431935E-2,-2.2052E-2,-5.228236E-2,5.6567248E-2,2.4512E-2,-2.4244009E-2,-8.19842E-1,1.52934715E-2,-2.1823598E-2,2.6183365E-2,-1.7413802E-2,1.2826529E-2,4.1465204E-2,-4.9804607E-3,2.791827E-2],"split_indices":[16,0,5,5,0,0,28,13,13,0,28,0,0,28,5,8,8,14,0,7,0,0,25,0,19,0,0,0,0,0,0,0,0],"split_type":[0,0,0,0,0,0,0,0,0,0,0,0,0,0,0,0,0,0,0,0,0,0,0,0,0,0,0,0,0,0,0,0,0],"sum_hessian":[7.23E2,4.3E1,6.8E2,6.51E2,2.9E1,3.38E2,3.13E2,6.7E1,2.71E2,2.9E1,2.84E2,3.8E1,2.9E1,1.71E2,1E2,7.8E1,2.06E2,1.22E2,4.9E1,5.9E1,4.1E1,2.5E1,5.3E1,4E1,1.66E2,9.2E1,3E1,3E1,2.9E1,2.7E1,2.6E1,3.6E1,1.3E2],"tree_param":{"num_deleted":"0","num_feature":"30","num_nodes":"33","size_leaf_vector":"1"}},{"base_weights":[-1.8379923E-2,7.032584E-2,-9.784576E-2,2.2826323E-1,6.994681E-3,-5.240565E-2,-5.250964E-2,3.2903573E-1,9.481952E-3,2.4728877E-2,-5.341587E-2,-1.2914489E-1,1.8064229E-1,4.8764758E-2,1.2726639E-2,-4.6194106E-2,1.6178554E-2,-5.7682347E-2,-5.8203526E-2,3.5342163E-1,-1.5941922E-2,1.1387591E-1,-2.5990462E-2,-1.6563569E-1,1.9859375E-1,1.921413E-2,4.784575E-2,-5.4298127E-3,3.390533E-2,6.0005337E-2,-3.3369198E-1,3.37566E-2,-3.888317E-3,1.1647181E-2,-2.8184388E-2,2.5037596E-2,-8.075378E-3,4.642481E-3,-6.6152096E-2],"categories":[],"categories_nodes":[],"categories_segments":[],"categories_sizes":[],"default_left":[0,0,0,0,0,0,0,0,0,0,0,0,0,0,0,0,0,0,0,0,0,0,0,0,0,0,0,0,0,0,0,0,0,0,0,0,0,0,0],"id":7,"left_children":[1,3,5,7,9,-1,11,13,-1,-1,15,17,19,-1,-1,-1,21,-1,23,25,-1,27,-1,29,31,-1,-1,33,-1,35,37,-1,-1,-1,-1,-1,-1,-1,-1],"loss_changes":[5.1597567E0,3.459219E0,7.43106E0,1.3000994E0,3.6132512E0,0E0,6.277009E0,1.7301073E0,0E0,0E0,5.6652575E0,8.350785E0,5.1680794E0,0E0,0E0,0E0,4.641911E0,0E0,6.3506117E0,1.0776873E0,0E0,3.4136896E0,0E0,6.1631274E0,2.2573094E0,0E0,0E0,2.863234E0,0E0,1.8959669E0,1.1619748E1,0E0,0E0,0E0,0E0,0E0,0E0,0E0,0E0],"parents":[2147483647,0,0,1,1,2,2,3,3,4,4,6,6,7,7,10,10,11,11,12,12,16,16,18,18,19,19,21,21,23,23,24,24,27,27,29,29,30,30],"right_children":[2,4,6,8,10,-1,12,14,-1,-1,16,18,20,-1,-1,-1,22,-1,24,26,-1,28,-1,30,32,-1,-1,34,-1,36,38,-1,-1,-1,-1,-1,-1,-1,-1],"split_conditions":[-1.25573E-1,-5.14973E-1,-2.3896E-2,1.41409E-1,-9.1609E-1,-5.240565E-2,7.60773E-1,9.4719E-2,9.481952E-3,2.4728877E-2,-5.92754E-1,-1.154825E0,1.582594E0,4.8764758E-2,1.2726639E-2,-4.6194106E-2,5.37766E-1,-5.7682347E-2,4.08211E-1,2.8118E-2,-1.5941922E-2,4.54655E-1,-2.5990462E-2,-1.4543E-2,1.347845E0,1.921413E-2,4.784575E-2,7.33985E-1,3.390533E-2,5.2173E-1,-1.37568E-1,3.37566E-2,-3.888317E-3,1.1647181E-2,-2.8184388E-2,2.5037596E-2,-8.075378E-3,4.642481E-3,-6.6152096E-2],"split_indices":[13,21,13,27,6,0,1,12,0,0,6,25,1,0,0,0,27,0,28,21,0,18,0,25,28,0,0,9,0,13,24,0,0,0,0,0,0,0,0],"split_type":[0,0,0,0,0,0,0,0,0,0,0,0,0,0,0,0,0,0,0,0,0,0,0,0,0,0,0,0,0,0,0,0,0,0,0,0,0,0,0],"sum_hessian":[7.3E2,3.45E2,3.85E2,9.8E1,2.47E2,3.6E1,3.49E2,5.5E1,4.3E1,4.9E1,1.98E2,2.63E2,8.6E1,3E1,2.5E1,2.8E1,1.7E2,3.5E1,2.28E2,5.7E1,2.9E1,1.26E2,4.4E1,1.61E2,6.7E1,2.6E1,3.1E1,8.3E1,4.3E1,6.9E1,9.2E1,4.2E1,2.5E1,5.8E1,2.5E1,2.9E1,4E1,4.3E1,4.9E1],"tree_param":{"num_deleted":"0","num_feature":"30","num_nodes":"39","size_leaf_vector":"1"}},{"base_weights":[-8.518912E-3,-4.0690184E-2,9.288566E-3,2.5123497E-2,-3.8282342E-2,-1.3574995E-3,2.2544588E-1,2.193687E-2,-4.089665E-2,-1.0223791E-2,3.912539E-1,1.304789E-1,-6.665384E-2,4.880911E-2,2.7564395E-2,-6.480522E-2,2.0300132E-1,-1.6849914E-1,1.0661996E-1,1.4193627E-2,-3.5486024E-2,-2.4474012E-3,2.5105188E-2,-3.7409537E-2,-1.913609E-3,2.1512441E-2,-1.4753664E-2],"categories":[],"categories_nodes":[],"categories_segments":[],"categories_sizes":[],"default_left":[0,0,0,0,0,0,0,0,0,0,0,0,0,0,0,0,0,0,0,0,0,0,0,0,0,0,0],"id":8,"left_children":[1,-1,3,5,-1,7,9,11,-1,-1,13,15,17,-1,-1,19,21,23,25,-1,-1,-1,-1,-1,-1,-1,-1],"loss_changes":[5.1399765E0,0E0,4.3187103E0,3.5438702E0,0E0,5.620513E0,4.277944E0,5.3935537E0,0E0,0E0,4.4761896E-1,3.5821004E0,5.4709263E0,0E0,0E0,4.1880493E0,2.0173225E0,5.9809933E0,3.203108E0,0E0,0E0,0E0,0E0,0E0,0E0,0E0,0E0],"parents":[2147483647,0,0,2,2,3,3,5,5,6,6,7,7,10,10,11,11,12,12,15,15,16,16,17,17,18,18],"right_children":[2,-1,4,6,-1,8,10,12,-1,-1,14,16,18,-1,-1,20,22,24,26,-1,-1,-1,-1,-1,-1,-1,-1],"split_conditions":[-1.581527E0,-4.0690184E-2,1.829061E0,1.030299E0,-3.8282342E-2,1.672714E0,-5.22344E-1,-1.33005E-1,-4.089665E-2,-1.0223791E-2,-3.8799E-2,-4.73462E-1,3.18936E-1,4.880911E-2,2.7564395E-2,8.8218E-2,-8.94032E-1,-1.73321E-1,5.08299E-1,1.4193627E-2,-3.5486024E-2,-2.4474012E-3,2.5105188E-2,-3.7409537E-2,-1.913609E-3,2.1512441E-2,-1.4753664E-2],"split_indices":[16,0,5,5,0,16,23,24,0,0,12,3,16,0,0,16,19,2,12,0,0,0,0,0,0,0,0],"split_type":[0,0,0,0,0,0,0,0,0,0,0,0,0,0,0,0,0,0,0,0,0,0,0,0,0,0,0],"sum_hessian":[7.23E2,3E1,6.93E2,6.67E2,2.6E1,5.9E2,7.7E1,5.59E2,3.1E1,2.6E1,5.1E1,2.51E2,3.08E2,2.6E1,2.5E1,6.8E1,1.83E2,1.94E2,1.14E2,4E1,2.8E1,3.2E1,1.51E2,8.1E1,1.13E2,8E1,3.4E1],"tree_param":{"num_deleted":"0","num_feature":"30","num_nodes":"27","size_leaf_vector":"1"}},{"base_weights":[-4.955139E-3,1.4881359E-1,-9.232822E-2,-3.316997E-2,2.415957E-1,-2.4974985E-1,1.0102218E-2,-2.8103584E-2,1.7923983E-2,3.5012826E-1,1.5315747E-1,1.285024E-2,-3.9331034E-1,8.200304E-2,-4.5655455E-2,4.8055828E-2,1.9185718E-2,7.2848275E-2,3.1149937E-2,-8.415491E-2,-2.6764047E-1,3.91025E-2,2.1934433E-2,-5.3159706E-3,2.127654E-2,-5.800287E-2,-6.821594E-2,1.0440087E-1,-2.7656779E-2,-2.663304E-2,1.1442418E-2,-7.201184E-2,2.709349E-1,1.42617645E-2,-3.397743E-2,3.7861463E-2,1.2974026E-2],"categories":[],"categories_nodes":[],"categories_segments":[],"categories_sizes":[],"default_left":[0,0,0,0,0,0,0,0,0,0,0,0,0,0,0,0,0,0,0,0,0,0,0,0,0,0,0,0,0,0,0,0,0,0,0,0,0],"id":9,"left_children":[1,3,5,7,9,11,13,-1,-1,15,17,-1,19,21,-1,-1,-1,23,-1,-1,25,-1,27,-1,-1,-1,29,31,-1,-1,-1,33,35,-1,-1,-1,-1],"loss_changes":[9.566201E0,4.3642974E0,7.323167E0,4.683497E0,1.5877066E0,9.770613E0,9.298068E0,0E0,0E0,1.4766912E0,1.1980734E0,0E0,7.097683E0,4.446427E0,0E0,0E0,0E0,1.1573044E0,0E0,0E0,6.3771143E0,0E0,5.00139E0,0E0,0E0,0E0,2.3462284E0,4.690727E0,0E0,0E0,0E0,4.531095E0,1.1975899E0,0E0,0E0,0E0,0E0],"parents":[2147483647,0,0,1,1,2,2,3,3,4,4,5,5,6,6,9,9,10,10,12,12,13,13,17,17,20,20,22,22,26,26,27,27,31,31,32,32],"right_children":[2,4,6,8,10,12,14,-1,-1,16,18,-1,20,22,-1,-1,-1,24,-1,-1,26,-1,28,-1,-1,-1,30,32,-1,-1,-1,34,36,-1,-1,-1,-1],"split_conditions":[-3.66654E-1,-3.80977E-1,-2.56102E-1,-2.36905E-1,-2.8586E-1,-1.142868E0,1.406095E0,-2.8103584E-2,1.7923983E-2,9.8894E-2,5.12607E-1,1.285024E-2,-8.64619E-1,1.4408E-2,-4.5655455E-2,4.8055828E-2,1.9185718E-2,3.71676E-1,3.1149937E-2,-8.415491E-2,-4.12384E-1,3.91025E-2,8.47514E-1,-5.3159706E-3,2.127654E-2,-5.800287E-2,-1.1663E-1,-7.8737E-2,-2.7656779E-2,-2.663304E-2,1.1442418E-2,-6.69473E-1,4.69105E-1,1.42617645E-2,-3.397743E-2,3.7861463E-2,1.2974026E-2],"split_indices":[13,26,21,27,27,21,21,0,0,12,6,0,25,21,0,0,0,8,0,0,3,0,27,0,0,0,2,28,0,0,0,28,12,0,0,0,0],"split_type":[0,0,0,0,0,0,0,0,0,0,0,0,0,0,0,0,0,0,0,0,0,0,0,0,0,0,0,0,0,0,0,0,0,0,0,0,0],"sum_hessian":[7.1E2,2.57E2,4.53E2,8.7E1,1.7E2,1.78E2,2.75E2,4E1,4.7E1,7.5E1,9.5E1,4.9E1,1.29E2,2.39E2,3.6E1,4E1,3.5E1,6.4E1,3.1E1,2.7E1,1.02E2,3.8E1,2.01E2,3.4E1,3E1,3.9E1,6.3E1,1.58E2,4.3E1,3E1,3.3E1,7.7E1,8.1E1,4.3E1,3.4E1,4.5E1,3.6E1],"tree_param":{"num_deleted":"0","num_feature":"30","num_nodes":"37","size_leaf_vector":"1"}},{"base_weights":[4.177113E-3,-3.737489E-2,1.9895446E-2,2.0234527E-3,2.8508607E-2,-2.4851222E-2,2.2304861E-1,-1.525982E-3,-4.142658E-2,3.9756033E-3,3.7242316E-2,-8.6364E-2,8.301127E-2,-3.8943578E-2,-2.2460908E-2,4.1668322E-2,4.5307968E-2,-2.6328716E-2,6.8524214E-3,-3.6306225E-2,1.026451E-2],"categories":[],"categories_nodes":[],"categories_segments":[],"categories_sizes":[],"default_left":[0,0,0,0,0,0,0,0,0,0,0,0,0,0,0,0,0,0,0,0,0],"id":10,"left_children":[1,-1,3,5,-1,7,9,11,-1,-1,-1,13,15,-1,17,-1,19,-1,-1,-1,-1],"loss_changes":[4.314202E0,0E0,3.3028438E0,3.8902895E0,0E0,5.3039503E0,1.9291205E0,3.9660985E0,0E0,0E0,0E0,5.336606E0,3.4659286E0,0E0,5.035799E0,0E0,5.89096E0,0E0,0E0,0E0,0E0],"parents":[2147483647,0,0,2,2,3,3,5,5,6,6,7,7,11,11,12,12,14,14,16,16],"right_children":[2,-1,4,6,-1,8,10,12,-1,-1,-1,14,16,-1,18,-1,20,-1,-1,-1,-1],"split_conditions":[2.2284E2,-3.737489E-2,1.652615E0,1.087473E0,2.8508607E-2,9.52866E-1,5.7448E-2,-5.5911E-2,-4.142658E-2,3.9756033E-3,3.7242316E-2,-1.007666E0,8.7786E-2,-3.8943578E-2,-6.717E-1,4.1668322E-2,1.98396E-1,-2.6328716E-2,6.8524214E-3,-3.6306225E-2,1.026451E-2],"split_indices":[0,0,7,24,0,24,14,28,0,0,0,15,28,0,16,0,28,0,0,0,0],"split_type":[0,0,0,0,0,0,0,0,0,0,0,0,0,0,0,0,0,0,0,0,0],"sum_hessian":[7.24E2,2.8E1,6.96E2,6.53E2,4.3E1,5.83E2,7E1,5.51E2,3.2E1,3.2E1,3.8E1,2.75E2,2.76E2,4.7E1,2.28E2,2.7E1,2.49E2,6.2E1,1.66E2,3E1,2.19E2],"tree_param":{"num_deleted":"0","num_feature":"30","num_nodes":"21","size_leaf_vector":"1"}},{"base_weights":[-9.708655E-4,-4.02509E-2,1.4089379E-1,4.4257767E-2,-1.6795759E-1,-1.6875867E-2,2.1841748E-1,-1.6857788E-1,9.576403E-2,-1.705772E-2,-3.6136392E-1,-5.3669843E-3,2.862972E-1,6.653711E-3,-3.9873473E-2,-1.3566747E-2,1.40241E-1,-2.805771E-1,1.853278E-1,-3.7032224E-3,-6.658912E-1,3.523949E-1,8.207708E-3,4.3594096E-2,1.0242244E-1,-2.0067329E-3,-5.803935E-2,3.4669977E-2,4.3528466E-3,-1.1075344E-1,-1.9863676E-2,2.3778288E-2,5.0255578E-2,2.3993921E-1,-7.5255404E-3,4.8847967E-3,3.4599286E-2,2.2124028E-2,-1.6655792E-2],"categories":[],"categories_nodes":[],"categories_segments":[],"categories_sizes":[],"default_left":[0,0,0,0,0,0,0,0,0,0,0,0,0,0,0,0,0,0,0,0,0,0,0,0,0,0,0,0,0,0,0,0,0,0,0,0,0,0,0],"id":11,"left_children":[1,3,5,7,9,-1,11,13,15,17,19,-1,21,-1,-1,-1,23,25,27,-1,29,31,-1,-1,33,-1,-1,-1,-1,-1,-1,-1,-1,35,37,-1,-1,-1,-1],"loss_changes":[4.0345516E0,6.1266804E0,3.8057077E0,3.7652745E0,6.5896444E0,0E0,2.3424864E0,3.6521232E0,2.8599956E0,6.87856E0,9.753357E0,0E0,1.3344231E0,0E0,0E0,0E0,2.5497932E0,4.362239E0,1.6553261E0,0E0,1.0304348E1,1.1884804E0,0E0,0E0,3.1315815E0,0E0,0E0,0E0,0E0,0E0,0E0,0E0,0E0,1.8475637E0,4.2570653E0,0E0,0E0,0E0,0E0],"parents":[2147483647,0,0,1,1,2,2,3,3,4,4,6,6,7,7,8,8,9,9,10,10,12,12,16,16,17,17,18,18,20,20,21,21,24,24,33,33,34,34],"right_children":[2,4,6,8,10,-1,12,14,16,18,20,-1,22,-1,-1,-1,24,26,28,-1,30,32,-1,-1,34,-1,-1,-1,-1,-1,-1,-1,-1,36,38,-1,-1,-1,-1],"split_conditions":[8.51772E-1,1.41409E-1,-9.28234E-1,-8.69501E-1,6.4367E-2,-1.6875867E-2,-8.8903E-1,-6.1963E-2,-1.046084E0,-2.35126E-1,1.2178E-2,-5.3669843E-3,8.23701E-1,6.653711E-3,-3.9873473E-2,-1.3566747E-2,-1.222837E0,3.22429E-1,-4.17728E-1,-3.7032224E-3,4.26496E-1,3.3113E-1,8.207708E-3,4.3594096E-2,-3.1893E-1,-2.0067329E-3,-5.803935E-2,3.4669977E-2,4.3528466E-3,-1.1075344E-1,-1.9863676E-2,2.3778288E-2,5.0255578E-2,-1.18073E-1,8.6463E-2,4.8847967E-3,3.4599286E-2,2.2124028E-2,-1.6655792E-2],"split_indices":[6,27,27,25,15,0,19,7,15,3,18,0,7,0,0,0,16,25,6,0,1,12,0,0,17,0,0,0,0,0,0,0,0,25,15,0,0,0,0],"split_type":[0,0,0,0,0,0,0,0,0,0,0,0,0,0,0,0,0,0,0,0,0,0,0,0,0,0,0,0,0,0,0,0,0,0,0,0,0,0,0],"sum_hessian":[7.22E2,5.66E2,1.56E2,3.41E2,2.25E2,3.1E1,1.25E2,6.6E1,2.75E2,1.27E2,9.8E1,2.5E1,1E2,3.3E1,3.3E1,4.4E1,2.31E2,5.5E1,7.2E1,4.8E1,5E1,7.5E1,2.5E1,2.5E1,2.06E2,3E1,2.5E1,3.3E1,3.9E1,2.5E1,2.5E1,4.4E1,3.1E1,9.1E1,1.15E2,3.3E1,5.8E1,4.7E1,6.8E1],"tree_param":{"num_deleted":"0","num_feature":"30","num_nodes":"39","size_leaf_vector":"1"}},{"base_weights":[1.00223385E-2,1.0830021E-1,-4.8371695E-2,2.7146155E-1,4.79921E-2,-1.8544866E-1,3.1055031E-2,4.478806E-3,4.5281366E-2,-2.9382834E-2,1.0468636E-1,-3.7497193E-2,-6.5004E-2,8.598074E-2,-3.1987276E-2,2.8422695E-1,2.1524534E-2,-2.8753114E-1,1.439418E-1,1.5857151E-1,-1.1597578E-1,4.4311445E-2,1.2649628E-2,1.3311416E-1,-2.0498255E-2,3.987163E-3,-6.2853664E-2,3.23389E-2,-3.4594957E-3,-1.3817154E-2,2.3716983E-1,-4.1996267E-2,7.052734E-3,-3.1687447E-3,2.470754E-2,3.857541E-1,1.5112065E-1,5.1448982E-2,2.4783922E-2,-4.478536E-3,2.7473602E-2],"categories":[],"categories_nodes":[],"categories_segments":[],"categories_sizes":[],"default_left":[0,0,0,0,0,0,0,0,0,0,0,0,0,0,0,0,0,0,0,0,0,0,0,0,0,0,0,0,0,0,0,0,0,0,0,0,0,0,0,0,0],"id":12,"left_children":[1,3,5,7,9,11,13,-1,-1,-1,15,17,-1,19,-1,21,23,25,27,29,31,-1,-1,33,-1,-1,-1,-1,-1,-1,35,-1,-1,-1,-1,37,39,-1,-1,-1,-1],"loss_changes":[4.2347646E0,2.6929588E0,5.046706E0,3.0216904E0,3.9453697E0,1.1660909E1,5.6943407E0,0E0,0E0,0E0,2.5918627E0,5.9389553E0,0E0,3.756736E0,0E0,1.3223267E0,3.060387E0,6.165598E0,2.4460688E0,4.417589E0,3.8848453E0,0E0,0E0,1.5290899E0,0E0,0E0,0E0,0E0,0E0,0E0,1.8467522E0,0E0,0E0,0E0,0E0,8.312359E-1,2.337136E0,0E0,0E0,0E0,0E0],"parents":[2147483647,0,0,1,1,2,2,3,3,4,4,5,5,6,6,10,10,11,11,13,13,15,15,16,16,17,17,18,18,19,19,20,20,23,23,30,30,35,35,36,36],"right_children":[2,4,6,8,10,12,14,-1,-1,-1,16,18,-1,20,-1,22,24,26,28,30,32,-1,-1,34,-1,-1,-1,-1,-1,-1,36,-1,-1,-1,-1,38,40,-1,-1,-1,-1],"split_conditions":[-3.41808E-1,-8.22054E-1,-3.46142E-1,-1.06062E-1,-8.396E-1,-5.74802E-1,1.406095E0,4.478806E-3,4.5281366E-2,-2.9382834E-2,-5.50951E-1,-3.53843E-1,-6.5004E-2,6.67353E-1,-3.1987276E-2,-1.40882E-1,3.7338E-1,-1.031382E0,-1.15123E-1,-7.87824E-1,-6.31203E-1,4.4311445E-2,1.2649628E-2,-1.095263E0,-2.0498255E-2,3.987163E-3,-6.2853664E-2,3.23389E-2,-3.4594957E-3,-1.3817154E-2,-3.7933E-1,-4.1996267E-2,7.052734E-3,-3.1687447E-3,2.470754E-2,1.4587E-1,-3.67461E-1,5.1448982E-2,2.4783922E-2,-4.478536E-3,2.7473602E-2],"split_indices":[13,15,21,1,14,21,21,0,0,0,16,15,0,16,0,11,18,21,23,7,20,0,0,13,0,0,0,0,0,0,1,0,0,0,0,14,27,0,0,0,0],"split_type":[0,0,0,0,0,0,0,0,0,0,0,0,0,0,0,0,0,0,0,0,0,0,0,0,0,0,0,0,0,0,0,0,0,0,0,0,0,0,0,0,0],"sum_hessian":[7.36E2,2.74E2,4.62E2,7.3E1,2.01E2,1.69E2,2.93E2,3.3E1,4E1,2.8E1,1.73E2,1.29E2,4E1,2.54E2,3.9E1,5.4E1,1.19E2,5.4E1,7.5E1,1.87E2,6.7E1,2.6E1,2.8E1,8E1,3.9E1,2.8E1,2.6E1,3.7E1,3.8E1,3.9E1,1.48E2,2.5E1,4.2E1,3.3E1,4.7E1,5.3E1,9.5E1,2.6E1,2.7E1,3.7E1,5.8E1],"tree_param":{"num_deleted":"0","num_feature":"30","num_nodes":"41","size_leaf_vector":"1"}},{"base_weights":[-1.11336E-2,3.9703067E-2,-1.35618E-1,6.827057E-2,-2.511823E-2,-2.9140005E-2,-5.230236E-2,3.4725036E-2,2.9965788E-1,-1.3376893E-1,2.0079918E-1,-7.937071E-2,1.2298657E-1,1.6497506E-2,4.531718E-2,8.810783E-2,-3.4951386E-1,1.7495757E-4,3.997815E-2,-2.6108049E-2,-3.917968E-2,-9.4415486E-2,2.1237896E-1,3.656403E-2,-1.4014065E-2,-6.9130273E-3,-5.5983085E-2,1.3140924E-1,-2.2725359E-1,1.538406E-2,-3.3288095E-2,2.8204665E-1,-9.56161E-3,3.574465E-2,-2.7605155E-3,1.1238205E-2,-4.4017997E-2,3.2958698E-3,3.53582E-2],"categories":[],"categories_nodes":[],"categories_segments":[],"categories_sizes":[],"default_left":[0,0,0,0,0,0,0,0,0,0,0,0,0,0,0,0,0,0,0,0,0,0,0,0,0,0,0,0,0,0,0,0,0,0,0,0,0,0,0],"id":13,"left_children":[1,3,5,7,-1,9,-1,11,13,15,17,19,21,-1,-1,23,25,-1,-1,27,-1,29,31,-1,-1,-1,-1,33,35,-1,-1,37,-1,-1,-1,-1,-1,-1,-1],"loss_changes":[4.5618124E0,4.2718005E0,8.606046E0,3.6144533E0,0E0,3.996478E0,0E0,4.1285E0,1.145103E0,5.487837E0,2.0588825E0,2.9684463E0,4.509327E0,0E0,0E0,3.6619835E0,3.381526E0,0E0,0E0,4.909184E0,0E0,4.0768447E0,3.5459647E0,0E0,0E0,0E0,0E0,3.1369233E0,4.967051E0,0E0,0E0,2.3760386E0,0E0,0E0,0E0,0E0,0E0,0E0,0E0],"parents":[2147483647,0,0,1,1,2,2,3,3,5,5,7,7,8,8,9,9,10,10,11,11,12,12,15,15,16,16,19,19,21,21,22,22,27,27,28,28,31,31],"right_children":[2,4,6,8,-1,10,-1,12,14,16,18,20,22,-1,-1,24,26,-1,-1,28,-1,30,32,-1,-1,-1,-1,34,36,-1,-1,38,-1,-1,-1,-1,-1,-1,-1],"split_conditions":[5.59699E-1,1.334674E0,7.78728E-1,1.049305E0,-2.511823E-2,4.55061E-1,-5.230236E-2,-9.2121E-2,1.4587E-1,9.7051E-2,9.30972E-1,1.016373E0,-8.66547E-1,1.6497506E-2,4.531718E-2,9.56316E-1,-1.85561E-1,1.7495757E-4,3.997815E-2,1.59419E-1,-3.917968E-2,-3.52338E-1,7.41364E-1,3.656403E-2,-1.4014065E-2,-6.9130273E-3,-5.5983085E-2,-2.50054E-1,-3.44998E-1,1.538406E-2,-3.3288095E-2,-8.77507E-1,-9.56161E-3,3.574465E-2,-2.7605155E-3,1.1238205E-2,-4.4017997E-2,3.2958698E-3,3.53582E-2],"split_indices":[9,16,24,24,0,1,0,18,14,22,9,27,9,0,0,9,20,0,0,14,0,16,22,0,0,0,0,12,24,0,0,27,0,0,0,0,0,0,0],"split_type":[0,0,0,0,0,0,0,0,0,0,0,0,0,0,0,0,0,0,0,0,0,0,0,0,0,0,0,0,0,0,0,0,0,0,0,0,0,0,0],"sum_hessian":[7.19E2,5.11E2,2.08E2,4.66E2,4.5E1,1.64E2,4.4E1,4.08E2,5.8E1,1.13E2,5.1E1,1.78E2,2.3E2,3.2E1,2.6E1,5.6E1,5.7E1,2.6E1,2.5E1,1.53E2,2.5E1,6.7E1,1.63E2,2.5E1,3.1E1,2.5E1,3.2E1,8.6E1,6.7E1,3.3E1,3.4E1,1.33E2,3E1,3.5E1,5.1E1,2.6E1,4.1E1,3E1,1.03E2],"tree_param":{"num_deleted":"0","num_feature":"30","num_nodes":"39","size_leaf_vector":"1"}},{"base_weights":[-1.5946148E-3,1.8117352E-1,-3.2102756E-2,2.5931865E-1,-6.0230107E-3,-4.3389607E-2,-8.65571E-3,3.5317278E-1,5.802686E-3,-3.9556917E-2,2.0819463E-1,4.4600084E-2,2.5436196E-2,-9.408429E-2,9.910261E-2,3.177532E-2,2.0769993E-3,-4.9509034E-2,-5.83195E-2,1.5252196E-2,3.3480637E-2,1.8293813E-2,-9.3985096E-2,-3.1075656E-2,1.2775828E-1,2.1072114E-2,-1.3968105E-2,3.483702E-2,-3.9245444E-3],"categories":[],"categories_nodes":[],"categories_segments":[],"categories_sizes":[],"default_left":[0,0,0,0,0,0,0,0,0,0,0,0,0,0,0,0,0,0,0,0,0,0,0,0,0,0,0,0,0],"id":14,"left_children":[1,3,5,7,-1,-1,9,11,-1,13,15,-1,-1,17,19,-1,-1,-1,21,23,-1,-1,25,-1,27,-1,-1,-1,-1],"loss_changes":[4.0149E0,1.9586644E0,5.8089185E0,1.4530873E0,0E0,0E0,3.9215832E0,3.7269258E-1,0E0,3.880423E0,1.4923804E0,0E0,0E0,5.248945E0,2.860653E0,0E0,0E0,0E0,2.9341516E0,4.0009227E0,0E0,0E0,4.1508913E0,0E0,2.997956E0,0E0,0E0,0E0,0E0],"parents":[2147483647,0,0,1,1,2,2,3,3,6,6,7,7,9,9,10,10,13,13,14,14,18,18,19,19,22,22,24,24],"right_children":[2,4,6,8,-1,-1,10,12,-1,14,16,-1,-1,18,20,-1,-1,-1,22,24,-1,-1,26,-1,28,-1,-1,-1,-1],"split_conditions":[-1.009447E0,4.12783E-1,-1.511654E0,5.31775E-1,-6.0230107E-3,-4.3389607E-2,1.087473E0,-2.5268E-2,5.802686E-3,4.50768E-1,6.4322E-2,4.4600084E-2,2.5436196E-2,-8.26547E-1,8.93892E-1,3.177532E-2,2.0769993E-3,-4.9509034E-2,-1.030783E0,1.48572E3,3.3480637E-2,1.8293813E-2,-9.43153E-1,-3.1075656E-2,-3.33113E-1,2.1072114E-2,-1.3968105E-2,3.483702E-2,-3.9245444E-3],"split_indices":[12,3,16,9,0,0,24,16,0,11,7,0,0,12,21,0,0,0,23,0,0,0,16,0,24,0,0,0,0],"split_type":[0,0,0,0,0,0,0,0,0,0,0,0,0,0,0,0,0,0,0,0,0,0,0,0,0,0,0,0,0],"sum_hessian":[7.18E2,1.02E2,6.16E2,7.7E1,2.5E1,3.3E1,5.83E2,5.2E1,2.5E1,5.11E2,7.2E1,2.5E1,2.7E1,3.67E2,1.44E2,4.5E1,2.7E1,2.9E1,3.38E2,1.07E2,3.7E1,4.3E1,2.95E2,2.7E1,8E1,3.8E1,2.57E2,3.4E1,4.6E1],"tree_param":{"num_deleted":"0","num_feature":"30","num_nodes":"29","size_leaf_vector":"1"}},{"base_weights":[3.3589024E-3,5.1397044E-2,-1.5320869E-1,7.5658835E-2,-2.0019202E-2,-5.9180215E-2,-6.490195E-2,3.3468783E-2,2.8131413E-1,-4.8063975E-2,4.218771E-2,8.567628E-3,3.8266826E-2,1.0931404E-2,3.540256E-1,-2.200226E-2,1.27153E-1,3.2737873E-2,-3.3479344E-2,4.521454E-2,2.3354772E-2,-5.1688603E-3,3.0316899E-2,5.884772E-2,-3.139747E-2,-3.5355918E-3,1.4095609E-2],"categories":[],"categories_nodes":[],"categories_segments":[],"categories_sizes":[],"default_left":[0,0,0,0,0,0,0,0,0,0,0,0,0,0,0,0,0,0,0,0,0,0,0,0,0,0,0],"id":15,"left_children":[1,3,5,7,-1,9,-1,11,13,-1,15,17,-1,-1,19,-1,21,23,-1,-1,-1,-1,-1,25,-1,-1,-1],"loss_changes":[5.4457135E0,3.3967633E0,7.887047E0,4.380949E0,0E0,6.1723137E0,0E0,3.657514E0,1.0368485E0,0E0,2.6345932E0,3.2808142E0,0E0,0E0,6.036782E-1,0E0,2.8172994E0,3.3588905E0,0E0,0E0,0E0,0E0,0E0,2.6657915E0,0E0,0E0,0E0],"parents":[2147483647,0,0,1,1,2,2,3,3,5,5,7,7,8,8,10,10,11,11,14,14,16,16,17,17,23,23],"right_children":[2,4,6,8,-1,10,-1,12,14,-1,16,18,-1,-1,20,-1,22,24,-1,-1,-1,-1,-1,26,-1,-1,-1],"split_conditions":[6.76718E-1,1.450519E0,1.115783E0,8.03028E-1,-2.0019202E-2,-9.19375E-1,-6.490195E-2,1.541673E0,-4.5716E-1,-4.8063975E-2,8.72071E-1,1.613581E0,3.8266826E-2,1.0931404E-2,1.45402E-1,-2.200226E-2,-1.2082E-2,4.55927E3,-3.3479344E-2,4.521454E-2,2.3354772E-2,-5.1688603E-3,3.0316899E-2,2.27626E3,-3.139747E-2,-3.5355918E-3,1.4095609E-2],"split_indices":[27,25,23,25,0,26,0,3,3,0,27,5,0,0,17,0,3,0,0,0,0,0,0,0,0,0,0],"split_type":[0,0,0,0,0,0,0,0,0,0,0,0,0,0,0,0,0,0,0,0,0,0,0,0,0,0,0],"sum_hessian":[7.22E2,5.53E2,1.69E2,5.05E2,4.8E1,1.43E2,2.6E1,4.2E2,8.5E1,2.7E1,1.16E2,3.93E2,2.7E1,2.6E1,5.9E1,2.8E1,8.8E1,3.68E2,2.5E1,3.1E1,2.8E1,4.4E1,4.4E1,3.43E2,2.5E1,1.6E2,1.83E2],"tree_param":{"num_deleted":"0","num_feature":"30","num_nodes":"27","size_leaf_vector":"1"}},{"base_weights":[-1.825341E-2,-3.121595E-2,-9.3797146E-4,2.8242847E-1,-3.706095E-2,3.5232767E-2,1.5458405E-2,-9.188233E-2,1.04591034E-1,-1.16248034E-1,2.8151834E-2,3.288885E-2,2.7458444E-2,-7.703338E-2,-4.58009E-2,1.5697077E-1,-2.7293785E-2,-3.2730386E-2,-4.0377818E-2,2.7210245E-2,1.776677E-3,-1.2962501E-2,9.484373E-3],"categories":[],"categories_nodes":[],"categories_segments":[],"categories_sizes":[],"default_left":[0,0,0,0,0,0,0,0,0,0,0,0,0,0,0,0,0,0,0,0,0,0,0],"id":16,"left_children":[1,-1,3,5,7,-1,-1,9,11,13,-1,15,-1,17,-1,19,-1,-1,21,-1,-1,-1,-1],"loss_changes":[3.6587794E0,0E0,6.9709744E0,6.3362503E-1,4.7000065E0,0E0,0E0,3.9995272E0,2.0508933E0,5.459553E0,0E0,4.5965505E0,0E0,3.3719177E0,0E0,1.3734698E0,0E0,0E0,3.9103045E0,0E0,0E0,0E0,0E0],"parents":[2147483647,0,0,2,2,3,3,4,4,7,7,8,8,9,9,11,11,13,13,15,15,18,18],"right_children":[2,-1,4,6,8,-1,-1,10,12,14,-1,16,-1,18,-1,20,-1,-1,22,-1,-1,-1,-1],"split_conditions":[-1.633866E0,-3.121595E-2,-1.033032E0,1.30674E-1,6.50019E-1,3.5232767E-2,1.5458405E-2,1.539282E0,6.64929E-1,1.057193E0,2.8151834E-2,1.7562E-1,2.7458444E-2,-1.274343E0,-4.58009E-2,-4.1197E-1,-2.7293785E-2,-3.2730386E-2,1.62355E-1,2.7210245E-2,1.776677E-3,-1.2962501E-2,9.484373E-3],"split_indices":[11,0,11,5,6,0,0,7,4,2,0,4,0,26,0,4,0,0,5,0,0,0,0],"split_type":[0,0,0,0,0,0,0,0,0,0,0,0,0,0,0,0,0,0,0,0,0,0,0],"sum_hessian":[7.18E2,3.9E1,6.79E2,7.6E1,6.03E2,4.8E1,2.8E1,4.35E2,1.68E2,4.09E2,2.6E1,1.19E2,4.9E1,3.68E2,4.1E1,8.5E1,3.4E1,4.6E1,3.22E2,4.6E1,3.9E1,1.94E2,1.28E2],"tree_param":{"num_deleted":"0","num_feature":"30","num_nodes":"23","size_leaf_vector":"1"}},{"base_weights":[3.317776E-3,8.1932746E-2,-5.9621684E-2,-1.5295865E-2,1.20784454E-1,1.2005638E-1,-1.20513484E-1,6.653352E-2,2.8257298E-1,2.1448573E-1,-1.3716713E-2,-6.8166785E-2,-6.265898E-2,3.8619537E-2,1.2587213E-2,3.7062947E-2,1.3186924E-2,9.690046E-3,4.084003E-2,-4.7546625E-2,-1.5926251E-2,-2.723378E-2,6.278583E-2,-4.412077E-2,4.1511368E-2,2.5381086E-2,-7.079762E-3,1.310642E-1,-2.0902218E-1,-1.4608613E-2,1.8420149E-2,-1.54096875E-2,1.958624E-2,1.41832335E-2,-5.0786253E-2],"categories":[],"categories_nodes":[],"categories_segments":[],"categories_sizes":[],"default_left":[0,0,0,0,0,0,0,0,0,0,0,0,0,0,0,0,0,0,0,0,0,0,0,0,0,0,0,0,0,0,0,0,0,0,0],"id":17,"left_children":[1,3,5,-1,7,9,11,13,15,17,-1,19,-1,-1,21,-1,-1,-1,-1,-1,23,-1,25,-1,27,-1,29,31,33,-1,-1,-1,-1,-1,-1],"loss_changes":[3.572381E0,2.9478993E0,4.4017777E0,0E0,2.4037004E0,2.5069442E0,7.9047146E0,3.5820107E0,8.66786E-1,1.6705382E0,0E0,5.8011966E0,0E0,0E0,2.5773077E0,0E0,0E0,0E0,0E0,0E0,5.9541135E0,0E0,2.0437465E0,0E0,4.851133E0,0E0,3.0315013E0,2.9681726E0,6.048451E0,0E0,0E0,0E0,0E0,0E0,0E0],"parents":[2147483647,0,0,1,1,2,2,4,4,5,5,6,6,7,7,8,8,9,9,11,11,14,14,20,20,22,22,24,24,26,26,27,27,28,28],"right_children":[2,4,6,-1,8,10,12,14,16,18,-1,20,-1,-1,22,-1,-1,-1,-1,-1,24,-1,26,-1,28,-1,30,32,34,-1,-1,-1,-1,-1,-1],"split_conditions":[-1.4994E-1,-1.058913E0,-6.73874E-1,-1.5295865E-2,6.69124E-1,4.98544E-1,1.292E0,-1.00758E0,3.24083E-1,4.96633E-1,-1.3716713E-2,-2.3896E-2,-6.265898E-2,3.8619537E-2,-9.8647E-1,3.7062947E-2,1.3186924E-2,9.690046E-3,4.084003E-2,-4.7546625E-2,-1.154825E0,-2.723378E-2,-6.22211E-1,-4.412077E-2,6.69124E-1,2.5381086E-2,3.00224E-1,-9.57716E-1,-7.1616E-2,-1.4608613E-2,1.8420149E-2,-1.54096875E-2,1.958624E-2,1.41832335E-2,-5.0786253E-2],"split_indices":[13,19,24,0,4,19,25,24,19,25,0,13,0,0,8,0,0,0,0,0,25,0,12,0,4,0,25,10,27,0,0,0,0,0,0],"split_type":[0,0,0,0,0,0,0,0,0,0,0,0,0,0,0,0,0,0,0,0,0,0,0,0,0,0,0,0,0,0,0,0,0,0,0],"sum_hessian":[7.2E2,3.2E2,4E2,4.5E1,2.75E2,1.01E2,2.99E2,2.07E2,6.8E1,7.4E1,2.7E1,2.72E2,2.7E1,2.9E1,1.78E2,4.2E1,2.6E1,4.7E1,2.7E1,3E1,2.42E2,2.6E1,1.52E2,2.8E1,2.14E2,4E1,1.12E2,1.58E2,5.6E1,6.5E1,4.7E1,2.9E1,1.29E2,2.6E1,3E1],"tree_param":{"num_deleted":"0","num_feature":"30","num_nodes":"35","size_leaf_vector":"1"}},{"base_weights":[-2.0703597E-3,-3.398064E-2,1.540698E-1,1.0951932E-1,-8.4242634E-2,-7.689847E-3,2.3797859E-1,1.9234084E-1,-1.2343611E-2,-6.013164E-2,-5.0234802E-2,1.419614E-1,4.045729E-2,9.416374E-2,2.7913082E-1,-1.517856E-1,3.1224243E-2,2.9741302E-2,6.3627766E-4,-9.695083E-3,2.5665758E-2,1.6239172E-2,3.9045688E-2,2.0011032E-2,-2.1357732E-1,8.697814E-2,-3.9118383E-2,-3.9504808E-1,6.4999086E-4,2.8030029E-2,3.8089424E-2,-6.4817764E-2,-2.4519239E-2,-1.5094901E-2,2.805001E-2,-1.4687565E-2,1.8340727E-2],"categories":[],"categories_nodes":[],"categories_segments":[],"categories_sizes":[],"default_left":[0,0,0,0,0,0,0,0,0,0,0,0,0,0,0,0,0,0,0,0,0,0,0,0,0,0,0,0,0,0,0,0,0,0,0,0,0],"id":18,"left_children":[1,3,5,7,9,-1,11,13,-1,-1,15,17,-1,19,21,23,25,-1,-1,-1,-1,-1,-1,-1,27,29,-1,31,33,35,-1,-1,-1,-1,-1,-1,-1],"loss_changes":[3.5527585E0,4.2790813E0,2.363313E0,2.994975E0,7.689413E0,0E0,1.3662028E0,9.45086E-1,0E0,0E0,3.4211707E0,1.2206912E0,0E0,1.7329049E0,7.1635914E-1,4.0436816E0,5.4507303E0,0E0,0E0,0E0,0E0,0E0,0E0,0E0,6.103787E0,3.5237863E0,0E0,3.0653696E0,3.139366E0,4.674096E0,0E0,0E0,0E0,0E0,0E0,0E0,0E0],"parents":[2147483647,0,0,1,1,2,2,3,3,4,4,6,6,7,7,10,10,11,11,13,13,14,14,15,15,16,16,24,24,25,25,27,27,28,28,29,29],"right_children":[2,4,6,8,10,-1,12,14,-1,-1,16,18,-1,20,22,24,26,-1,-1,-1,-1,-1,-1,-1,28,30,-1,32,34,36,-1,-1,-1,-1,-1,-1,-1],"split_conditions":[1.03116E0,-6.7019E-1,-5.78233E-1,6.22879E-1,-1.40926E0,-7.689847E-3,4.1898E-1,-2.25799E-1,-1.2343611E-2,-6.013164E-2,-2.18453E-1,4.68285E-1,4.045729E-2,-3.29673E-1,-2.81371E-1,-9.60068E-1,1.155282E0,2.9741302E-2,6.3627766E-4,-9.695083E-3,2.5665758E-2,1.6239172E-2,3.9045688E-2,2.0011032E-2,2.65608E-1,5.91605E-1,-3.9118383E-2,-4.29885E-1,5.63365E-1,-5.5911E-2,3.8089424E-2,-6.4817764E-2,-2.4519239E-2,-1.5094901E-2,2.805001E-2,-1.4687565E-2,1.8340727E-2],"split_indices":[6,13,19,5,16,0,23,28,0,0,26,19,0,11,18,12,15,0,0,0,0,0,0,0,12,15,0,21,11,28,0,0,0,0,0,0,0],"split_type":[0,0,0,0,0,0,0,0,0,0,0,0,0,0,0,0,0,0,0,0,0,0,0,0,0,0,0,0,0,0,0,0,0,0,0,0,0],"sum_hessian":[7.11E2,5.91E2,1.2E2,1.53E2,4.38E2,3.2E1,8.8E1,1.13E2,4E1,2.6E1,4.12E2,5.7E1,3.1E1,5.4E1,5.9E1,1.83E2,2.29E2,2.6E1,3.1E1,2.5E1,2.9E1,3E1,2.9E1,2.7E1,1.56E2,2.03E2,2.6E1,8.4E1,7.2E1,1.7E2,3.3E1,3E1,5.4E1,4.7E1,2.5E1,8E1,9E1],"tree_param":{"num_deleted":"0","num_feature":"30","num_nodes":"37","size_leaf_vector":"1"}},{"base_weights":[-3.007422E-3,1.1655822E-2,-3.1662088E-2,1.8559237E-1,-1.6022049E-2,2.7465624E-1,4.5395232E-4,-1.0395227E-1,5.003451E-2,1.1269293E-2,3.7306603E-2,1.6992908E-2,-1.6617766E-1,6.382417E-3,2.1498789E-1,2.1158474E-2,-2.2418267E-1,-1.5333268E-1,8.925975E-2,3.1237883E-2,4.7310363E-3,1.5688714E-2,-3.0438474E-1,-3.101467E-1,2.5309324E-2,-3.760174E-2,2.2663978E-1,-1.9163758E-2,-6.6862166E-2,-1.3496368E-2,-5.7765495E-2,1.7910471E-2,-2.5803953E-2,3.0042678E-2,4.8808875E-3],"categories":[],"categories_nodes":[],"categories_segments":[],"categories_sizes":[],"default_left":[0,0,0,0,0,0,0,0,0,0,0,0,0,0,0,0,0,0,0,0,0,0,0,0,0,0,0,0,0,0,0,0,0,0,0],"id":19,"left_children":[1,3,-1,5,7,9,-1,11,13,-1,-1,-1,15,17,19,-1,21,23,25,-1,-1,-1,27,29,-1,31,33,-1,-1,-1,-1,-1,-1,-1,-1],"loss_changes":[3.39745E0,3.4017942E0,0E0,1.5629039E0,3.5483057E0,9.939785E-1,0E0,4.49334E0,2.5116234E0,0E0,0E0,0E0,4.736625E0,3.680269E0,1.1773307E0,0E0,5.732397E0,6.1331577E0,3.1978893E0,0E0,0E0,0E0,6.1961365E0,3.1555777E0,0E0,4.6321645E0,1.1400385E0,0E0,0E0,0E0,0E0,0E0,0E0,0E0,0E0],"parents":[2147483647,0,0,1,1,3,3,4,4,5,5,7,7,8,8,12,12,13,13,14,14,16,16,17,17,18,18,22,22,23,23,25,25,26,26],"right_children":[2,4,-1,6,8,10,-1,12,14,-1,-1,-1,16,18,20,-1,22,24,26,-1,-1,-1,28,30,-1,32,34,-1,-1,-1,-1,-1,-1,-1,-1],"split_conditions":[1.789373E0,-1.009447E0,-3.1662088E-2,5.31775E-1,-2.18453E-1,-1.66384E-1,4.5395232E-4,-9.83676E-1,9.41302E-1,1.1269293E-2,3.7306603E-2,1.6992908E-2,-1.165443E0,-5.01084E-1,1.67989E-1,2.1158474E-2,-7.71049E-1,5.83588E-1,4.4134E-2,3.1237883E-2,4.7310363E-3,1.5688714E-2,4.85556E-1,3.33679E-1,2.5309324E-2,-1.25573E-1,5.63436E-1,-1.9163758E-2,-6.6862166E-2,-1.3496368E-2,-5.7765495E-2,1.7910471E-2,-2.5803953E-2,3.0042678E-2,4.8808875E-3],"split_indices":[26,12,0,9,26,20,0,5,22,0,0,0,1,5,12,0,20,1,18,0,0,0,9,2,0,13,20,0,0,0,0,0,0,0,0],"split_type":[0,0,0,0,0,0,0,0,0,0,0,0,0,0,0,0,0,0,0,0,0,0,0,0,0,0,0,0,0,0,0,0,0,0,0],"sum_hessian":[7.37E2,7.05E2,3.2E1,9.6E1,6.09E2,6.4E1,3.2E1,2.61E2,3.48E2,2.5E1,3.9E1,4.8E1,2.13E2,2.76E2,7.2E1,2.8E1,1.85E2,9.4E1,1.82E2,4.5E1,2.7E1,3.2E1,1.53E2,6.8E1,2.6E1,9.5E1,8.7E1,1.18E2,3.5E1,4.2E1,2.6E1,4.8E1,4.7E1,6.1E1,2.6E1],"tree_param":{"num_deleted":"0","num_feature":"30","num_nodes":"35","size_leaf_vector":"1"}},{"base_weights":[-7.323504E-3,-5.993419E-2,6.983988E-2,-5.9605874E-2,-2.5706388E-2,-3.284533E-2,1.15994945E-1,3.6748737E-2,-1.4862007E-1,2.5272298E-1,4.697928E-2,-9.7074E-2,1.3391878E-1,-5.0539847E-2,-4.5916196E-2,3.2938632E-1,7.3942565E-3,-2.2062926E-2,1.0054489E-1,1.4319638E-2,-2.2225481E-1,5.8054615E-2,3.0149305E-2,1.9044075E-2,-1.7201537E-1,4.227983E-2,2.4524573E-2,2.884512E-2,3.1301282E-2,-7.99033E-3,-4.7763705E-2,1.4171092E-1,-1.597054E-2,-4.2319383E-2,7.023494E-3,-4.6570905E-2,2.6101878E-2,1.6922255E-3,3.3841167E-2,1.7738298E-2,-1.46161085E-2],"categories":[],"categories_nodes":[],"categories_segments":[],"categories_sizes":[],"default_left":[0,0,0,0,0,0,0,0,0,0,0,0,0,0,0,0,0,0,0,0,0,0,0,0,0,0,0,0,0,0,0,0,0,0,0,0,0,0,0,0,0],"id":20,"left_children":[1,3,5,-1,7,-1,9,11,13,15,17,19,21,23,-1,25,-1,-1,27,-1,29,31,-1,-1,33,-1,-1,-1,35,-1,-1,37,-1,-1,-1,39,-1,-1,-1,-1,-1],"loss_changes":[2.963648E0,7.9487367E0,5.47954E0,0E0,3.1451867E0,0E0,2.4982033E0,3.5499687E0,4.1800003E0,1.1954703E0,2.5737448E0,3.4907084E0,1.9911325E0,3.1357224E0,0E0,3.836136E-1,0E0,0E0,1.9296565E0,0E0,2.7247422E0,2.026502E0,0E0,0E0,4.3499346E0,0E0,0E0,0E0,1.9799023E0,0E0,0E0,1.9579551E0,0E0,0E0,0E0,1.8771256E0,0E0,0E0,0E0,0E0,0E0],"parents":[2147483647,0,0,1,1,2,2,4,4,6,6,7,7,8,8,9,9,10,10,11,11,12,12,13,13,15,15,18,18,20,20,21,21,24,24,28,28,31,31,35,35],"right_children":[2,4,6,-1,8,-1,10,12,14,16,18,20,22,24,-1,26,-1,-1,28,-1,30,32,-1,-1,34,-1,-1,-1,36,-1,-1,38,-1,-1,-1,40,-1,-1,-1,-1,-1],"split_conditions":[2.25723E-1,-1.461685E0,-9.84977E-1,-5.9605874E-2,-3.43371E-1,-3.284533E-2,-5.42645E-1,-2.56102E-1,9.38849E-1,4.76433E-1,-1.046084E0,-1.017667E0,5.78678E-1,-5.48909E-1,-4.5916196E-2,-3.95244E-1,7.3942565E-3,-2.2062926E-2,-6.63337E-1,1.4319638E-2,4.88198E-1,1.0776E-1,3.0149305E-2,1.9044075E-2,4.9921E-2,4.227983E-2,2.4524573E-2,2.884512E-2,8.06934E-1,-7.99033E-3,-4.7763705E-2,2.7497E-2,-1.597054E-2,-4.2319383E-2,7.023494E-3,-5.67755E-1,2.6101878E-2,1.6922255E-3,3.3841167E-2,1.7738298E-2,-1.46161085E-2],"split_indices":[22,16,26,0,22,0,11,21,16,9,15,21,13,17,0,9,0,0,12,0,7,13,0,0,12,0,0,0,6,0,0,11,0,0,0,28,0,0,0,0,0],"split_type":[0,0,0,0,0,0,0,0,0,0,0,0,0,0,0,0,0,0,0,0,0,0,0,0,0,0,0,0,0,0,0,0,0,0,0,0,0,0,0,0,0],"sum_hessian":[7.28E2,4.33E2,2.95E2,2.5E1,4.08E2,3E1,2.65E2,2.71E2,1.37E2,8.8E1,1.77E2,1.14E2,1.57E2,1.05E2,3.2E1,6.1E1,2.7E1,2.9E1,1.48E2,3.9E1,7.5E1,1.09E2,4.8E1,3.5E1,7E1,2.7E1,3.4E1,3.9E1,1.09E2,4.9E1,2.6E1,7.9E1,3E1,3.4E1,3.6E1,8.2E1,2.7E1,4.9E1,3E1,2.5E1,5.7E1],"tree_param":{"num_deleted":"0","num_feature":"30","num_nodes":"41","size_leaf_vector":"1"}},{"base_weights":[1.515132E-3,2.0262314E-1,-2.521681E-2,3.7697013E-2,5.7350635E-3,-8.26414E-2,7.148987E-2,2.8932244E-2,-1.3341746E-1,-2.7038047E-2,1.15104206E-1,-6.1312813E-2,-8.652856E-2,3.927975E-2,5.732099E-2,-4.9759183E-2,-5.0039154E-2,-1.8821424E-2,1.1148631E-1,-1.1104395E-1,2.1377838E-1,-1.3945281E-2,2.2080919E-1,-2.760218E-2,8.768959E-4,3.8683575E-2,6.1737443E-3,1.6505033E-2,-1.3584605E-2,3.1965315E-2,5.5298554E-3],"categories":[],"categories_nodes":[],"categories_segments":[],"categories_sizes":[],"default_left":[0,0,0,0,0,0,0,0,0,0,0,0,0,0,0,0,0,0,0,0,0,0,0,0,0,0,0,0,0,0,0],"id":21,"left_children":[1,3,5,-1,-1,7,9,-1,11,-1,13,-1,15,-1,17,19,-1,-1,21,23,25,27,29,-1,-1,-1,-1,-1,-1,-1,-1],"loss_changes":[3.8489554E0,2.1059175E0,3.5156195E0,0E0,0E0,7.536684E0,3.5499873E0,0E0,7.8195333E0,0E0,3.3471465E0,0E0,4.8446965E0,0E0,2.348395E0,4.788236E0,0E0,0E0,1.9776855E0,4.7463746E0,1.4495783E0,1.5061611E0,1.2420225E0,0E0,0E0,0E0,0E0,0E0,0E0,0E0,0E0],"parents":[2147483647,0,0,1,1,2,2,5,5,6,6,8,8,10,10,12,12,14,14,15,15,18,18,19,19,20,20,21,21,22,22],"right_children":[2,4,6,-1,-1,8,10,-1,12,-1,14,-1,16,-1,18,20,-1,-1,22,24,26,28,30,-1,-1,-1,-1,-1,-1,-1,-1],"split_conditions":[-1.142868E0,-3.225E-2,3.31958E-1,3.7697013E-2,5.7350635E-3,-1.165443E0,-9.84977E-1,2.8932244E-2,-1.211069E0,-2.7038047E-2,-9.43153E-1,-6.1312813E-2,1.51087E0,3.927975E-2,-8.30255E-1,9.82624E-1,-5.0039154E-2,-1.8821424E-2,-2.3918E-1,-1.70227E-1,1.63653E-1,2.40504E3,3.49279E-1,-2.760218E-2,8.768959E-4,3.8683575E-2,6.1737443E-3,1.6505033E-2,-1.3584605E-2,3.1965315E-2,5.5298554E-3],"split_indices":[21,16,22,0,0,1,26,0,16,0,16,0,16,0,1,26,0,0,19,2,21,0,14,0,0,0,0,0,0,0,0],"split_type":[0,0,0,0,0,0,0,0,0,0,0,0,0,0,0,0,0,0,0,0,0,0,0,0,0,0,0,0,0,0,0],"sum_hessian":[7.14E2,8.3E1,6.31E2,3.7E1,4.6E1,3.96E2,2.35E2,4.7E1,3.49E2,2.6E1,2.09E2,3E1,3.19E2,3.5E1,1.74E2,2.94E2,2.5E1,3.1E1,1.43E2,2.39E2,5.5E1,6.7E1,7.6E1,1E2,1.39E2,2.5E1,3E1,2.7E1,4E1,4.7E1,2.9E1],"tree_param":{"num_deleted":"0","num_feature":"30","num_nodes":"31","size_leaf_vector":"1"}},{"base_weights":[2.6069393E-3,1.7122024E-1,-2.6580311E-2,-3.3772856E-3,2.6586264E-1,-1.1620981E-2,-3.7019797E-2,1.621496E-2,3.9691888E-2,-4.7187604E-2,2.2308575E-1,-1.8580774E-2,-4.3206904E-2,1.3905884E-1,3.7116837E-2,1.84187E-2,-2.3872648E-1,1.6994464E-3,2.604696E-2,-1.0276688E-2,3.4196608E-2,-4.5402627E-2,8.13189E-3,1.8569086E-3,-3.0776462E-2],"categories":[],"categories_nodes":[],"categories_segments":[],"categories_sizes":[],"default_left":[0,0,0,0,0,0,0,0,0,0,0,0,0,0,0,0,0,0,0,0,0,0,0,0,0],"id":22,"left_children":[1,3,5,-1,7,9,-1,-1,-1,11,13,15,-1,17,-1,19,21,-1,-1,23,-1,-1,-1,-1,-1],"loss_changes":[3.6020644E0,2.1042914E0,3.2032387E0,0E0,9.4146585E-1,5.0108147E0,0E0,0E0,0E0,5.728305E0,9.313767E-1,3.963001E0,0E0,7.662096E-1,0E0,3.8750749E0,4.860319E0,0E0,0E0,3.3009226E0,0E0,0E0,0E0,0E0,0E0],"parents":[2147483647,0,0,1,1,2,2,4,4,5,5,9,9,10,10,11,11,13,13,15,15,16,16,19,19],"right_children":[2,4,6,-1,8,10,-1,-1,-1,12,14,16,-1,18,-1,20,22,-1,-1,24,-1,-1,-1,-1,-1],"split_conditions":[-1.009447E0,-3.29439E-1,1.846464E0,-3.3772856E-3,3.52761E-1,1.032682E0,-3.7019797E-2,1.621496E-2,3.9691888E-2,1.514986E0,4.71486E-1,6.49118E-1,-4.3206904E-2,-1.3641E-2,3.7116837E-2,4.89143E-1,1.17621E-1,1.6994464E-3,2.604696E-2,2.83902E-1,3.4196608E-2,-4.5402627E-2,8.13189E-3,1.8569086E-3,-3.0776462E-2],"split_indices":[12,2,26,0,24,24,0,0,0,25,5,24,0,22,0,24,25,0,0,24,0,0,0,0,0],"split_type":[0,0,0,0,0,0,0,0,0,0,0,0,0,0,0,0,0,0,0,0,0,0,0,0,0],"sum_hessian":[7.3E2,1.07E2,6.23E2,3.4E1,7.3E1,5.98E2,2.5E1,4.2E1,3.1E1,5.2E2,7.8E1,4.85E2,3.5E1,5.1E1,2.7E1,4.16E2,6.9E1,2.6E1,2.5E1,3.83E2,3.3E1,4.1E1,2.8E1,3.5E2,3.3E1],"tree_param":{"num_deleted":"0","num_feature":"30","num_nodes":"25","size_leaf_vector":"1"}},{"base_weights":[6.04196E-3,2.4391202E-2,-9.053106E-3,2.2399977E-2,-2.5187396E-2,8.937431E-2,-6.332183E-2,1.8243827E-1,-1.5800735E-2,-3.9796647E-2,-4.156678E-2,1.24415606E-1,3.0296192E-2,-3.208156E-2,-8.89616E-3,2.6316E-2,3.271488E-2,4.258643E-2,-1.717442E-1,-1.0057359E-2,1.6163016E-2,-6.3840323E-3,1.3456486E-2,-2.6969712E-3,-5.1028546E-2],"categories":[],"categories_nodes":[],"categories_segments":[],"categories_sizes":[],"default_left":[0,0,0,0,0,0,0,0,0,0,0,0,0,0,0,0,0,0,0,0,0,0,0,0,0],"id":23,"left_children":[1,-1,3,-1,5,7,9,11,-1,-1,13,15,-1,-1,17,19,-1,21,23,-1,-1,-1,-1,-1,-1],"loss_changes":[2.5874865E0,0E0,2.5550187E0,0E0,2.779813E0,3.6893744E0,3.4561176E0,7.735069E-1,0E0,0E0,4.0934772E0,1.5824344E0,0E0,0E0,3.3860009E0,9.6060336E-1,0E0,3.013803E0,4.7404146E0,0E0,0E0,0E0,0E0,0E0,0E0],"parents":[2147483647,0,0,2,2,4,4,5,5,6,6,7,7,10,10,11,11,14,14,15,15,17,17,18,18],"right_children":[2,-1,4,-1,6,8,10,12,-1,-1,14,16,-1,-1,18,20,-1,22,24,-1,-1,-1,-1,-1,-1],"split_conditions":[-1.692147E0,2.4391202E-2,-1.548457E0,2.2399977E-2,-6.73874E-1,5.19546E-1,-1.598706E0,-1.41293E-1,-1.5800735E-2,-3.9796647E-2,-1.142495E0,5.63365E-1,3.0296192E-2,-3.208156E-2,7.33985E-1,6.7913E-2,3.271488E-2,-1.2231E-1,7.74129E-1,-1.0057359E-2,1.6163016E-2,-6.3840323E-3,1.3456486E-2,-2.6969712E-3,-5.1028546E-2],"split_indices":[27,0,3,0,24,2,26,2,0,0,27,11,0,0,9,10,0,15,24,0,0,0,0,0,0],"split_type":[0,0,0,0,0,0,0,0,0,0,0,0,0,0,0,0,0,0,0,0,0,0,0,0,0],"sum_hessian":[7.19E2,4.2E1,6.77E2,4.3E1,6.34E2,1.58E2,4.76E2,1.15E2,4.3E1,2.8E1,4.48E2,7.9E1,3.6E1,4.6E1,4.02E2,5.4E1,2.5E1,3.06E2,9.6E1,2.8E1,2.6E1,1.42E2,1.64E2,6.8E1,2.8E1],"tree_param":{"num_deleted":"0","num_feature":"30","num_nodes":"25","size_leaf_vector":"1"}},{"base_weights":[-2.1726644E-2,-3.209656E-2,-1.00366315E-2,-2.9207826E-2,4.958048E-3,2.4159694E-1,-2.00222E-2,3.80089E-2,1.1229227E-2,-3.5806783E-2,3.2800872E-2,-1.8064432E-2,-3.448567E-2,-3.1285148E-2,2.9028233E-3,4.084327E-3,-1.2677975E-2],"categories":[],"categories_nodes":[],"categories_segments":[],"categories_sizes":[],"default_left":[0,0,0,0,0,0,0,0,0,0,0,0,0,0,0,0,0],"id":24,"left_children":[1,-1,3,-1,5,7,9,-1,-1,11,-1,13,-1,-1,15,-1,-1],"loss_changes":[2.5119176E0,0E0,2.9322307E0,0E0,3.9003828E0,1.0855021E0,3.2913778E0,0E0,0E0,3.1302018E0,0E0,3.3509424E0,0E0,0E0,2.4997268E0,0E0,0E0],"parents":[2147483647,0,0,2,2,4,4,5,5,6,6,9,9,11,11,14,14],"right_children":[2,-1,4,-1,6,8,10,-1,-1,12,-1,14,-1,-1,16,-1,-1],"split_conditions":[2.2284E2,-3.209656E-2,-1.633866E0,-2.9207826E-2,-1.142564E0,-3.81E-2,1.578634E0,3.80089E-2,1.1229227E-2,1.655698E0,3.2800872E-2,-1.598706E0,-3.448567E-2,-3.1285148E-2,6.38127E-1,4.084327E-3,-1.2677975E-2],"split_indices":[0,0,11,0,11,7,24,0,0,28,0,26,0,0,24,0,0],"split_type":[0,0,0,0,0,0,0,0,0,0,0,0,0,0,0,0,0],"sum_hessian":[7.18E2,2.6E1,6.92E2,3.4E1,6.58E2,6.2E1,5.96E2,2.9E1,3.3E1,5.71E2,2.5E1,5.41E2,3E1,3.5E1,5.06E2,3.92E2,1.14E2],"tree_param":{"num_deleted":"0","num_feature":"30","num_nodes":"17","size_leaf_vector":"1"}},{"base_weights":[-1.7654486E-2,2.0409703E-1,-3.512554E-2,7.5042285E-3,3.2081284E-2,1.3319604E-3,-1.7028822E-1,-8.4010854E-2,8.005658E-2,2.202302E-2,-3.127097E-1,3.9780784E-2,-2.5534007E-1,3.2017633E-2,2.5592345E-1,-5.096535E-1,-2.6051893E-3,-2.2140117E-2,2.9036304E-2,-4.1977674E-1,3.3700832E-3,2.8321614E-2,-1.0477866E-2,4.2433377E-2,1.1548128E-2,-8.354141E-2,-1.4518718E-2,-2.1963177E-2,1.1168719E-1,-1.139187E-2,-6.364461E-2,-1.3384975E-1,7.373458E-2,2.8692776E-2,-7.675819E-3,2.7215353E-3,-4.05181E-2,2.6067004E-2,9.78365E-4],"categories":[],"categories_nodes":[],"categories_segments":[],"categories_sizes":[],"default_left":[0,0,0,0,0,0,0,0,0,0,0,0,0,0,0,0,0,0,0,0,0,0,0,0,0,0,0,0,0,0,0,0,0,0,0,0,0,0,0],"id":25,"left_children":[1,3,5,-1,-1,7,9,11,13,-1,15,17,19,21,23,25,-1,27,-1,29,-1,-1,31,-1,-1,-1,-1,-1,33,-1,-1,35,37,-1,-1,-1,-1,-1,-1],"loss_changes":[2.757874E0,7.5918746E-1,3.2475767E0,0E0,0E0,3.5003874E0,7.8554163E0,5.3124394E0,2.2813382E0,0E0,5.8016386E0,2.2718053E0,5.004683E0,2.2873764E0,1.3228078E0,7.1211634E0,0E0,3.1432433E0,0E0,4.367591E0,0E0,0E0,1.9215277E0,0E0,0E0,0E0,0E0,0E0,2.3666768E0,0E0,0E0,3.2886767E0,1.3124664E0,0E0,0E0,0E0,0E0,0E0,0E0],"parents":[2147483647,0,0,1,1,2,2,5,5,6,6,7,7,8,8,10,10,11,11,12,12,13,13,14,14,15,15,17,17,19,19,22,22,28,28,31,31,32,32],"right_children":[2,4,6,-1,-1,8,10,12,14,-1,16,18,20,22,24,26,-1,28,-1,30,-1,-1,32,-1,-1,-1,-1,-1,34,-1,-1,36,38,-1,-1,-1,-1,-1,-1],"split_conditions":[-1.439798E0,-1.07232E-1,7.33985E-1,7.5042285E-3,3.2081284E-2,-2.94424E-1,-5.60427E-1,1.80774E-1,1.016094E0,2.202302E-2,1.34551E0,8.01693E-1,3.92983E-1,-1.51024E-1,-9.7308E-2,8.6764E-2,-2.6051893E-3,-7.57358E-1,2.9036304E-2,-6.87771E-1,3.3700832E-3,2.8321614E-2,-6.6529E-2,4.2433377E-2,1.1548128E-2,-8.354141E-2,-1.4518718E-2,-2.1963177E-2,1.74518E-1,-1.139187E-2,-6.364461E-2,-4.93771E-1,3.40118E-1,2.8692776E-2,-7.675819E-3,2.7215353E-3,-4.05181E-2,2.6067004E-2,9.78365E-4],"split_indices":[20,15,9,0,0,9,21,4,26,0,9,6,20,9,1,4,0,4,0,20,0,0,1,0,0,0,0,0,10,0,0,1,1,0,0,0,0,0,0],"split_type":[0,0,0,0,0,0,0,0,0,0,0,0,0,0,0,0,0,0,0,0,0,0,0,0,0,0,0,0,0,0,0,0,0,0,0,0,0,0,0],"sum_hessian":[7.09E2,5.1E1,6.58E2,2.5E1,2.6E1,5.19E2,1.39E2,2.49E2,2.7E2,3.7E1,1.02E2,1.45E2,1.04E2,2.13E2,5.7E1,6E1,4.2E1,1.17E2,2.8E1,6.6E1,3.8E1,3E1,1.83E2,2.5E1,3.2E1,3.1E1,2.9E1,4.7E1,7E1,2.8E1,3.8E1,7.4E1,1.09E2,3.6E1,3.4E1,4.7E1,2.7E1,2.7E1,8.2E1],"tree_param":{"num_deleted":"0","num_feature":"30","num_nodes":"39","size_leaf_vector":"1"}},{"base_weights":[-1.7643924E-3,1.7735338E-1,-2.3806943E-2,-2.1574663E-3,3.490258E-2,-1.5799575E-1,1.3675605E-2,-6.1808616E-2,-4.95437E-2,3.254574E-2,-2.5949806E-2,-1.6734926E-1,2.2787346E-2,2.630241E-2,1.5936205E-2,-4.266234E-2,-4.3426488E-2,1.6900936E-1,-1.398432E-2,-2.6736844E-2,1.6848544E-2,3.409881E-2,6.0652527E-3,1.7746401E-1,-5.943084E-2,4.7119106E-3,3.1391095E-2,-3.0654484E-2,-2.809267E-3],"categories":[],"categories_nodes":[],"categories_segments":[],"categories_sizes":[],"default_left":[0,0,0,0,0,0,0,0,0,0,0,0,0,0,0,0,0,0,0,0,0,0,0,0,0,0,0,0,0],"id":26,"left_children":[1,3,5,-1,-1,7,9,-1,11,13,-1,15,-1,-1,17,19,-1,21,23,-1,-1,-1,-1,25,27,-1,-1,-1,-1],"loss_changes":[2.8824692E0,2.7395668E0,3.2714906E0,0E0,0E0,7.054858E0,2.632251E0,0E0,3.8291633E0,1.8218307E0,0E0,2.7105062E0,0E0,0E0,2.0450563E0,2.7494805E0,0E0,1.3396785E0,3.2645938E0,0E0,0E0,0E0,0E0,1.2657406E0,2.337851E0,0E0,0E0,0E0,0E0],"parents":[2147483647,0,0,1,1,2,2,5,5,6,6,8,8,9,9,11,11,14,14,15,15,17,17,18,18,23,23,24,24],"right_children":[2,4,6,-1,-1,8,10,-1,12,14,-1,16,-1,-1,18,20,-1,22,24,-1,-1,-1,-1,26,28,-1,-1,-1,-1],"split_conditions":[-1.165443E0,-1.521528E0,-4.57038E-1,-2.1574663E-3,3.490258E-2,-8.57449E-1,1.54718E0,-6.1808616E-2,6.35728E-1,-1.603346E0,-2.5949806E-2,5.88206E-1,2.2787346E-2,2.630241E-2,-9.60068E-1,-7.61646E-1,-4.3426488E-2,-3.33991E-1,-9.53608E-1,-2.6736844E-2,1.6848544E-2,3.409881E-2,6.0652527E-3,-1.70227E-1,-2.04924E-1,4.7119106E-3,3.1391095E-2,-3.0654484E-2,-2.809267E-3],"split_indices":[1,1,1,0,0,25,25,0,23,4,0,4,0,0,12,1,0,25,23,0,0,0,0,2,1,0,0,0,0],"split_type":[0,0,0,0,0,0,0,0,0,0,0,0,0,0,0,0,0,0,0,0,0,0,0,0,0,0,0,0,0],"sum_hessian":[7.28E2,7.9E1,6.49E2,3.7E1,4.2E1,1.41E2,5.08E2,2.6E1,1.15E2,4.76E2,3.2E1,8.1E1,3.4E1,3.1E1,4.45E2,5.6E1,2.5E1,7.2E1,3.73E2,2.7E1,2.9E1,2.7E1,4.5E1,7.1E1,3.02E2,3.7E1,3.4E1,3.3E1,2.69E2],"tree_param":{"num_deleted":"0","num_feature":"30","num_nodes":"29","size_leaf_vector":"1"}},{"base_weights":[-1.50266485E-2,-6.64273E-2,6.4414315E-2,-3.822742E-2,-4.1949373E-2,1.492727E-1,-5.5808313E-2,-5.7023354E-3,-4.1513693E-2,-4.8461347E-3,2.0482996E-1,3.5048522E-2,-3.751553E-2,-3.3141978E-2,2.3838433E-2,2.8434843E-1,2.0792645E-3,-1.6346188E-2,1.7156392E-1,8.33254E-2,-1.5147768E-1,3.7377983E-1,1.1057335E-2,-6.286919E-4,3.4328748E-2,1.509804E-1,-7.016721E-2,-4.0610384E-2,-4.2255785E-2,4.8730128E-2,2.6276797E-2,1.8792665E-2,-7.2241016E-3,-2.4486912E-2,1.247709E-2,1.2825797E-2,-2.6804244E-2],"categories":[],"categories_nodes":[],"categories_segments":[],"categories_sizes":[],"default_left":[0,0,0,0,0,0,0,0,0,0,0,0,0,0,0,0,0,0,0,0,0,0,0,0,0,0,0,0,0,0,0,0,0,0,0,0,0],"id":27,"left_children":[1,3,5,7,-1,9,11,13,-1,-1,15,17,-1,-1,19,21,-1,-1,23,25,27,29,-1,-1,-1,31,33,-1,35,-1,-1,-1,-1,-1,-1,-1,-1],"loss_changes":[2.9197674E0,4.3050547E0,2.8750637E0,4.9380155E0,0E0,1.8225443E0,3.4078867E0,3.5872633E0,0E0,0E0,1.8819203E0,2.5212188E0,0E0,0E0,3.5793483E0,1.3573561E0,0E0,0E0,1.6819232E0,2.669037E0,2.402375E0,6.1548424E-1,0E0,0E0,0E0,1.4815769E0,2.7209814E0,0E0,2.4213617E0,0E0,0E0,0E0,0E0,0E0,0E0,0E0,0E0],"parents":[2147483647,0,0,1,1,2,2,3,3,5,5,6,6,7,7,10,10,11,11,14,14,15,15,18,18,19,19,20,20,21,21,25,25,26,26,28,28],"right_children":[2,4,6,8,-1,10,12,14,-1,-1,16,18,-1,-1,20,22,-1,-1,24,26,28,30,-1,-1,-1,32,34,-1,36,-1,-1,-1,-1,-1,-1,-1,-1],"split_conditions":[2.86385E-1,1.450519E0,2.12037E-1,1.429181E0,-4.1949373E-2,-7.76482E-1,7.68897E-1,-1.551684E0,-4.1513693E-2,-4.8461347E-3,5.76949E-1,-5.5911E-2,-3.751553E-2,-3.3141978E-2,-4.5974E-2,4.26493E-1,2.0792645E-3,-1.6346188E-2,1.030299E0,3.77848E-1,6.7913E-2,-1.76099E-1,1.1057335E-2,-6.286919E-4,3.4328748E-2,1.26188E0,2.01405E-1,-4.0610384E-2,1.74518E-1,4.8730128E-2,2.6276797E-2,1.8792665E-2,-7.2241016E-3,-2.4486912E-2,1.247709E-2,1.2825797E-2,-2.6804244E-2],"split_indices":[10,25,5,23,0,1,1,10,0,0,27,28,0,0,10,21,0,0,5,13,10,26,0,0,0,28,5,0,10,0,0,0,0,0,0,0,0],"split_type":[0,0,0,0,0,0,0,0,0,0,0,0,0,0,0,0,0,0,0,0,0,0,0,0,0,0,0,0,0,0,0,0,0,0,0,0,0],"sum_hessian":[7.13E2,4.33E2,2.8E2,4.02E2,3.1E1,1.64E2,1.16E2,3.71E2,3.1E1,3.6E1,1.28E2,9.1E1,2.5E1,3E1,3.41E2,8.9E1,3.9E1,3.7E1,5.4E1,2.55E2,8.6E1,5.8E1,3.1E1,2.7E1,2.7E1,1.77E2,7.8E1,2.5E1,6.1E1,2.7E1,3.1E1,1.52E2,2.5E1,4.1E1,3.7E1,3.5E1,2.6E1],"tree_param":{"num_deleted":"0","num_feature":"30","num_nodes":"37","size_leaf_vector":"1"}},{"base_weights":[9.710956E-3,7.627929E-2,-5.781423E-2,3.7302148E-2,2.6129264E-1,-1.13110945E-1,1.326833E-1,8.047989E-2,-3.2817576E-2,3.8621373E-2,1.689442E-2,-1.7354774E-1,1.3508822E-1,-7.996389E-3,2.2904302E-1,-1.8566769E-2,1.6599299E-1,-7.78847E-2,-4.3372867E-1,3.0660478E-2,-4.125292E-3,3.4332868E-2,8.397E-3,-1.9638897E-1,1.010056E-1,-9.313026E-3,2.2607315E-1,-4.3006826E-2,3.755357E-4,-8.490628E-2,-6.818062E-3,-3.745428E-2,-1.0681726E-3,2.7843315E-2,-1.2635884E-2,2.490968E-3,2.8838056E-1,-8.433433E-2,3.0249486E-2,3.616375E-2,1.5708564E-2,6.5701813E-3,-2.7726773E-2],"categories":[],"categories_nodes":[],"categories_segments":[],"categories_sizes":[],"default_left":[0,0,0,0,0,0,0,0,0,0,0,0,0,0,0,0,0,0,0,0,0,0,0,0,0,0,0,0,0,0,0,0,0,0,0,0,0,0,0,0,0,0,0],"id":28,"left_children":[1,3,5,7,9,11,13,15,-1,-1,-1,17,19,-1,21,23,25,27,29,-1,-1,-1,-1,31,33,-1,35,-1,37,-1,-1,-1,-1,-1,-1,-1,39,41,-1,-1,-1,-1,-1],"loss_changes":[3.240838E0,2.607952E0,3.78614E0,4.7763453E0,6.615362E-1,4.1935453E0,1.6780556E0,2.2899241E0,0E0,0E0,0E0,5.541511E0,1.6761467E0,0E0,8.996377E-1,2.6989267E0,2.278438E0,4.547886E0,9.051585E0,0E0,0E0,0E0,0E0,1.6833068E0,3.101077E0,0E0,1.4718256E0,0E0,3.5060892E0,0E0,0E0,0E0,0E0,0E0,0E0,0E0,8.08835E-1,3.1155443E0,0E0,0E0,0E0,0E0,0E0],"parents":[2147483647,0,0,1,1,2,2,3,3,4,4,5,5,6,6,7,7,11,11,12,12,14,14,15,15,16,16,17,17,18,18,23,23,24,24,26,26,28,28,36,36,37,37],"right_children":[2,4,6,8,10,12,14,16,-1,-1,-1,18,20,-1,22,24,26,28,30,-1,-1,-1,-1,32,34,-1,36,-1,38,-1,-1,-1,-1,-1,-1,-1,40,42,-1,-1,-1,-1,-1],"split_conditions":[-7.1616E-2,-2.93036E-1,8.06934E-1,-3.90721E-1,-1.63179E-1,7.84092E-1,-2.93002E-1,2.31102E3,-3.2817576E-2,3.8621373E-2,1.689442E-2,1.17564E-1,-4.19256E-1,-7.996389E-3,-2.23208E-1,-3.3927E-1,-9.02601E-1,-9.98679E-1,3.35609E-1,3.0660478E-2,-4.125292E-3,3.4332868E-2,8.397E-3,9.2597E-2,-9.4163E-2,-9.313026E-3,-6.73E-1,-4.3006826E-2,8.38762E-1,-8.490628E-2,-6.818062E-3,-3.745428E-2,-1.0681726E-3,2.7843315E-2,-1.2635884E-2,2.490968E-3,3.02211E-1,2.98564E3,3.0249486E-2,3.616375E-2,1.5708564E-2,6.5701813E-3,-2.7726773E-2],"split_indices":[27,27,6,27,22,28,19,0,0,0,0,28,15,0,28,26,25,17,28,0,0,0,0,14,11,0,14,0,3,0,0,0,0,0,0,0,22,0,0,0,0,0,0],"split_type":[0,0,0,0,0,0,0,0,0,0,0,0,0,0,0,0,0,0,0,0,0,0,0,0,0,0,0,0,0,0,0,0,0,0,0,0,0,0,0,0,0,0,0],"sum_hessian":[7.19E2,3.62E2,3.57E2,3E2,6.2E1,2.77E2,8E1,2.69E2,3.1E1,2.5E1,3.7E1,2.23E2,5.4E1,2.5E1,5.5E1,1.25E2,1.44E2,1.64E2,5.9E1,2.7E1,2.7E1,3E1,2.5E1,5E1,7.5E1,2.7E1,1.17E2,2.9E1,1.35E2,2.7E1,3.2E1,2.5E1,2.5E1,4.2E1,3.3E1,2.8E1,8.9E1,1.06E2,2.9E1,5.6E1,3.3E1,6E1,4.6E1],"tree_param":{"num_deleted":"0","num_feature":"30","num_nodes":"43","size_leaf_vector":"1"}},{"base_weights":[-4.5731434E-4,6.40635E-2,-5.4962285E-2,-1.4717118E-1,1.04718015E-1,-1.7672953E-1,1.7729001E-2,3.4394034E-3,-3.169958E-2,2.7968755E-1,6.5293714E-2,5.2797336E-2,-4.1655332E-1,1.424944E-1,-9.028415E-2,3.6746662E-2,1.8115127E-2,-1.155395E-1,1.2311766E-1,-9.639959E-3,2.1266436E-2,-7.1032666E-2,-1.0304873E-2,3.179463E-1,-3.541433E-2,5.2226756E-2,-2.933401E-1,-3.3502217E-2,1.5059522E-2,1.7789686E-1,-4.277307E-3,4.7737516E-2,1.8270098E-2,-2.3128962E-2,2.145587E-2,-1.4582477E-2,1.6382024E-1,-5.5661626E-2,3.0240639E-5,1.672048E-4,2.2151755E-1,1.7503379E-3,3.0383632E-2,1.3746634E-2,3.1122455E-2],"categories":[],"categories_nodes":[],"categories_segments":[],"categories_sizes":[],"default_left":[0,0,0,0,0,0,0,0,0,0,0,0,0,0,0,0,0,0,0,0,0,0,0,0,0,0,0,0,0,0,0,0,0,0,0,0,0,0,0,0,0,0,0,0,0],"id":29,"left_children":[1,3,5,7,9,11,13,-1,-1,15,17,19,21,23,25,-1,-1,27,29,-1,-1,-1,-1,31,33,35,37,-1,-1,39,-1,-1,-1,-1,-1,-1,41,-1,-1,-1,43,-1,-1,-1,-1],"loss_changes":[2.5496156E0,2.8665087E0,3.48174E0,1.6759521E0,1.9062941E0,8.113754E0,3.341512E0,0E0,0E0,3.7455344E-1,2.4087613E0,1.8332274E0,6.557952E0,3.6009185E0,3.8640327E0,0E0,0E0,3.3215225E0,1.5888102E0,0E0,0E0,0E0,0E0,1.1633797E0,2.8895102E0,1.7698883E0,4.252167E0,0E0,0E0,1.0066323E0,0E0,0E0,0E0,0E0,0E0,0E0,1.039504E0,0E0,0E0,0E0,7.489152E-1,0E0,0E0,0E0,0E0],"parents":[2147483647,0,0,1,1,2,2,3,3,4,4,5,5,6,6,9,9,10,10,11,11,12,12,13,13,14,14,17,17,18,18,23,23,24,24,25,25,26,26,29,29,36,36,40,40],"right_children":[2,4,6,8,10,12,14,-1,-1,16,18,20,22,24,26,-1,-1,28,30,-1,-1,-1,-1,32,34,36,38,-1,-1,40,-1,-1,-1,-1,-1,-1,42,-1,-1,-1,44,-1,-1,-1,-1],"split_conditions":[-1.25573E-1,-1.032741E0,-2.58228E-1,1.34809E-1,-9.1609E-1,1.87357E-1,-3.7501E-2,3.4394034E-3,-3.169958E-2,1.13945E-1,-2.96188E-1,-5.33753E-1,1.04259E-1,5.0235E-1,1.25747E-1,3.6746662E-2,1.8115127E-2,1.09792E-1,7.53624E-1,-9.639959E-3,2.1266436E-2,-7.1032666E-2,-1.0304873E-2,-3.03456E-1,1.37249E-1,3.49217E-1,1.68409E-1,-3.3502217E-2,1.5059522E-2,-1.096757E0,-4.277307E-3,4.7737516E-2,1.8270098E-2,-2.3128962E-2,2.145587E-2,-1.4582477E-2,-1.73153E-1,-5.5661626E-2,3.0240639E-5,1.672048E-4,1.6112E-1,1.7503379E-3,3.0383632E-2,1.3746634E-2,3.1122455E-2],"split_indices":[13,19,20,12,6,26,4,0,0,17,6,26,12,20,27,0,0,18,3,0,0,0,0,26,17,4,6,0,0,4,0,0,0,0,0,0,3,0,0,0,25,0,0,0,0],"split_type":[0,0,0,0,0,0,0,0,0,0,0,0,0,0,0,0,0,0,0,0,0,0,0,0,0,0,0,0,0,0,0,0,0,0,0,0,0,0,0,0,0,0,0,0,0],"sum_hessian":[7.23E2,3.31E2,3.92E2,5.3E1,2.78E2,1.46E2,2.46E2,2.6E1,2.7E1,5E1,2.28E2,7.5E1,7.1E1,1.14E2,1.32E2,2.5E1,2.5E1,5.5E1,1.73E2,3.9E1,3.6E1,3.6E1,3.5E1,5.7E1,5.7E1,7.8E1,5.4E1,3E1,2.5E1,1.3E2,4.3E1,2.5E1,3.2E1,3.2E1,2.5E1,2.8E1,5E1,2.8E1,2.6E1,2.6E1,1.04E2,2.5E1,2.5E1,5.5E1,4.9E1],"tree_param":{"num_deleted":"0","num_feature":"30","num_nodes":"45","size_leaf_vector":"1"}},{"base_weights":[-1.151222E-3,-6.797533E-2,4.8969675E-2,-3.0714095E-2,-4.3682918E-2,7.6957E-2,-3.336068E-2,2.21293E-2,-6.658974E-2,1.7084925E-1,-1.0685073E-2,-1.4843202E-1,6.6459365E-2,2.558977E-1,4.9341697E-2,-2.5280898E-2,5.415499E-2,7.188023E-2,-2.603905E-1,2.7379924E-2,-4.497088E-2,3.634347E-1,9.726959E-3,-1.8043412E-2,2.2577435E-2,2.1441121E-1,-4.1898265E-2,1.9925067E-2,-6.31537E-3,1.6379515E-3,-3.6677322E-1,1.1903648E-2,-2.3570467E-2,4.536991E-2,2.7568135E-2,1.0095665E-3,3.9862864E-2,-4.1775312E-2,9.072505E-2,-6.5880165E-2,-2.0095006E-2,-2.2915346E-3,2.4909448E-2],"categories":[],"categories_nodes":[],"categories_segments":[],"categories_sizes":[],"default_left":[0,0,0,0,0,0,0,0,0,0,0,0,0,0,0,0,0,0,0,0,0,0,0,0,0,0,0,0,0,0,0,0,0,0,0,0,0,0,0,0,0,0,0],"id":30,"left_children":[1,3,5,7,-1,9,-1,-1,11,13,15,17,19,21,23,-1,25,27,29,-1,31,33,-1,-1,-1,35,37,-1,-1,-1,39,-1,-1,-1,-1,-1,-1,-1,41,-1,-1,-1,-1],"loss_changes":[2.3913684E0,4.192231E0,4.3942485E0,2.5371518E0,0E0,3.137041E0,0E0,0E0,2.67768E0,1.8888345E0,3.122158E0,3.7679217E0,2.184083E0,1.8069553E0,3.1623142E0,0E0,2.425705E0,9.069487E-1,2.979805E0,0E0,1.9675256E0,3.818674E-1,0E0,0E0,0E0,2.216646E0,4.9727654E0,0E0,0E0,0E0,3.402645E0,0E0,0E0,0E0,0E0,0E0,0E0,0E0,1.3374982E0,0E0,0E0,0E0,0E0],"parents":[2147483647,0,0,1,1,2,2,3,3,5,5,8,8,9,9,10,10,11,11,12,12,13,13,14,14,16,16,17,17,18,18,20,20,21,21,25,25,26,26,30,30,38,38],"right_children":[2,4,6,8,-1,10,-1,-1,12,14,16,18,20,22,24,-1,26,28,30,-1,32,34,-1,-1,-1,36,38,-1,-1,-1,40,-1,-1,-1,-1,-1,-1,-1,42,-1,-1,-1,-1],"split_conditions":[-1.09772E-1,1.532758E0,4.70625E3,-1.545849E0,-4.3682918E-2,-2.3868E-2,-3.336068E-2,2.21293E-2,2.86069E-1,2.25055E-1,-9.37556E-1,-8.71748E-1,-3.2579E-1,2.74678E-1,-2.6338E-1,-2.5280898E-2,-3.30915E-1,-1.94941E-1,1.2544E3,2.7379924E-2,1.24807E-1,-8.26678E-1,9.726959E-3,-1.8043412E-2,2.2577435E-2,-2.93002E-1,3.76178E-1,1.9925067E-2,-6.31537E-3,1.6379515E-3,-3.1227E-1,1.1903648E-2,-2.3570467E-2,4.536991E-2,2.7568135E-2,1.0095665E-3,3.9862864E-2,-4.1775312E-2,2.83283E-1,-6.5880165E-2,-2.0095006E-2,-2.2915346E-3,2.4909448E-2],"split_indices":[20,26,0,20,0,4,0,0,12,3,17,12,16,24,27,0,6,26,0,0,17,4,0,0,0,19,4,0,0,0,27,0,0,0,0,0,0,0,25,0,0,0,0],"split_type":[0,0,0,0,0,0,0,0,0,0,0,0,0,0,0,0,0,0,0,0,0,0,0,0,0,0,0,0,0,0,0,0,0,0,0,0,0,0,0,0,0,0,0],"sum_hessian":[7.12E2,3.05E2,4.07E2,2.78E2,2.7E1,3.8E2,2.7E1,3.4E1,2.44E2,1.83E2,1.97E2,1.51E2,9.3E1,1.07E2,7.6E1,4.1E1,1.56E2,5.1E1,1E2,3.2E1,6.1E1,6.3E1,4.4E1,3.3E1,4.3E1,5.8E1,9.8E1,2.6E1,2.5E1,2.8E1,7.2E1,3.3E1,2.8E1,2.9E1,3.4E1,2.8E1,3E1,2.5E1,7.3E1,2.5E1,4.7E1,4.3E1,3E1],"tree_param":{"num_deleted":"0","num_feature":"30","num_nodes":"43","size_leaf_vector":"1"}},{"base_weights":[-4.647901E-3,1.3049725E-1,-2.997997E-2,3.4985304E-2,3.289786E-2,-3.135174E-2,-1.7283652E-2,-9.707852E-3,1.720289E-2,-2.8763121E-2,-2.6126935E-3,-2.1149062E-2,1.7300749E-1,-8.388622E-4,-3.6494177E-2,2.7111268E-2,6.8494626E-3,4.687067E-2,-8.6711094E-2,1.7481066E-2,-4.487899E-3,-6.8126986E-4,-4.7494765E-2],"categories":[],"categories_nodes":[],"categories_segments":[],"categories_sizes":[],"default_left":[0,0,0,0,0,0,0,0,0,0,0,0,0,0,0,0,0,0,0,0,0,0,0],"id":31,"left_children":[1,3,5,-1,7,-1,9,-1,-1,-1,11,13,15,17,-1,-1,-1,19,21,-1,-1,-1,-1],"loss_changes":[2.4722605E0,2.4291153E0,2.1833096E0,0E0,1.4634E0,0E0,2.311577E0,0E0,0E0,0E0,1.8071287E0,3.5049083E0,5.2485263E-1,1.9501032E0,0E0,0E0,0E0,3.599811E0,5.270076E0,0E0,0E0,0E0,0E0],"parents":[2147483647,0,0,1,1,2,2,4,4,6,6,10,10,11,11,12,12,13,13,17,17,18,18],"right_children":[2,4,6,-1,8,-1,10,-1,-1,-1,12,14,16,18,-1,-1,-1,20,22,-1,-1,-1,-1],"split_conditions":[-9.60068E-1,-3.45017E-1,2.2284E2,3.4985304E-2,4.0558E-2,-3.135174E-2,-8.26547E-1,-9.707852E-3,1.720289E-2,-2.8763121E-2,1.274634E0,1.087904E0,-4.64794E-1,3.25182E3,-3.6494177E-2,2.7111268E-2,6.8494626E-3,-3.9083E-2,8.97531E-1,1.7481066E-2,-4.487899E-3,-6.8126986E-4,-4.7494765E-2],"split_indices":[12,25,0,0,5,0,12,0,0,0,10,10,5,0,0,0,0,6,9,0,0,0,0],"split_type":[0,0,0,0,0,0,0,0,0,0,0,0,0,0,0,0,0,0,0,0,0,0,0],"sum_hessian":[7.2E2,1.13E2,6.07E2,3.4E1,7.9E1,2.5E1,5.82E2,4.1E1,3.8E1,2.9E1,5.53E2,5.01E2,5.2E1,4.74E2,2.7E1,2.6E1,2.6E1,3.05E2,1.69E2,1.27E2,1.78E2,1.41E2,2.8E1],"tree_param":{"num_deleted":"0","num_feature":"30","num_nodes":"23","size_leaf_vector":"1"}},{"base_weights":[3.018763E-3,4.1043244E-2,-8.736975E-2,5.8488254E-2,-1.9787995E-2,-2.1944892E-2,-5.2353054E-2,-3.6437036E-3,1.2750934E-1,-1.6605079E-1,6.4948864E-2,4.3855216E-2,-3.436797E-2,1.8247496E-1,9.807774E-3,-3.8264345E-2,1.8023953E-2,1.7792657E-1,-1.0351709E-2,-5.1158097E-2,1.7377928E-1,2.8633812E-1,7.48931E-2,-1.7834233E-2,1.2412071E-2,2.9589374E-2,-1.380492E-3,-2.1872169E-1,6.857337E-2,5.462085E-3,2.8683484E-2,1.8450957E-2,3.3662954E-1,-5.7432908E-3,2.7310053E-2,-4.171719E-2,-1.954749E-3,-1.625765E-2,1.850699E-2,2.7433727E-2,3.8597453E-2],"categories":[],"categories_nodes":[],"categories_segments":[],"categories_sizes":[],"default_left":[0,0,0,0,0,0,0,0,0,0,0,0,0,0,0,0,0,0,0,0,0,0,0,0,0,0,0,0,0,0,0,0,0,0,0,0,0,0,0,0,0],"id":32,"left_children":[1,3,5,7,-1,9,-1,11,13,15,17,19,-1,21,23,-1,-1,25,-1,27,29,31,33,-1,-1,-1,-1,35,37,-1,-1,-1,39,-1,-1,-1,-1,-1,-1,-1,-1],"loss_changes":[2.4953938E0,2.1414304E0,6.1236987E0,2.0460386E0,0E0,2.3649025E0,0E0,4.085211E0,1.460326E0,5.394248E0,2.2643003E0,2.7493725E0,0E0,1.6993194E0,1.5922192E0,0E0,0E0,1.6099644E0,0E0,2.6030786E0,1.2506559E0,3.3733463E-1,2.035241E0,0E0,0E0,0E0,0E0,2.1262577E0,2.0766282E0,0E0,0E0,0E0,5.0876617E-2,0E0,0E0,0E0,0E0,0E0,0E0,0E0,0E0],"parents":[2147483647,0,0,1,1,2,2,3,3,5,5,7,7,8,8,9,9,10,10,11,11,13,13,14,14,17,17,19,19,20,20,21,21,22,22,27,27,28,28,32,32],"right_children":[2,4,6,8,-1,10,-1,12,14,16,18,20,-1,22,24,-1,-1,26,-1,28,30,32,34,-1,-1,-1,-1,36,38,-1,-1,-1,40,-1,-1,-1,-1,-1,-1,-1,-1],"split_conditions":[5.31775E-1,1.485334E0,9.9933E-1,2.9638E-2,-1.9787995E-2,-2.43873E-1,-5.2353054E-2,1.176673E0,2.25602E-1,3.13766E-1,2.54955E-1,-2.94424E-1,-3.436797E-2,8.1158E-2,6.05019E-1,-3.8264345E-2,1.8023953E-2,3.72234E-1,-1.0351709E-2,-7.6521E-2,1.43631E-1,-4.91263E-1,1.96068E-1,-1.7834233E-2,1.2412071E-2,2.9589374E-2,-1.380492E-3,-1.3196E-2,-4.23775E-1,5.462085E-3,2.8683484E-2,1.8450957E-2,-6.06144E-1,-5.7432908E-3,2.7310053E-2,-4.171719E-2,-1.954749E-3,-1.625765E-2,1.850699E-2,2.7433727E-2,3.8597453E-2],"split_indices":[9,19,2,22,0,14,0,16,11,2,25,9,0,12,11,0,0,21,0,23,18,10,19,0,0,0,0,11,3,0,0,0,12,0,0,0,0,0,0,0,0],"split_type":[0,0,0,0,0,0,0,0,0,0,0,0,0,0,0,0,0,0,0,0,0,0,0,0,0,0,0,0,0,0,0,0,0,0,0,0,0,0,0,0,0],"sum_hessian":[7.24E2,5.1E2,2.14E2,4.76E2,3.4E1,1.87E2,2.7E1,2.51E2,2.25E2,7E1,1.17E2,2.21E2,3E1,1.53E2,7.2E1,4.3E1,2.7E1,7E1,4.7E1,1.28E2,9.3E1,7.7E1,7.6E1,2.7E1,4.5E1,4.3E1,2.7E1,5.3E1,7.5E1,4.6E1,4.7E1,2.7E1,5E1,4.6E1,3E1,2.6E1,2.7E1,2.5E1,5E1,2.5E1,2.5E1],"tree_param":{"num_deleted":"0","num_feature":"30","num_nodes":"41","size_leaf_vector":"1"}},{"base_weights":[-7.902125E-3,1.4401972E-1,-2.9592702E-2,3.058067E-2,5.3829826E-2,2.2095982E-2,-4.559844E-2,1.499397E-2,-3.1948492E-3,2.0837955E-2,-6.2387645E-2,-2.8723118E-1,-3.6682118E-2,-6.6148385E-2,2.5825107E-3,-1.6077027E-2,-3.1056488E-2,2.017392E-2,-3.4191165E-2,-5.333057E-3,2.0671802E-2],"categories":[],"categories_nodes":[],"categories_segments":[],"categories_sizes":[],"default_left":[0,0,0,0,0,0,0,0,0,0,0,0,0,0,0,0,0,0,0,0,0],"id":33,"left_children":[1,3,5,-1,7,-1,9,-1,-1,-1,11,13,15,-1,-1,17,-1,-1,19,-1,-1],"loss_changes":[2.3735628E0,1.2967781E0,2.5365505E0,0E0,4.9119484E-1,0E0,2.5416045E0,0E0,0E0,0E0,3.2087684E0,6.6953263E0,2.82234E0,0E0,0E0,1.8494709E0,0E0,0E0,2.0029154E0,0E0,0E0],"parents":[2147483647,0,0,1,1,2,2,4,4,6,6,10,10,11,11,12,12,15,15,18,18],"right_children":[2,4,6,-1,8,-1,10,-1,-1,-1,12,14,16,-1,-1,18,-1,-1,20,-1,-1],"split_conditions":[-1.142868E0,-2.88829E-1,-1.545849E0,3.058067E-2,2.3396E-1,2.2095982E-2,-1.548457E0,1.499397E-2,-3.1948492E-3,2.0837955E-2,5.7222E2,-5.7616E-2,1.450519E0,-6.6148385E-2,2.5825107E-3,-1.328485E0,-3.1056488E-2,2.017392E-2,1.131691E0,-5.333057E-3,2.0671802E-2],"split_indices":[21,16,20,0,6,0,3,0,0,0,0,25,25,0,0,25,0,0,25,0,0],"split_type":[0,0,0,0,0,0,0,0,0,0,0,0,0,0,0,0,0,0,0,0,0],"sum_hessian":[7.18E2,8.9E1,6.29E2,3.1E1,5.8E1,3.7E1,5.92E2,2.7E1,3.1E1,3.6E1,5.56E2,5.6E1,5E2,2.5E1,3.1E1,4.66E2,3.4E1,3.5E1,4.31E2,4E2,3.1E1],"tree_param":{"num_deleted":"0","num_feature":"30","num_nodes":"21","size_leaf_vector":"1"}},{"base_weights":[1.3682666E-2,-8.0228E-2,4.2802524E-2,-4.543354E-2,-6.9277594E-3,5.668856E-3,1.6423461E-1,-3.2155946E-2,1.0487535E-1,-1.2794688E-1,4.9076255E-2,-7.3382217E-3,2.838963E-1,-5.1056758E-2,2.4255362E-1,5.589982E-3,-2.8385637E-2,9.7420834E-2,-1.496853E-1,1.6924901E-2,3.6305737E-2,-2.0763768E-2,1.0748788E-2,3.922058E-2,1.0438713E-2,1.1067909E-2,-1.2396546E-2,-9.087364E-3,1.3445435E-1,2.3042576E-3,-3.4045402E-2,1.7025359E-1,-9.317602E-3,6.0821613E-3,2.5150348E-2],"categories":[],"categories_nodes":[],"categories_segments":[],"categories_sizes":[],"default_left":[0,0,0,0,0,0,0,0,0,0,0,0,0,0,0,0,0,0,0,0,0,0,0,0,0,0,0,0,0,0,0,0,0,0,0],"id":34,"left_children":[1,3,5,-1,7,9,11,-1,13,15,17,-1,19,21,23,25,-1,27,29,-1,-1,-1,-1,-1,-1,-1,-1,-1,31,-1,-1,33,-1,-1,-1],"loss_changes":[1.9751276E0,4.6860423E0,2.4836483E0,0E0,5.099183E0,2.459642E0,3.6887715E0,0E0,2.3095098E0,2.1668315E0,3.089476E0,0E0,7.190547E-1,1.2883968E0,1.1376426E0,7.897677E-1,0E0,1.811306E0,2.0837626E0,0E0,0E0,0E0,0E0,0E0,0E0,0E0,0E0,0E0,1.776046E0,0E0,0E0,1.6473827E0,0E0,0E0,0E0],"parents":[2147483647,0,0,1,1,2,2,4,4,5,5,6,6,8,8,9,9,10,10,12,12,13,13,14,14,15,15,17,17,18,18,28,28,31,31],"right_children":[2,4,6,-1,8,10,12,-1,14,16,18,-1,20,22,24,26,-1,28,30,-1,-1,-1,-1,-1,-1,-1,-1,-1,32,-1,-1,34,-1,-1,-1],"split_conditions":[-7.5906E-1,8.0284E2,7.5152E-1,-4.543354E-2,-5.89647E-1,-6.24338E-1,-4.68028E-1,-3.2155946E-2,-2.6899E-2,4.44115E-1,1.121414E0,-7.3382217E-3,1.106864E0,-8.8145E-2,-1.193658E0,1.53949E-1,-2.8385637E-2,-1.192413E0,3.64E-4,1.6924901E-2,3.6305737E-2,-2.0763768E-2,1.0748788E-2,3.922058E-2,1.0438713E-2,1.1067909E-2,-1.2396546E-2,-9.087364E-3,1.12702E0,2.3042576E-3,-3.4045402E-2,-1.5571E-1,-9.317602E-3,6.0821613E-3,2.5150348E-2],"split_indices":[25,0,5,0,19,8,23,0,24,25,8,0,5,11,25,12,0,5,24,0,0,0,0,0,0,0,0,0,14,0,0,20,0,0,0],"split_type":[0,0,0,0,0,0,0,0,0,0,0,0,0,0,0,0,0,0,0,0,0,0,0,0,0,0,0,0,0,0,0,0,0,0,0],"sum_hessian":[7.2E2,1.7E2,5.5E2,2.7E1,1.43E2,4.22E2,1.28E2,3.7E1,1.06E2,1.03E2,3.19E2,4.3E1,8.5E1,5E1,5.6E1,5.6E1,4.7E1,2.57E2,6.2E1,3.6E1,4.9E1,2.5E1,2.5E1,2.6E1,3E1,3.1E1,2.5E1,4.2E1,2.15E2,3.3E1,2.9E1,1.86E2,2.9E1,8E1,1.06E2],"tree_param":{"num_deleted":"0","num_feature":"30","num_nodes":"35","size_leaf_vector":"1"}},{"base_weights":[4.932821E-4,-2.9051816E-2,1.2670538E-2,-7.478479E-4,3.313839E-2,1.1358423E-2,-2.1933114E-2,-1.3414534E-2,1.18265495E-1,3.240648E-3,-2.163492E-2,-1.2078853E-2,2.3829302E-1,-2.7236583E-2,1.3607126E-1,1.3351502E-2,-1.52416965E-2,1.1648863E-2,3.289282E-2,6.127727E-4,-2.251487E-2,-5.5830735E-3,2.801518E-2],"categories":[],"categories_nodes":[],"categories_segments":[],"categories_sizes":[],"default_left":[0,0,0,0,0,0,0,0,0,0,0,0,0,0,0,0,0,0,0,0,0,0,0],"id":35,"left_children":[1,-1,3,5,-1,7,-1,9,11,13,-1,15,17,19,21,-1,-1,-1,-1,-1,-1,-1,-1],"loss_changes":[2.5587037E0,0E0,2.963945E0,1.7648793E0,0E0,1.675378E0,0E0,1.7379768E0,1.8646227E0,1.9307015E0,0E0,1.2054274E0,6.461489E-1,2.5634217E0,2.4764323E0,0E0,0E0,0E0,0E0,0E0,0E0,0E0,0E0],"parents":[2147483647,0,0,2,2,3,3,5,5,7,7,8,8,9,9,11,11,12,12,13,13,14,14],"right_children":[2,-1,4,6,-1,8,-1,10,12,14,-1,16,18,20,22,-1,-1,-1,-1,-1,-1,-1,-1],"split_conditions":[2.2284E2,-2.9051816E-2,1.560017E0,1.660891E0,3.313839E-2,7.50568E-1,-2.1933114E-2,5.68125E-1,-1.5991E-1,9.12483E-1,-2.163492E-2,1.46846E-1,-2.72243E-1,5.19546E-1,-1.38383E-1,1.3351502E-2,-1.52416965E-2,1.1648863E-2,3.289282E-2,6.127727E-4,-2.251487E-2,-5.5830735E-3,2.801518E-2],"split_indices":[0,0,24,28,0,28,0,28,9,2,0,24,15,2,7,0,0,0,0,0,0,0,0],"split_type":[0,0,0,0,0,0,0,0,0,0,0,0,0,0,0,0,0,0,0,0,0,0,0],"sum_hessian":[7.2E2,2.8E1,6.92E2,6.65E2,2.7E1,6.31E2,3.4E1,5.13E2,1.18E2,4.75E2,3.8E1,5.7E1,6.1E1,3.87E2,8.8E1,2.8E1,2.9E1,2.7E1,3.4E1,3.32E2,5.5E1,3.8E1,5E1],"tree_param":{"num_deleted":"0","num_feature":"30","num_nodes":"23","size_leaf_vector":"1"}},{"base_weights":[1.0360665E-2,-1.3570611E-2,1.8243673E-1,1.1417659E-2,-2.4948359E-1,1.0339894E-1,3.218792E-2,2.1757798E-1,-1.2501548E-2,-5.7606127E-2,5.4273806E-3,2.4000505E-2,-3.6772639E-3,6.371636E-3,3.368715E-2,-3.6843184E-2,2.3330327E-2,-6.7704305E-2,1.1674778E-1,-6.6050724E-3,-1.9128317E-1,2.4197185E-2,-9.167645E-3,1.282758E-2,-6.726477E-3,-1.8288159E-4,-5.1775068E-2],"categories":[],"categories_nodes":[],"categories_segments":[],"categories_sizes":[],"default_left":[0,0,0,0,0,0,0,0,0,0,0,0,0,0,0,0,0,0,0,0,0,0,0,0,0,0,0],"id":36,"left_children":[1,3,5,7,9,11,-1,13,15,-1,-1,-1,-1,-1,-1,17,-1,19,21,23,25,-1,-1,-1,-1,-1,-1],"loss_changes":[2.9344916E0,3.6931543E0,9.2556477E-1,2.7987056E0,5.983288E0,1.1002784E0,0E0,1.0614629E0,3.054091E0,0E0,0E0,0E0,0E0,0E0,0E0,2.2072594E0,0E0,2.9208088E0,2.0579622E0,2.1359048E0,7.9159427E0,0E0,0E0,0E0,0E0,0E0,0E0],"parents":[2147483647,0,0,1,1,2,2,3,3,4,4,5,5,7,7,8,8,15,15,17,17,18,18,19,19,20,20],"right_children":[2,4,6,8,10,12,-1,14,16,-1,-1,-1,-1,-1,-1,18,-1,20,22,24,26,-1,-1,-1,-1,-1,-1],"split_conditions":[1.087473E0,8.22887E-1,4.41801E-1,-1.24231E0,-1.8922E-1,7.6396E-2,3.218792E-2,-1.29957E-1,1.321304E0,-5.7606127E-2,5.4273806E-3,2.4000505E-2,-3.6772639E-3,6.371636E-3,3.368715E-2,3.87644E-1,2.3330327E-2,-9.309E-2,6.50978E-1,-4.55946E-1,1.0776E-1,2.4197185E-2,-9.167645E-3,1.282758E-2,-6.726477E-3,-1.8288159E-4,-5.1775068E-2],"split_indices":[24,24,6,6,19,28,0,28,13,0,0,0,0,0,0,24,0,24,24,26,13,0,0,0,0,0,0],"split_type":[0,0,0,0,0,0,0,0,0,0,0,0,0,0,0,0,0,0,0,0,0,0,0,0,0,0,0],"sum_hessian":[7.11E2,6.25E2,8.6E1,5.66E2,5.9E1,5.6E1,3E1,5.8E1,5.08E2,2.8E1,3.1E1,2.8E1,2.8E1,2.6E1,3.2E1,4.63E2,4.5E1,3.86E2,7.7E1,2.59E2,1.27E2,4.8E1,2.9E1,8E1,1.79E2,8.1E1,4.6E1],"tree_param":{"num_deleted":"0","num_feature":"30","num_nodes":"27","size_leaf_vector":"1"}},{"base_weights":[1.0711982E-2,-2.3698179E-2,2.3790196E-2,1.968847E-1,4.2676637E-3,3.249219E-2,8.388273E-3,-3.4789387E-2,2.0458624E-2,-1.1810019E-3,1.7284147E-1,2.6549654E-2,-3.6014866E-2,2.72537E-2,1.0475234E-2,-5.5428785E-3,1.5137412E-1,1.6715011E-3,-2.495109E-2,2.7402615E-2,-1.10158995E-2],"categories":[],"categories_nodes":[],"categories_segments":[],"categories_sizes":[],"default_left":[0,0,0,0,0,0,0,0,0,0,0,0,0,0,0,0,0,0,0,0,0],"id":37,"left_children":[1,-1,3,5,7,-1,-1,-1,9,11,13,15,-1,-1,-1,17,19,-1,-1,-1,-1],"loss_changes":[2.3250425E0,0E0,2.300424E0,9.7106814E-1,3.502341E0,0E0,0E0,0E0,1.9358412E0,5.136082E0,4.6698856E-1,1.9196811E0,0E0,0E0,0E0,2.078512E0,3.1737874E0,0E0,0E0,0E0,0E0],"parents":[2147483647,0,0,2,2,3,3,4,4,8,8,9,9,10,10,11,11,15,15,16,16],"right_children":[2,-1,4,6,8,-1,-1,-1,10,12,14,16,-1,-1,-1,18,20,-1,-1,-1,-1],"split_conditions":[-1.644971E0,-2.3698179E-2,-1.129674E0,-6.9825E-2,-9.61315E-1,3.249219E-2,8.388273E-3,-3.4789387E-2,1.087473E0,8.96857E-1,-2.8756E-1,8.45684E-1,-3.6014866E-2,2.72537E-2,1.0475234E-2,1.520686E0,1.579136E0,1.6715011E-3,-2.495109E-2,2.7402615E-2,-1.10158995E-2],"split_indices":[11,0,11,7,11,0,0,0,24,24,13,11,0,0,0,5,11,0,0,0,0],"split_type":[0,0,0,0,0,0,0,0,0,0,0,0,0,0,0,0,0,0,0,0,0],"sum_hessian":[7.15E2,3.5E1,6.8E2,6.8E1,6.12E2,3.1E1,3.7E1,2.6E1,5.86E2,5.14E2,7.2E1,4.78E2,3.6E1,2.8E1,4.4E1,3.81E2,9.7E1,3.5E2,3.1E1,6.6E1,3.1E1],"tree_param":{"num_deleted":"0","num_feature":"30","num_nodes":"21","size_leaf_vector":"1"}},{"base_weights":[3.3044927E-3,1.485487E-2,-2.8557295E-2,2.6540058E-2,-2.3817515E-2,2.3980366E-2,1.26188705E-2,2.4095345E-2,-2.445815E-2,-8.104036E-3,1.2160616E-1,4.902405E-2,-1.08808085E-1,3.375965E-2,7.359532E-2,-1.9882887E-3,1.4198648E-2,-3.3214543E-2,-1.7036898E-3,2.3474611E-2,5.0024304E-4],"categories":[],"categories_nodes":[],"categories_segments":[],"categories_sizes":[],"default_left":[0,0,0,0,0,0,0,0,0,0,0,0,0,0,0,0,0,0,0,0,0],"id":38,"left_children":[1,3,-1,5,-1,-1,7,9,-1,11,13,15,17,-1,19,-1,-1,-1,-1,-1,-1],"loss_changes":[2.429982E0,2.0760133E0,0E0,1.9861252E0,0E0,0E0,1.865498E0,1.8974174E0,0E0,2.6229627E0,1.5306361E0,1.8668983E0,3.3761702E0,0E0,1.3694966E0,0E0,0E0,0E0,0E0,0E0,0E0],"parents":[2147483647,0,0,1,1,3,3,6,6,7,7,9,9,10,10,11,11,12,12,14,14],"right_children":[2,4,-1,6,-1,-1,8,10,-1,12,14,16,18,-1,20,-1,-1,-1,-1,-1,-1],"split_conditions":[1.829061E0,1.789373E0,-2.8557295E-2,-1.545849E0,-2.3817515E-2,2.3980366E-2,1.676068E0,7.27192E-1,-2.445815E-2,3.22702E-1,-1.174685E0,5.1666E-2,-7.68397E-1,3.375965E-2,-5.11651E-1,-1.9882887E-3,1.4198648E-2,-3.3214543E-2,-1.7036898E-3,2.3474611E-2,5.0024304E-4],"split_indices":[5,26,0,20,0,0,21,10,0,7,11,13,26,0,8,0,0,0,0,0,0],"split_type":[0,0,0,0,0,0,0,0,0,0,0,0,0,0,0,0,0,0,0,0,0],"sum_hessian":[7.26E2,6.99E2,2.7E1,6.69E2,3E1,4E1,6.29E2,6.03E2,2.6E1,4.54E2,1.49E2,2.9E2,1.64E2,2.6E1,1.23E2,1.67E2,1.23E2,4.7E1,1.17E2,3.6E1,8.7E1],"tree_param":{"num_deleted":"0","num_feature":"30","num_nodes":"21","size_leaf_vector":"1"}},{"base_weights":[7.5314464E-3,6.7177996E-2,-4.5889106E-2,-4.44648E-2,1.21736504E-1,-3.237682E-2,-1.4251976E-2,3.6350105E-2,-3.0322155E-2,1.976615E-1,6.284921E-2,-3.1163452E-2,2.7016401E-2,-6.676976E-2,2.4489222E-2,2.7123612E-1,7.0480923E-3,-4.55224E-3,2.6314903E-2,5.41168E-2,-2.637885E-2,-2.2101382E-2,1.1189381E-2,1.7442444E-2,3.3033792E-2,1.3888878E-2,-8.8723116E-2,2.1201639E-2,2.8970791E-2,-2.167066E-2,1.017421E-2,-1.3878728E-2,2.2524817E-2,7.2589256E-3,-1.2997592E-2],"categories":[],"categories_nodes":[],"categories_segments":[],"categories_sizes":[],"default_left":[0,0,0,0,0,0,0,0,0,0,0,0,0,0,0,0,0,0,0,0,0,0,0,0,0,0,0,0,0,0,0,0,0,0,0],"id":39,"left_children":[1,3,5,7,9,-1,11,13,-1,15,17,-1,19,21,-1,23,-1,25,-1,27,-1,-1,-1,-1,-1,-1,29,31,-1,-1,-1,33,-1,-1,-1],"loss_changes":[2.3068151E0,2.088557E0,3.3536606E0,2.3740103E0,1.0159118E0,0E0,4.230158E0,1.8872721E0,0E0,9.166093E-1,1.769763E0,0E0,2.4021966E0,1.6506398E0,0E0,3.0285072E-1,0E0,1.2076046E0,0E0,2.1496143E0,0E0,0E0,0E0,0E0,0E0,0E0,1.5577619E0,1.7568427E0,0E0,0E0,0E0,2.11756E0,0E0,0E0,0E0],"parents":[2147483647,0,0,1,1,2,2,3,3,4,4,6,6,7,7,9,9,10,10,12,12,13,13,15,15,17,17,19,19,26,26,27,27,31,31],"right_children":[2,4,6,8,10,-1,12,14,-1,16,18,-1,20,22,-1,24,-1,26,-1,28,-1,-1,-1,-1,-1,-1,30,32,-1,-1,-1,34,-1,-1,-1],"split_conditions":[-1.25573E-1,-3.80977E-1,-2.0241E-2,9.0896E-1,-2.6922E-1,-3.237682E-2,-1.154825E0,4.054E-1,-3.0322155E-2,6.14185E-1,7.92497E-1,-3.1163452E-2,1.406095E0,-9.6385E-2,2.4489222E-2,-9.38614E-1,7.0480923E-3,-3.33991E-1,2.6314903E-2,1.214839E0,-2.637885E-2,-2.2101382E-2,1.1189381E-2,1.7442444E-2,3.3033792E-2,1.3888878E-2,1.6172E-2,8.84981E-1,2.8970791E-2,-2.167066E-2,1.017421E-2,1.29168E-1,2.2524817E-2,7.2589256E-3,-1.2997592E-2],"split_indices":[13,26,13,3,27,0,25,25,0,26,24,0,21,11,0,27,0,25,0,23,0,0,0,0,0,0,4,21,0,0,0,11,0,0,0],"split_type":[0,0,0,0,0,0,0,0,0,0,0,0,0,0,0,0,0,0,0,0,0,0,0,0,0,0,0,0,0,0,0,0,0,0,0],"sum_hessian":[7.22E2,3.41E2,3.81E2,1.12E2,2.29E2,3.8E1,3.43E2,8.6E1,2.6E1,9.9E1,1.3E2,4.1E1,3.02E2,5.8E1,2.8E1,6.2E1,3.7E1,9.8E1,3.2E1,2.77E2,2.5E1,3.1E1,2.7E1,2.5E1,3.7E1,3.6E1,6.2E1,2.44E2,3.3E1,3.7E1,2.5E1,2.09E2,3.5E1,1.2E2,8.9E1],"tree_param":{"num_deleted":"0","num_feature":"30","num_nodes":"35","size_leaf_vector":"1"}},{"base_weights":[1.1513555E-2,2.3976203E-2,-2.3557583E-2,3.418069E-2,-2.2900043E-2,1.43079E-1,1.1947016E-2,3.0426953E-2,4.7063977E-2,7.481848E-2,-5.469441E-2,-1.002042E-2,1.6738363E-2,1.2480026E-1,-3.5417397E-2,-1.6155401E-1,2.44309E-2,-6.186713E-3,1.5609348E-1,8.568457E-3,-1.822389E-2,8.410445E-3,-2.614422E-1,-5.9917353E-2,2.879312E-2,2.9652246E-4,1.9899333E-2,-9.113163E-3,-5.3869087E-2,-3.5933655E-2,4.5047957E-3],"categories":[],"categories_nodes":[],"categories_segments":[],"categories_sizes":[],"default_left":[0,0,0,0,0,0,0,0,0,0,0,0,0,0,0,0,0,0,0,0,0,0,0,0,0,0,0,0,0,0,0],"id":40,"left_children":[1,3,-1,5,-1,7,9,-1,11,13,15,-1,-1,17,19,21,23,-1,25,-1,-1,-1,27,29,-1,-1,-1,-1,-1,-1,-1],"loss_changes":[2.244363E0,1.7968048E0,0E0,1.6132371E0,0E0,1.7345486E0,2.3294556E0,0E0,1.2925589E0,1.5802187E0,2.2868776E0,0E0,0E0,1.1604171E0,1.6158485E0,2.8439026E0,3.4844754E0,0E0,1.1096015E0,0E0,0E0,0E0,3.822816E0,3.7561944E0,0E0,0E0,0E0,0E0,0E0,0E0,0E0],"parents":[2147483647,0,0,1,1,3,3,5,5,6,6,8,8,9,9,10,10,13,13,14,14,15,15,16,16,18,18,22,22,23,23],"right_children":[2,4,-1,6,-1,8,10,-1,12,14,16,-1,-1,18,20,22,24,-1,26,-1,-1,-1,28,30,-1,-1,-1,-1,-1,-1,-1],"split_conditions":[1.789373E0,1.829061E0,-2.3557583E-2,-9.26266E-1,-2.2900043E-2,-3.3413E-1,-2.2052E-2,3.0426953E-2,-1.79799E-1,5.37766E-1,-1.48956E-1,-1.002042E-2,1.6738363E-2,-5.42917E-1,6.9516E-2,-1.142868E0,5.32953E-1,-6.186713E-3,-8.62791E-1,8.568457E-3,-1.822389E-2,8.410445E-3,1.58523E-1,-7.19859E-1,2.879312E-2,2.9652246E-4,1.9899333E-2,-9.113163E-3,-5.3869087E-2,-3.5933655E-2,4.5047957E-3],"split_indices":[26,5,0,23,0,21,7,0,2,27,21,0,0,23,4,21,11,0,4,0,0,0,28,18,0,0,0,0,0,0,0],"split_type":[0,0,0,0,0,0,0,0,0,0,0,0,0,0,0,0,0,0,0,0,0,0,0,0,0,0,0,0,0,0,0],"sum_hessian":[7.26E2,6.92E2,3.4E1,6.66E2,2.6E1,1.12E2,5.54E2,4.1E1,7.1E1,2.85E2,2.69E2,3.2E1,3.9E1,1.96E2,8.9E1,1.14E2,1.55E2,2.8E1,1.68E2,4.9E1,4E1,3.3E1,8.1E1,1.18E2,3.7E1,3.7E1,1.31E2,5.1E1,3E1,3E1,8.8E1],"tree_param":{"num_deleted":"0","num_feature":"30","num_nodes":"31","size_leaf_vector":"1"}},{"base_weights":[-5.602849E-3,-3.8735673E-2,8.28898E-2,2.6440477E-2,-1.714601E-1,3.644566E-2,2.934563E-2,2.6173672E-2,-5.948218E-4,-5.963853E-2,-9.0457655E-2,2.1382995E-2,-1.2956498E-2,-9.232494E-2,7.2792575E-2,4.3033296E-3,-2.3109151E-1,7.6734744E-2,-2.1668015E-2,-2.5489575E-1,3.7265893E-2,1.3825177E-1,-1.2665726E-2,1.8214986E-2,-1.3526852E-1,-3.739907E-2,-1.1081594E-2,-5.6779436E-3,1.6119501E-1,-2.2975407E-3,-4.7206413E-2,1.8638106E-2,-1.5430531E-2,1.8251196E-2,2.100374E-1,1.4126536E-3,-2.7946098E-2,2.3376545E-2,8.027583E-3,1.6549451E-2,-1.353573E-2,1.10551175E-2,2.8442154E-2],"categories":[],"categories_nodes":[],"categories_segments":[],"categories_sizes":[],"default_left":[0,0,0,0,0,0,0,0,0,0,0,0,0,0,0,0,0,0,0,0,0,0,0,0,0,0,0,0,0,0,0,0,0,0,0,0,0,0,0,0,0,0,0],"id":41,"left_children":[1,3,5,7,9,11,-1,-1,13,-1,15,-1,17,19,21,23,25,27,-1,29,31,33,-1,-1,35,-1,-1,-1,37,-1,-1,-1,-1,39,41,-1,-1,-1,-1,-1,-1,-1,-1],"loss_changes":[2.152375E0,4.6238832E0,1.9452207E0,2.2838638E0,6.0039706E0,1.4486929E0,0E0,0E0,2.1811032E0,0E0,1.9866583E0,0E0,2.3920164E0,3.0432458E0,2.3675592E0,2.2586524E0,9.8979306E-1,1.035327E0,0E0,3.212563E0,2.3426194E0,1.1677134E0,0E0,0E0,1.1025712E0,0E0,0E0,0E0,3.100853E-1,0E0,0E0,0E0,0E0,1.1985277E0,5.975735E-1,0E0,0E0,0E0,0E0,0E0,0E0,0E0,0E0],"parents":[2147483647,0,0,1,1,2,2,3,3,4,4,5,5,8,8,10,10,12,12,13,13,14,14,15,15,16,16,17,17,19,19,20,20,21,21,24,24,28,28,33,33,34,34],"right_children":[2,4,6,8,10,12,-1,-1,14,-1,16,-1,18,20,22,24,26,28,-1,30,32,34,-1,-1,36,-1,-1,-1,38,-1,-1,-1,-1,40,42,-1,-1,-1,-1,-1,-1,-1,-1],"split_conditions":[6.19425E-1,2.3324E-2,1.125771E0,-1.363356E0,8.6959E2,-6.82541E-1,2.934563E-2,2.6173672E-2,-2.67909E-1,-5.963853E-2,3.24083E-1,2.1382995E-2,4.33116E-1,-1.434E-2,6.88503E-1,-2.58894E-1,-1.3196E-2,1.81524E-1,-2.1668015E-2,-2.7165E-2,2.05131E-1,-4.78218E-1,-1.2665726E-2,1.8214986E-2,-7.5735E-2,-3.739907E-2,-1.1081594E-2,-5.6779436E-3,-3.93609E-1,-2.2975407E-3,-4.7206413E-2,1.8638106E-2,-1.5430531E-2,-2.23443E-1,-8.0782E-2,1.4126536E-3,-2.7946098E-2,2.3376545E-2,8.027583E-3,1.6549451E-2,-1.353573E-2,1.10551175E-2,2.8442154E-2],"split_indices":[14,14,7,4,0,11,0,0,11,0,19,0,2,4,18,11,11,11,0,5,18,18,0,0,5,0,0,0,2,0,0,0,0,3,7,0,0,0,0,0,0,0,0],"split_type":[0,0,0,0,0,0,0,0,0,0,0,0,0,0,0,0,0,0,0,0,0,0,0,0,0,0,0,0,0,0,0,0,0,0,0,0,0,0,0,0,0,0,0],"sum_hessian":[7.32E2,5.33E2,1.99E2,3.58E2,1.75E2,1.64E2,3.5E1,3.6E1,3.22E2,2.7E1,1.48E2,3.5E1,1.29E2,1.43E2,1.79E2,8.9E1,5.9E1,9E1,3.9E1,6.3E1,8E1,1.35E2,4.4E1,3.9E1,5E1,2.6E1,3.3E1,3.5E1,5.5E1,3.1E1,3.2E1,4.5E1,3.5E1,5.1E1,8.4E1,2.5E1,2.5E1,2.8E1,2.7E1,2.6E1,2.5E1,3.7E1,4.7E1],"tree_param":{"num_deleted":"0","num_feature":"30","num_nodes":"43","size_leaf_vector":"1"}},{"base_weights":[-1.1529671E-2,-2.2786286E-2,1.9494753E-2,1.9039487E-2,-3.402277E-2,-9.614764E-4,-1.15545854E-1,-8.384895E-2,4.771728E-2,1.2309057E-1,-2.257846E-1,-3.2100786E-2,-3.2567743E-2,-3.4295376E-2,1.03199385E-1,-5.777509E-3,2.502966E-2,-7.4847646E-2,-6.983814E-2,-1.5023153E-1,7.042847E-2,5.4589994E-2,-1.85626E-2,1.420466E-2,2.0040296E-1,5.747138E-2,-3.772967E-2,3.3777454E-3,-2.6494607E-2,2.1770306E-2,-2.117697E-3,-1.2812938E-2,1.8051239E-2,-1.8764338E-2,1.955838E-2,2.9238446E-2,8.441498E-3,-1.55673E-2,1.7172728E-2],"categories":[],"categories_nodes":[],"categories_segments":[],"categories_sizes":[],"default_left":[0,0,0,0,0,0,0,0,0,0,0,0,0,0,0,0,0,0,0,0,0,0,0,0,0,0,0,0,0,0,0,0,0,0,0,0,0,0,0],"id":42,"left_children":[1,3,-1,-1,5,7,9,11,13,15,17,-1,19,21,23,-1,-1,-1,25,27,29,31,-1,33,35,37,-1,-1,-1,-1,-1,-1,-1,-1,-1,-1,-1,-1,-1],"loss_changes":[1.7081058E0,1.6736814E0,0E0,0E0,1.7841501E0,1.9084547E0,5.0524254E0,2.1178598E0,1.359509E0,1.4179001E0,1.0625794E1,0E0,1.7678244E0,1.6377138E0,1.5369613E0,0E0,0E0,0E0,4.0142083E0,1.4443274E0,1.0569203E0,1.7947803E0,0E0,3.478136E0,8.8216186E-1,1.8045022E0,0E0,0E0,0E0,0E0,0E0,0E0,0E0,0E0,0E0,0E0,0E0,0E0,0E0],"parents":[2147483647,0,0,1,1,4,4,5,5,6,6,7,7,8,8,9,9,10,10,12,12,13,13,14,14,18,18,19,19,20,20,21,21,23,23,24,24,25,25],"right_children":[2,4,-1,-1,6,8,10,12,14,16,18,-1,20,22,24,-1,-1,-1,26,28,30,32,-1,34,36,38,-1,-1,-1,-1,-1,-1,-1,-1,-1,-1,-1,-1,-1],"split_conditions":[1.504791E0,-1.581817E0,1.9494753E-2,1.9039487E-2,5.31775E-1,-3.4515E-1,-6.08973E-1,-1.079418E0,-3.10972E-1,2.1203E3,-2.86052E-1,-3.2100786E-2,-3.88779E-1,3.17948E-1,1.51232E-1,-5.777509E-3,2.502966E-2,-7.4847646E-2,3.40098E3,-1.91175E-1,1.7843E3,-1.5571E-1,-1.85626E-2,2.8073E-2,1.34589E-1,-7.11461E-1,-3.772967E-2,3.3777454E-3,-2.6494607E-2,2.1770306E-2,-2.117697E-3,-1.2812938E-2,1.8051239E-2,-1.8764338E-2,1.955838E-2,2.9238446E-2,8.441498E-3,-1.55673E-2,1.7172728E-2],"split_indices":[20,5,0,0,9,8,21,22,19,0,21,0,9,5,5,0,0,0,0,22,0,20,0,25,6,7,0,0,0,0,0,0,0,0,0,0,0,0,0],"split_type":[0,0,0,0,0,0,0,0,0,0,0,0,0,0,0,0,0,0,0,0,0,0,0,0,0,0,0,0,0,0,0,0,0,0,0,0,0,0,0],"sum_hessian":[7.32E2,6.95E2,3.7E1,3.4E1,6.61E2,4.71E2,1.9E2,1.74E2,2.97E2,6E1,1.3E2,3E1,1.44E2,1.2E2,1.77E2,2.5E1,3.5E1,2.9E1,1.01E2,6.7E1,7.7E1,7.6E1,4.4E1,9.3E1,8.4E1,7.2E1,2.9E1,2.6E1,4.1E1,2.9E1,4.8E1,3.1E1,4.5E1,4.4E1,4.9E1,4.6E1,3.8E1,2.5E1,4.7E1],"tree_param":{"num_deleted":"0","num_feature":"30","num_nodes":"39","size_leaf_vector":"1"}},{"base_weights":[6.4976406E-3,-2.4327433E-2,1.892187E-2,-2.3427086E-2,3.0912763E-2,1.5811972E-1,-4.0268805E-4,-6.3384493E-4,2.0587598E-1,-5.1767614E-2,5.5448074E-2,2.5511184E-1,9.327755E-3,1.3878064E-2,-9.0820245E-2,1.6128622E-1,-4.0461894E-2,3.425254E-2,1.6040936E-2,1.538011E-2,-1.2306755E-1,3.172061E-3,2.3588051E-1,-1.5048003E-1,1.5121167E-2,-1.8872174E-2,5.583945E-3,3.4924444E-2,1.0694977E-2,-2.9581154E-2,5.354849E-4],"categories":[],"categories_nodes":[],"categories_segments":[],"categories_sizes":[],"default_left":[0,0,0,0,0,0,0,0,0,0,0,0,0,0,0,0,0,0,0,0,0,0,0,0,0,0,0,0,0,0,0],"id":43,"left_children":[1,-1,3,-1,5,7,9,-1,11,13,15,17,-1,-1,19,21,23,-1,-1,-1,25,-1,27,29,-1,-1,-1,-1,-1,-1,-1],"loss_changes":[2.2265115E0,0E0,2.0808344E0,0E0,2.6013174E0,1.0144591E0,1.5089748E0,0E0,5.3059196E-1,2.0515509E0,2.5645611E0,5.162568E-1,0E0,0E0,1.8174783E0,1.1523006E0,2.8274012E0,0E0,0E0,0E0,2.3832285E0,0E0,1.0734715E0,1.9266398E0,0E0,0E0,0E0,0E0,0E0,0E0,0E0],"parents":[2147483647,0,0,2,2,4,4,5,5,6,6,8,8,9,9,10,10,11,11,14,14,15,15,16,16,20,20,22,22,23,23],"right_children":[2,-1,4,-1,6,8,10,-1,12,14,16,18,-1,-1,20,22,24,-1,-1,-1,26,-1,28,30,-1,-1,-1,-1,-1,-1,-1],"split_conditions":[-1.633866E0,-2.4327433E-2,-1.637248E0,-2.3427086E-2,-8.00273E-1,-1.095263E0,3.7818E-2,-6.3384493E-4,2.5324E-1,-9.03596E-1,-5.6145E-2,3.3553E-2,9.327755E-3,1.3878064E-2,-1.366479E0,-2.76355E-1,6.96759E-1,3.425254E-2,1.6040936E-2,1.538011E-2,8.06934E-1,3.172061E-3,-4.5974E-2,1.00147E-1,1.5121167E-2,-1.8872174E-2,5.583945E-3,3.4924444E-2,1.0694977E-2,-2.9581154E-2,5.354849E-4],"split_indices":[11,0,6,0,11,13,25,0,19,13,4,21,0,0,26,18,4,0,0,0,6,0,10,21,0,0,0,0,0,0,0],"split_type":[0,0,0,0,0,0,0,0,0,0,0,0,0,0,0,0,0,0,0,0,0,0,0,0,0,0,0,0,0,0,0],"sum_hessian":[7.15E2,3.3E1,6.82E2,3E1,6.52E2,1.28E2,5.24E2,2.9E1,9.9E1,2.73E2,2.51E2,6.8E1,3.1E1,4.6E1,2.27E2,1.19E2,1.32E2,3.4E1,3.4E1,2.6E1,2.01E2,4.4E1,7.5E1,8.4E1,4.8E1,1.47E2,5.4E1,3.9E1,3.6E1,4.3E1,4.1E1],"tree_param":{"num_deleted":"0","num_feature":"30","num_nodes":"31","size_leaf_vector":"1"}},{"base_weights":[-5.856783E-3,-4.3431006E-2,5.241003E-2,-2.1600794E-2,-3.2654874E-2,2.1958907E-1,1.4802859E-2,4.894135E-3,-3.2020237E-2,3.4003384E-2,8.143358E-3,1.636452E-2,-2.4861606E-2,-2.6601763E-2,1.6579549E-1,-1.6311368E-1,3.6539026E-2,-2.6750077E-2,-9.357659E-4,9.777083E-4,2.681819E-2,5.3042225E-3,-3.9660368E-2,1.04732156E-1,-1.5349734E-2,-4.669777E-2,1.2303898E-1,2.297803E-2,5.063023E-3,3.6868209E-3,-1.3881794E-2,5.9018554E-3,2.512722E-2,1.3965333E-2,-1.297081E-2],"categories":[],"categories_nodes":[],"categories_segments":[],"categories_sizes":[],"default_left":[0,0,0,0,0,0,0,0,0,0,0,0,0,0,0,0,0,0,0,0,0,0,0,0,0,0,0,0,0,0,0,0,0,0,0],"id":44,"left_children":[1,3,5,7,-1,9,11,13,-1,-1,-1,-1,15,17,19,21,23,-1,25,-1,-1,-1,-1,27,-1,29,31,-1,33,-1,-1,-1,-1,-1,-1],"loss_changes":[1.6136231E0,2.761819E0,1.8137302E0,3.3006322E0,0E0,8.542354E-1,1.4032576E0,1.9504197E0,0E0,0E0,0E0,0E0,1.6018478E0,1.9906476E0,1.00375E0,2.9483109E0,1.713728E0,0E0,1.6623588E0,0E0,0E0,0E0,0E0,1.20779E0,0E0,1.6525139E0,6.3372433E-1,0E0,1.0157529E0,0E0,0E0,0E0,0E0,0E0,0E0],"parents":[2147483647,0,0,1,1,2,2,3,3,5,5,6,6,7,7,12,12,13,13,14,14,15,15,16,16,18,18,23,23,25,25,26,26,28,28],"right_children":[2,4,6,8,-1,10,12,14,-1,-1,-1,-1,16,18,20,22,24,-1,26,-1,-1,-1,-1,28,-1,30,32,-1,34,-1,-1,-1,-1,-1,-1],"split_conditions":[2.86385E-1,1.450519E0,8.9831E2,1.429181E0,-3.2654874E-2,-6.2369E-2,-8.35699E-1,7.75742E-1,-3.2020237E-2,3.4003384E-2,8.143358E-3,1.636452E-2,-5.33301E-1,-1.57592E0,-2.98105E-1,-1.027316E0,6.70419E-1,-2.6750077E-2,6.3641E-1,9.777083E-4,2.681819E-2,5.3042225E-3,-3.9660368E-2,2.67971E-1,-1.5349734E-2,-2.9131E-2,5.53568E-1,2.297803E-2,1.38186E-1,3.6868209E-3,-1.3881794E-2,5.9018554E-3,2.512722E-2,1.3965333E-2,-1.297081E-2],"split_indices":[10,25,0,23,0,3,24,25,0,0,0,0,6,10,7,6,26,0,2,0,0,0,0,6,0,7,5,0,5,0,0,0,0,0,0],"split_type":[0,0,0,0,0,0,0,0,0,0,0,0,0,0,0,0,0,0,0,0,0,0,0,0,0,0,0,0,0,0,0,0,0,0,0],"sum_hessian":[7.35E2,4.47E2,2.88E2,4.16E2,3.1E1,5.2E1,2.36E2,3.83E2,3.3E1,2.7E1,2.5E1,4.9E1,1.87E2,3.21E2,6.2E1,5.7E1,1.3E2,3E1,2.91E2,2.5E1,3.7E1,3E1,2.7E1,9.6E1,3.4E1,2.13E2,7.8E1,4.2E1,5.4E1,1.12E2,1.01E2,5.3E1,2.5E1,2.7E1,2.7E1],"tree_param":{"num_deleted":"0","num_feature":"30","num_nodes":"35","size_leaf_vector":"1"}},{"base_weights":[4.554444E-3,1.8279761E-2,-6.2949983E-3,8.935831E-2,-2.7597645E-2,-1.9865517E-2,1.6860577E-1,-2.975424E-2,-1.2605288E-2,2.3658432E-3,2.2417606E-1,5.2219126E-2,-7.1490735E-2,2.9452195E-2,9.380142E-3,2.1040613E-2,2.8016021E-2,-2.0014174E-1,-1.0890843E-2,2.2166714E-2,-8.024251E-3,1.0174001E-3,-4.6485163E-2,-1.06883794E-1,1.06687486E-1,2.7292524E-3,-1.8115435E-2,-1.5771762E-2,1.5971329E-2,6.936468E-4,-2.5054708E-2,1.8981904E-2,-2.3592764E-3],"categories":[],"categories_nodes":[],"categories_segments":[],"categories_sizes":[],"default_left":[0,0,0,0,0,0,0,0,0,0,0,0,0,0,0,0,0,0,0,0,0,0,0,0,0,0,0,0,0,0,0,0,0],"id":45,"left_children":[1,-1,3,5,7,-1,9,-1,11,-1,13,15,17,-1,-1,19,-1,21,23,-1,25,27,-1,29,31,-1,-1,-1,-1,-1,-1,-1,-1],"loss_changes":[1.3819118E0,0E0,1.3758547E0,2.8408885E0,2.2302532E0,0E0,7.760086E-1,0E0,2.0039537E0,0E0,6.143656E-1,1.7708211E0,2.1417859E0,0E0,0E0,1.2904701E0,0E0,4.6863675E0,2.133301E0,0E0,1.1911371E0,1.3099098E0,0E0,1.7023245E0,9.250624E-1,0E0,0E0,0E0,0E0,0E0,0E0,0E0,0E0],"parents":[2147483647,0,0,2,2,3,3,4,4,6,6,8,8,10,10,11,11,12,12,15,15,17,17,18,18,20,20,21,21,23,23,24,24],"right_children":[2,-1,4,6,8,-1,10,-1,12,-1,14,16,18,-1,-1,20,-1,22,24,-1,26,28,-1,30,32,-1,-1,-1,-1,-1,-1,-1,-1],"split_conditions":[-1.609811E0,1.8279761E-2,-9.05185E-1,-9.48713E-1,-7.60876E-1,-1.9865517E-2,-4.36618E-1,-2.975424E-2,-2.3868E-2,2.3658432E-3,5.19335E-1,-1.9761E-1,-3.64684E-1,2.9452195E-2,9.380142E-3,-1.071976E0,2.8016021E-2,3.03732E-1,6.40413E-1,2.2166714E-2,9.07854E-1,2.333E-2,-4.6485163E-2,-6.894E-2,5.03251E-1,2.7292524E-3,-1.8115435E-2,-1.5771762E-2,1.5971329E-2,6.936468E-4,-2.5054708E-2,1.8981904E-2,-2.3592764E-3],"split_indices":[2,0,6,9,6,0,14,0,4,0,20,4,17,0,0,20,0,18,6,0,27,2,0,6,17,0,0,0,0,0,0,0,0],"split_type":[0,0,0,0,0,0,0,0,0,0,0,0,0,0,0,0,0,0,0,0,0,0,0,0,0,0,0,0,0,0,0,0,0],"sum_hessian":[7.13E2,4E1,6.73E2,1.22E2,5.51E2,2.6E1,9.6E1,2.8E1,5.23E2,2.7E1,6.9E1,2.49E2,2.74E2,4.4E1,2.5E1,2.2E2,2.9E1,8.7E1,1.87E2,2.7E1,1.93E2,5E1,3.7E1,1.03E2,8.4E1,1.61E2,3.2E1,2.5E1,2.5E1,5.8E1,4.5E1,5.1E1,3.3E1],"tree_param":{"num_deleted":"0","num_feature":"30","num_nodes":"33","size_leaf_vector":"1"}},{"base_weights":[-9.355545E-3,1.7304383E-2,-9.3697004E-2,3.4562822E-2,-2.2287685E-2,5.785729E-3,-4.368029E-2,5.3908E-2,-1.8925441E-2,1.3617024E-1,-1.9113024E-1,3.6094498E-2,2.4049276E-2,-3.79107E-3,2.3063518E-1,-3.764293E-2,1.5773749E-3,-7.182673E-2,6.515401E-2,1.7606316E-2,2.7843554E-2,-1.9377777E-1,1.2534711E-2,-9.318511E-3,8.8953204E-2,-6.977898E-3,-3.0681876E-2,-1.6720676E-3,1.2723306E-2],"categories":[],"categories_nodes":[],"categories_segments":[],"categories_sizes":[],"default_left":[0,0,0,0,0,0,0,0,0,0,0,0,0,0,0,0,0,0,0,0,0,0,0,0,0,0,0,0,0],"id":46,"left_children":[1,3,5,7,-1,9,-1,11,-1,13,15,17,-1,-1,19,-1,-1,21,23,-1,-1,25,-1,-1,27,-1,-1,-1,-1],"loss_changes":[1.5823431E0,2.2253602E0,5.7710233E0,2.1750946E0,0E0,3.415099E0,0E0,1.523558E0,0E0,1.3243071E0,2.0379107E0,1.32813E0,0E0,0E0,8.662295E-2,0E0,0E0,2.1883893E0,1.2631477E0,0E0,0E0,7.6353955E-1,0E0,0E0,1.1752298E0,0E0,0E0,0E0,0E0],"parents":[2147483647,0,0,1,1,2,2,3,3,5,5,7,7,9,9,10,10,11,11,14,14,17,17,18,18,21,21,24,24],"right_children":[2,4,6,8,-1,10,-1,12,-1,14,16,18,-1,-1,20,-1,-1,22,24,-1,-1,26,-1,-1,28,-1,