tree
version=v4
num_class=1
num_tree_per_iteration=1
label_index=0
max_feature_idx=29
objective=regression
feature_names=Column_0 Column_1 Column_2 Column_3 Column_4 Column_5 Column_6 Column_7 Column_8 Column_9 Column_10 Column_11 Column_12 Column_13 Column_14 Column_15 Column_16 Column_17 Column_18 Column_19 Column_20 Column_21 Column_22 Column_23 Column_24 Column_25 Column_26 Column_27 Column_28 Column_29
feature_infos=[2.1899999999999999:4996.7700000000004] [-2.8062170000000002:3.2546469999999998] [-3.2394379999999998:3.260491] [-2.6490999999999998:3.657702] [-3.047777:2.8408859999999998] [-3.064457:2.7566389999999998] [-2.8147150000000001:3.5556169999999998] [-3.4089670000000001:3.0934300000000001] [-4.0540500000000002:3.0517110000000001] [-2.706518:2.7845879999999998] [-3.1747489999999998:3.155538] [-3.1005180000000001:3.1011869999999999] [-2.9309310000000002:2.8074560000000002] [-3.1997610000000001:3.1983980000000001] [-3.1046049999999998:3.2160199999999999] [-2.957525:2.659996] [-3.0698400000000001:3.3176869999999998] [-2.697479:2.7323620000000002] [-3.036178:2.9856400000000001] [-3.2646359999999999:2.8418239999999999] [-3.053153:3.9027989999999999] [-3.285666:3.5886809999999998] [-2.9122379999999999:2.915063] [-3.144962:3.9385029999999999] [-2.695662:3.4135260000000001] [-3.091996:3.8091650000000001] [-3.5927470000000001:3.1989800000000002] [-3.3637260000000002:3.5420950000000002] [-2.7407430000000002:3.2020010000000001] [0:1]
tree_sizes=6347

Tree=0
num_leaves=63
num_cat=0
split_feature=6 27 0 15 14 8 19 24 17 25 0 26 0 26 3 25 0 28 0 28 24 18 12 6 12 7 22 13 3 6 12 5 4 10 2 19 7 24 14 1 15 8 5 20 3 10 10 13 21 3 17 11 23 13 27 16 9 18 25 26 1 5
split_gain=13.1708 14.7243 13.9253 21.3266 9.92437 9.45245 9.4342 9.45924 7.65425 6.48133 11.0205 5.98377 5.90827 6.63477 5.76582 5.69956 9.64754 7.96974 13.0729 8.74058 6.08933 4.93057 4.72385 4.32323 3.91105 4.36533 7.4696 3.8781 3.65357 3.34179 6.79437 3.10651 3.00748 3.37957 4.00949 3.54654 2.48408 2.41124 2.29686 2.11353 2.10959 1.96157 1.91103 1.71488 1.65901 2.02184 1.53545 1.12718 1.01767 0.927333 0.869499 0.797507 0.772002 0.909144 0.744538 0.634648 0.568818 0.5338 0.529605 0.350048 0.291349 0.236451
threshold=1.0283120000000003 0.6023170000000001 555.32000000000005 0.17177100000000003 -1.2556139999999998 -1.1732884999999997 -1.2715409999999998 0.69138250000000012 0.19258450000000002 -0.86562349999999988 809.43000000000018 -0.92191249999999991 3467.5350000000003 -0.21345349999999999 0.86188600000000004 1.2800945000000004 2134.5900000000006 -0.23776599999999995 4552.6550000000016 -0.34442699999999993 1.4473415000000003 -1.1805244999999998 1.4922095000000002 0.70672700000000011 -0.17817699999999997 0.42565350000000007 0.13093350000000004 -0.76072149999999994 -0.19917549999999998 -0.53161149999999979 -0.49448799999999998 0.6682435000000001 -0.37628849999999997 0.93025900000000006 0.6491745000000001 -0.42695849999999996 -1.5170714999999999 -0.57396649999999994 -0.11747099999999999 1.3904020000000001 0.94632850000000013 -1.4037039999999998 -0.97510049999999981 0.33630150000000009 -0.050730999999999991 0.29790500000000003 -0.9038394999999998 -1.0000000180025095e-35 1.2088285000000003 -0.62699199999999988 -0.025860499999999998 1.2262155000000001 0.91996400000000011 0.37528600000000006 1.0000000180025095e-35 -0.33709399999999995 0.89987550000000016 0.59990750000000015 0.33343700000000004 0.10212800000000001 0.23528150000000003 -0.47805249999999994
decision_type=2 2 2 2 2 2 2 2 2 2 2 2 2 2 2 2 2 2 2 2 2 2 2 2 2 2 2 2 2 2 2 2 2 2 2 2 2 2 2 2 2 2 2 2 2 2 2 2 2 2 2 2 2 2 2 2 2 2 2 2 2 2
left_child=1 6 3 -3 -4 8 7 27 -6 10 -8 -7 14 -14 31 17 -17 18 19 29 23 -13 32 36 25 26 -23 -1 -18 30 -11 46 50 34 35 -34 -19 -29 -32 41 42 -38 -31 -37 45 -26 -12 58 49 -43 -2 52 53 56 -49 -27 59 -52 -44 -51 -46 -48
right_child=22 2 4 -5 5 11 9 -9 -10 15 12 21 13 -15 -16 16 28 20 -20 -21 -22 24 -24 -25 44 55 -28 37 -30 40 38 -33 33 -35 -36 43 39 -39 -40 -41 -42 48 47 -45 60 -47 61 54 -50 51 57 -53 -54 -55 -56 -57 -58 -59 -60 -61 -62 -63
leaf_value=0.022468742633645879 0.0374015515510756 -0.0031216621599742199 -0.058430053313786638 -0.10638480560999596 -0.06959558190923415 -0.031036125516111502 -0.057887267341429842 -0.049569073935563215 -0.0077318078503594741 -0.038491029852593783 0.0079477333076647515 -0.030633851198072083 -0.054168717229331365 0.00097594854586835348 -0.02423098856728757 -0.041190125990251548 -0.012514494001314651 -0.00075758856556300703 -0.0458544987428052 -0.037468424310500272 -0.017111481726191976 -0.044616199757639662 -0.010795628348423635 -0.0055121529215487984 0.020416497969261128 0.021021695892268318 0.012863018306379672 0.0024070661314181045 0.023171336612140294 0.0013477851994684906 0.024834836603907971 -0.004578968381101731 -0.026508798863162004 0.033348800768241441 0.025557573474468784 -0.0053761844431366081 0.0036567955635837283 -0.031516642062263359 -0.0055002032110739183 0.0037446295555743675 -0.0035095052220724308 0.038592751492320339 0.038332431147282492 0.019371653982712556 0.029755114467157614 -0.0080445830041814305 0.026506859491055364 0.010362527437621449 0.015418737324362155 0.02713685206923401 0.029693442587837723 0.013803766119447324 0.041147884408419488 0.015935808301728683 0.026708125519719697 0.0036176679759889587 0.020007061912619976 0.014051878730242606 0.023143641893905376 0.037556428904905549 0.018881183542887977 0.037380006144230676
leaf_weight=10.000000000000002 18 10.000000000000002 9.9999999999999982 9.9999999999999982 10.000000000000002 14.999999999999998 9.9999999999999982 17 9.9999999999999982 9.9999999999999982 9.9999999999999947 9.9999999999999982 10.000000000000002 11.999999999999998 11.999999999999998 15.999999999999998 13.000000000000002 11.999999999999998 13.999999999999998 10.999999999999998 12.999999999999998 12.999999999999995 15.999999999999998 17 12.999999999999995 10.000000000000002 9.9999999999999982 10.000000000000002 15.999999999999998 12.999999999999991 13 13.999999999999998 10.999999999999995 14.999999999999998 19 14.000000000000005 9.9999999999999982 10.999999999999998 12 12.999999999999998 12.999999999999998 19 11.999999999999995 13.999999999999998 14.000000000000016 11.999999999999998 9.9999999999999982 19.000000000000018 17 13.999999999999998 12.000000000000002 10.999999999999998 9.9999999999999982 15.999999999999998 10.999999999999998 10.999999999999998 10.999999999999998 9.9999999999999982 10.999999999999998 19 10.999999999999998 10.000000000000009
leaf_count=10 18 10 10 10 10 15 10 17 10 10 10 10 10 12 12 16 13 12 14 11 13 13 16 17 13 10 10 10 16 13 13 14 11 15 19 14 10 11 12 13 13 19 12 14 14 12 10 19 17 14 12 11 10 16 11 11 11 10 11 19 11 10
internal_value=9.17222e-10 -0.00281297 -0.0155784 -0.0547532 -0.01032 -0.00685884 0.00148454 -0.0195958 -0.0386637 0.00371331 -0.00847023 -0.00151349 -0.00213471 -0.0240898 0.00649051 0.00664268 -0.010022 0.00897885 -3.61959e-05 0.00509545 0.015864 0.00274458 0.0146318 0.0184005 0.00629548 -0.00457657 -0.0196252 -0.00315887 0.00717424 0.00920249 -0.00365885 0.0148691 0.0182322 0.0121941 0.00672299 -0.00245283 0.021075 -0.0153625 0.010274 0.0229463 0.0149006 0.0249119 0.0185268 0.00699773 0.0158629 0.00675518 0.0239449 0.0227405 0.0267285 0.0286512 0.0292517 0.0263192 0.028286 0.0261423 0.0163559 0.0119053 0.0298538 0.0225836 0.0310682 0.033136 0.0249706 0.0319434
internal_weight=800 671 169 20 149 139 502 48 20 454 88 119 78 22 56 366 45 321 139 125 182 104 129 169 94 44 23 31 29 114 35 44 113 73 58 39 152 21 25 140 79 127 66 28 50 25 30 53 117 100 40 81 70 60 30 21 44 22 23 33 25 20
internal_count=800 671 169 20 149 139 502 48 20 454 88 119 78 22 56 366 45 321 139 125 182 104 129 169 94 44 23 31 29 114 35 44 113 73 58 39 152 21 25 140 79 127 66 28 50 25 30 53 117 100 40 81 70 60 30 21 44 22 23 33 25 20
is_linear=0
shrinkage=1


end of trees

feature_importances:
Column_0=5
Column_3=4
Column_5=3
Column_6=3
Column_10=3
Column_12=3
Column_13=3
Column_24=3
Column_25=3
Column_26=3
Column_1=2
Column_7=2
Column_8=2
Column_14=2
Column_15=2
Column_17=2
Column_18=2
Column_19=2
Column_27=2
Column_28=2
Column_2=1
Column_4=1
Column_9=1
Column_11=1
Column_16=1
Column_20=1
Column_21=1
Column_22=1
Column_23=1

parameters:
[boosting: gbdt]
[objective: regression]
[metric: rmse]
[tree_learner: serial]
[device_type: cpu]
[data_sample_strategy: bagging]
[data: ]
[valid: ]
[num_iterations: 10000]
[learning_rate: 0.05]
[num_leaves: 95]
[num_threads: 0]
[seed: 1238]
[deterministic: 0]
[force_col_wise: 0]
[force_row_wise: 0]
[histogram_pool_size: -1]
[max_depth: -1]
[min_data_in_leaf: 10]
[min_sum_hessian_in_leaf: 0.001]
[bagging_fraction: 1]
[pos_bagging_fraction: 1]
[neg_bagging_fraction: 1]
[bagging_freq: 0]
[bagging_seed: 10438]
[bagging_by_query: 0]
[feature_fraction: 1]
[feature_fraction_bynode: 1]
[feature_fraction_seed: 6707]
[extra_trees: 0]
[extra_seed: 23424]
[early_stopping_round: 0]
[early_stopping_min_delta: 0]
[first_metric_only: 0]
[max_delta_step: 0]
[lambda_l1: 0]
[lambda_l2: 0]
[linear_lambda: 0]
[min_gain_to_split: 0]
[drop_rate: 0.1]
[max_drop: 50]
[skip_drop: 0.5]
[xgboost_dart_mode: 0]
[uniform_drop: 0]
[drop_seed: 18682]
[top_rate: 0.2]
[other_rate: 0.1]
[min_data_per_group: 100]
[max_cat_threshold: 32]
[cat_l2: 10]
[cat_smooth: 10]
[max_cat_to_onehot: 4]
[top_k: 20]
[monotone_constraints: ]
[monotone_constraints_method: basic]
[monotone_penalty: 0]
[feature_contri: ]
[forcedsplits_filename: ]
[refit_decay_rate: 0.9]
[cegb_tradeoff: 1]
[cegb_penalty_split: 0]
[cegb_penalty_feature_lazy: ]
[cegb_penalty_feature_coupled: ]
[path_smooth: 0]
[interaction_constraints: ]
[verbosity: -1]
[saved_feature_importance_type: 0]
[use_quantized_grad: 0]
[num_grad_quant_bins: 4]
[quant_train_renew_leaf: 0]
[stochastic_rounding: 1]
[linear_tree: 0]
[max_bin: 255]
[max_bin_by_feature: ]
[min_data_in_bin: 3]
[bin_construct_sample_cnt: 200000]
[data_random_seed: 4081]
[is_enable_sparse: 1]
[enable_bundle: 1]
[use_missing: 1]
[zero_as_missing: 0]
[feature_pre_filter: 1]
[pre_partition: 0]
[two_round: 0]
[header: 0]
[label_column: ]
[weight_column: ]
[group_column: ]
[ignore_column: ]
[categorical_feature: ]
[forcedbins_filename: ]
[precise_float_parser: 0]
[parser_config_file: ]
[objective_seed: 31546]
[num_class: 1]
[is_unbalance: 0]
[scale_pos_weight: 1]
[sigmoid: 1]
[boost_from_average: 1]
[reg_sqrt: 0]
[alpha: 0.9]
[fair_c: 1]
[poisson_max_delta_step: 0.7]
[tweedie_variance_power: 1.5]
[lambdarank_truncation_level: 30]
[lambdarank_norm: 1]
[label_gain: ]
[lambdarank_position_bias_regularization: 0]
[eval_at: ]
[multi_error_top_k: 1]
[auc_mu_weights: ]
[num_machines: 1]
[local_listen_port: 12400]
[time_out: 120]
[machine_list_filename: ]
[machines: ]
[gpu_platform_id: -1]
[gpu_device_id: -1]
[gpu_use_dp: 0]
[num_gpu: 1]

end of parameters

pandas_categorical:null
