tree
version=v4
num_class=1
num_tree_per_iteration=1
label_index=0
max_feature_idx=29
objective=regression
feature_names=Column_0 Column_1 Column_2 Column_3 Column_4 Column_5 Column_6 Column_7 Column_8 Column_9 Column_10 Column_11 Column_12 Column_13 Column_14 Column_15 Column_16 Column_17 Column_18 Column_19 Column_20 Column_21 Column_22 Column_23 Column_24 Column_25 Column_26 Column_27 Column_28 Column_29
feature_infos=[2.1899999999999999:4996.7700000000004] [-2.9015240000000002:3.2546469999999998] [-3.2394379999999998:3.260491] [-2.6490999999999998:3.657702] [-3.7087970000000001:2.8408859999999998] [-3.064457:3.5994670000000002] [-2.7797070000000001:3.5556169999999998] [-2.8519079999999999:3.0934300000000001] [-3.759779:2.790292] [-2.5030519999999998:2.7845879999999998] [-3.1747489999999998:3.155538] [-3.1005180000000001:3.1011869999999999] [-2.9309310000000002:3.0654750000000002] [-3.1997610000000001:3.1983980000000001] [-3.1046049999999998:2.7026110000000001] [-2.6787800000000002:2.659996] [-3.4897800000000001:3.3176869999999998] [-2.697479:2.7323620000000002] [-3.036178:2.9856400000000001] [-3.2646359999999999:2.8418239999999999] [-3.0388510000000002:3.9027989999999999] [-3.285666:3.5886809999999998] [-2.9122379999999999:2.6618240000000002] [-3.0655790000000001:3.162417] [-2.750909:3.4135260000000001] [-3.091996:3.8091650000000001] [-3.2586909999999998:3.1432609999999999] [-3.3637260000000002:3.5420950000000002] [-3.5433189999999999:2.9003619999999999] [0:1]
tree_sizes=6056 6298 6053 6196 6518

Tree=0
num_leaves=61
num_cat=0
split_feature=13 25 6 25 19 24 1 2 20 2 25 10 5 17 23 28 28 6 6 26 11 14 19 5 3 2 18 18 10 22 4 15 12 16 0 11 20 12 27 7 25 25 7 11 11 12 27 13 5 5 16 13 21 16 3 0 27 0 6 25
split_gain=10.315 23.816 8.87266 10.1847 10.3931 14.1117 15.1386 14.6791 9.90478 7.53734 10.0829 7.98235 10.1577 7.50492 4.88642 4.869 4.68713 8.2297 4.21658 7.54295 6.5226 4.01949 4.00142 4.70624 4.6421 4.72536 3.86828 4.09093 3.51045 3.42182 4.49908 3.25015 2.891 2.74412 2.53068 2.39102 2.35121 2.1972 1.87133 1.77932 1.75323 1.86448 1.55317 1.44444 1.94995 1.36021 1.25951 1.24499 1.04808 0.88971 0.755633 0.680677 0.797661 0.556175 0.530862 0.369634 0.350979 0.242945 0.115108 0.101618
threshold=-0.80711849999999996 2.0800260000000006 1.0241885000000002 -1.8180469999999997 0.20445050000000001 0.64975000000000016 1.3570255000000002 -0.9809564999999999 0.5574340000000001 0.39053200000000005 -1.0476974999999997 -0.92706699999999986 0.92430900000000016 1.0186015000000002 -0.95344099999999987 1.1857235000000002 -1.0783229999999997 -0.44997499999999996 0.5009705000000001 -0.15578299999999998 -0.0185075 0.15015950000000003 -1.0639009999999998 -0.19410249999999998 0.75780400000000014 0.84932300000000016 -0.43595249999999991 -0.86140549999999994 -0.53753949999999984 1.0000000180025095e-35 0.021190500000000004 -0.84685899999999992 1.5008640000000002 0.15657800000000002 4126.3950000000013 0.48845050000000007 -0.080695999999999976 1.1318845000000002 1.2852605000000004 -0.65285099999999996 -0.6308149999999999 0.95800250000000009 -0.48642749999999996 -0.032406999999999991 0.94476350000000009 0.76550600000000013 0.1000535 -1.0000000180025095e-35 1.2590945000000002 -0.025247499999999996 -0.40620999999999996 -0.29332499999999995 -0.16888549999999999 0.42657400000000006 0.058940500000000007 1671.5950000000003 0.083710000000000021 2675.0050000000006 0.12044000000000002 -0.019532499999999998
decision_type=2 2 2 2 2 2 2 2 2 2 2 2 2 2 2 2 2 2 2 2 2 2 2 2 2 2 2 2 2 2 2 2 2 2 2 2 2 2 2 2 2 2 2 2 2 2 2 2 2 2 2 2 2 2 2 2 2 2 2 2
left_child=22 2 3 -2 5 9 7 -7 21 10 -5 -11 29 32 35 26 17 -16 28 -20 -21 49 23 -1 34 39 27 -12 45 30 -13 33 43 -30 37 58 46 38 48 -26 -28 50 -38 51 -45 57 -33 -31 54 -9 -42 -4 -53 -52 55 -24 -44 -18 -6 -57
right_child=1 -3 13 4 14 6 -8 8 -10 11 15 12 -14 -15 16 -17 18 -19 19 20 -22 -23 24 -25 25 -27 40 -29 31 47 -32 36 -34 -35 -36 -37 42 -39 -40 -41 41 -43 56 44 -46 -47 -48 -49 -50 -51 53 52 -54 -55 -56 59 -58 -59 -60 -61
leaf_value=0.019679823854001532 -0.040127615634869718 -0.069942831372945172 0.035427134507489806 -0.030964643002662343 0.029576535919817005 -0.068994931464258127 -0.084165627748880076 0.0095263318635018853 -0.039447951949583115 -0.054246114146054347 0.015521536527958233 0.0056223393816617305 -0.054049058051023176 -0.025019816098598921 -0.052765118160459666 -0.016353206228329024 0.026313509667189251 0.005792918909476915 0.022667219254168838 0.0041250018289429131 -0.049587156404629171 -0.01213536821730055 0.023626072333786666 -0.021832137918584828 -0.0049180270959252731 -0.028315482358792162 0.0013571182478335686 -0.020516061756269275 0.0050804429070293805 0.023619778267997649 -0.03828869374206989 0.0091794751618484317 -0.0028610677059623412 -0.031109250338922721 0.0026370137604276862 0.0033914935428765607 0.0025045018483069725 0.0023472295541432688 0.0081370678740980418 0.021204928872466555 0.036848874106773816 0.0063423273241884704 0.019653649761166885 0.0024417764285074861 0.026054976224669891 0.0087319981891778309 -0.012553346489730758 0.0021315885175135912 0.014784795048472006 0.02921294877906223 0.018040141803244793 0.011748233607795557 0.031259810481807829 0.031612286133302123 0.039720785071515233 0.03009012155496749 0.031511836717948494 0.036679634063330011 0.036839979200449305 0.037218173800792988
leaf_weight=11.000000000000002 19 12.999999999999998 16.999999999999996 17 12.000000000000002 11.999999999999998 9.9999999999999982 11.999999999999998 18 10.999999999999998 18 14.000000000000002 9.9999999999999982 11.999999999999998 10.000000000000002 14.999999999999998 13.000000000000002 14.999999999999998 11.999999999999998 10 13 19 17 18 11.000000000000002 10.999999999999998 9.9999999999999982 13.999999999999998 11.000000000000002 13.999999999999998 9.9999999999999982 15.000000000000002 14.999999999999998 9.9999999999999982 18 9.9999999999999982 9.9999999999999982 10.999999999999998 11.999999999999998 15.999999999999998 16.999999999999993 11.999999999999998 12.000000000000002 18 17 9.9999999999999982 11.999999999999998 13.000000000000002 9.9999999999999982 11.000000000000002 18.000000000000011 9.9999999999999982 11.000000000000005 12.999999999999998 17 9.9999999999999964 12.999999999999998 9.9999999999999982 9.9999999999999982 10.000000000000004
leaf_count=11 19 13 17 17 12 12 10 12 18 11 18 14 10 12 10 15 13 15 12 10 13 19 17 18 11 11 10 14 11 14 10 15 15 10 18 10 10 11 12 16 17 12 12 18 17 10 12 13 10 11 18 10 11 13 17 10 13 10 10 10
internal_value=5.30636e-10 -0.00297129 -0.00155563 -0.00420203 -0.00282585 -0.00897673 -0.0265192 -0.0185127 -0.00841628 -0.00199382 0.00501685 -0.0150415 -0.00797176 0.0120733 0.00569076 0.0102449 0.00242298 -0.0176303 0.00574306 -0.0094679 -0.026234 0.00488301 0.0108487 -0.00608622 0.014283 -0.000691835 0.0141564 -0.000244913 0.0103326 0.00106301 -0.0126739 0.00484804 0.0171315 -0.0121527 0.0197025 0.0236635 0.0106064 0.0232332 0.0262562 0.0105622 0.0207399 0.0239704 0.0191584 0.0212396 0.013911 0.024127 -0.000479557 0.0132736 0.0296536 0.0189417 0.0283774 0.0279895 0.0219686 0.0237317 0.032407 0.0290467 0.0258199 0.0308205 0.0328781 0.0336541
internal_weight=800 628 615 515 496 288 82 72 60 206 134 72 61 100 208 117 176 25 151 35 23 42 172 29 143 38 102 32 116 51 24 83 88 21 105 32 62 87 76 27 70 60 35 73 35 33 27 27 64 23 48 38 21 31 54 37 25 23 22 20
internal_count=800 628 615 515 496 288 82 72 60 206 134 72 61 100 208 117 176 25 151 35 23 42 172 29 143 38 102 32 116 51 24 83 88 21 105 32 62 87 76 27 70 60 35 73 35 33 27 27 64 23 48 38 21 31 54 37 25 23 22 20
is_linear=0
shrinkage=1


Tree=1
num_leaves=63
num_cat=0
split_feature=0 16 13 9 1 5 21 28 19 17 25 25 24 21 25 28 1 9 5 14 0 20 10 4 26 27 26 13 3 19 22 23 22 3 7 22 9 23 14 18 3 27 12 0 16 24 7 2 5 21 18 15 17 16 14 22 9 12 8 27 17 0
split_gain=9.62141 18.4502 7.99369 9.44175 21.1503 10.0006 8.16437 12.0717 5.95256 6.72871 7.44536 7.1901 9.03946 12.2497 5.97808 5.49605 5.27924 5.21805 4.17182 7.131 4.38342 5.03907 5.28976 4.63717 3.99552 3.84147 4.93058 3.7006 3.33612 3.43769 4.97594 3.29683 3.29286 2.30812 2.85609 2.28723 2.8905 2.35998 2.23654 2.04808 1.87315 1.81696 2.14731 1.48301 1.26321 1.14992 0.931404 0.874627 0.871444 0.824619 0.813337 0.622131 0.597777 0.580799 0.477055 0.372179 0.297889 0.281246 0.264533 0.244982 0.166724 0.107532
threshold=4556.3950000000013 -0.73250599999999988 -0.87264849999999983 0.73008300000000015 0.96264400000000017 1.9901475000000002 0.16721800000000001 -0.98195349999999981 0.20445050000000001 -1.2097244999999999 1.4170520000000002 0.53732300000000011 0.66916400000000009 0.029603500000000001 -1.4710839999999996 0.41444800000000004 -0.76890049999999988 -0.44121499999999997 0.80501100000000014 -1.1012129999999998 1155.6700000000003 -0.57325099999999984 0.65844400000000014 0.81490600000000013 0.51171250000000013 0.12951100000000001 0.94104600000000016 1.1273515000000003 1.8409210000000003 -1.0639009999999998 0.23622750000000003 -0.49338549999999998 1.2987905000000002 0.75780400000000014 -0.098478499999999983 0.53731550000000017 0.12869550000000005 0.41846750000000005 -1.0000000180025095e-35 -0.35516799999999993 -0.4004919999999999 1.3132820000000003 1.1102440000000002 3874.3250000000003 0.077639500000000014 0.063033500000000006 0.56100700000000014 -0.54066849999999989 1.2258855000000002 -0.54973349999999988 -0.45938299999999993 -0.52255049999999981 0.27818150000000003 -0.6705549999999999 0.11794350000000002 -0.085643999999999984 0.26840000000000003 0.3430410000000001 -0.13205249999999999 -0.023143999999999994 0.61871300000000018 2471.1400000000003
decision_type=2 2 2 2 2 2 2 2 2 2 2 2 2 2 2 2 2 2 2 2 2 2 2 2 2 2 2 2 2 2 2 2 2 2 2 2 2 2 2 2 2 2 2 2 2 2 2 2 2 2 2 2 2 2 2 2 2 2 2 2 2 2
left_child=2 -2 28 5 6 8 25 -8 9 17 11 12 14 31 -11 24 -9 -4 19 -10 50 22 -22 43 40 44 -27 35 29 30 -1 -14 52 41 -35 36 37 39 -19 -16 -3 42 48 46 -5 -18 51 -20 53 -49 -21 -23 55 -31 -37 -13 61 -54 -51 -41 -52 -55
right_child=1 15 3 4 -6 -7 7 16 18 10 -12 32 13 -15 27 -17 45 38 47 20 21 23 -24 -25 -26 26 -28 -29 -30 33 -32 -33 -34 34 -36 54 -38 -39 -40 59 -42 -43 -44 -45 -46 -47 -48 49 -50 58 60 -53 57 56 -56 -57 -58 -59 -60 -61 -62 -63
leaf_value=-0.029879674836993209 -0.07436573434000214 -0.022816252242773772 -0.050580774450843982 0.028135103771152598 -0.061557716837054813 -0.044649238579652528 -0.068469522856175899 -0.039053457174450162 -0.026747546494007114 -0.03065040994435549 -0.029064577527525316 0.038441714346408841 -0.016743068620562549 -0.052175729618304301 0.005131023173982451 0.016734746574527688 -0.0088918368976849786 -0.025867751538753505 0.012389297087987264 0.015114919333295385 -0.035197785257228775 0.019272417668253189 0.0090951229248625726 -0.014990997343109207 -0.042215134643695577 0.010174521716202006 -0.034071717746555812 -0.01491144048766448 -0.013244941333929698 0.020703687576147239 0.017034044804481362 0.022924107268706643 -0.006036019325256348 -0.016381655987352129 0.019160869216116577 0.019546826407313339 -0.011150384002498218 -0.00044412619489080768 0.0061491596202055609 0.037427596151828786 0.005120777289072672 0.0041657502834613509 0.0027621325477957728 0.0036620787416513155 0.0088265313534066081 0.010406988604288353 0.0098861742019653327 0.014557689651846888 0.013986514024436476 0.025563385811719026 0.036606850326061237 0.033802750794326542 0.025040243803100146 0.032619601081718068 0.034333644807338713 0.025812173581549098 0.028013338280939742 0.013454426117241384 0.035771719813346856 0.026614484868266328 0.027476580142974855 0.039225762869630545
leaf_weight=10.000000000000002 11.999999999999998 9.9999999999999982 10.999999999999998 18 19 10.999999999999998 9.9999999999999982 9.9999999999999982 14.999999999999998 9.9999999999999982 18 10 10.000000000000002 18 10.999999999999991 18 12.999999999999998 10 14.999999999999998 11.000000000000002 14.000000000000002 12.999999999999995 12.999999999999998 12.999999999999998 10.999999999999998 17.000000000000004 9.9999999999999982 12.999999999999998 11.999999999999998 12.999999999999991 12.999999999999998 10.999999999999998 9.9999999999999982 10.000000000000002 12.999999999999998 10.000000000000002 13.999999999999998 17 12 9.9999999999999929 15.000000000000002 12.999999999999998 9.9999999999999982 12.999999999999998 15.999999999999998 19 9.9999999999999982 9.9999999999999982 9.9999999999999982 10.999999999999998 10.000000000000002 17.000000000000007 11.000000000000002 11.000000000000009 11.999999999999998 14 19 9.9999999999999982 15.000000000000002 11.000000000000014 9.9999999999999982 13.999999999999998
leaf_count=10 12 10 11 18 19 11 10 10 15 10 18 10 10 18 11 18 13 10 15 11 14 13 13 13 11 17 10 13 12 13 13 11 10 10 13 10 14 17 12 10 15 13 10 13 16 19 10 10 10 11 10 17 11 11 12 14 19 10 15 11 10 14
internal_value=-7.02421e-11 -0.0182861 0.00164425 -0.00097802 -0.0127483 0.00244419 -0.00454146 -0.0190979 0.00361355 -0.00140914 0.00174892 0.00449468 -0.00127543 -0.0219084 0.00617537 -0.00582392 -0.00734275 -0.0224629 0.0103017 0.00581386 0.00975274 0.00432518 -0.0138716 0.0117693 -0.0171033 0.00786731 -0.00621297 0.00993311 0.012027 0.0142569 -0.00336322 0.00403498 0.0199166 0.0178433 0.0037076 0.0137329 0.00888605 0.0146107 -0.00840398 0.0226086 -0.00605403 0.0214558 0.0243749 0.0183332 0.0190487 0.00256684 0.0231012 0.0225331 0.0276006 0.0267597 0.0260354 0.0275063 0.0256839 0.0299891 0.0276124 0.0310745 0.0327325 0.0195232 0.0314528 0.0317636 0.0320417 0.0363191
internal_weight=800 66 734 586 132 454 113 52 443 253 220 202 147 39 108 54 42 33 190 139 124 93 27 66 36 61 27 98 148 136 23 21 55 113 23 85 63 49 22 32 25 90 77 53 34 32 40 51 67 36 31 30 45 57 22 24 44 21 26 21 20 25
internal_count=800 66 734 586 132 454 113 52 443 253 220 202 147 39 108 54 42 33 190 139 124 93 27 66 36 61 27 98 148 136 23 21 55 113 23 85 63 49 22 32 25 90 77 53 34 32 40 51 67 36 31 30 45 57 22 24 44 21 26 21 20 25
is_linear=0
shrinkage=0.05


Tree=2
num_leaves=61
num_cat=0
split_feature=0 16 13 21 15 25 19 1 9 16 0 6 25 23 7 2 26 4 21 17 12 0 22 1 15 0 17 0 21 26 12 28 22 7 27 23 27 17 12 10 18 18 4 24 17 14 5 7 6 7 15 10 0 23 4 24 3 0 13 13
split_gain=8.68332 16.6514 7.25302 8.35768 9.97744 6.47594 7.67612 9.07662 25.6403 6.12014 7.55712 7.02195 6.07014 12.146 5.43062 7.75188 5.87357 5.36372 5.25505 4.46471 4.43679 4.09161 3.46549 3.43052 3.56705 3.43668 4.14985 3.17335 3.01478 2.7988 2.78769 2.41187 2.41099 3.28324 2.64941 2.068 1.60474 1.60401 1.42602 1.4196 1.35786 1.33378 1.15707 1.14036 1.10143 1.94452 1.36755 0.996195 0.918596 0.77982 0.777816 0.685306 0.626761 0.565849 0.530194 0.357646 0.270759 0.246176 0.190883 0.150527
threshold=4556.3950000000013 -0.73250599999999988 -0.9357169999999998 1.6854125000000002 0.096273500000000012 -2.1695119999999997 0.75634650000000014 0.84075150000000021 0.73008300000000015 1.4764585000000003 3120.6100000000001 1.0894975000000002 -1.1985169999999998 0.24911050000000004 -0.060195999999999993 -1.0015059999999998 -0.90372449999999993 0.56823450000000009 -0.17943899999999999 0.8538150000000001 1.3093750000000002 462.47500000000008 -0.31628099999999998 0.39318850000000005 0.12492550000000001 3614.3650000000002 -0.047317499999999992 3846.5900000000006 -0.16888549999999999 -1.1675984999999998 -0.34597749999999994 0.48539650000000006 -0.5644229999999999 -1.0119509999999996 0.11777100000000001 0.19395000000000004 0.12517450000000002 0.012323500000000003 1.0041835000000001 0.64990150000000013 -0.34628999999999993 0.25260850000000007 1.0066005000000002 0.41317250000000005 -0.25352099999999994 -0.25119349999999996 -0.6291509999999999 0.85817550000000009 -0.41750349999999997 0.41536550000000005 0.2636110000000001 0.43753000000000003 2387.8450000000007 -0.51318449999999982 -0.0070229999999999989 -0.241005 -0.076757999999999979 2486.6950000000002 -0.020682499999999996 -0.0042614999999999988
decision_type=2 2 2 2 2 2 2 2 2 2 2 2 2 2 2 2 2 2 2 2 2 2 2 2 2 2 2 2 2 2 2 2 2 2 2 2 2 2 2 2 2 2 2 2 2 2 2 2 2 2 2 2 2 2 2 2 2 2 2 2
left_child=2 -2 20 5 -5 -4 7 9 17 11 -11 12 13 -7 21 -16 -17 22 -3 27 29 -14 28 24 37 26 -26 42 -9 -1 50 35 34 -34 -32 -20 57 43 40 44 -24 -38 49 -23 45 -31 -46 54 -39 -18 55 58 -41 -48 -35 -8 -25 -13 -51 -57
right_child=1 18 3 4 -6 6 30 8 -10 10 -12 36 14 -15 15 16 19 -19 31 -21 -22 23 38 56 25 -27 -28 -29 -30 39 32 -33 33 47 -36 -37 41 48 -40 52 -42 -43 -44 -45 46 -47 53 -49 -50 51 -52 -53 -54 -55 -56 59 -58 -59 -60 -61
leaf_value=-0.0069651796195942632 -0.070647448596234119 -0.027591267310910758 -0.039462443590164188 -0.067852843105792968 -0.0014216724496621353 0.0096900601560870811 0.01852287345735187 -0.029608518714931871 -0.069354351121000954 -0.048275668231340545 0.0095393159613013281 0.02569755627108471 -0.019843820556998255 -0.049243135728380266 -0.033455172249753223 -0.027666633377472563 0.011033280949820491 -0.026255395341860624 0.0091665704734623411 -0.01689172807861777 -0.019722582250833513 0.034770647529512637 0.006436103768646716 0.037706789374351492 -0.017410361999645824 -0.024491524882614614 0.023649046500213447 -0.010765492916107178 0.0059575156237070374 0.020253376755863431 0.011153254962780256 0.021719980639006414 -0.0060488780193469101 0.033323309198021886 -0.022188006062060596 -0.02162030637264252 0.025066126585006704 -0.0021239662712270557 -0.0016329992562532426 0.01927842609584331 0.030222159177064896 0.00034133456647396089 0.0010245145112276078 0.013857638178028124 0.0052910103617856922 -0.0034043483681192527 0.034988035857677457 0.0070157172065228235 0.016898944505179921 0.034319879710674309 0.011819285247474909 0.013431829288601878 0.033504866063594818 0.020293955759782534 0.019222862993677457 0.033340333402156828 0.026339037716388704 0.035693009468642151 0.024966374846796178 0.025034208716824644
leaf_weight=12.999999999999998 11.999999999999998 18 9.9999999999999982 10.000000000000002 12.999999999999998 18 10.999999999999998 11.000000000000002 18 13.000000000000002 9.9999999999999982 14.000000000000002 9.9999999999999982 17 19 14.999999999999998 17 19 12.000000000000002 17 9.9999999999999982 16.000000000000004 10 10.000000000000002 10.000000000000002 11.999999999999998 15.999999999999998 12.999999999999998 12.999999999999998 15.999999999999998 11.000000000000002 13.999999999999998 17 12 12.999999999999998 9.9999999999999982 10.000000000000002 11.000000000000002 9.9999999999999982 15.000000000000002 15 11.999999999999998 9.9999999999999982 10.999999999999998 11.999999999999995 19 9.9999999999999982 9.9999999999999982 14.999999999999998 9.9999999999999929 13.999999999999998 9.9999999999999982 15.999999999999998 19.000000000000007 15 11.999999999999998 10.999999999999998 10.999999999999998 12.000000000000007 10.000000000000002
leaf_count=13 12 18 10 10 13 18 11 11 18 13 10 14 10 17 19 15 17 19 12 17 10 16 10 10 10 12 16 13 13 16 11 14 17 12 13 10 10 11 10 15 15 12 10 11 12 19 10 10 15 10 14 10 16 19 15 12 11 11 12 10
internal_value=-2.09784e-11 -0.0173718 0.00156204 -0.00074383 -0.0303048 0.000426397 0.00112498 -0.00194412 -0.0155637 0.00179153 -0.0231387 0.00354504 0.000543145 -0.0189346 0.00332568 -0.00408808 0.00127706 -0.00315045 -0.00553273 0.00615521 0.0122755 0.0108002 0.00429013 0.0135363 0.00933261 -0.00235835 0.00785697 0.0115968 -0.0103436 0.014942 0.0120755 0.00549654 0.00627937 0.0121398 -0.00690659 -0.00482746 0.0214286 0.0177148 0.0143247 0.0176036 0.0207077 0.0115799 0.0165241 0.0262505 0.0139254 0.00741061 0.0194868 0.0204968 0.00885079 0.0196873 0.0216946 0.0242848 0.0266211 0.0253609 0.0254897 0.0258842 0.0317523 0.0300956 0.029218 0.0295648
internal_weight=800 66 734 604 23 581 571 446 96 350 23 327 280 35 245 123 104 78 54 89 130 122 59 112 91 38 26 72 24 120 125 36 78 54 24 22 47 53 35 107 25 22 59 27 76 35 41 37 26 49 47 32 31 29 27 33 21 25 22 22
internal_count=800 66 734 604 23 581 571 446 96 350 23 327 280 35 245 123 104 78 54 89 130 122 59 112 91 38 26 72 24 120 125 36 78 54 24 22 47 53 35 107 25 22 59 27 76 35 41 37 26 49 47 32 31 29 27 33 21 25 22 22
is_linear=0
shrinkage=0.05


Tree=3
num_leaves=62
num_cat=0
split_feature=13 25 27 25 6 23 5 0 10 10 9 1 19 1 12 28 28 16 1 6 26 28 10 5 22 23 22 21 19 19 7 17 0 5 19 8 23 10 0 12 4 0 0 18 8 7 12 16 25 10 14 14 28 0 14 0 8 24 12 22 10
split_gain=7.85644 20.0183 7.47348 7.80409 10.6781 11.8803 16.3109 11.8962 7.04671 6.27229 5.00649 20.4491 5.254 7.29449 5.0185 4.71499 11.127 4.44252 4.18679 4.15842 4.122 4.27725 3.99518 5.55695 4.29289 3.30879 4.21132 4.32676 3.36477 3.09226 3.97812 4.79258 5.67518 3.83704 3.23467 2.53541 2.34085 2.08741 2.08366 1.65982 1.45376 1.31935 1.27536 1.24765 1.0395 0.991143 0.968105 0.950675 0.730264 0.715116 0.709942 1.2239 0.577918 0.553401 0.522453 0.489578 0.608754 0.407299 0.320808 0.244896 0.134454
threshold=-0.80711849999999996 2.0800260000000006 -1.7044369999999998 -0.81517499999999987 0.64093800000000012 -0.074449999999999988 0.47047050000000007 3248.4550000000004 -1.8711254999999998 -0.22981699999999997 0.73008300000000015 0.96264400000000017 -1.2959069999999997 1.5009125000000003 0.25013850000000004 0.20541000000000004 0.12240700000000002 1.2009405000000004 -0.18233849999999999 0.12044000000000002 -0.38274799999999992 0.92293250000000004 0.21572400000000003 0.48511300000000007 0.17281100000000002 -0.046767499999999997 0.49721100000000001 -0.16888549999999999 0.32763200000000009 -1.0639009999999998 -0.21099249999999997 -0.35820849999999993 2715.6600000000003 -0.19410249999999998 0.75634650000000014 0.4075895000000001 0.9208360000000001 -0.30403699999999995 2156.5450000000005 1.1318845000000002 -0.94153549999999997 2675.0050000000006 2444.3700000000003 -0.35516799999999993 0.7681960000000001 0.53832350000000007 1.1012665000000001 -0.084051999999999988 -0.047209999999999995 0.16917050000000003 0.5250180000000001 1.0351350000000001 1.5658235000000003 2874.8000000000006 -0.62005549999999998 3263.8100000000004 0.14264300000000002 0.4180660000000001 0.74332200000000015 -0.066730999999999985 -0.21521399999999999
decision_type=2 2 2 2 2 2 2 2 2 2 2 2 2 2 2 2 2 2 2 2 2 2 2 2 2 2 2 2 2 2 2 2 2 2 2 2 2 2 2 2 2 2 2 2 2 2 2 2 2 2 2 2 2 2 2 2 2 2 2 2 2
left_child=29 2 43 4 5 22 7 9 -5 -7 12 35 -10 15 -15 16 17 25 -6 -19 21 42 23 24 -4 26 27 28 -14 33 31 32 -31 -1 53 36 38 58 -12 50 -39 -24 -17 -2 48 -20 52 -42 -29 -40 54 -52 55 -33 -32 56 57 -22 -27 -56 -57
right_child=1 -3 3 8 18 6 -8 -9 10 -11 11 -13 13 14 -16 20 -18 19 45 -21 46 -23 41 -25 -26 37 -28 44 -30 30 39 34 -34 -35 -36 -37 -38 40 49 -41 47 -43 -44 -45 -46 -47 -48 -49 -50 -51 51 -53 -54 -55 59 60 -58 -59 -60 -61 -62
leaf_value=0.017846024188805706 0.010412638802081344 -0.063993258731296437 -0.052819701917469465 -0.034072503121569751 -0.013566693260023991 -0.023118907618610299 -0.078959247749298814 -0.063913163475014953 -0.020908135705088315 0.023017910638680819 -0.00060791915380641038 -0.072519846768541771 0.010580731489850833 -0.045395311325873156 0.0013603145101418099 0.02561392079179103 -0.048136285059154037 -0.038834283202886566 0.030491488774617506 0.0067640812695026397 0.011293174326419828 -0.019765512804899896 0.026888341661542643 0.016175850369036199 -0.0075551457025788043 0.032714673181374859 -0.019418281027012402 0.01493680246174336 -0.02686238535679877 0.0070907980591679593 0.018096091399590175 0.017098336643539363 -0.043910397700965408 -0.01963700642809272 -0.0084419204091483908 -0.016303259147988521 -0.01196299268464957 -0.0055761030451817947 0.012558787959543139 1.3703387230634691e-05 0.022973184640470306 0.0017946999350732023 0.0018630932923406362 0.032670009234810581 0.0066949454898183993 0.010169668905436994 0.0075008838437497618 0.0071561778650472046 0.032627773178475213 0.030208404719208676 0.0041517074578083478 0.024061633970000246 0.014956659524302399 0.032624603266065776 0.025007190530498824 0.028517166078090656 0.030101235473857207 0.024956209436059001 0.021472839062864131 0.034042230248451232 0.036716388016939161
leaf_weight=11.000000000000002 10.000000000000002 12.999999999999998 10.000000000000005 13.999999999999998 11.999999999999998 17 15.999999999999998 10.999999999999998 19 13.000000000000002 19 10.999999999999998 11.999999999999995 11.000000000000002 11.999999999999998 13.000000000000002 9.9999999999999982 10.000000000000002 15.000000000000002 9.9999999999999982 12.000000000000002 13.999999999999998 10.000000000000002 9.9999999999999982 10.999999999999998 15.000000000000002 18 9.9999999999999947 11.999999999999998 12.000000000000002 14.999999999999998 12.000000000000002 9.9999999999999982 18 10.999999999999998 17 13.999999999999998 10.999999999999998 11.000000000000002 9.9999999999999982 19 10.999999999999998 9.9999999999999982 17 10.999999999999998 9.9999999999999982 9.9999999999999982 19 14.000000000000012 11.999999999999998 12.999999999999998 19 13.999999999999998 10.999999999999998 14.999999999999998 10.000000000000002 17 9.9999999999999982 10.999999999999998 15.000000000000002 9.9999999999999982
leaf_count=11 10 13 10 14 12 17 16 11 19 13 19 11 12 11 12 13 10 10 15 10 12 14 10 10 11 15 18 10 12 12 15 12 10 18 11 17 14 11 11 10 19 11 10 17 11 10 10 19 14 12 13 19 14 11 15 10 17 10 11 15 10
internal_value=4.97967e-11 -0.00259312 -0.00129523 -0.00247633 -0.0124989 -0.0203771 -0.0361435 -0.019435 0.000834277 -0.00312629 0.00197609 -0.00896736 0.00464833 0.0061424 -0.0210011 0.00820961 0.00313665 0.00611763 0.01071 -0.0160351 0.0159036 0.00202418 -0.00309462 -0.0145015 -0.0291097 0.00903246 0.00175185 0.00821053 -0.00814083 0.0094679 0.012487 0.00209241 -0.0160916 -0.00541931 0.0138585 0.000609038 0.00574313 0.0165072 0.0116452 0.0191777 0.010431 0.0137441 0.0152875 0.0244265 0.0194229 0.0223628 0.0220908 0.0150647 0.0252565 0.0217673 0.0216666 0.0159732 0.0240895 0.0245239 0.0257152 0.0262566 0.0229949 0.0175036 0.0279585 0.0295247 0.0326168
internal_weight=800 628 615 588 146 109 57 41 442 30 428 84 344 325 23 302 182 172 37 20 120 37 52 31 21 152 77 59 24 172 143 56 22 29 34 73 56 75 42 87 49 21 23 27 35 25 83 38 24 23 77 32 73 23 45 59 39 22 26 30 20
internal_count=800 628 615 588 146 109 57 41 442 30 428 84 344 325 23 302 182 172 37 20 120 37 52 31 21 152 77 59 24 172 143 56 22 29 34 73 56 75 42 87 49 21 23 27 35 25 83 38 24 23 77 32 73 23 45 59 39 22 26 30 20
is_linear=0
shrinkage=0.05


Tree=4
num_leaves=64
num_cat=0
split_feature=0 21 3 21 0 10 9 1 22 10 24 11 23 25 15 2 14 13 16 19 3 0 22 25 28 0 10 3 17 22 15 3 12 25 10 25 19 21 11 2 1 25 17 18 26 11 14 19 6 27 12 3 7 22 15 10 8 17 7 8 16 27 6
split_gain=7.524 15.0417 13.3966 5.94888 10.0462 5.59719 5.37259 15.0849 24.5992 6.11285 9.89598 5.70246 5.66819 5.77259 6.79369 5.29489 10.233 5.25993 6.41432 6.8 8.41843 6.15422 6.01857 5.2148 4.77699 3.92305 3.44774 3.26487 3.25486 4.58263 3.07928 2.94016 3.38515 2.6375 2.37531 2.32879 2.23657 3.35912 2.13896 2.09441 1.95409 2.32716 1.52795 1.5259 1.28011 1.22769 1.18552 1.17162 1.10515 0.97575 0.780071 0.782613 0.676132 0.50559 0.497135 0.529204 0.465221 0.444198 0.355953 0.34024 0.143476 0.133694 0.0818164
threshold=4556.3950000000013 -0.32832149999999993 -0.39009799999999994 1.6854125000000002 3462.2900000000004 1.272537 0.66880500000000009 0.96264400000000017 0.067486000000000004 -1.8711254999999998 0.16168600000000002 0.47228950000000008 -1.3674379999999997 -1.2933149999999998 0.47673450000000001 0.28551750000000004 0.056567500000000007 -0.30445199999999994 -0.81626199999999993 -0.30698149999999996 0.93634800000000007 3164.4650000000006 -0.96955949999999991 0.27074250000000005 -0.37791849999999994 3164.4650000000006 -0.30403699999999995 0.77562200000000014 -0.52936749999999988 0.35344450000000005 -0.71894849999999988 0.13817450000000003 0.75494950000000005 -0.7868774999999999 0.026094000000000003 0.066462000000000007 -0.025344999999999996 0.21388200000000004 0.023171000000000004 0.37844800000000006 0.056736500000000009 0.021970500000000004 -0.90334099999999984 -0.94329449999999981 0.6731235000000001 0.095787500000000012 0.27739200000000003 0.55250450000000007 -0.087320499999999981 0.61357850000000014 0.049155000000000011 -0.23894949999999995 0.63643150000000015 -0.33590949999999992 -0.15622949999999999 1.9305705000000002 0.27700000000000008 -0.18583049999999998 0.20737650000000002 -0.10771099999999999 -0.075485999999999984 0.48755750000000003 0.25639850000000003
decision_type=2 2 2 2 2 2 2 2 2 2 2 2 2 2 2 2 2 2 2 2 2 2 2 2 2 2 2 2 2 2 2 2 2 2 2 2 2 2 2 2 2 2 2 2 2 2 2 2 2 2 2 2 2 2 2 2 2 2 2 2 2 2 2
left_child=3 2 -2 5 -5 6 9 15 -9 10 -1 12 53 14 -14 36 35 30 25 20 21 23 -21 -20 -3 56 47 43 -28 -30 42 40 39 -26 -29 -17 44 46 54 -33 -32 -42 -15 -13 49 -35 -38 -24 -40 60 57 59 -53 -11 61 -56 -19 -45 -59 -52 -8 -7 -44
right_child=1 24 -4 4 -6 38 7 8 -10 11 -12 27 13 17 -16 16 -18 18 19 22 -22 -23 26 -25 33 -27 28 34 29 -31 31 32 -34 45 -36 -37 37 -39 48 -41 41 -43 62 50 -46 -47 -48 -49 -50 -51 51 52 -54 -55 55 -57 -58 58 -60 -61 -62 -63 -64
leaf_value=0.0097376754338091044 -0.093292267024517039 -0.02755312037964662 -0.01144910953938961 0.0090450066213424371 -0.05311548194059959 0.030121313493985388 0.03091758087277411 -0.090345941770535232 0.011248065802184019 0.01754857070744037 -0.05898698596283794 0.004797726113568334 -0.0022840167738889389 0.0080584523081779456 -0.05033875840405623 0.014060252022586367 -0.045094572139136931 0.019563847328894407 -0.029305504510800037 -0.028305326192639771 0.014318542588840834 -0.0023260433971881867 0.0088129319250583645 -0.074630056626417418 -0.012433113120496274 -0.0097146919505162674 0.014220094517804684 0.011393053829669951 -0.031319235055707391 0.010603828999129209 0.029044524977604548 0.017872661004463827 -0.02659879842152198 0.0077277746481391081 -0.021020159870386124 -0.014848051237111743 0.014864589925855397 -0.027094595842063432 -0.0051267609745264051 -0.0095470376724663842 0.021341110063860046 -0.0085764533195358053 0.035193438827991474 0.036046074926853182 0.0031329851378412809 0.030423931235616861 -0.0068315199576318266 0.028263802429040277 0.013764293802432805 0.0075539834797382355 0.016091836169362061 0.018937041983008381 0.00055046990513801569 0.032771212980151176 0.009602881051026857 0.024163811020359086 0.033216198533773424 0.029696740074591194 0.01697680266066031 0.028167321426527843 0.022447742875665422 0.022431467212736606 0.028797486722469331
leaf_weight=11.000000000000002 10.000000000000002 11.999999999999998 9.9999999999999982 13.000000000000002 12.999999999999998 13.000000000000002 10.000000000000004 13.000000000000002 10.999999999999998 10.000000000000002 9.9999999999999982 17 19.000000000000004 10.000000000000002 11.999999999999998 19.000000000000004 17 13.000000000000002 15.000000000000002 15.999999999999998 10.999999999999998 9.9999999999999982 16.000000000000004 10.999999999999998 9.9999999999999982 10.999999999999998 15.999999999999998 13.000000000000002 16.000000000000004 10.999999999999998 14.999999999999998 15.000000000000002 11.999999999999998 13.000000000000002 9.9999999999999982 10.999999999999998 17.000000000000004 9.9999999999999982 15.000000000000002 12.999999999999998 13.000000000000002 12.999999999999998 10.000000000000002 9.9999999999999982 17 10.999999999999998 9.9999999999999982 14.999999999999998 15.999999999999998 9.9999999999999982 10.000000000000002 10.000000000000002 9.9999999999999982 11.999999999999998 13.000000000000002 11.999999999999998 11.999999999999998 11.000000000000002 10.999999999999998 13.999999999999998 10 9.9999999999999982 9.9999999999999982
leaf_count=11 10 12 10 13 13 13 10 13 11 10 10 17 19 10 12 19 17 13 15 16 11 10 16 11 10 11 16 13 16 11 15 15 12 13 10 11 17 10 15 13 13 13 10 10 17 11 10 15 16 10 10 10 10 12 13 12 12 11 11 14 10 10 10
internal_value=6.28461e-12 -0.0161706 -0.0523707 0.00145403 -0.0220352 0.00231663 0.0007411 -0.0073398 -0.043782 0.00338359 -0.0229884 0.00460613 0.00131484 -0.000398853 -0.0208859 -0.000663365 -0.0141019 0.0018374 -0.00361313 -0.00854843 -0.0239632 -0.0356604 -0.000498504 -0.0484813 -0.000431397 0.0151684 0.00551378 0.0141679 -0.00364986 -0.0142395 0.0103324 0.00526421 -0.00438018 0.00914098 -0.00269965 0.00346054 0.00685584 -0.00233954 0.014861 0.00514209 0.0146734 0.00638233 0.0240165 0.0183394 0.0140948 0.0181302 0.00682899 0.0182246 0.00462346 0.0203064 0.0213685 0.0170485 0.00974376 0.0258518 0.0214728 0.0165921 0.026117 0.0273084 0.0233368 0.0231359 0.0266827 0.0267779 0.0319955
internal_weight=800 66 20 734 26 708 629 155 24 474 21 453 337 315 31 131 47 284 173 137 47 36 90 26 46 36 74 116 43 27 111 81 40 34 23 30 84 37 79 28 41 26 30 93 47 24 27 31 31 30 76 44 20 22 48 25 25 32 22 24 20 23 20
internal_count=800 66 20 734 26 708 629 155 24 474 21 453 337 315 31 131 47 284 173 137 47 36 90 26 46 36 74 116 43 27 111 81 40 34 23 30 84 37 79 28 41 26 30 93 47 24 27 31 31 30 76 44 20 22 48 25 25 32 22 24 20 23 20
is_linear=0
shrinkage=0.05


end of trees

feature_importances:
Column_0=25
Column_25=19
Column_10=16
Column_12=14
Column_22=14
Column_7=12
Column_16=12
Column_17=12
Column_19=12
Column_3=11
Column_5=11
Column_21=11
Column_27=11
Column_1=10
Column_6=10
Column_13=10
Column_14=10
Column_23=10
Column_28=10
Column_15=8
Column_18=8
Column_2=7
Column_9=7
Column_11=7
Column_24=7
Column_26=7
Column_4=6
Column_8=6
Column_20=3

parameters:
[boosting: gbdt]
[objective: regression]
[metric: rmse]
[tree_learner: serial]
[device_type: cpu]
[data_sample_strategy: bagging]
[data: ]
[valid: ]
[num_iterations: 10000]
[learning_rate: 0.05]
[num_leaves: 95]
[num_threads: 0]
[seed: 1238]
[deterministic: 0]
[force_col_wise: 0]
[force_row_wise: 0]
[histogram_pool_size: -1]
[max_depth: -1]
[min_data_in_leaf: 10]
[min_sum_hessian_in_leaf: 0.001]
[bagging_fraction: 1]
[pos_bagging_fraction: 1]
[neg_bagging_fraction: 1]
[bagging_freq: 0]
[bagging_seed: 10438]
[bagging_by_query: 0]
[feature_fraction: 1]
[feature_fraction_bynode: 1]
[feature_fraction_seed: 6707]
[extra_trees: 0]
[extra_seed: 23424]
[early_stopping_round: 0]
[early_stopping_min_delta: 0]
[first_metric_only: 0]
[max_delta_step: 0]
[lambda_l1: 0]
[lambda_l2: 0]
[linear_lambda: 0]
[min_gain_to_split: 0]
[drop_rate: 0.1]
[max_drop: 50]
[skip_drop: 0.5]
[xgboost_dart_mode: 0]
[uniform_drop: 0]
[drop_seed: 18682]
[top_rate: 0.2]
[other_rate: 0.1]
[min_data_per_group: 100]
[max_cat_threshold: 32]
[cat_l2: 10]
[cat_smooth: 10]
[max_cat_to_onehot: 4]
[top_k: 20]
[monotone_constraints: ]
[monotone_constraints_method: basic]
[monotone_penalty: 0]
[feature_contri: ]
[forcedsplits_filename: ]
[refit_decay_rate: 0.9]
[cegb_tradeoff: 1]
[cegb_penalty_split: 0]
[cegb_penalty_feature_lazy: ]
[cegb_penalty_feature_coupled: ]
[path_smooth: 0]
[interaction_constraints: ]
[verbosity: -1]
[saved_feature_importance_type: 0]
[use_quantized_grad: 0]
[num_grad_quant_bins: 4]
[quant_train_renew_leaf: 0]
[stochastic_rounding: 1]
[linear_tree: 0]
[max_bin: 255]
[max_bin_by_feature: ]
[min_data_in_bin: 3]
[bin_construct_sample_cnt: 200000]
[data_random_seed: 4081]
[is_enable_sparse: 1]
[enable_bundle: 1]
[use_missing: 1]
[zero_as_missing: 0]
[feature_pre_filter: 1]
[pre_partition: 0]
[two_round: 0]
[header: 0]
[label_column: ]
[weight_column: ]
[group_column: ]
[ignore_column: ]
[categorical_feature: ]
[forcedbins_filename: ]
[precise_float_parser: 0]
[parser_config_file: ]
[objective_seed: 31546]
[num_class: 1]
[is_unbalance: 0]
[scale_pos_weight: 1]
[sigmoid: 1]
[boost_from_average: 1]
[reg_sqrt: 0]
[alpha: 0.9]
[fair_c: 1]
[poisson_max_delta_step: 0.7]
[tweedie_variance_power: 1.5]
[lambdarank_truncation_level: 30]
[lambdarank_norm: 1]
[label_gain: ]
[lambdarank_position_bias_regularization: 0]
[eval_at: ]
[multi_error_top_k: 1]
[auc_mu_weights: ]
[num_machines: 1]
[local_listen_port: 12400]
[time_out: 120]
[machine_list_filename: ]
[machines: ]
[gpu_platform_id: -1]
[gpu_device_id: -1]
[gpu_use_dp: 0]
[num_gpu: 1]

end of parameters

pandas_categorical:null
