{"learner":{"attributes":{"best_iteration":"0","best_score":"1.460556071579632"},"feature_names":[],"feature_types":[],"gradient_booster":{"model":{"gbtree_model_param":{"num_parallel_tree":"1","num_trees":"51"},"iteration_indptr":[0,1,2,3,4,5,6,7,8,9,10,11,12,13,14,15,16,17,18,19,20,21,22,23,24,25,26,27,28,29,30,31,32,33,34,35,36,37,38,39,40,41,42,43,44,45,46,47,48,49,50,51],"tree_info":[0,0,0,0,0,0,0,0,0,0,0,0,0,0,0,0,0,0,0,0,0,0,0,0,0,0,0,0,0,0,0,0,0,0,0,0,0,0,0,0,0,0,0,0,0,0,0,0,0,0,0],"trees":[{"base_weights":[-5.0653024E-3,9.481171E-2,-4.2745978E-2,-8.1703495E-3,2.9803587E-2,-9.9519536E-2,1.6134553E-2,-4.0384155E-2,-5.185573E-2,-3.4538537E-2,4.3991584E-2,3.0313581E-2,-5.6846538E-3],"categories":[],"categories_nodes":[],"categories_segments":[],"categories_sizes":[],"default_left":[0,0,0,0,0,0,0,0,0,0,0,0,0],"id":0,"left_children":[1,3,5,-1,-1,7,-1,9,-1,-1,11,-1,-1],"loss_changes":[1.882006E0,2.1352968E0,3.1084065E0,0E0,0E0,3.8294203E0,0E0,3.4385488E0,0E0,0E0,1.9367034E0,0E0,0E0],"parents":[2147483647,0,0,1,1,2,2,5,5,7,7,10,10],"right_children":[2,4,6,-1,-1,8,-1,10,-1,-1,12,-1,-1],"split_conditions":[-6.82541E-1,-1.279539E0,7.53916E-1,-8.1703495E-3,2.9803587E-2,3.87868E-1,1.6134553E-2,-3.16139E-1,-5.185573E-2,-3.4538537E-2,-4.1732E-2,3.0313581E-2,-5.6846538E-3],"split_indices":[0,0,0,0,0,0,0,0,0,0,0,0,0],"split_type":[0,0,0,0,0,0,0,0,0,0,0,0,0],"sum_hessian":[4.98E2,1.36E2,3.62E2,5.6E1,8E1,2.63E2,9.9E1,2.13E2,5E1,6.5E1,1.48E2,5E1,9.8E1],"tree_param":{"num_deleted":"0","num_feature":"3","num_nodes":"13","size_leaf_vector":"1"}},{"base_weights":[-3.3247832E-2,5.4871127E-2,-1.0064065E-1,2.2938494E-2,-1.7700176E-1,-3.6547527E-2,1.9073453E-2,-4.6852633E-2,-1.3120204E-1,-6.60631E-3,-4.274141E-3,-1.259408E-3,-3.7158135E-2],"categories":[],"categories_nodes":[],"categories_segments":[],"categories_sizes":[],"default_left":[0,0,0,0,0,0,0,0,0,0,0,0,0],"id":1,"left_children":[1,-1,3,5,7,9,-1,-1,11,-1,-1,-1,-1],"loss_changes":[1.3026359E1,0E0,3.910829E0,9.9036855E-1,1.5459509E0,4.901305E-3,0E0,0E0,2.7595975E0,0E0,0E0,0E0,0E0],"parents":[2147483647,0,0,2,2,3,3,4,4,5,5,8,8],"right_children":[2,-1,4,6,8,10,-1,-1,12,-1,-1,-1,-1],"split_conditions":[-1.024293E0,5.4871127E-2,-5.2819E-2,-3.3323E-1,2.87831E-1,-6.9153E-1,1.9073453E-2,-4.6852633E-2,7.49227E-1,-6.60631E-3,-4.274141E-3,-1.259408E-3,-3.7158135E-2],"split_indices":[1,0,1,1,1,1,0,0,1,0,0,0,0],"split_type":[0,0,0,0,0,0,0,0,0,0,0,0,0],"sum_hessian":[4.82E2,6.9E1,4.13E2,1.58E2,2.55E2,1.01E2,5.7E1,6.3E1,1.92E2,5E1,5.1E1,9.4E1,9.8E1],"tree_param":{"num_deleted":"0","num_feature":"3","num_nodes":"13","size_leaf_vector":"1"}},{"base_weights":[-3.222276E-2,-1.9715488E-2,-8.359076E-3,3.51403E-2,-8.831151E-2,-1.3825059E-2,2.6433386E-2,-4.2424075E-2,1.07301455E-2,1.3778877E-2,-6.1683096E-2,-2.3128208E-2,7.321374E-3],"categories":[],"categories_nodes":[],"categories_segments":[],"categories_sizes":[],"default_left":[0,0,0,0,0,0,0,0,0,0,0,0,0],"id":2,"left_children":[1,-1,3,5,7,9,-1,-1,-1,-1,11,-1,-1],"loss_changes":[1.1353527E0,0E0,1.3525211E0,1.7432883E0,4.279906E0,9.565401E-1,0E0,0E0,0E0,0E0,1.3362665E0,0E0,0E0],"parents":[2147483647,0,0,2,2,3,3,4,4,5,5,10,10],"right_children":[2,-1,4,6,8,10,-1,-1,-1,-1,12,-1,-1],"split_conditions":[-9.79146E-1,-1.9715488E-2,5.69553E-1,2.0602E-1,1.019267E0,-5.66148E-1,2.6433386E-2,-4.2424075E-2,1.07301455E-2,1.3778877E-2,-1.33494E-1,-2.3128208E-2,7.321374E-3],"split_indices":[2,0,2,2,2,2,0,0,0,0,2,0,0],"split_type":[0,0,0,0,0,0,0,0,0,0,0,0,0],"sum_hessian":[4.79E2,9.2E1,3.87E2,2.51E2,1.36E2,1.87E2,6.4E1,6.1E1,7.5E1,5.8E1,1.29E2,7E1,5.9E1],"tree_param":{"num_deleted":"0","num_feature":"3","num_nodes":"13","size_leaf_vector":"1"}},{"base_weights":[1.7134283E-2,3.70499E-2,-2.2257626E-2,8.954161E-3,3.0074282E-2,3.8180284E-2,-2.17334E-2,-2.7292294E-2,2.682847E-2,1.0224901E-1,-2.5427222E-2,-3.068354E-4,2.837929E-2],"categories":[],"categories_nodes":[],"categories_segments":[],"categories_sizes":[],"default_left":[0,0,0,0,0,0,0,0,0,0,0,0,0],"id":3,"left_children":[1,3,-1,5,-1,7,-1,9,-1,11,-1,-1,-1],"loss_changes":[1.5646957E0,1.94067E0,0E0,1.633174E0,0E0,2.814063E0,0E0,3.8678837E0,0E0,9.978695E-1,0E0,0E0,0E0],"parents":[2147483647,0,0,1,1,3,3,5,5,7,7,9,9],"right_children":[2,4,-1,6,-1,8,-1,10,-1,12,-1,-1,-1],"split_conditions":[1.13384E0,6.57606E-1,-2.2257626E-2,2.4823E-1,3.0074282E-2,-1.98346E-1,-2.17334E-2,-7.99932E-1,2.682847E-2,-1.361725E0,-2.5427222E-2,-3.068354E-4,2.837929E-2],"split_indices":[0,0,0,0,0,0,0,0,0,0,0,0,0],"split_type":[0,0,0,0,0,0,0,0,0,0,0,0,0],"sum_hessian":[4.72E2,4.22E2,5E1,3.61E2,6.1E1,3.04E2,5.7E1,2.08E2,9.6E1,1.09E2,9.9E1,5E1,5.9E1],"tree_param":{"num_deleted":"0","num_feature":"3","num_nodes":"13","size_leaf_vector":"1"}},{"base_weights":[-9.860183E-3,-3.4285516E-2,6.2503085E-2,4.4891826E-4,-3.6405116E-2,2.2175927E-2,-9.130602E-3,-1.9352937E-2,2.614324E-2,9.452769E-3,1.4251594E-2,4.514617E-2,-1.4372929E-2,-2.4277797E-5,1.4984342E-2],"categories":[],"categories_nodes":[],"categories_segments":[],"categories_sizes":[],"default_left":[0,0,0,0,0,0,0,0,0,0,0,0,0,0,0],"id":4,"left_children":[1,3,5,7,-1,-1,-1,-1,9,11,-1,13,-1,-1,-1],"loss_changes":[8.611465E-1,2.6351728E0,1.303977E0,1.0446004E0,0E0,0E0,0E0,0E0,3.0025232E-1,8.0092144E-1,0E0,3.9442983E-1,0E0,0E0,0E0],"parents":[2147483647,0,0,1,1,2,2,3,3,8,8,9,9,11,11],"right_children":[2,4,6,8,-1,-1,-1,-1,10,12,-1,14,-1,-1,-1],"split_conditions":[6.29661E-1,2.77788E-1,1.208348E0,-1.237331E0,-3.6405116E-2,2.2175927E-2,-9.130602E-3,-1.9352937E-2,1.1814E-2,-2.21246E-1,1.4251594E-2,-6.72281E-1,-1.4372929E-2,-2.4277797E-5,1.4984342E-2],"split_indices":[0,0,0,0,0,0,0,0,0,0,0,0,0,0,0],"split_type":[0,0,0,0,0,0,0,0,0,0,0,0,0,0,0],"sum_hessian":[4.85E2,3.63E2,1.22E2,3.12E2,5.1E1,7.2E1,5E1,5.1E1,2.61E2,2.11E2,5E1,1.58E2,5.3E1,8.7E1,7.1E1],"tree_param":{"num_deleted":"0","num_feature":"3","num_nodes":"15","size_leaf_vector":"1"}},{"base_weights":[5.8536004E-2,8.427771E-2,-1.1565679E-2,4.409373E-4,1.05283186E-1,1.2888457E-1,3.7529366E-3,1.0123397E-1,3.2783445E-2,2.6504569E-2,5.6957327E-2,2.9962254E-3,1.5549417E-2],"categories":[],"categories_nodes":[],"categories_segments":[],"categories_sizes":[],"default_left":[0,0,0,0,0,0,0,0,0,0,0,0,0],"id":5,"left_children":[1,3,-1,-1,5,7,-1,9,-1,-1,11,-1,-1],"loss_changes":[1.7243742E0,7.070286E-1,0E0,0E0,6.200106E-1,6.076622E-1,0E0,6.4482164E-1,0E0,0E0,2.138398E-1,0E0,0E0],"parents":[2147483647,0,0,1,1,4,4,5,5,7,7,10,10],"right_children":[2,4,-1,-1,6,8,-1,10,-1,-1,12,-1,-1],"split_conditions":[9.67727E-1,-1.033228E0,-1.1565679E-2,4.409373E-4,4.65216E-1,1.47919E-1,3.7529366E-3,-5.66148E-1,3.2783445E-2,2.6504569E-2,-1.33494E-1,2.9962254E-3,1.5549417E-2],"split_indices":[2,2,0,0,2,2,0,2,0,0,2,0,0],"split_type":[0,0,0,0,0,0,0,0,0,0,0,0,0],"sum_hessian":[4.91E2,4.13E2,7.8E1,8.5E1,3.28E2,2.53E2,7.5E1,1.95E2,5.8E1,7.1E1,1.24E2,7E1,5.4E1],"tree_param":{"num_deleted":"0","num_feature":"3","num_nodes":"13","size_leaf_vector":"1"}},{"base_weights":[3.4746204E-2,3.8066782E-2,-2.8980363E-2,-7.903111E-2,2.9677331E-2,3.2323387E-2,-1.3835654E-1,-1.4510102E-2,2.4871211E-2,-2.8693695E-2,-9.4517805E-2,-6.9966493E-3,-2.059259E-2],"categories":[],"categories_nodes":[],"categories_segments":[],"categories_sizes":[],"default_left":[0,0,0,0,0,0,0,0,0,0,0,0,0],"id":6,"left_children":[1,-1,3,5,-1,7,9,-1,-1,-1,11,-1,-1],"loss_changes":[6.4420757E0,0E0,4.08E0,1.9466814E0,0E0,1.7904395E0,4.2747283E-1,0E0,0E0,0E0,2.126643E-1,0E0,0E0],"parents":[2147483647,0,0,2,2,3,3,5,5,6,6,10,10],"right_children":[2,-1,4,6,-1,8,10,-1,-1,-1,12,-1,-1],"split_conditions":[-8.30724E-1,3.8066782E-2,1.042939E0,-1.49011E-1,2.9677331E-2,-4.77875E-1,2.88854E-1,-1.4510102E-2,2.4871211E-2,-2.8693695E-2,5.73744E-1,-6.9966493E-3,-2.059259E-2],"split_indices":[1,0,1,1,0,1,1,0,0,0,1,0,0],"split_type":[0,0,0,0,0,0,0,0,0,0,0,0,0],"sum_hessian":[4.6E2,1.03E2,3.57E2,2.93E2,6.4E1,1.02E2,1.91E2,5.2E1,5E1,8.5E1,1.06E2,5.1E1,5.5E1],"tree_param":{"num_deleted":"0","num_feature":"3","num_nodes":"13","size_leaf_vector":"1"}},{"base_weights":[3.4454245E-2,-1.3431077E-2,5.9169162E-2,3.6138944E-2,2.2325855E-2,-1.0082766E-2,4.859804E-2,2.6065214E-2,1.6485866E-2,-2.1643009E-2,1.701596E-2,8.003049E-3,-1.8599667E-2],"categories":[],"categories_nodes":[],"categories_segments":[],"categories_sizes":[],"default_left":[0,0,0,0,0,0,0,0,0,0,0,0,0],"id":7,"left_children":[1,-1,3,-1,5,-1,7,-1,9,11,-1,-1,-1],"loss_changes":[1.5099773E0,0E0,2.7402E0,0E0,8.0783E-1,0E0,1.0622982E0,0E0,7.861645E-1,1.1810844E0,0E0,0E0,0E0],"parents":[2147483647,0,0,2,2,4,4,6,6,8,8,9,9],"right_children":[2,-1,4,-1,6,-1,8,-1,10,12,-1,-1,-1],"split_conditions":[-1.033228E0,-1.3431077E-2,-5.73399E-1,3.6138944E-2,-1.33494E-1,-1.0082766E-2,1.65209E-1,2.6065214E-2,1.164787E0,6.68802E-1,1.701596E-2,8.003049E-3,-1.8599667E-2],"split_indices":[2,0,2,0,2,0,2,0,2,2,0,0,0],"split_type":[0,0,0,0,0,0,0,0,0,0,0,0,0],"sum_hessian":[4.9E2,8.1E1,4.09E2,6.8E1,3.41E2,7.7E1,2.64E2,5.3E1,2.11E2,1.52E2,5.9E1,8.8E1,6.4E1],"tree_param":{"num_deleted":"0","num_feature":"3","num_nodes":"13","size_leaf_vector":"1"}},{"base_weights":[-2.7209612E-2,1.5943475E-1,-8.6365536E-2,2.976331E-2,1.8932166E-2,-2.0493513E-1,2.650805E-2,-9.8583706E-2,-5.8796026E-2,8.338683E-2,-2.0024303E-2,-7.216354E-3,-2.4592543E-2,1.9570736E-2,3.2288549E-3],"categories":[],"categories_nodes":[],"categories_segments":[],"categories_sizes":[],"default_left":[0,0,0,0,0,0,0,0,0,0,0,0,0,0,0],"id":8,"left_children":[1,3,5,-1,-1,7,9,11,-1,13,-1,-1,-1,-1,-1],"loss_changes":[5.4570417E0,1.2908149E-1,5.0241985E0,0E0,0E0,3.6015563E0,1.7675858E0,3.814366E-1,0E0,4.1370988E-1,0E0,0E0,0E0,0E0,0E0],"parents":[2147483647,0,0,1,1,2,2,5,5,6,6,7,7,9,9],"right_children":[2,4,6,-1,-1,8,10,12,-1,14,-1,-1,-1,-1,-1],"split_conditions":[-7.21728E-1,-1.167567E0,2.87831E-1,2.976331E-2,1.8932166E-2,-5.7191E-2,1.281403E0,-3.30186E-1,-5.8796026E-2,6.81231E-1,-2.0024303E-2,-7.216354E-3,-2.4592543E-2,1.9570736E-2,3.2288549E-3],"split_indices":[1,1,1,0,0,1,1,1,0,1,0,0,0,0,0],"split_type":[0,0,0,0,0,0,0,0,0,0,0,0,0,0,0],"sum_hessian":[4.92E2,1.18E2,3.74E2,5.2E1,6.6E1,1.82E2,1.92E2,1.17E2,6.5E1,1.42E2,5E1,6.7E1,5E1,8E1,6.2E1],"tree_param":{"num_deleted":"0","num_feature":"3","num_nodes":"15","size_leaf_vector":"1"}},{"base_weights":[1.7339937E-2,3.1442784E-2,-3.5008755E-2,1.3539409E-2,-1.7213514E-1,-3.5748433E-2,3.18274E-2,-4.1432276E-2,-9.701989E-3,2.5947396E-2,-2.7934732E-2,-7.833732E-3,1.9361645E-2],"categories":[],"categories_nodes":[],"categories_segments":[],"categories_sizes":[],"default_left":[0,0,0,0,0,0,0,0,0,0,0,0,0],"id":9,"left_children":[1,-1,3,5,7,9,-1,-1,-1,11,-1,-1,-1],"loss_changes":[4.9394503E0,0E0,2.5720232E0,2.8077245E0,1.1117125E0,2.1401937E0,0E0,0E0,0E0,1.3288968E0,0E0,0E0,0E0],"parents":[2147483647,0,0,2,2,3,3,4,4,5,5,9,9],"right_children":[2,-1,4,6,8,10,-1,-1,-1,12,-1,-1,-1],"split_conditions":[-8.04022E-1,3.1442784E-2,7.17627E-1,4.30462E-1,1.319319E0,9.5116E-2,3.18274E-2,-4.1432276E-2,-9.701989E-3,-2.53052E-1,-2.7934732E-2,-7.833732E-3,1.9361645E-2],"split_indices":[1,0,1,1,1,1,0,0,0,1,0,0,0],"split_type":[0,0,0,0,0,0,0,0,0,0,0,0,0],"sum_hessian":[4.89E2,1.04E2,3.85E2,2.85E2,1E2,2.29E2,5.6E1,5E1,5E1,1.63E2,6.6E1,9.3E1,7E1],"tree_param":{"num_deleted":"0","num_feature":"3","num_nodes":"13","size_leaf_vector":"1"}},{"base_weights":[-3.1800766E-2,-1.1118339E-1,1.6828881E-1,-4.6053544E-2,-7.731867E-2,2.1509692E-2,3.0860288E-2,-3.3057738E-2,-3.180319E-2,-8.253208E-2,1.6759926E-2,-2.9916216E-3,-3.3015333E-2,9.359716E-3,-1.1568942E-2],"categories":[],"categories_nodes":[],"categories_segments":[],"categories_sizes":[],"default_left":[0,0,0,0,0,0,0,0,0,0,0,0,0,0,0],"id":10,"left_children":[1,3,5,-1,7,-1,-1,9,-1,11,-1,13,-1,-1,-1],"loss_changes":[7.8811107E0,2.330648E0,1.0192084E-1,0E0,1.805458E0,0E0,0E0,1.6568078E0,0E0,1.8814325E0,0E0,5.380535E-1,0E0,0E0,0E0],"parents":[2147483647,0,0,1,1,2,2,4,4,7,7,9,9,11,11],"right_children":[2,4,6,-1,8,-1,-1,10,-1,12,-1,14,-1,-1,-1],"split_conditions":[4.5531E-1,-1.251937E0,1.102758E0,-4.6053544E-2,9.4695E-2,2.1509692E-2,3.0860288E-2,-1.98346E-1,-3.180319E-2,-5.68083E-1,1.6759926E-2,-8.69893E-1,-3.3015333E-2,9.359716E-3,-1.1568942E-2],"split_indices":[0,0,0,0,0,0,0,0,0,0,0,0,0,0,0],"split_type":[0,0,0,0,0,0,0,0,0,0,0,0,0,0,0],"sum_hessian":[4.94E2,3.54E2,1.4E2,5.1E1,3.03E2,8.7E1,5.3E1,2.29E2,7.4E1,1.71E2,5.8E1,1.09E2,6.2E1,5.8E1,5.1E1],"tree_param":{"num_deleted":"0","num_feature":"3","num_nodes":"15","size_leaf_vector":"1"}},{"base_weights":[3.3218715E-2,5.717841E-3,2.5896333E-2,4.0390287E-2,-2.4508463E-2,1.3124781E-2,2.2159705E-2,1.659874E-2,-2.3573771E-2,-1.8498013E-2,2.1548325E-2,1.3919054E-2,-1.2948408E-2],"categories":[],"categories_nodes":[],"categories_segments":[],"categories_sizes":[],"default_left":[0,0,0,0,0,0,0,0,0,0,0,0,0],"id":11,"left_children":[1,3,-1,5,-1,7,-1,-1,9,-1,11,-1,-1],"loss_changes":[1.9314842E0,2.480943E0,0E0,1.025336E0,0E0,1.0084025E0,0E0,0E0,9.253138E-1,0E0,1.0993245E0,0E0,0E0],"parents":[2147483647,0,0,1,1,3,3,5,5,8,8,10,10],"right_children":[2,4,-1,6,-1,8,-1,-1,10,-1,12,-1,-1],"split_conditions":[8.96782E-1,4.65216E-1,2.5896333E-2,9.515E-2,-2.4508463E-2,-1.063238E0,2.2159705E-2,1.659874E-2,-6.55582E-1,-1.8498013E-2,-1.71013E-1,1.3919054E-2,-1.2948408E-2],"split_indices":[2,2,0,2,0,2,0,0,2,0,2,0,0],"split_type":[0,0,0,0,0,0,0,0,0,0,0,0,0],"sum_hessian":[5.03E2,4.21E2,8.2E1,3.5E2,7.1E1,2.8E2,7E1,7.6E1,2.04E2,6.3E1,1.41E2,8.5E1,5.6E1],"tree_param":{"num_deleted":"0","num_feature":"3","num_nodes":"13","size_leaf_vector":"1"}},{"base_weights":[2.0633548E-2,1.3986662E-1,-4.615792E-2,9.393114E-2,3.6212265E-2,-4.780454E-2,3.44034E-2,2.3709973E-2,6.4128735E-3,2.932443E-2,-4.584909E-2,-2.6615584E-2,1.7405769E-2],"categories":[],"categories_nodes":[],"categories_segments":[],"categories_sizes":[],"default_left":[0,0,0,0,0,0,0,0,0,0,0,0,0],"id":12,"left_children":[1,3,5,7,-1,-1,9,-1,-1,-1,11,-1,-1],"loss_changes":[3.7494195E0,7.6565456E-1,6.6417065E0,3.8056076E-1,0E0,0E0,3.0341382E0,0E0,0E0,0E0,3.3650787E0,0E0,0E0],"parents":[2147483647,0,0,1,1,2,2,3,3,6,6,10,10],"right_children":[2,4,6,8,-1,-1,10,-1,-1,-1,12,-1,-1],"split_conditions":[-3.91539E-1,-6.98987E-1,-2.0241E-2,-1.142835E0,3.6212265E-2,-4.780454E-2,3.77848E-1,2.3709973E-2,6.4128735E-3,2.932443E-2,9.43303E-1,-2.6615584E-2,1.7405769E-2],"split_indices":[1,1,1,1,0,0,1,0,0,0,1,0,0],"split_type":[0,0,0,0,0,0,0,0,0,0,0,0,0],"sum_hessian":[4.69E2,1.68E2,3.01E2,1.17E2,5.1E1,6.8E1,2.33E2,5.1E1,6.6E1,7.7E1,1.56E2,8.6E1,7E1],"tree_param":{"num_deleted":"0","num_feature":"3","num_nodes":"13","size_leaf_vector":"1"}},{"base_weights":[-2.755145E-2,-2.9801061E-2,9.095209E-3,3.9963227E-2,-2.8517326E-2,1.0463482E-2,-3.4976877E-2,-3.6117643E-2,3.3500284E-2,5.4344278E-2,-1.2775685E-1,-1.5742924E-2,2.7772492E-2,-1.1010443E-2,-2.9043516E-2],"categories":[],"categories_nodes":[],"categories_segments":[],"categories_sizes":[],"default_left":[0,0,0,0,0,0,0,0,0,0,0,0,0,0,0],"id":13,"left_children":[1,-1,3,-1,5,7,-1,9,-1,11,13,-1,-1,-1,-1],"loss_changes":[3.09344E0,0E0,3.9468262E0,0E0,2.8425667E0,2.9828076E0,0E0,2.054538E0,0E0,2.624052E0,4.2614055E-1,0E0,0E0,0E0,0E0],"parents":[2147483647,0,0,2,2,4,4,5,5,7,7,9,9,10,10],"right_children":[2,-1,4,-1,6,8,-1,10,-1,12,14,-1,-1,-1,-1],"split_conditions":[-1.007666E0,-2.9801061E-2,-7.04909E-1,3.9963227E-2,1.155282E0,7.52847E-1,-3.4976877E-2,6.403E-2,3.3500284E-2,-2.87106E-1,4.36098E-1,-1.5742924E-2,2.7772492E-2,-1.1010443E-2,-2.9043516E-2],"split_indices":[2,0,2,0,2,2,0,2,0,2,2,0,0,0,0],"split_type":[0,0,0,0,0,0,0,0,0,0,0,0,0,0,0],"sum_hessian":[4.92E2,8.6E1,4.06E2,5.1E1,3.55E2,2.99E2,5.6E1,2.46E2,5.3E1,1.24E2,1.22E2,5.6E1,6.8E1,6.8E1,5.4E1],"tree_param":{"num_deleted":"0","num_feature":"3","num_nodes":"15","size_leaf_vector":"1"}},{"base_weights":[2.1305617E-2,-1.4978554E-2,1.02545075E-1,8.87677E-2,-8.265479E-2,2.4984423E-2,7.1645794E-3,2.0713773E-2,4.584825E-3,-3.0534107E-2,-9.242646E-3,1.7648442E-2,-2.2333484E-2],"categories":[],"categories_nodes":[],"categories_segments":[],"categories_sizes":[],"default_left":[0,0,0,0,0,0,0,0,0,0,0,0,0],"id":14,"left_children":[1,3,5,7,9,-1,-1,-1,-1,-1,11,-1,-1],"loss_changes":[1.3751671E0,2.2751703E0,4.9704778E-1,3.6323798E-1,1.7378073E0,0E0,0E0,0E0,0E0,0E0,2.1972113E0,0E0,0E0],"parents":[2147483647,0,0,1,1,2,2,3,3,4,4,10,10],"right_children":[2,4,6,8,10,-1,-1,-1,-1,-1,12,-1,-1],"split_conditions":[4.49392E-1,-6.50474E-1,8.96977E-1,-1.121063E0,-2.09858E-1,2.4984423E-2,7.1645794E-3,2.0713773E-2,4.584825E-3,-3.0534107E-2,1.12884E-1,1.7648442E-2,-2.2333484E-2],"split_indices":[0,0,0,0,0,0,0,0,0,0,0,0,0],"split_type":[0,0,0,0,0,0,0,0,0,0,0,0,0],"sum_hessian":[4.65E2,3.22E2,1.43E2,1.27E2,1.95E2,6.5E1,7.8E1,6.8E1,5.9E1,7.3E1,1.22E2,6.4E1,5.8E1],"tree_param":{"num_deleted":"0","num_feature":"3","num_nodes":"13","size_leaf_vector":"1"}},{"base_weights":[-8.461458E-3,-3.7932757E-2,2.6170298E-2,-2.1500595E-2,-1.1008409E-2,1.0185776E-1,-6.144219E-2,6.8501085E-3,2.3899663E-2,-2.292142E-2,-1.9139076E-2,-1.9421605E-2,6.460456E-3],"categories":[],"categories_nodes":[],"categories_segments":[],"categories_sizes":[],"default_left":[0,0,0,0,0,0,0,0,0,0,0,0,0],"id":15,"left_children":[1,3,-1,-1,5,7,9,-1,-1,11,-1,-1,-1],"loss_changes":[2.6806474E0,1.2130638E0,0E0,0E0,1.9530139E0,3.3504522E-1,6.0100174E-1,0E0,0E0,1.0673703E0,0E0,0E0,0E0],"parents":[2147483647,0,0,1,1,4,4,5,5,6,6,9,9],"right_children":[2,4,-1,-1,6,8,10,-1,-1,12,-1,-1,-1],"split_conditions":[1.019267E0,-1.007666E0,2.6170298E-2,-2.1500595E-2,-3.58526E-1,-6.76309E-1,4.65216E-1,6.8501085E-3,2.3899663E-2,-6.0558E-2,-1.9139076E-2,-1.9421605E-2,6.460456E-3],"split_indices":[2,2,0,0,2,2,2,0,0,2,0,0,0],"split_type":[0,0,0,0,0,0,0,0,0,0,0,0,0],"sum_hessian":[4.95E2,4.27E2,6.8E1,8.6E1,3.41E2,1.05E2,2.36E2,5.4E1,5.1E1,1.5E2,8.6E1,5.7E1,9.3E1],"tree_param":{"num_deleted":"0","num_feature":"3","num_nodes":"13","size_leaf_vector":"1"}},{"base_weights":[3.6643237E-2,6.959259E-2,-8.568506E-2,3.1490404E-2,4.2580076E-2,-2.3622334E-2,-1.197666E-3,6.940634E-2,-2.138354E-2,2.7342595E-2,2.5889596E-2,8.225004E-2,-8.7402295E-3,4.250174E-3,2.1843784E-2],"categories":[],"categories_nodes":[],"categories_segments":[],"categories_sizes":[],"default_left":[0,0,0,0,0,0,0,0,0,0,0,0,0,0,0],"id":16,"left_children":[1,3,5,7,-1,-1,-1,9,-1,11,-1,13,-1,-1,-1],"loss_changes":[1.9729142E0,3.134327E0,5.789256E-1,2.1744213E0,0E0,0E0,0E0,1.1672422E0,0E0,9.1202164E-1,0E0,3.9906877E-1,0E0,0E0,0E0],"parents":[2147483647,0,0,1,1,2,2,3,3,7,7,9,9,11,11],"right_children":[2,4,6,8,-1,-1,-1,10,-1,12,-1,14,-1,-1,-1],"split_conditions":[6.68802E-1,3.78217E-1,1.164787E0,9.0902E-2,4.2580076E-2,-2.3622334E-2,-1.197666E-3,-2.87106E-1,-2.138354E-2,-8.07827E-1,2.5889596E-2,-1.126029E0,-8.7402295E-3,4.250174E-3,2.1843784E-2],"split_indices":[2,2,2,2,0,0,0,2,0,2,0,2,0,0,0],"split_type":[0,0,0,0,0,0,0,0,0,0,0,0,0,0,0],"sum_hessian":[4.87E2,3.84E2,1.03E2,3.27E2,5.7E1,5.3E1,5E1,2.69E2,5.8E1,1.92E2,7.7E1,1.17E2,7.5E1,6.4E1,5.3E1],"tree_param":{"num_deleted":"0","num_feature":"3","num_nodes":"15","size_leaf_vector":"1"}},{"base_weights":[-2.3042522E-2,-5.3998232E-2,4.8923053E-2,-1.39956195E-2,-3.0488709E-2,1.5600547E-2,2.2295946E-3,-4.3063827E-2,1.5062645E-2,4.4735833E-3,-7.8214265E-2,-1.9915966E-2,-4.918997E-3],"categories":[],"categories_nodes":[],"categories_segments":[],"categories_sizes":[],"default_left":[0,0,0,0,0,0,0,0,0,0,0,0,0],"id":17,"left_children":[1,3,5,7,-1,-1,-1,9,-1,-1,11,-1,-1],"loss_changes":[1.0875537E0,2.0331922E0,2.7422535E-1,9.022872E-1,0E0,0E0,0E0,5.5573225E-1,0E0,0E0,3.5745054E-1,0E0,0E0],"parents":[2147483647,0,0,1,1,2,2,3,3,7,7,10,10],"right_children":[2,4,6,8,-1,-1,-1,10,-1,-1,12,-1,-1],"split_conditions":[4.5531E-1,9.4695E-2,8.396E-1,-2.09858E-1,-3.0488709E-2,1.5600547E-2,2.2295946E-3,-1.096749E0,1.5062645E-2,4.4735833E-3,-6.19931E-1,-1.9915966E-2,-4.918997E-3],"split_indices":[0,0,0,0,0,0,0,0,0,0,0,0,0],"split_type":[0,0,0,0,0,0,0,0,0,0,0,0,0],"sum_hessian":[4.86E2,3.4E2,1.46E2,2.69E2,7.1E1,5.5E1,9.1E1,2.15E2,5.4E1,7E1,1.45E2,6.5E1,8E1],"tree_param":{"num_deleted":"0","num_feature":"3","num_nodes":"13","size_leaf_vector":"1"}},{"base_weights":[-4.3719776E-2,-3.8844973E-2,-1.8123994E-2,2.8585287E-2,-4.851113E-2,-3.7043843E-2,-1.668509E-2,1.9180894E-2,-7.399635E-2,-1.3535289E-2,6.5078855E-2,-3.9502107E-2,8.853707E-3,1.8415252E-2,4.424464E-3],"categories":[],"categories_nodes":[],"categories_segments":[],"categories_sizes":[],"default_left":[0,0,0,0,0,0,0,0,0,0,0,0,0,0,0],"id":18,"left_children":[1,-1,3,-1,5,-1,7,9,11,-1,13,-1,-1,-1,-1],"loss_changes":[2.6949165E0,0E0,2.7931938E0,0E0,2.4211497E0,0E0,6.838535E-1,1.0353779E0,3.239566E0,0E0,2.9402494E-1,0E0,0E0,0E0,0E0],"parents":[2147483647,0,0,2,2,4,4,6,6,7,7,8,8,10,10],"right_children":[2,-1,4,-1,6,-1,8,10,12,-1,14,-1,-1,-1,-1],"split_conditions":[-1.279539E0,-3.8844973E-2,-8.69893E-1,2.8585287E-2,-5.51132E-1,-3.7043843E-2,6.02055E-1,-1.88833E-1,9.90083E-1,-1.3535289E-2,9.4695E-2,-3.9502107E-2,8.853707E-3,1.8415252E-2,4.424464E-3],"split_indices":[0,0,0,0,0,0,0,0,0,0,0,0,0,0,0],"split_type":[0,0,0,0,0,0,0,0,0,0,0,0,0,0,0],"sum_hessian":[4.89E2,5.1E1,4.38E2,5.5E1,3.83E2,5.2E1,3.31E2,2.04E2,1.27E2,6E1,1.44E2,5.2E1,7.5E1,5.4E1,9E1],"tree_param":{"num_deleted":"0","num_feature":"3","num_nodes":"15","size_leaf_vector":"1"}},{"base_weights":[-3.770126E-2,-1.0713796E-1,-9.472146E-3,-3.3867762E-3,-3.07865E-2,2.2790046E-2,-1.8012336E-2,-3.276158E-2,7.699809E-2,5.265176E-3,-1.9472092E-2,2.7528664E-2,6.985399E-4],"categories":[],"categories_nodes":[],"categories_segments":[],"categories_sizes":[],"default_left":[0,0,0,0,0,0,0,0,0,0,0,0,0],"id":19,"left_children":[1,3,5,-1,-1,7,-1,9,11,-1,-1,-1,-1],"loss_changes":[9.829739E-1,1.1982478E0,1.2802682E0,0E0,0E0,8.396765E-1,0E0,9.134578E-1,1.0857248E0,0E0,0E0,0E0,0E0],"parents":[2147483647,0,0,1,1,2,2,5,5,7,7,8,8],"right_children":[2,4,6,-1,-1,8,-1,10,12,-1,-1,-1,-1],"split_conditions":[-6.55582E-1,-1.075386E0,9.37287E-1,-3.3867762E-3,-3.07865E-2,9.515E-2,-1.8012336E-2,-1.71013E-1,4.22083E-1,5.265176E-3,-1.9472092E-2,2.7528664E-2,6.985399E-4],"split_indices":[2,2,2,0,0,2,0,2,2,0,0,0,0],"split_type":[0,0,0,0,0,0,0,0,0,0,0,0,0],"sum_hessian":[5.01E2,1.44E2,3.57E2,7.8E1,6.6E1,2.77E2,8E1,1.37E2,1.4E2,8.1E1,5.6E1,5.6E1,8.4E1],"tree_param":{"num_deleted":"0","num_feature":"3","num_nodes":"13","size_leaf_vector":"1"}},{"base_weights":[-1.9703336E-2,2.9914739E-2,-6.1879262E-2,-4.2404506E-2,2.7036507E-2,-1.22476354E-1,7.6874336E-3,9.801941E-3,-2.500776E-2,-2.6987432E-2,-1.0517143E-2],"categories":[],"categories_nodes":[],"categories_segments":[],"categories_sizes":[],"default_left":[0,0,0,0,0,0,0,0,0,0,0],"id":20,"left_children":[1,3,5,7,-1,9,-1,-1,-1,-1,-1],"loss_changes":[9.9169254E-1,2.3776636E0,1.7612278E0,1.9933424E0,0E0,4.89666E-1,0E0,0E0,0E0,0E0,0E0],"parents":[2147483647,0,0,1,1,2,2,3,3,5,5],"right_children":[2,4,6,8,-1,10,-1,-1,-1,-1,-1],"split_conditions":[-1.71013E-1,-6.25181E-1,7.73165E-1,-1.053193E0,2.7036507E-2,2.18056E-1,7.6874336E-3,9.801941E-3,-2.500776E-2,-2.6987432E-2,-1.0517143E-2],"split_indices":[2,2,2,2,0,2,0,0,0,0,0],"split_type":[0,0,0,0,0,0,0,0,0,0,0],"sum_hessian":[4.72E2,2.17E2,2.55E2,1.47E2,7E1,1.66E2,8.9E1,7.9E1,6.8E1,7.8E1,8.8E1],"tree_param":{"num_deleted":"0","num_feature":"3","num_nodes":"11","size_leaf_vector":"1"}},{"base_weights":[3.2954097E-2,5.3795654E-2,-2.0470172E-2,3.7500545E-2,1.8173296E-2,1.0411453E-1,1.4622664E-4,1.9356617E-3,2.972967E-2,2.0978723E-2,-9.833861E-3,-3.5480537E-2,2.0027371E-2,4.805749E-3,-1.713282E-2],"categories":[],"categories_nodes":[],"categories_segments":[],"categories_sizes":[],"default_left":[0,0,0,0,0,0,0,0,0,0,0,0,0,0,0],"id":21,"left_children":[1,3,-1,5,-1,7,9,-1,-1,11,-1,13,-1,-1,-1],"loss_changes":[1.6422024E0,4.48779E-1,0E0,8.3108366E-1,0E0,1.0272039E0,2.9566848E-1,0E0,0E0,1.046754E0,0E0,5.884543E-1,0E0,0E0,0E0],"parents":[2147483647,0,0,1,1,3,3,5,5,6,6,9,9,11,11],"right_children":[2,4,-1,6,-1,8,10,-1,-1,12,-1,14,-1,-1,-1],"split_conditions":[1.180803E0,4.83056E-1,-2.0470172E-2,-6.82541E-1,1.8173296E-2,-1.167393E0,1.86784E-1,1.9356617E-3,2.972967E-2,-5.2901E-2,-9.833861E-3,-3.42549E-1,2.0027371E-2,4.805749E-3,-1.713282E-2],"split_indices":[0,0,0,0,0,0,0,0,0,0,0,0,0,0,0],"split_type":[0,0,0,0,0,0,0,0,0,0,0,0,0,0,0],"sum_hessian":[4.62E2,4.12E2,5E1,3.33E2,7.9E1,1.19E2,2.14E2,6.1E1,5.8E1,1.63E2,5.1E1,1.09E2,5.4E1,5.9E1,5E1],"tree_param":{"num_deleted":"0","num_feature":"3","num_nodes":"15","size_leaf_vector":"1"}},{"base_weights":[-4.1289255E-2,-1.1645999E-2,-2.5768062E-2,-4.880601E-2,1.9126978E-2,1.5833348E-2,-3.9323278E-2,-1.1129997E-2,1.7792705E-2,8.773801E-3,-5.1465917E-2,-1.6815668E-2,2.2625383E-3],"categories":[],"categories_nodes":[],"categories_segments":[],"categories_sizes":[],"default_left":[0,0,0,0,0,0,0,0,0,0,0,0,0],"id":22,"left_children":[1,3,-1,5,-1,7,-1,9,-1,-1,11,-1,-1],"loss_changes":[1.9012423E0,2.0850284E0,0E0,4.3896103E0,0E0,6.803179E-1,0E0,5.5062246E-1,0E0,0E0,5.020885E-1,0E0,0E0],"parents":[2147483647,0,0,1,1,3,3,5,5,7,7,10,10],"right_children":[2,4,-1,6,-1,8,-1,10,-1,-1,12,-1,-1],"split_conditions":[8.1322E-1,2.87831E-1,-2.5768062E-2,-5.7191E-2,1.9126978E-2,-3.16714E-1,-3.9323278E-2,-1.076861E0,1.7792705E-2,8.773801E-3,-6.9153E-1,-1.6815668E-2,2.2625383E-3],"split_indices":[1,1,0,1,0,1,0,1,0,0,1,0,0],"split_type":[0,0,0,0,0,0,0,0,0,0,0,0,0],"sum_hessian":[4.91E2,4.01E2,9E1,3.17E2,8.4E1,2.44E2,7.3E1,1.94E2,5E1,7.1E1,1.23E2,6.4E1,5.9E1],"tree_param":{"num_deleted":"0","num_feature":"3","num_nodes":"13","size_leaf_vector":"1"}},{"base_weights":[-7.5917365E-3,-2.8025541E-2,6.271725E-2,3.920853E-3,-3.358766E-2,2.1041729E-2,-6.6426315E-4,-1.2519608E-2,2.2723E-2,5.4220192E-2,-1.8085224E-3,3.1913433E-3,1.240714E-2,-9.26802E-3,7.0548058E-3],"categories":[],"categories_nodes":[],"categories_segments":[],"categories_sizes":[],"default_left":[0,0,0,0,0,0,0,0,0,0,0,0,0,0,0],"id":23,"left_children":[1,3,5,7,-1,-1,-1,-1,9,11,13,-1,-1,-1,-1],"loss_changes":[7.1435106E-1,2.4102268E0,5.8390397E-1,5.473804E-1,0E0,0E0,0E0,0E0,2.1181075E-1,1.1088717E-1,4.5695868E-1,0E0,0E0,0E0,0E0],"parents":[2147483647,0,0,1,1,2,2,3,3,8,8,9,9,10,10],"right_children":[2,4,6,8,-1,-1,-1,-1,10,12,14,-1,-1,-1,-1],"split_conditions":[7.17057E-1,3.72104E-1,1.056256E0,-1.279539E0,-3.358766E-2,2.1041729E-2,-6.6426315E-4,-1.2519608E-2,-4.49771E-1,-9.00931E-1,-6.9576E-2,3.1913433E-3,1.240714E-2,-9.26802E-3,7.0548058E-3],"split_indices":[0,0,0,0,0,0,0,0,0,0,0,0,0,0,0],"split_type":[0,0,0,0,0,0,0,0,0,0,0,0,0,0,0],"sum_hessian":[4.95E2,3.84E2,1.11E2,3.31E2,5.3E1,5.1E1,6E1,5.8E1,2.73E2,1.19E2,1.54E2,5.6E1,6.3E1,6.9E1,8.5E1],"tree_param":{"num_deleted":"0","num_feature":"3","num_nodes":"15","size_leaf_vector":"1"}},{"base_weights":[1.2411173E-2,2.7678471E-2,-2.1626398E-2,-2.2968516E-2,1.4742806E-2,2.4280544E-2,-2.322752E-2,-2.4794443E-2,2.6948143E-2,2.583984E-2,-4.314306E-2,-1.9176967E-2,3.574366E-3],"categories":[],"categories_nodes":[],"categories_segments":[],"categories_sizes":[],"default_left":[0,0,0,0,0,0,0,0,0,0,0,0,0],"id":24,"left_children":[1,-1,3,-1,5,-1,7,-1,9,-1,11,-1,-1],"loss_changes":[2.909694E0,0E0,1.986971E0,0E0,1.8249518E0,0E0,1.857837E0,0E0,1.9732286E0,0E0,7.4617934E-1,0E0,0E0],"parents":[2147483647,0,0,2,2,4,4,6,6,8,8,10,10],"right_children":[2,-1,4,-1,6,-1,8,-1,10,-1,12,-1,-1],"split_conditions":[-1.121063E0,2.7678471E-2,-5.36186E-1,-2.2968516E-2,-9.8101E-2,2.4280544E-2,1.76713E-1,-2.4794443E-2,5.90227E-1,2.583984E-2,9.90083E-1,-1.9176967E-2,3.574366E-3],"split_indices":[0,0,0,0,0,0,0,0,0,0,0,0,0],"split_type":[0,0,0,0,0,0,0,0,0,0,0,0,0],"sum_hessian":[4.95E2,8.1E1,4.14E2,8.9E1,3.25E2,6.6E1,2.59E2,6.7E1,1.92E2,6.2E1,1.3E2,5.7E1,7.3E1],"tree_param":{"num_deleted":"0","num_feature":"3","num_nodes":"13","size_leaf_vector":"1"}},{"base_weights":[-1.7260306E-2,5.9817646E-2,-5.6115538E-2,3.0995486E-4,2.0306025E-2,-3.8767673E-2,2.7453035E-2,2.027761E-2,-2.4440883E-2,-3.0437525E-2,1.0023939E-2],"categories":[],"categories_nodes":[],"categories_segments":[],"categories_sizes":[],"default_left":[0,0,0,0,0,0,0,0,0,0,0],"id":25,"left_children":[1,3,5,-1,-1,-1,7,-1,9,-1,-1],"loss_changes":[1.4019665E0,6.8478155E-1,5.2657623E0,0E0,0E0,0E0,1.2388234E0,0E0,2.4569087E0,0E0,0E0],"parents":[2147483647,0,0,1,1,2,2,6,6,8,8],"right_children":[2,4,6,-1,-1,-1,8,-1,10,-1,-1],"split_conditions":[-5.057E-1,-9.30488E-1,-2.0241E-2,3.0995486E-4,2.0306025E-2,-3.8767673E-2,3.77848E-1,2.027761E-2,6.60222E-1,-3.0437525E-2,1.0023939E-2],"split_indices":[1,1,1,0,0,0,1,0,1,0,0],"split_type":[0,0,0,0,0,0,0,0,0,0,0],"sum_hessian":[4.66E2,1.56E2,3.1E2,8.9E1,6.7E1,9E1,2.2E2,7.1E1,1.49E2,5E1,9.9E1],"tree_param":{"num_deleted":"0","num_feature":"3","num_nodes":"11","size_leaf_vector":"1"}},{"base_weights":[2.8150411E-2,-9.474379E-4,3.1118767E-2,8.129809E-2,-5.7199586E-2,2.908201E-2,2.5552463E-2,-3.0210873E-2,2.1004999E-2,7.66207E-3,1.4360219E-3,2.7769579E-2,-1.521594E-2],"categories":[],"categories_nodes":[],"categories_segments":[],"categories_sizes":[],"default_left":[0,0,0,0,0,0,0,0,0,0,0,0,0],"id":26,"left_children":[1,3,-1,5,7,9,-1,-1,11,-1,-1,-1,-1],"loss_changes":[2.5411084E0,1.9477748E0,0E0,7.901838E-1,2.8236277E0,4.628916E-2,0E0,0E0,3.294474E0,0E0,0E0,0E0,0E0],"parents":[2147483647,0,0,1,1,3,3,4,4,5,5,8,8],"right_children":[2,4,-1,6,8,10,-1,-1,12,-1,-1,-1,-1],"split_conditions":[1.022476E0,-3.91539E-1,3.1118767E-2,-7.74222E-1,-2.0241E-2,-1.238281E0,2.5552463E-2,-3.0210873E-2,3.77848E-1,7.66207E-3,1.4360219E-3,2.7769579E-2,-1.521594E-2],"split_indices":[1,1,0,1,1,1,0,0,1,0,0,0,0],"split_type":[0,0,0,0,0,0,0,0,0,0,0,0,0],"sum_hessian":[4.86E2,4.19E2,6.7E1,1.7E2,2.49E2,1.08E2,6.2E1,8.7E1,1.62E2,5E1,5.8E1,6.9E1,9.3E1],"tree_param":{"num_deleted":"0","num_feature":"3","num_nodes":"13","size_leaf_vector":"1"}},{"base_weights":[-3.1904809E-3,4.4834774E-2,-6.5510176E-2,-1.17865885E-2,9.145199E-2,-2.4122832E-2,-1.2131835E-2,3.5085104E-2,3.6313865E-2,2.7560324E-3,-7.7521717E-3,-1.1589472E-2,2.2157783E-2],"categories":[],"categories_nodes":[],"categories_segments":[],"categories_sizes":[],"default_left":[0,0,0,0,0,0,0,0,0,0,0,0,0],"id":27,"left_children":[1,3,5,-1,7,-1,9,-1,11,-1,-1,-1,-1],"loss_changes":[1.3617225E0,1.485739E0,1.0053582E0,0E0,1.4602705E0,0E0,1.553773E-1,0E0,1.7322226E0,0E0,0E0,0E0,0E0],"parents":[2147483647,0,0,1,1,2,2,4,4,6,6,8,8],"right_children":[2,4,6,-1,8,-1,10,-1,12,-1,-1,-1,-1],"split_conditions":[9.0902E-2,-1.126029E0,4.92166E-1,-1.17865885E-2,-7.70448E-1,-2.4122832E-2,9.91423E-1,3.5085104E-2,-3.20468E-1,2.7560324E-3,-7.7521717E-3,-1.1589472E-2,2.2157783E-2],"split_indices":[2,2,2,0,2,0,2,0,2,0,0,0,0],"split_type":[0,0,0,0,0,0,0,0,0,0,0,0,0],"sum_hessian":[4.53E2,2.56E2,1.97E2,7E1,1.86E2,7E1,1.27E2,5.1E1,1.35E2,7.2E1,5.5E1,6.7E1,6.8E1],"tree_param":{"num_deleted":"0","num_feature":"3","num_nodes":"13","size_leaf_vector":"1"}},{"base_weights":[2.9733805E-2,6.409635E-2,-6.7828454E-2,3.551266E-2,3.3553928E-2,-5.9125284E-3,-1.5369785E-2,8.452024E-2,-3.2419402E-2,1.2456591E-3,2.8897276E-2,-1.5080565E-2,2.545023E-3],"categories":[],"categories_nodes":[],"categories_segments":[],"categories_sizes":[],"default_left":[0,0,0,0,0,0,0,0,0,0,0,0,0],"id":28,"left_children":[1,3,5,7,-1,-1,-1,9,11,-1,-1,-1,-1],"loss_changes":[1.5297294E0,1.5294014E0,1.1306739E-1,9.5821655E-1,0E0,0E0,0E0,1.3746616E0,4.0875888E-1,0E0,0E0,0E0,0E0],"parents":[2147483647,0,0,1,1,2,2,3,3,7,7,8,8],"right_children":[2,4,6,8,-1,-1,-1,10,12,-1,-1,-1,-1],"split_conditions":[5.68102E-1,1.76713E-1,1.142828E0,-3.96384E-1,3.3553928E-2,-5.9125284E-3,-1.5369785E-2,-8.23857E-1,-1.62498E-1,1.2456591E-3,2.8897276E-2,-1.5080565E-2,2.545023E-3],"split_indices":[0,0,0,0,0,0,0,0,0,0,0,0,0],"split_type":[0,0,0,0,0,0,0,0,0,0,0,0,0],"sum_hessian":[4.54E2,3.36E2,1.18E2,2.86E2,5E1,6.6E1,5.2E1,1.66E2,1.2E2,9.8E1,6.8E1,5E1,7E1],"tree_param":{"num_deleted":"0","num_feature":"3","num_nodes":"13","size_leaf_vector":"1"}},{"base_weights":[1.8147686E-2,2.559406E-2,-7.068595E-3,-1.6887639E-2,2.4157282E-2,5.8221012E-2,-2.305305E-2,9.601396E-3,2.4297165E-2,2.4218878E-2,-8.9519784E-2,-2.48766E-2,-2.8853004E-3],"categories":[],"categories_nodes":[],"categories_segments":[],"categories_sizes":[],"default_left":[0,0,0,0,0,0,0,0,0,0,0,0,0],"id":29,"left_children":[1,-1,3,-1,5,7,-1,9,-1,-1,11,-1,-1],"loss_changes":[1.8967727E0,0E0,1.3997229E0,0E0,1.9959847E0,1.3908029E0,0E0,2.8593426E0,0E0,0E0,6.137165E-1,0E0,0E0],"parents":[2147483647,0,0,2,2,4,4,5,5,7,7,10,10],"right_children":[2,-1,4,-1,6,8,-1,10,-1,-1,12,-1,-1],"split_conditions":[-1.121063E0,2.559406E-2,-5.36186E-1,-1.6887639E-2,1.142828E0,4.83056E-1,-2.305305E-2,-9.8101E-2,2.4297165E-2,2.4218878E-2,1.32754E-1,-2.48766E-2,-2.8853004E-3],"split_indices":[0,0,0,0,0,0,0,0,0,0,0,0,0],"split_type":[0,0,0,0,0,0,0,0,0,0,0,0,0],"sum_hessian":[4.92E2,6.9E1,4.23E2,9.6E1,3.27E2,2.75E2,5.2E1,1.88E2,8.7E1,7.4E1,1.14E2,5.4E1,6E1],"tree_param":{"num_deleted":"0","num_feature":"3","num_nodes":"13","size_leaf_vector":"1"}},{"base_weights":[1.3400546E-2,1.890626E-2,-4.7204224E-3,-1.6224649E-2,1.6102755E-2,1.9345459E-2,-1.8160349E-2,-2.2566156E-2,1.34493485E-2,1.0303634E-1,-6.75358E-2,2.4864342E-2,5.93028E-3,-3.6266636E-2,1.1188357E-2],"categories":[],"categories_nodes":[],"categories_segments":[],"categories_sizes":[],"default_left":[0,0,0,0,0,0,0,0,0,0,0,0,0,0,0],"id":30,"left_children":[1,-1,3,-1,5,-1,7,-1,9,11,13,-1,-1,-1,-1],"loss_changes":[9.7219044E-1,0E0,8.870484E-1,0E0,1.3287823E0,0E0,1.1059004E0,0E0,1.5595747E0,3.9972973E-1,2.8163755E0,0E0,0E0,0E0,0E0],"parents":[2147483647,0,0,2,2,4,4,6,6,8,8,9,9,10,10],"right_children":[2,-1,4,-1,6,-1,8,-1,10,12,14,-1,-1,-1,-1],"split_conditions":[-1.024293E0,1.890626E-2,-6.44476E-1,-1.6224649E-2,-1.25573E-1,1.9345459E-2,9.5116E-2,-2.2566156E-2,6.81231E-1,3.77848E-1,1.169635E0,2.4864342E-2,5.93028E-3,-3.6266636E-2,1.1188357E-2],"split_indices":[1,0,1,0,1,0,1,0,1,1,1,0,0,0,0],"split_type":[0,0,0,0,0,0,0,0,0,0,0,0,0,0,0],"sum_hessian":[4.75E2,6.5E1,4.1E2,6.8E1,3.42E2,7.9E1,2.63E2,5E1,2.13E2,1.01E2,1.12E2,5E1,5.1E1,5E1,6.2E1],"tree_param":{"num_deleted":"0","num_feature":"3","num_nodes":"15","size_leaf_vector":"1"}},{"base_weights":[-3.309457E-2,2.6353156E-2,-8.443329E-2,-1.3503511E-2,1.2005157E-2,-2.267822E-1,4.9306214E-2,1.0338346E-2,-1.791754E-2,-4.951017E-2,-2.3054026E-2,1.4986056E-2,1.08978E-3],"categories":[],"categories_nodes":[],"categories_segments":[],"categories_sizes":[],"default_left":[0,0,0,0,0,0,0,0,0,0,0,0,0],"id":31,"left_children":[1,3,5,7,-1,9,11,-1,-1,-1,-1,-1,-1],"loss_changes":[1.5251584E0,4.9745739E-1,5.113278E0,1.1784209E0,0E0,9.306421E-1,2.9497027E-1,0E0,0E0,0E0,0E0,0E0,0E0],"parents":[2147483647,0,0,1,1,2,2,3,3,5,5,6,6],"right_children":[2,4,6,8,-1,10,12,-1,-1,-1,-1,-1,-1],"split_conditions":[-1.16554E-1,-6.66543E-1,5.3003E-1,-1.024293E0,1.2005157E-2,1.45964E-1,1.011545E0,1.0338346E-2,-1.791754E-2,-4.951017E-2,-2.3054026E-2,1.4986056E-2,1.08978E-3],"split_indices":[1,1,1,1,0,1,1,0,0,0,0,0,0],"split_type":[0,0,0,0,0,0,0,0,0,0,0,0,0],"sum_hessian":[4.98E2,2.31E2,2.67E2,1.33E2,9.8E1,1.29E2,1.38E2,7.5E1,5.8E1,5.2E1,7.7E1,6.2E1,7.6E1],"tree_param":{"num_deleted":"0","num_feature":"3","num_nodes":"13","size_leaf_vector":"1"}},{"base_weights":[-1.8361656E-2,-4.624548E-2,1.9087628E-2,9.607114E-3,-7.262528E-2,-2.9199136E-2,-3.316958E-2,1.2140529E-2,-2.117871E-2,-6.8425382E-3,4.657358E-2,1.6635973E-2,-2.7932702E-3],"categories":[],"categories_nodes":[],"categories_segments":[],"categories_sizes":[],"default_left":[0,0,0,0,0,0,0,0,0,0,0,0,0],"id":32,"left_children":[1,3,-1,-1,5,-1,7,9,-1,-1,11,-1,-1],"loss_changes":[1.8938937E0,1.1422677E0,0E0,0E0,1.5150839E0,0E0,1.1763893E0,3.402146E-1,0E0,0E0,4.5084554E-1,0E0,0E0],"parents":[2147483647,0,0,1,1,4,4,6,6,7,7,10,10],"right_children":[2,4,-1,-1,6,-1,8,10,-1,-1,12,-1,-1],"split_conditions":[1.004024E0,-1.096749E0,1.9087628E-2,9.607114E-3,-5.36186E-1,-2.9199136E-2,3.95418E-1,-1.88833E-1,-2.117871E-2,-6.8425382E-3,9.4695E-2,1.6635973E-2,-2.7932702E-3],"split_indices":[0,0,0,0,0,0,0,0,0,0,0,0,0],"split_type":[0,0,0,0,0,0,0,0,0,0,0,0,0],"sum_hessian":[4.64E2,3.9E2,7.4E1,7.5E1,3.15E2,7.6E1,2.39E2,1.69E2,7E1,6.3E1,1.06E2,5.3E1,5.3E1],"tree_param":{"num_deleted":"0","num_feature":"3","num_nodes":"13","size_leaf_vector":"1"}},{"base_weights":[8.364955E-3,-2.8912252E-2,4.696186E-2,-2.3581564E-2,8.4891595E-2,1.8536536E-2,-3.0384373E-2,1.6430067E-1,6.0425773E-3,2.0277975E-2,2.7988514E-2,-1.8477084E-2,1.7315904E-2],"categories":[],"categories_nodes":[],"categories_segments":[],"categories_sizes":[],"default_left":[0,0,0,0,0,0,0,0,0,0,0,0,0],"id":33,"left_children":[1,-1,3,5,7,-1,-1,9,11,-1,-1,-1,-1],"loss_changes":[3.711693E0,0E0,1.074955E0,3.7387686E0,1.6332136E0,0E0,0E0,5.9137344E-2,1.8802505E0,0E0,0E0,0E0,0E0],"parents":[2147483647,0,0,2,2,3,3,4,4,7,7,8,8],"right_children":[2,-1,4,6,8,-1,-1,10,12,-1,-1,-1,-1],"split_conditions":[-1.033228E0,-2.8912252E-2,-1.33494E-1,-4.99309E-1,5.86081E-1,1.8536536E-2,-3.0384373E-2,2.18056E-1,1.019267E0,2.0277975E-2,2.7988514E-2,-1.8477084E-2,1.7315904E-2],"split_indices":[2,0,2,2,2,0,0,2,2,0,0,0,0],"split_type":[0,0,0,0,0,0,0,0,0,0,0,0,0],"sum_hessian":[4.76E2,7.6E1,4E2,1.4E2,2.6E2,7.7E1,6.3E1,1.29E2,1.31E2,5.9E1,7E1,6E1,7.1E1],"tree_param":{"num_deleted":"0","num_feature":"3","num_nodes":"13","size_leaf_vector":"1"}},{"base_weights":[-4.577812E-2,3.13055E-2,-1.0949847E-1,-1.3744521E-2,7.3349E-2,-2.5815846E-2,-8.360675E-2,2.4921004E-2,-1.0101412E-5,-3.3099584E-2,-2.6149075E-2,1.1772095E-3,-1.1331444E-2],"categories":[],"categories_nodes":[],"categories_segments":[],"categories_sizes":[],"default_left":[0,0,0,0,0,0,0,0,0,0,0,0,0],"id":34,"left_children":[1,3,5,-1,7,-1,9,-1,-1,11,-1,-1,-1],"loss_changes":[2.3610897E0,1.1334854E0,4.1193557E-1,0E0,1.1104286E0,0E0,8.5565174E-1,0E0,0E0,2.126235E-1,0E0,0E0,0E0],"parents":[2147483647,0,0,1,1,2,2,4,4,6,6,9,9],"right_children":[2,4,6,-1,8,-1,10,-1,-1,12,-1,-1,-1],"split_conditions":[-1.76928E-1,-1.239073E0,2.18056E-1,-1.3744521E-2,-7.70448E-1,-2.5815846E-2,9.37287E-1,2.4921004E-2,-1.0101412E-5,5.86081E-1,-2.6149075E-2,1.1772095E-3,-1.1331444E-2],"split_indices":[2,2,2,0,2,0,2,0,0,2,0,0,0],"split_type":[0,0,0,0,0,0,0,0,0,0,0,0,0],"sum_hessian":[4.79E2,2.17E2,2.62E2,5.5E1,1.62E2,7.5E1,1.87E2,7.1E1,9.1E1,1.21E2,6.6E1,6.2E1,5.9E1],"tree_param":{"num_deleted":"0","num_feature":"3","num_nodes":"13","size_leaf_vector":"1"}},{"base_weights":[5.102726E-3,-1.8104156E-2,3.404553E-2,5.722472E-2,-1.8149564E-2,1.5551916E-2,2.4888346E-2,-1.4697637E-2,7.479592E-3,1.1975435E-2,-1.8193353E-2,-8.042168E-3,3.4128095E-3],"categories":[],"categories_nodes":[],"categories_segments":[],"categories_sizes":[],"default_left":[0,0,0,0,0,0,0,0,0,0,0,0,0],"id":35,"left_children":[1,-1,3,5,7,9,-1,-1,-1,-1,11,-1,-1],"loss_changes":[1.7517511E0,0E0,4.7408614E-1,1.2249773E0,6.618961E-1,4.2880288E-1,0E0,0E0,0E0,0E0,1.8976295E-1,0E0,0E0],"parents":[2147483647,0,0,2,2,3,3,4,4,5,5,10,10],"right_children":[2,-1,4,6,8,10,-1,-1,-1,-1,12,-1,-1],"split_conditions":[-1.007666E0,-1.8104156E-2,6.26673E-1,2.18056E-1,1.019267E0,-5.38778E-1,2.4888346E-2,-1.4697637E-2,7.479592E-3,1.1975435E-2,-1.16046E-1,-8.042168E-3,3.4128095E-3],"split_indices":[2,0,2,2,2,2,0,0,0,0,2,0,0],"split_type":[0,0,0,0,0,0,0,0,0,0,0,0,0],"sum_hessian":[4.79E2,8.9E1,3.9E2,2.7E2,1.2E2,1.96E2,7.4E1,5.5E1,6.5E1,6.7E1,1.29E2,6.9E1,6E1],"tree_param":{"num_deleted":"0","num_feature":"3","num_nodes":"13","size_leaf_vector":"1"}},{"base_weights":[3.76369E-2,-7.176403E-3,1.04089305E-1,1.499225E-2,-5.061264E-2,2.6318397E-2,6.8698734E-2,-2.0305792E-2,-4.0593246E-4,7.103138E-4,1.7365094E-2,1.8346945E-2,-1.5399906E-2],"categories":[],"categories_nodes":[],"categories_segments":[],"categories_sizes":[],"default_left":[0,0,0,0,0,0,0,0,0,0,0,0,0],"id":36,"left_children":[1,3,5,-1,7,-1,9,-1,11,-1,-1,-1,-1],"loss_changes":[1.4420757E0,1.3544562E0,4.804592E-1,0E0,8.808305E-1,0E0,3.96859E-1,0E0,1.6565086E0,0E0,0E0,0E0,0E0],"parents":[2147483647,0,0,1,1,2,2,4,4,6,6,8,8],"right_children":[2,4,6,-1,8,-1,10,-1,12,-1,-1,-1,-1],"split_conditions":[2.18056E-1,-1.053193E0,5.60566E-1,1.499225E-2,-4.90509E-1,2.6318397E-2,8.91579E-1,-2.0305792E-2,-1.71013E-1,7.103138E-4,1.7365094E-2,1.8346945E-2,-1.5399906E-2],"split_indices":[2,2,2,0,2,0,2,0,2,0,0,0,0],"split_type":[0,0,0,0,0,0,0,0,0,0,0,0,0],"sum_hessian":[4.83E2,2.89E2,1.94E2,8.3E1,2.06E2,6.3E1,1.31E2,7.6E1,1.3E2,5.6E1,7.5E1,5.9E1,7.1E1],"tree_param":{"num_deleted":"0","num_feature":"3","num_nodes":"13","size_leaf_vector":"1"}},{"base_weights":[-2.5246482E-2,7.827065E-2,-6.395536E-2,5.4884087E-3,2.0720411E-2,-3.9764933E-2,-1.6652264E-2,-4.968963E-2,3.7034687E-2,3.125559E-2,-3.5490915E-2,1.4569271E-2,-4.8050154E-3,-6.2514995E-3,1.8327622E-2],"categories":[],"categories_nodes":[],"categories_segments":[],"categories_sizes":[],"default_left":[0,0,0,0,0,0,0,0,0,0,0,0,0,0,0],"id":37,"left_children":[1,3,5,-1,-1,-1,7,9,11,13,-1,-1,-1,-1,-1],"loss_changes":[1.9123532E0,3.1933016E-1,3.2972012E0,0E0,0E0,0E0,5.020167E-1,2.655144E0,4.5137239E-1,8.2078195E-1,0E0,0E0,0E0,0E0,0E0],"parents":[2147483647,0,0,1,1,2,2,6,6,7,7,8,8,9,9],"right_children":[2,4,6,-1,-1,-1,8,10,12,14,-1,-1,-1,-1,-1],"split_conditions":[-6.50474E-1,-1.081735E0,-2.54489E-1,5.4884087E-3,2.0720411E-2,-3.9764933E-2,7.70999E-1,3.95418E-1,1.208348E0,1.02584E-1,-3.5490915E-2,1.4569271E-2,-4.8050154E-3,-6.2514995E-3,1.8327622E-2],"split_indices":[0,0,0,0,0,0,0,0,0,0,0,0,0,0,0],"split_type":[0,0,0,0,0,0,0,0,0,0,0,0,0,0,0],"sum_hessian":[4.75E2,1.29E2,3.46E2,7.7E1,5.2E1,6.5E1,2.81E2,1.74E2,1.07E2,1.22E2,5.2E1,5.7E1,5E1,6.8E1,5.4E1],"tree_param":{"num_deleted":"0","num_feature":"3","num_nodes":"15","size_leaf_vector":"1"}},{"base_weights":[3.3240072E-2,6.0717076E-2,-1.7151581E-2,2.883124E-2,4.0914964E-2,-8.249494E-3,7.369625E-2,2.4891907E-2,2.8448045E-2,-4.0427428E-2,2.3386212E-2,-1.6094202E-2,3.7327062E-3],"categories":[],"categories_nodes":[],"categories_segments":[],"categories_sizes":[],"default_left":[0,0,0,0,0,0,0,0,0,0,0,0,0],"id":38,"left_children":[1,3,-1,-1,5,-1,7,-1,9,11,-1,-1,-1],"loss_changes":[1.9615319E0,1.0518837E0,0E0,0E0,1.1202103E0,0E0,1.1014252E0,0E0,1.5777208E0,5.1363736E-1,0E0,0E0,0E0],"parents":[2147483647,0,0,1,1,4,4,6,6,8,8,9,9],"right_children":[2,4,-1,-1,6,-1,8,-1,10,12,-1,-1,-1],"split_conditions":[9.25849E-1,-1.354871E0,-1.7151581E-2,2.883124E-2,-6.55582E-1,-8.249494E-3,-1.54246E-1,2.4891907E-2,4.92166E-1,2.0602E-1,2.3386212E-2,-1.6094202E-2,3.7327062E-3],"split_indices":[2,2,0,0,2,0,2,0,2,2,0,0,0],"split_type":[0,0,0,0,0,0,0,0,0,0,0,0,0],"sum_hessian":[4.81E2,4.06E2,7.5E1,5.2E1,3.54E2,9E1,2.64E2,8.6E1,1.78E2,1.16E2,6.2E1,5.7E1,5.9E1],"tree_param":{"num_deleted":"0","num_feature":"3","num_nodes":"13","size_leaf_vector":"1"}},{"base_weights":[2.8835274E-2,4.9772896E-2,-1.0413998E-2,-1.14008635E-2,1.0956417E-1,1.572134E-2,-1.03675306E-1,3.4119777E-2,3.253919E-2,-8.596669E-3,-2.1794943E-2,-1.2841913E-2,1.7246462E-2],"categories":[],"categories_nodes":[],"categories_segments":[],"categories_sizes":[],"default_left":[0,0,0,0,0,0,0,0,0,0,0,0,0],"id":39,"left_children":[1,3,-1,5,7,-1,9,-1,11,-1,-1,-1,-1],"loss_changes":[1.0527146E0,1.5411228E0,0E0,2.2520134E0,1.9269199E0,0E0,2.174685E-1,0E0,1.2760587E0,0E0,0E0,0E0,0E0],"parents":[2147483647,0,0,1,1,3,3,4,4,6,6,8,8],"right_children":[2,4,-1,6,8,-1,10,-1,12,-1,-1,-1,-1],"split_conditions":[8.72988E-1,-2.53052E-1,-1.0413998E-2,-8.49517E-1,1.81587E-1,1.572134E-2,-5.90108E-1,3.4119777E-2,4.30462E-1,-8.596669E-3,-2.1794943E-2,-1.2841913E-2,1.7246462E-2],"split_indices":[1,1,0,1,1,0,1,0,1,0,0,0,0],"split_type":[0,0,0,0,0,0,0,0,0,0,0,0,0],"sum_hessian":[5.09E2,4.2E2,8.9E1,2.08E2,2.12E2,9.2E1,1.16E2,8.3E1,1.29E2,5.6E1,6E1,5.3E1,7.6E1],"tree_param":{"num_deleted":"0","num_feature":"3","num_nodes":"13","size_leaf_vector":"1"}},{"base_weights":[-1.27781285E-2,-3.6634587E-2,6.832092E-2,-1.4588202E-2,-2.7354695E-2,2.8086668E-2,-7.7611934E-3,-5.6671828E-2,7.376772E-2,2.5598494E-2,-1.5502724E-1,1.820757E-2,4.3335287E-3,-1.2782226E-2,1.9908287E-2,-1.7813414E-2,-2.8666625E-2],"categories":[],"categories_nodes":[],"categories_segments":[],"categories_sizes":[],"default_left":[0,0,0,0,0,0,0,0,0,0,0,0,0,0,0,0,0],"id":40,"left_children":[1,3,5,7,-1,-1,-1,9,11,13,15,-1,-1,-1,-1,-1,-1],"loss_changes":[1.0124351E0,1.2953191E0,1.7087967E0,1.3130355E0,0E0,0E0,0E0,1.9378923E0,2.4009883E-1,1.5663718E0,1.1996293E-1,0E0,0E0,0E0,0E0,0E0,0E0],"parents":[2147483647,0,0,1,1,2,2,3,3,7,7,8,8,9,9,10,10],"right_children":[2,4,6,8,-1,-1,-1,10,12,14,16,-1,-1,-1,-1,-1,-1],"split_conditions":[7.39197E-1,4.65216E-1,1.155282E0,-1.33494E-1,-2.7354695E-2,2.8086668E-2,-7.7611934E-3,-8.07827E-1,1.36915E-1,-1.239073E0,-4.09092E-1,1.820757E-2,4.3335287E-3,-1.2782226E-2,1.9908287E-2,-1.7813414E-2,-2.8666625E-2],"split_indices":[2,2,2,2,0,0,0,2,2,2,2,0,0,0,0,0,0],"split_type":[0,0,0,0,0,0,0,0,0,0,0,0,0,0,0,0,0],"sum_hessian":[5.21E2,4.03E2,1.18E2,3.51E2,5.2E1,5.9E1,5.9E1,2.38E2,1.13E2,1.3E2,1.08E2,5.4E1,5.9E1,6.4E1,6.6E1,5.6E1,5.2E1],"tree_param":{"num_deleted":"0","num_feature":"3","num_nodes":"17","size_leaf_vector":"1"}},{"base_weights":[3.8408145E-2,6.5217435E-2,-1.764396E-2,6.5759555E-3,1.0711355E-1,-1.6398614E-2,7.037235E-3,1.1539325E-2,-1.4397462E-2,3.9846E-2,4.3616656E-2,-8.491322E-3,2.4292933E-2],"categories":[],"categories_nodes":[],"categories_segments":[],"categories_sizes":[],"default_left":[0,0,0,0,0,0,0,0,0,0,0,0,0],"id":41,"left_children":[1,3,5,7,9,-1,-1,-1,-1,-1,11,-1,-1],"loss_changes":[7.3597956E-1,8.1251276E-1,9.462125E-1,1.0103139E0,1.9311397E0,0E0,0E0,0E0,0E0,0E0,1.6577501E0,0E0,0E0],"parents":[2147483647,0,0,1,1,2,2,3,3,4,4,10,10],"right_children":[2,4,6,8,10,-1,-1,-1,-1,-1,12,-1,-1],"split_conditions":[3.581E-1,-6.19931E-1,8.42525E-1,-9.82689E-1,-3.31467E-1,-1.6398614E-2,7.037235E-3,1.1539325E-2,-1.4397462E-2,3.9846E-2,2.3185E-2,-8.491322E-3,2.4292933E-2],"split_indices":[0,0,0,0,0,0,0,0,0,0,0,0,0],"split_type":[0,0,0,0,0,0,0,0,0,0,0,0,0],"sum_hessian":[4.88E2,3.3E2,1.58E2,1.38E2,1.92E2,6.5E1,9.3E1,8.2E1,5.6E1,5.4E1,1.38E2,7.5E1,6.3E1],"tree_param":{"num_deleted":"0","num_feature":"3","num_nodes":"13","size_leaf_vector":"1"}},{"base_weights":[1.4148382E-2,7.911965E-2,-1.232025E-1,2.411294E-2,1.1261308E-1,-3.0426705E-2,-8.3264345E-3,2.1791164E-2,-1.6158773E-2,1.4928354E-1,1.0042474E-2,1.9344158E-2,2.5139133E-2],"categories":[],"categories_nodes":[],"categories_segments":[],"categories_sizes":[],"default_left":[0,0,0,0,0,0,0,0,0,0,0,0,0],"id":42,"left_children":[1,3,5,7,9,-1,-1,-1,-1,11,-1,-1,-1],"loss_changes":[4.1950383E0,5.849986E-1,8.0281353E-1,1.9644407E0,3.2155514E-1,0E0,0E0,0E0,0E0,1.8947601E-2,0E0,0E0,0E0],"parents":[2147483647,0,0,1,1,2,2,3,3,4,4,9,9],"right_children":[2,4,6,8,10,-1,-1,-1,-1,12,-1,-1,-1],"split_conditions":[4.65216E-1,-6.80183E-1,8.91579E-1,-1.111189E0,-6.6891E-2,-3.0426705E-2,-8.3264345E-3,2.1791164E-2,-1.6158773E-2,-3.53843E-1,1.0042474E-2,1.9344158E-2,2.5139133E-2],"split_indices":[2,2,2,2,2,0,0,0,0,2,0,0,0],"split_type":[0,0,0,0,0,0,0,0,0,0,0,0,0],"sum_hessian":[4.68E2,3.18E2,1.5E2,1.21E2,1.97E2,6.8E1,8.2E1,6.3E1,5.8E1,1.08E2,8.9E1,5.5E1,5.3E1],"tree_param":{"num_deleted":"0","num_feature":"3","num_nodes":"13","size_leaf_vector":"1"}},{"base_weights":[-1.871811E-2,3.3305094E-2,-5.4697607E-2,-2.454281E-2,2.7839115E-2,-4.5489203E-2,1.4571383E-3,6.567449E-3,-1.6869478E-2,5.6091104E-2,-1.0951397E-2,-8.241172E-3,2.3154281E-2],"categories":[],"categories_nodes":[],"categories_segments":[],"categories_sizes":[],"default_left":[0,0,0,0,0,0,0,0,0,0,0,0,0],"id":43,"left_children":[1,3,5,7,-1,-1,9,-1,-1,11,-1,-1,-1],"loss_changes":[9.2834723E-1,1.7929037E0,4.0901456E0,8.93994E-1,0E0,0E0,9.8051053E-1,0E0,0E0,1.525141E0,0E0,0E0,0E0],"parents":[2147483647,0,0,1,1,2,2,3,3,6,6,9,9],"right_children":[2,4,6,8,-1,-1,10,-1,-1,12,-1,-1,-1],"split_conditions":[-2.66104E-1,-6.09652E-1,-2.3896E-2,-9.43668E-1,2.7839115E-2,-4.5489203E-2,7.17627E-1,6.567449E-3,-1.6869478E-2,3.37145E-1,-1.0951397E-2,-8.241172E-3,2.3154281E-2],"split_indices":[1,1,1,1,0,0,1,0,0,1,0,0,0],"split_type":[0,0,0,0,0,0,0,0,0,0,0,0,0],"sum_hessian":[4.94E2,2.02E2,2.92E2,1.47E2,5.5E1,5.3E1,2.39E2,8.3E1,6.4E1,1.38E2,1.01E2,6.5E1,7.3E1],"tree_param":{"num_deleted":"0","num_feature":"3","num_nodes":"13","size_leaf_vector":"1"}},{"base_weights":[1.9761633E-2,7.2283834E-2,-2.9211318E-2,3.7955396E-2,2.8260399E-2,-6.877102E-2,1.0101967E-2,8.232005E-2,-8.649961E-3,-2.149256E-2,-3.522628E-2,4.47745E-3,2.3217265E-2,9.415729E-3,-1.5975477E-2],"categories":[],"categories_nodes":[],"categories_segments":[],"categories_sizes":[],"default_left":[0,0,0,0,0,0,0,0,0,0,0,0,0,0,0],"id":44,"left_children":[1,3,5,7,-1,9,-1,11,-1,-1,13,-1,-1,-1,-1],"loss_changes":[1.2213187E0,9.05684E-1,9.4430125E-1,7.598636E-1,0E0,4.3236673E-1,0E0,4.592353E-1,0E0,0E0,8.588528E-1,0E0,0E0,0E0,0E0],"parents":[2147483647,0,0,1,1,2,2,3,3,5,5,7,7,10,10],"right_children":[2,4,6,8,-1,10,-1,12,-1,-1,14,-1,-1,-1,-1],"split_conditions":[-4.2214E-2,-3.3323E-1,1.042939E0,-7.38478E-1,2.8260399E-2,2.33034E-1,1.0101967E-2,-1.09885E0,-8.649961E-3,-2.149256E-2,5.2173E-1,4.47745E-3,2.3217265E-2,9.415729E-3,-1.5975477E-2],"split_indices":[1,1,1,1,0,1,0,1,0,0,1,0,0,0,0],"split_type":[0,0,0,0,0,0,0,0,0,0,0,0,0,0,0],"sum_hessian":[4.73E2,2.28E2,2.45E2,1.77E2,5.1E1,1.74E2,7.1E1,1.21E2,5.6E1,5.3E1,1.21E2,7.1E1,5E1,5.1E1,7E1],"tree_param":{"num_deleted":"0","num_feature":"3","num_nodes":"15","size_leaf_vector":"1"}},{"base_weights":[-1.867724E-2,4.4093143E-2,-8.2140006E-2,-4.615282E-2,1.376763E-1,-1.5844499E-1,1.4449126E-2,-1.2593062E-2,-2.6917022E-3,1.0905439E-2,3.0873358E-2,-4.1152284E-2,-1.0732572E-1,-7.635482E-3,-2.2155955E-2],"categories":[],"categories_nodes":[],"categories_segments":[],"categories_sizes":[],"default_left":[0,0,0,0,0,0,0,0,0,0,0,0,0,0,0],"id":45,"left_children":[1,3,5,7,9,11,-1,-1,-1,-1,-1,-1,13,-1,-1],"loss_changes":[1.9635444E0,2.1008384E0,3.3516626E0,1.3391277E-1,5.25213E-1,9.896393E-1,0E0,0E0,0E0,0E0,0E0,0E0,2.68165E-1,0E0,0E0],"parents":[2147483647,0,0,1,1,2,2,3,3,4,4,5,5,12,12],"right_children":[2,4,6,8,10,12,-1,-1,-1,-1,-1,-1,14,-1,-1],"split_conditions":[-4.8352E-2,-6.66543E-1,9.43303E-1,-1.217894E0,-2.94327E-1,1.81587E-1,1.4449126E-2,-1.2593062E-2,-2.6917022E-3,1.0905439E-2,3.0873358E-2,-4.1152284E-2,4.80367E-1,-7.635482E-3,-2.2155955E-2],"split_indices":[1,1,1,1,1,1,0,0,0,0,0,0,1,0,0],"split_type":[0,0,0,0,0,0,0,0,0,0,0,0,0,0,0],"sum_hessian":[4.91E2,2.47E2,2.44E2,1.26E2,1.21E2,1.71E2,7.3E1,5.3E1,7.3E1,6.3E1,5.8E1,5.1E1,1.2E2,5.1E1,6.9E1],"tree_param":{"num_deleted":"0","num_feature":"3","num_nodes":"15","size_leaf_vector":"1"}},{"base_weights":[1.6593225E-2,-8.140173E-3,1.6828926E-2,2.1391211E-2,-2.8470188E-2,1.6265161E-2,-4.024601E-3,-2.9680228E-2,4.6955027E-2,1.755773E-2,3.698027E-3,4.4358564E-3,-4.342945E-3],"categories":[],"categories_nodes":[],"categories_segments":[],"categories_sizes":[],"default_left":[0,0,0,0,0,0,0,0,0,0,0,0,0],"id":46,"left_children":[1,3,-1,5,-1,-1,7,-1,9,-1,11,-1,-1],"loss_changes":[1.0814912E0,1.956812E0,0E0,6.950903E-1,0E0,0E0,2.4205167E0,0E0,5.8780706E-1,0E0,1.0307981E-1,0E0,0E0],"parents":[2147483647,0,0,1,1,3,3,6,6,8,8,10,10],"right_children":[2,4,-1,6,-1,-1,8,-1,10,-1,12,-1,-1],"split_conditions":[7.91886E-1,4.65216E-1,1.6828926E-2,-1.053193E0,-2.8470188E-2,1.6265161E-2,-6.62994E-1,-2.9680228E-2,-2.19444E-1,1.755773E-2,1.65209E-1,4.4358564E-3,-4.342945E-3],"split_indices":[2,2,0,2,0,0,2,0,2,0,2,0,0],"split_type":[0,0,0,0,0,0,0,0,0,0,0,0,0],"sum_hessian":[4.56E2,3.63E2,9.3E1,3.13E2,5E1,7E1,2.43E2,5E1,1.93E2,7.3E1,1.2E2,6.7E1,5.3E1],"tree_param":{"num_deleted":"0","num_feature":"3","num_nodes":"13","size_leaf_vector":"1"}},{"base_weights":[-4.3215226E-2,-1.0219834E-1,2.1401687E-2,-5.191932E-2,-3.878939E-2,1.3755703E-1,-6.376564E-2,-1.1596025E-1,1.6881136E-2,1.7641563E-2,2.3220966E-2,-2.3610093E-2,1.5418831E-3,-4.4928244E-4,-3.4571122E-2],"categories":[],"categories_nodes":[],"categories_segments":[],"categories_sizes":[],"default_left":[0,0,0,0,0,0,0,0,0,0,0,0,0,0,0],"id":47,"left_children":[1,3,5,7,-1,9,11,13,-1,-1,-1,-1,-1,-1,-1],"loss_changes":[1.8964067E0,2.0310886E0,2.3632195E0,2.0984228E0,0E0,1.6543984E-2,9.583979E-1,1.8491675E0,0E0,0E0,0E0,0E0,0E0,0E0,0E0],"parents":[2147483647,0,0,1,1,2,2,3,3,5,5,6,6,7,7],"right_children":[2,4,6,8,-1,10,12,14,-1,-1,-1,-1,-1,-1,-1],"split_conditions":[-2.0241E-2,-3.06261E-1,5.51511E-1,-6.09652E-1,-3.878939E-2,2.53445E-1,1.042939E0,-1.076861E0,1.6881136E-2,1.7641563E-2,2.3220966E-2,-2.3610093E-2,1.5418831E-3,-4.4928244E-4,-3.4571122E-2],"split_indices":[1,1,1,1,0,1,1,1,0,0,0,0,0,0,0],"split_type":[0,0,0,0,0,0,0,0,0,0,0,0,0,0,0],"sum_hessian":[4.96E2,2.59E2,2.37E2,1.97E2,6.2E1,1E2,1.37E2,1.42E2,5.5E1,5E1,5E1,6E1,7.7E1,7.2E1,7E1],"tree_param":{"num_deleted":"0","num_feature":"3","num_nodes":"15","size_leaf_vector":"1"}},{"base_weights":[-7.5118546E-3,5.4952506E-2,-4.5122333E-2,8.354309E-3,2.5885046E-2,-7.856943E-2,2.0958409E-2,8.865574E-3,-9.348079E-3,-4.361406E-2,-2.1029452E-2,8.285725E-3,-2.6519625E-3,-1.2977417E-2,-8.010684E-4],"categories":[],"categories_nodes":[],"categories_segments":[],"categories_sizes":[],"default_left":[0,0,0,0,0,0,0,0,0,0,0,0,0,0,0],"id":48,"left_children":[1,3,5,7,-1,9,11,-1,-1,13,-1,-1,-1,-1,-1],"loss_changes":[1.2123766E0,1.061799E0,7.133339E-1,5.0582325E-1,0E0,4.5488238E-1,1.4534779E-1,0E0,0E0,2.2613615E-1,0E0,0E0,0E0,0E0,0E0],"parents":[2147483647,0,0,1,1,2,2,3,3,5,5,6,6,9,9],"right_children":[2,4,6,8,-1,10,12,-1,-1,14,-1,-1,-1,-1,-1],"split_conditions":[-3.70339E-1,-6.98222E-1,6.82585E-1,-1.121063E0,2.5885046E-2,2.25606E-1,1.142828E0,8.865574E-3,-9.348079E-3,-6.9576E-2,-2.1029452E-2,8.285725E-3,-2.6519625E-3,-1.2977417E-2,-8.010684E-4],"split_indices":[0,0,0,0,0,0,0,0,0,0,0,0,0,0,0],"split_type":[0,0,0,0,0,0,0,0,0,0,0,0,0,0,0],"sum_hessian":[5.14E2,1.93E2,3.21E2,1.39E2,5.4E1,2.13E2,1.08E2,8.1E1,5.8E1,1.37E2,7.6E1,5.7E1,5.1E1,6.4E1,7.3E1],"tree_param":{"num_deleted":"0","num_feature":"3","num_nodes":"15","size_leaf_vector":"1"}},{"base_weights":[2.382727E-2,5.3640705E-2,-2.3756262E-2,-1.1765272E-2,7.800481E-2,3.6010355E-2,3.5381738E-2,-1.1946914E-2,7.285452E-2,2.4524786E-2,3.127686E-2,-9.242023E-3,2.1629667E-2],"categories":[],"categories_nodes":[],"categories_segments":[],"categories_sizes":[],"default_left":[0,0,0,0,0,0,0,0,0,0,0,0,0],"id":49,"left_children":[1,3,-1,-1,5,-1,7,-1,9,-1,11,-1,-1],"loss_changes":[2.7028058E0,1.3801655E0,0E0,0E0,2.4851763E0,0E0,1.242891E0,0E0,8.1270885E-1,0E0,1.5822741E0,0E0,0E0],"parents":[2147483647,0,0,1,1,4,4,6,6,8,8,10,10],"right_children":[2,4,-1,-1,6,-1,8,-1,10,-1,12,-1,-1],"split_conditions":[9.67727E-1,-1.239073E0,-2.3756262E-2,-1.1765272E-2,-7.70448E-1,3.6010355E-2,-2.87106E-1,-1.1946914E-2,4.4667E-2,2.4524786E-2,5.06492E-1,-9.242023E-3,2.1629667E-2],"split_indices":[2,2,0,0,2,0,2,0,2,0,2,0,0],"split_type":[0,0,0,0,0,0,0,0,0,0,0,0,0],"sum_hessian":[4.95E2,4.26E2,6.9E1,6.6E1,3.6E2,7.4E1,2.86E2,7E1,2.16E2,6.7E1,1.49E2,8.2E1,6.7E1],"tree_param":{"num_deleted":"0","num_feature":"3","num_nodes":"13","size_leaf_vector":"1"}},{"base_weights":[-3.5172757E-2,-6.503383E-2,1.913999E-2,-2.1330802E-2,-5.3145923E-2,7.950858E-3,-8.365965E-2,-3.4697045E-2,-4.024634E-2,-6.0289567E-3,-2.0622743E-2,-5.8590584E-3,6.6915737E-3],"categories":[],"categories_nodes":[],"categories_segments":[],"categories_sizes":[],"default_left":[0,0,0,0,0,0,0,0,0,0,0,0,0],"id":50,"left_children":[1,3,-1,-1,5,-1,7,-1,9,11,-1,-1,-1],"loss_changes":[2.4434426E0,3.8142347E-1,0E0,0E0,1.1996559E0,0E0,1.8304026E0,0E0,7.41148E-1,2.7940962E-1,0E0,0E0,0E0],"parents":[2147483647,0,0,1,1,4,4,6,6,8,8,9,9],"right_children":[2,4,-1,-1,6,-1,8,-1,10,12,-1,-1,-1],"split_conditions":[1.004024E0,-1.279539E0,1.913999E-2,-2.1330802E-2,-6.82541E-1,7.950858E-3,-3.16139E-1,-3.4697045E-2,6.02055E-1,1.76713E-1,-2.0622743E-2,-5.8590584E-3,6.6915737E-3],"split_indices":[0,0,0,0,0,0,0,0,0,0,0,0,0],"split_type":[0,0,0,0,0,0,0,0,0,0,0,0,0],"sum_hessian":[5E2,4.23E2,7.7E1,5.5E1,3.68E2,8.2E1,2.86E2,6.4E1,2.22E2,1.65E2,5.7E1,1E2,6.5E1],"tree_param":{"num_deleted":"0","num_feature":"3","num_nodes":"13","size_leaf_vector":"1"}}]},"name":"gbtree"},"learner_model_param":{"base_score":"5.055335E-10","boost_from_average":"1","num_class":"0","num_feature":"3","num_target":"1"},"objective":{"name":"reg:squarederror","reg_loss_param":{"scale_pos_weight":"1"}}},"version":[3,0,5]}