{"learner":{"attributes":{"best_iteration":"0","best_score":"0.9893294693505555"},"feature_names":[],"feature_types":[],"gradient_booster":{"model":{"gbtree_model_param":{"num_parallel_tree":"1","num_trees":"51"},"iteration_indptr":[0,1,2,3,4,5,6,7,8,9,10,11,12,13,14,15,16,17,18,19,20,21,22,23,24,25,26,27,28,29,30,31,32,33,34,35,36,37,38,39,40,41,42,43,44,45,46,47,48,49,50,51],"tree_info":[0,0,0,0,0,0,0,0,0,0,0,0,0,0,0,0,0,0,0,0,0,0,0,0,0,0,0,0,0,0,0,0,0,0,0,0,0,0,0,0,0,0,0,0,0,0,0,0,0,0,0],"trees":[{"base_weights":[6.943484E-2,1.2325556E-1,2.8100375E-3,8.408609E-2,3.4356203E-2,-6.2247388E-2,7.452935E-2,1.4711507E-1,1.1930699E-3,5.4521207E-3,-2.278306E-2,2.7510697E-2,-6.623133E-3,5.374889E-3,3.61662E-2],"categories":[],"categories_nodes":[],"categories_segments":[],"categories_sizes":[],"default_left":[0,0,0,0,0,0,0,0,0,0,0,0,0,0,0],"id":0,"left_children":[1,3,5,7,-1,9,11,13,-1,-1,-1,-1,-1,-1,-1],"loss_changes":[1.788965E0,1.1243668E0,1.0497949E0,9.7293365E-1,0E0,1.048406E0,1.3907208E0,1.152394E0,0E0,0E0,0E0,0E0,0E0,0E0,0E0],"parents":[2147483647,0,0,1,1,2,2,3,3,5,5,6,6,7,7],"right_children":[2,4,6,8,-1,10,12,14,-1,-1,-1,-1,-1,-1,-1],"split_conditions":[1.12884E-1,-2.4266E-1,7.85704E-1,-8.06144E-1,3.4356203E-2,3.95176E-1,1.252808E0,-1.243189E0,1.1930699E-3,5.4521207E-3,-2.278306E-2,2.7510697E-2,-6.623133E-3,5.374889E-3,3.61662E-2],"split_indices":[0,0,0,0,0,0,0,0,0,0,0,0,0,0,0],"split_type":[0,0,0,0,0,0,0,0,0,0,0,0,0,0,0],"sum_hessian":[4.98E2,2.75E2,2.23E2,2.02E2,7.3E1,1.17E2,1.06E2,1.1E2,9.2E1,5.6E1,6.1E1,5.5E1,5.1E1,5.1E1,5.9E1],"tree_param":{"num_deleted":"0","num_feature":"3","num_nodes":"15","size_leaf_vector":"1"}},{"base_weights":[2.0779312E-2,1.04145326E-1,-1.7816189E-1,8.158863E-2,3.462137E-2,-5.1646974E-2,-7.0100394E-3,1.2232379E-1,-1.1592071E-2,7.395722E-2,1.5840486E-1,2.585459E-2,-3.884942E-3,3.8973335E-2,1.0542262E-2],"categories":[],"categories_nodes":[],"categories_segments":[],"categories_sizes":[],"default_left":[0,0,0,0,0,0,0,0,0,0,0,0,0,0,0],"id":1,"left_children":[1,3,5,7,-1,-1,-1,9,-1,11,13,-1,-1,-1,-1],"loss_changes":[8.0290785E0,9.554453E-1,3.106597E0,1.8926766E0,0E0,0E0,0E0,3.93152E-1,0E0,9.969489E-1,1.1614513E0,0E0,0E0,0E0,0E0],"parents":[2147483647,0,0,1,1,2,2,3,3,7,7,9,9,10,10],"right_children":[2,4,6,8,-1,-1,-1,10,-1,12,14,-1,-1,-1,-1],"split_conditions":[5.20757E-1,2.7243E-1,9.88448E-1,-1.31E-2,3.462137E-2,-5.1646974E-2,-7.0100394E-3,-7.66965E-1,-1.1592071E-2,-1.206625E0,-4.0695E-1,2.585459E-2,-3.884942E-3,3.8973335E-2,1.0542262E-2],"split_indices":[1,1,1,1,0,0,0,1,0,1,1,0,0,0,0],"split_type":[0,0,0,0,0,0,0,0,0,0,0,0,0,0,0],"sum_hessian":[4.82E2,3.4E2,1.42E2,2.9E2,5E1,6.2E1,8E1,2.31E2,5.9E1,1E2,1.31E2,5E1,5E1,6E1,7.1E1],"tree_param":{"num_deleted":"0","num_feature":"3","num_nodes":"15","size_leaf_vector":"1"}},{"base_weights":[-7.2068896E-4,2.4479002E-2,-8.671669E-2,-2.4926176E-2,2.836047E-2,-3.325741E-2,6.751465E-3,6.3980915E-2,-8.388219E-2,-7.946409E-3,3.1004636E-2,-1.3065769E-1,-3.264196E-4,-2.5099112E-2,-1.3429679E-2],"categories":[],"categories_nodes":[],"categories_segments":[],"categories_sizes":[],"default_left":[0,0,0,0,0,0,0,0,0,0,0,0,0,0,0],"id":2,"left_children":[1,3,5,7,-1,-1,-1,9,11,-1,-1,13,-1,-1,-1],"loss_changes":[1.0423176E0,3.0296822E0,1.948325E0,1.5097083E0,0E0,0E0,0E0,1.9304962E0,6.608943E-1,0E0,0E0,1.5090954E-1,0E0,0E0,0E0],"parents":[2147483647,0,0,1,1,2,2,3,3,7,7,8,8,11,11],"right_children":[2,4,6,8,-1,-1,-1,10,12,-1,-1,14,-1,-1,-1],"split_conditions":[6.73421E-1,2.44326E-1,1.164787E0,-7.76173E-1,2.836047E-2,-3.325741E-2,6.751465E-3,-1.142342E0,-1.33494E-1,-7.946409E-3,3.1004636E-2,-3.89871E-1,-3.264196E-4,-2.5099112E-2,-1.3429679E-2],"split_indices":[2,2,2,2,0,0,0,2,2,0,0,2,0,0,0],"split_type":[0,0,0,0,0,0,0,0,0,0,0,0,0,0,0],"sum_hessian":[4.79E2,3.71E2,1.08E2,2.86E2,8.5E1,5.3E1,5.5E1,1.14E2,1.72E2,6.3E1,5.1E1,1.09E2,6.3E1,5.6E1,5.3E1],"tree_param":{"num_deleted":"0","num_feature":"3","num_nodes":"15","size_leaf_vector":"1"}},{"base_weights":[-5.7931487E-3,3.169272E-2,-4.5938086E-2,-1.3765909E-1,1.8335656E-3,-1.2302895E-2,-3.4481227E-2,3.6342088E-2,-2.1450428E-2,-3.8272694E-2,4.1335087E-2,7.5633E-2,-3.9808236E-2,1.4612874E-2,7.418941E-3],"categories":[],"categories_nodes":[],"categories_segments":[],"categories_sizes":[],"default_left":[0,0,0,0,0,0,0,0,0,0,0,0,0,0,0],"id":3,"left_children":[1,-1,3,5,7,-1,-1,9,-1,11,-1,13,-1,-1,-1],"loss_changes":[4.1317024E0,0E0,1.752918E0,6.8407416E-1,1.3246928E0,0E0,0E0,3.830389E0,0E0,4.262711E0,0E0,5.7905674E-2,0E0,0E0,0E0],"parents":[2147483647,0,0,2,2,3,3,4,4,7,7,9,9,11,11],"right_children":[2,-1,4,6,8,-1,-1,10,-1,12,-1,14,-1,-1,-1],"split_conditions":[-1.097341E0,3.169272E-2,-1.90363E-1,-4.61464E-1,1.227331E0,-1.2302895E-2,-3.4481227E-2,7.53916E-1,-2.1450428E-2,3.95176E-1,4.1335087E-2,1.05888E-1,-3.9808236E-2,1.4612874E-2,7.418941E-3],"split_indices":[0,0,0,0,0,0,0,0,0,0,0,0,0,0,0],"split_type":[0,0,0,0,0,0,0,0,0,0,0,0,0,0,0],"sum_hessian":[4.72E2,7.3E1,3.99E2,1.36E2,2.63E2,8.6E1,5E1,2.13E2,5E1,1.63E2,5E1,1.09E2,5.4E1,5.8E1,5.1E1],"tree_param":{"num_deleted":"0","num_feature":"3","num_nodes":"15","size_leaf_vector":"1"}},{"base_weights":[-1.4384774E-2,-3.6074486E-2,1.6322955E-2,1.3287387E-2,-6.951102E-2,-1.7623626E-1,-1.7524093E-2,-2.200747E-2,-3.0866005E-2,1.6341895E-2,-7.565159E-2,-2.7559828E-2,-2.3901588E-3],"categories":[],"categories_nodes":[],"categories_segments":[],"categories_sizes":[],"default_left":[0,0,0,0,0,0,0,0,0,0,0,0,0],"id":4,"left_children":[1,3,-1,-1,5,7,9,-1,-1,-1,11,-1,-1],"loss_changes":[1.3026485E0,1.731751E0,0E0,0E0,1.8112113E0,6.310606E-2,1.6328988E0,0E0,0E0,0E0,9.7812146E-1,0E0,0E0],"parents":[2147483647,0,0,1,1,4,4,5,5,6,6,10,10],"right_children":[2,4,-1,-1,6,8,10,-1,-1,-1,12,-1,-1],"split_conditions":[1.102295E0,-9.82689E-1,1.6322955E-2,1.3287387E-2,-2.51632E-1,-5.70186E-1,1.05888E-1,-2.200747E-2,-3.0866005E-2,1.6341895E-2,3.59007E-1,-2.7559828E-2,-2.3901588E-3],"split_indices":[0,0,0,0,0,0,0,0,0,0,0,0,0],"split_type":[0,0,0,0,0,0,0,0,0,0,0,0,0],"sum_hessian":[4.85E2,4.13E2,7.2E1,8.7E1,3.26E2,1.06E2,2.2E2,5.6E1,5E1,6.9E1,1.51E2,5.3E1,9.8E1],"tree_param":{"num_deleted":"0","num_feature":"3","num_nodes":"13","size_leaf_vector":"1"}},{"base_weights":[5.3168912E-3,7.817218E-2,-5.3413805E-2,-4.256998E-3,1.5077922E-1,-1.5918541E-1,4.1054826E-2,1.6262326E-2,3.166204E-2,-7.903252E-3,-4.1013174E-2,1.7975299E-2,-3.9418037E-3],"categories":[],"categories_nodes":[],"categories_segments":[],"categories_sizes":[],"default_left":[0,0,0,0,0,0,0,0,0,0,0,0,0],"id":5,"left_children":[1,3,5,-1,7,9,11,-1,-1,-1,-1,-1,-1],"loss_changes":[2.1093657E0,1.7062954E0,2.7343786E0,0E0,3.117652E-1,1.5549786E0,7.7231145E-1,0E0,0E0,0E0,0E0,0E0,0E0],"parents":[2147483647,0,0,1,1,2,2,4,4,5,5,6,6],"right_children":[2,4,6,-1,8,10,12,-1,-1,-1,-1,-1,-1],"split_conditions":[-2.10388E-1,-1.00528E0,5.06492E-1,-4.256998E-3,-4.68071E-1,1.72208E-1,9.29407E-1,1.6262326E-2,3.166204E-2,-7.903252E-3,-4.1013174E-2,1.7975299E-2,-3.9418037E-3],"split_indices":[2,2,2,0,2,2,2,0,0,0,0,0,0],"split_type":[0,0,0,0,0,0,0,0,0,0,0,0,0],"sum_hessian":[4.91E2,2.19E2,2.72E2,8.9E1,1.3E2,1.28E2,1.44E2,7.8E1,5.2E1,6.7E1,6.1E1,6.6E1,7.8E1],"tree_param":{"num_deleted":"0","num_feature":"3","num_nodes":"13","size_leaf_vector":"1"}},{"base_weights":[2.0391937E-2,3.261808E-2,-5.739767E-3,-2.7700445E-2,2.091479E-2,8.125346E-2,-9.99383E-2,-4.8650443E-3,1.5529956E-1,-2.9176662E-2,-2.756652E-3,2.16841E-2,-1.9457247E-2,1.50098335E-2,3.061406E-2],"categories":[],"categories_nodes":[],"categories_segments":[],"categories_sizes":[],"default_left":[0,0,0,0,0,0,0,0,0,0,0,0,0,0,0],"id":6,"left_children":[1,-1,3,-1,5,7,9,11,13,-1,-1,-1,-1,-1,-1],"loss_changes":[2.375197E0,0E0,1.9497352E0,0E0,2.6041133E0,1.5184193E0,9.1432166E-1,2.0895445E0,3.245499E-1,0E0,0E0,0E0,0E0,0E0,0E0],"parents":[2147483647,0,0,2,2,4,4,5,5,6,6,7,7,8,8],"right_children":[2,-1,4,-1,6,8,10,12,14,-1,-1,-1,-1,-1,-1],"split_conditions":[-1.279086E0,3.261808E-2,-7.56287E-1,-2.7700445E-2,4.938E-1,-1.02581E-1,1.047213E0,-4.0695E-1,1.82359E-1,-2.9176662E-2,-2.756652E-3,2.16841E-2,-1.9457247E-2,1.50098335E-2,3.061406E-2],"split_indices":[1,0,1,0,1,1,1,1,1,0,0,0,0,0,0],"split_type":[0,0,0,0,0,0,0,0,0,0,0,0,0,0,0],"sum_hessian":[4.6E2,5.3E1,4.07E2,5.2E1,3.55E2,2.37E2,1.18E2,1.1E2,1.27E2,5.4E1,6.4E1,5E1,6E1,6.1E1,6.6E1],"tree_param":{"num_deleted":"0","num_feature":"3","num_nodes":"15","size_leaf_vector":"1"}},{"base_weights":[-3.5613947E-2,2.6185919E-2,-1.19823314E-1,-1.4898935E-2,3.212692E-2,-2.2978161E-1,5.362255E-3,3.4749612E-2,-7.1182296E-2,-4.463247E-2,-2.3570338E-2,1.23741785E-2,-5.8577418E-5,-2.1490056E-2,-1.3085848E-3],"categories":[],"categories_nodes":[],"categories_segments":[],"categories_sizes":[],"default_left":[0,0,0,0,0,0,0,0,0,0,0,0,0,0,0],"id":7,"left_children":[1,3,5,7,-1,9,-1,11,13,-1,-1,-1,-1,-1,-1],"loss_changes":[2.5583642E0,2.1967182E0,3.5663452E0,6.5636015E-1,0E0,5.5386114E-1,0E0,2.0975249E-1,4.9400294E-1,0E0,0E0,0E0,0E0,0E0,0E0],"parents":[2147483647,0,0,1,1,2,2,3,3,5,5,7,7,8,8],"right_children":[2,4,6,8,-1,10,-1,12,14,-1,-1,-1,-1,-1,-1],"split_conditions":[1.72208E-1,-1.33494E-1,8.96782E-1,-8.18073E-1,3.212692E-2,5.06492E-1,5.362255E-3,-1.346999E0,-4.40581E-1,-4.463247E-2,-2.3570338E-2,1.23741785E-2,-5.8577418E-5,-2.1490056E-2,-1.3085848E-3],"split_indices":[2,2,2,2,0,2,0,2,2,0,0,0,0,0,0],"split_type":[0,0,0,0,0,0,0,0,0,0,0,0,0,0,0],"sum_hessian":[4.9E2,2.83E2,2.07E2,2.33E2,5E1,1.21E2,8.6E1,1.24E2,1.09E2,6.1E1,6E1,5.2E1,7.2E1,5E1,5.9E1],"tree_param":{"num_deleted":"0","num_feature":"3","num_nodes":"15","size_leaf_vector":"1"}},{"base_weights":[1.9823922E-2,8.456321E-2,-1.8211207E-1,4.818249E-2,4.187829E-2,-4.4886447E-2,-1.1759633E-2,-4.0589855E-3,5.935508E-2,2.6189921E-2,2.9541958E-2,-4.708137E-3,7.28148E-2,1.8192887E-2,3.7108832E-3],"categories":[],"categories_nodes":[],"categories_segments":[],"categories_sizes":[],"default_left":[0,0,0,0,0,0,0,0,0,0,0,0,0,0,0],"id":8,"left_children":[1,3,5,-1,7,-1,-1,-1,9,-1,11,-1,13,-1,-1],"loss_changes":[6.460483E0,3.7645202E0,1.4343212E0,0E0,3.847384E-1,0E0,0E0,0E0,8.675338E-1,0E0,5.375141E-1,0E0,2.7430242E-1,0E0,0E0],"parents":[2147483647,0,0,1,1,2,2,4,4,8,8,10,10,12,12],"right_children":[2,4,6,-1,8,-1,-1,-1,10,-1,12,-1,14,-1,-1],"split_conditions":[5.71134E-1,-1.167567E0,1.047213E0,4.818249E-2,-6.98987E-1,-4.4886447E-2,-1.1759633E-2,-4.0589855E-3,-3.95293E-1,2.6189921E-2,-6.526E-3,-4.708137E-3,2.67321E-1,1.8192887E-2,3.7108832E-3],"split_indices":[1,1,1,0,1,0,0,0,1,0,1,0,1,0,0],"split_type":[0,0,0,0,0,0,0,0,0,0,0,0,0,0,0],"sum_hessian":[4.92E2,3.73E2,1.19E2,5.6E1,3.17E2,5.5E1,6.4E1,6.4E1,2.53E2,5.1E1,2.02E2,8.4E1,1.18E2,5.8E1,6E1],"tree_param":{"num_deleted":"0","num_feature":"3","num_nodes":"15","size_leaf_vector":"1"}},{"base_weights":[1.5683047E-2,1.3640922E-1,-4.830179E-2,-6.604219E-4,3.6749657E-2,-1.3843323E-1,6.1967494E-3,-1.4569528E-2,-2.8182134E-2,1.5536804E-2,-4.6630077E-2,-2.192723E-2,6.7410776E-3],"categories":[],"categories_nodes":[],"categories_segments":[],"categories_sizes":[],"default_left":[0,0,0,0,0,0,0,0,0,0,0,0,0],"id":9,"left_children":[1,3,5,-1,-1,7,9,-1,-1,-1,11,-1,-1],"loss_changes":[3.7916648E0,2.6004744E0,1.5776199E0,0E0,0E0,2.288742E-1,1.0388501E0,0E0,0E0,0E0,1.2007637E0,0E0,0E0],"parents":[2147483647,0,0,1,1,2,2,5,5,6,6,10,10],"right_children":[2,4,6,-1,-1,8,10,-1,-1,-1,12,-1,-1],"split_conditions":[-3.95293E-1,-1.005129E0,1.82359E-1,-6.604219E-4,3.6749657E-2,-6.7498E-2,5.20757E-1,-1.4569528E-2,-2.8182134E-2,1.5536804E-2,1.041914E0,-2.192723E-2,6.7410776E-3],"split_indices":[1,1,1,0,0,1,1,0,0,0,1,0,0],"split_type":[0,0,0,0,0,0,0,0,0,0,0,0,0],"sum_hessian":[4.89E2,1.69E2,3.2E2,7.4E1,9.5E1,1.2E2,2E2,6.7E1,5.3E1,7E1,1.3E2,6.2E1,6.8E1],"tree_param":{"num_deleted":"0","num_feature":"3","num_nodes":"13","size_leaf_vector":"1"}},{"base_weights":[1.8565184E-2,2.3502368E-2,-6.471666E-3,-2.8466158E-2,1.9945495E-2,1.7870085E-2,-8.463544E-3,-2.4599915E-2,6.813942E-2,3.5717927E-2,-8.479574E-3,-1.8247426E-2,1.2738561E-2],"categories":[],"categories_nodes":[],"categories_segments":[],"categories_sizes":[],"default_left":[0,0,0,0,0,0,0,0,0,0,0,0,0],"id":10,"left_children":[1,-1,3,-1,5,-1,7,-1,9,-1,11,-1,-1],"loss_changes":[1.7127345E0,0E0,2.037567E0,0E0,1.037976E0,0E0,3.4306388E0,0E0,2.515594E0,0E0,1.4267707E0,0E0,0E0],"parents":[2147483647,0,0,2,2,4,4,6,6,8,8,10,10],"right_children":[2,-1,4,-1,6,-1,8,-1,10,-1,12,-1,-1],"split_conditions":[-1.132956E0,2.3502368E-2,-7.42842E-1,-2.8466158E-2,-2.7595E-1,1.7870085E-2,1.86784E-1,-2.4599915E-2,5.84363E-1,3.5717927E-2,9.90083E-1,-1.8247426E-2,1.2738561E-2],"split_indices":[0,0,0,0,0,0,0,0,0,0,0,0,0],"split_type":[0,0,0,0,0,0,0,0,0,0,0,0,0],"sum_hessian":[4.94E2,7.5E1,4.19E2,5.2E1,3.67E2,8.1E1,2.86E2,9.4E1,1.92E2,5.9E1,1.33E2,6E1,7.3E1],"tree_param":{"num_deleted":"0","num_feature":"3","num_nodes":"13","size_leaf_vector":"1"}},{"base_weights":[-3.3260703E-2,-4.9609017E-2,8.706361E-3,-9.128359E-3,-1.3022342E-1,-3.96974E-2,1.8901363E-2,-1.3568923E-2,-3.002711E-2,3.663705E-3,-1.8247044E-2,-1.41583225E-2,1.9859163E-2],"categories":[],"categories_nodes":[],"categories_segments":[],"categories_sizes":[],"default_left":[0,0,0,0,0,0,0,0,0,0,0,0,0],"id":11,"left_children":[1,3,-1,5,7,9,-1,-1,-1,11,-1,-1,-1],"loss_changes":[7.55176E-1,1.395514E0,0E0,1.1864746E0,3.7968612E-1,8.319466E-1,0E0,0E0,0E0,1.9563417E0,0E0,0E0,0E0],"parents":[2147483647,0,0,1,1,3,3,4,4,5,5,9,9],"right_children":[2,4,-1,6,8,10,-1,-1,-1,12,-1,-1,-1],"split_conditions":[1.002452E0,1.72208E-1,8.706361E-3,-1.33494E-1,6.11671E-1,-5.76479E-1,1.8901363E-2,-1.3568923E-2,-3.002711E-2,-1.02013E0,-1.8247044E-2,-1.41583225E-2,1.9859163E-2],"split_indices":[2,2,0,2,2,2,0,0,0,2,0,0,0],"split_type":[0,0,0,0,0,0,0,0,0,0,0,0,0],"sum_hessian":[5.03E2,4.27E2,7.6E1,2.85E2,1.42E2,2.33E2,5.2E1,9.2E1,5E1,1.53E2,8E1,8.7E1,6.6E1],"tree_param":{"num_deleted":"0","num_feature":"3","num_nodes":"13","size_leaf_vector":"1"}},{"base_weights":[1.4736353E-2,-3.0924337E-2,1.4967607E-1,2.2326177E-2,-6.1877437E-2,1.7414115E-2,2.5973296E-2,-2.6745412E-2,-1.2915312E-1,-2.0771816E-2,1.2692965E-2,-2.3562655E-2,-1.4810723E-2,1.3814955E-2,-4.31407E-3],"categories":[],"categories_nodes":[],"categories_segments":[],"categories_sizes":[],"default_left":[0,0,0,0,0,0,0,0,0,0,0,0,0,0,0],"id":12,"left_children":[1,3,5,-1,7,-1,-1,9,11,-1,13,-1,-1,-1,-1],"loss_changes":[2.9005058E0,1.9678435E0,7.3726654E-2,0E0,7.079685E-1,0E0,0E0,8.7866753E-1,7.1991205E-2,0E0,4.8981768E-1,0E0,0E0,0E0,0E0],"parents":[2147483647,0,0,1,1,2,2,4,4,7,7,8,8,10,10],"right_children":[2,4,6,-1,8,-1,-1,10,12,-1,14,-1,-1,-1,-1],"split_conditions":[6.06821E-1,-1.167567E0,1.047213E0,2.2326177E-2,1.13138E-1,1.7414115E-2,2.5973296E-2,-6.9019E-1,3.65161E-1,-2.0771816E-2,-3.73437E-1,-2.3562655E-2,-1.4810723E-2,1.3814955E-2,-4.31407E-3],"split_indices":[1,1,1,0,1,0,0,1,1,0,1,0,0,0,0],"split_type":[0,0,0,0,0,0,0,0,0,0,0,0,0,0,0],"sum_hessian":[4.69E2,3.51E2,1.18E2,5.1E1,3E2,5.1E1,6.7E1,1.98E2,1.02E2,5.1E1,1.47E2,5.1E1,5.1E1,5E1,9.7E1],"tree_param":{"num_deleted":"0","num_feature":"3","num_nodes":"15","size_leaf_vector":"1"}},{"base_weights":[-1.1484858E-1,-7.73419E-2,-2.282718E-1,-1.4175448E-1,1.9821888E-2,-4.5920387E-2,-2.0991007E-2,-5.8750678E-2,-2.0351958E-1,-2.024739E-2,3.934411E-3,-1.6399227E-1,-3.9789874E-2,-2.910463E-2,-1.9706648E-2],"categories":[],"categories_nodes":[],"categories_segments":[],"categories_sizes":[],"default_left":[0,0,0,0,0,0,0,0,0,0,0,0,0,0,0],"id":13,"left_children":[1,3,5,7,-1,-1,-1,9,11,-1,-1,13,-1,-1,-1],"loss_changes":[2.07963E0,5.0383697E0,7.962599E-1,1.4491639E0,0E0,0E0,0E0,8.0035836E-1,3.5432625E-1,0E0,0E0,7.443762E-2,0E0,0E0,0E0],"parents":[2147483647,0,0,1,1,2,2,3,3,7,7,8,8,11,11],"right_children":[2,4,6,8,-1,-1,-1,10,12,-1,-1,14,-1,-1,-1],"split_conditions":[6.32759E-1,2.00279E-1,1.164787E0,-8.18073E-1,1.9821888E-2,-4.5920387E-2,-2.0991007E-2,-1.239073E0,-1.54246E-1,-2.024739E-2,3.934411E-3,-4.57515E-1,-3.9789874E-2,-2.910463E-2,-1.9706648E-2],"split_indices":[2,2,2,2,0,0,0,2,2,0,0,2,0,0,0],"split_type":[0,0,0,0,0,0,0,0,0,0,0,0,0,0,0],"sum_hessian":[4.92E2,3.71E2,1.21E2,2.84E2,8.7E1,6.3E1,5.8E1,1.22E2,1.62E2,6.4E1,5.8E1,1.01E2,6.1E1,5E1,5.1E1],"tree_param":{"num_deleted":"0","num_feature":"3","num_nodes":"15","size_leaf_vector":"1"}},{"base_weights":[2.804334E-2,2.4643147E-3,1.1489226E-1,4.519579E-2,-2.9481394E-2,2.6918964E-2,7.763653E-3,9.191736E-2,1.4486724E-2,-6.1820506E-4,3.208379E-2,-1.3133378E-2,7.66677E-2,8.150802E-3,1.4647753E-2],"categories":[],"categories_nodes":[],"categories_segments":[],"categories_sizes":[],"default_left":[0,0,0,0,0,0,0,0,0,0,0,0,0,0,0],"id":14,"left_children":[1,3,5,7,-1,-1,-1,9,11,-1,-1,-1,13,-1,-1],"loss_changes":[1.034941E0,3.0787761E0,4.2281425E-1,4.2623156E-1,0E0,0E0,0E0,1.3831666E0,1.1551771E0,0E0,0E0,0E0,4.7640145E-2,0E0,0E0],"parents":[2147483647,0,0,1,1,2,2,3,3,7,7,8,8,12,12],"right_children":[2,4,6,8,-1,-1,-1,10,12,-1,-1,-1,14,-1,-1],"split_conditions":[7.53916E-1,3.46551E-1,1.15594E0,-6.43247E-1,-2.9481394E-2,2.6918964E-2,7.763653E-3,-1.080449E0,-1.90363E-1,-6.1820506E-4,3.208379E-2,-1.3133378E-2,8.2466E-2,8.150802E-3,1.4647753E-2],"split_indices":[0,0,0,0,0,0,0,0,0,0,0,0,0,0,0],"split_type":[0,0,0,0,0,0,0,0,0,0,0,0,0,0,0],"sum_hessian":[4.65E2,3.6E2,1.05E2,2.97E2,6.3E1,5.1E1,5.4E1,1.17E2,1.8E2,6.6E1,5.1E1,6.8E1,1.12E2,5.6E1,5.6E1],"tree_param":{"num_deleted":"0","num_feature":"3","num_nodes":"15","size_leaf_vector":"1"}},{"base_weights":[1.8961936E-2,-2.6920193E-3,2.6453832E-2,9.415234E-2,-4.6761736E-2,3.8153077E-3,3.089835E-2,-8.7867565E-2,3.0866095E-3,-7.530836E-3,-1.9234678E-2,7.3841223E-3,-1.1352722E-2],"categories":[],"categories_nodes":[],"categories_segments":[],"categories_sizes":[],"default_left":[0,0,0,0,0,0,0,0,0,0,0,0,0],"id":15,"left_children":[1,3,-1,5,7,-1,-1,9,11,-1,-1,-1,-1],"loss_changes":[1.690975E0,1.8694766E0,0E0,1.0476159E0,6.1703753E-1,0E0,0E0,2.4439096E-1,5.0166345E-1,0E0,0E0,0E0,0E0],"parents":[2147483647,0,0,1,1,3,3,4,4,7,7,8,8],"right_children":[2,4,-1,6,8,-1,-1,10,12,-1,-1,-1,-1],"split_conditions":[1.039922E0,-6.58335E-1,2.6453832E-2,-1.02013E0,2.00279E-1,3.8153077E-3,3.089835E-2,-2.10388E-1,6.6626E-1,-7.530836E-3,-1.9234678E-2,7.3841223E-3,-1.1352722E-2],"split_indices":[2,2,0,2,2,0,0,2,2,0,0,0,0],"split_type":[0,0,0,0,0,0,0,0,0,0,0,0,0],"sum_hessian":[4.95E2,4.36E2,5.9E1,1.36E2,3E2,8.5E1,5.1E1,1.64E2,1.36E2,8.6E1,7.8E1,8.6E1,5E1],"tree_param":{"num_deleted":"0","num_feature":"3","num_nodes":"13","size_leaf_vector":"1"}},{"base_weights":[-1.449794E-2,3.875168E-2,-2.0221652E-1,3.606824E-2,6.85071E-3,-4.320679E-2,-1.5636938E-2,-4.51942E-2,2.0699618E-2,-2.546805E-3,-1.8866569E-2,-1.0657784E-2,1.2394742E-2],"categories":[],"categories_nodes":[],"categories_segments":[],"categories_sizes":[],"default_left":[0,0,0,0,0,0,0,0,0,0,0,0,0],"id":16,"left_children":[1,3,5,-1,7,-1,-1,9,-1,11,-1,-1,-1],"loss_changes":[4.8858566E0,2.449908E0,8.78108E-1,0E0,2.2586582E0,0E0,0E0,8.1416607E-1,0E0,9.161552E-1,0E0,0E0,0E0],"parents":[2147483647,0,0,1,1,2,2,4,4,7,7,9,9],"right_children":[2,4,6,-1,8,-1,-1,10,-1,12,-1,-1,-1],"split_conditions":[7.01423E-1,-1.206136E0,1.140584E0,3.606824E-2,2.00279E-1,-4.320679E-2,-1.5636938E-2,-2.10388E-1,2.0699618E-2,-6.10979E-1,-1.8866569E-2,-1.0657784E-2,1.2394742E-2],"split_indices":[2,2,2,0,2,0,0,2,0,2,0,0,0],"split_type":[0,0,0,0,0,0,0,0,0,0,0,0,0],"sum_hessian":[4.87E2,3.8E2,1.07E2,5.1E1,3.29E2,5.6E1,5.1E1,2.36E2,9.3E1,1.55E2,8.1E1,8.6E1,6.9E1],"tree_param":{"num_deleted":"0","num_feature":"3","num_nodes":"13","size_leaf_vector":"1"}},{"base_weights":[-6.1664846E-2,8.042206E-3,-8.146884E-2,-4.4647057E-2,-4.701433E-2,3.7147878E-3,-6.599059E-2,-3.0490348E-2,-2.6911981E-2,5.4219724E-3,-5.422649E-2,-2.5833001E-2,6.4262324E-3,1.3404396E-2,-1.1259988E-2],"categories":[],"categories_nodes":[],"categories_segments":[],"categories_sizes":[],"default_left":[0,0,0,0,0,0,0,0,0,0,0,0,0,0,0],"id":17,"left_children":[1,-1,3,-1,5,-1,7,-1,9,-1,11,-1,13,-1,-1],"loss_changes":[1.1161871E0,0E0,3.0845048E0,0E0,4.9199313E-1,0E0,1.5234543E0,0E0,3.8605773E-1,0E0,1.1175408E0,0E0,7.096151E-1,0E0,0E0],"parents":[2147483647,0,0,2,2,4,4,6,6,8,8,10,10,12,12],"right_children":[2,-1,4,-1,6,-1,8,-1,10,-1,12,-1,14,-1,-1],"split_conditions":[-1.097341E0,8.042206E-3,-6.72281E-1,-4.4647057E-2,-2.7595E-1,3.7147878E-3,4.691E-2,-3.0490348E-2,3.95176E-1,5.4219724E-3,7.53916E-1,-2.5833001E-2,1.252808E0,1.3404396E-2,-1.1259988E-2],"split_indices":[0,0,0,0,0,0,0,0,0,0,0,0,0,0,0],"split_type":[0,0,0,0,0,0,0,0,0,0,0,0,0,0,0],"sum_hessian":[4.86E2,7.1E1,4.15E2,5.6E1,3.59E2,7.5E1,2.84E2,6.2E1,2.22E2,6.7E1,1.55E2,5.2E1,1.03E2,5.1E1,5.2E1],"tree_param":{"num_deleted":"0","num_feature":"3","num_nodes":"15","size_leaf_vector":"1"}},{"base_weights":[3.7086636E-2,1.11706614E-1,-2.6691487E-2,-3.5928173E-3,1.5038212E-1,-3.7730664E-2,5.219726E-2,3.8510077E-2,9.5931835E-2,2.1641375E-2,1.3677589E-2,5.8966357E-4,2.6844883E-2,-5.7548764E-3,9.504387E-3],"categories":[],"categories_nodes":[],"categories_segments":[],"categories_sizes":[],"default_left":[0,0,0,0,0,0,0,0,0,0,0,0,0,0,0],"id":18,"left_children":[1,3,5,-1,7,-1,9,-1,11,-1,13,-1,-1,-1,-1],"loss_changes":[2.3349514E0,1.1893492E0,4.7136564E0,0E0,9.9456596E-1,0E0,6.967533E-1,0E0,9.0072143E-1,0E0,3.644398E-1,0E0,0E0,0E0,0E0],"parents":[2147483647,0,0,1,1,2,2,4,4,6,6,8,8,10,10],"right_children":[2,4,6,-1,8,-1,10,-1,12,-1,14,-1,-1,-1,-1],"split_conditions":[-8.8145E-2,-1.234942E0,2.27751E-1,-3.5928173E-3,-8.41835E-1,-3.7730664E-2,6.33466E-1,3.8510077E-2,-3.96384E-1,2.1641375E-2,1.102295E0,5.8966357E-4,2.6844883E-2,-5.7548764E-3,9.504387E-3],"split_indices":[0,0,0,0,0,0,0,0,0,0,0,0,0,0,0],"split_type":[0,0,0,0,0,0,0,0,0,0,0,0,0,0,0],"sum_hessian":[4.89E2,2.25E2,2.64E2,5E1,1.75E2,6.8E1,1.96E2,5.8E1,1.17E2,5.7E1,1.39E2,5.6E1,6.1E1,6.8E1,7.1E1],"tree_param":{"num_deleted":"0","num_feature":"3","num_nodes":"15","size_leaf_vector":"1"}},{"base_weights":[7.5738863E-3,-1.6317995E-2,3.257029E-2,4.809379E-2,-9.69347E-3,1.4875891E-2,-2.0041078E-2,-1.3019863E-2,1.886366E-2,4.3979164E-2,-7.8983165E-2,-1.2168511E-3,1.2632E-2,-1.9432498E-2,-5.2947546E-3],"categories":[],"categories_nodes":[],"categories_segments":[],"categories_sizes":[],"default_left":[0,0,0,0,0,0,0,0,0,0,0,0,0,0,0],"id":19,"left_children":[1,-1,3,-1,5,7,-1,9,-1,11,13,-1,-1,-1,-1],"loss_changes":[1.4636579E0,0E0,5.043262E0,0E0,1.1040896E0,9.388565E-1,0E0,9.1711575E-1,0E0,2.7524057E-1,2.4504417E-1,0E0,0E0,0E0,0E0],"parents":[2147483647,0,0,2,2,4,4,5,5,7,7,9,9,10,10],"right_children":[2,-1,4,-1,6,8,-1,10,-1,12,14,-1,-1,-1,-1],"split_conditions":[-1.00528E0,-1.6317995E-2,-6.99319E-1,4.809379E-2,1.127045E0,6.47526E-1,-2.0041078E-2,4.1102E-2,1.886366E-2,-3.64673E-1,2.98581E-1,-1.2168511E-3,1.2632E-2,-1.9432498E-2,-5.2947546E-3],"split_indices":[2,0,2,0,2,2,0,2,0,2,2,0,0,0,0],"split_type":[0,0,0,0,0,0,0,0,0,0,0,0,0,0,0],"sum_hessian":[5.01E2,8.8E1,4.13E2,5.2E1,3.61E2,3.02E2,5.9E1,2.42E2,6E1,1.3E2,1.12E2,5.7E1,7.3E1,5.1E1,6.1E1],"tree_param":{"num_deleted":"0","num_feature":"3","num_nodes":"15","size_leaf_vector":"1"}},{"base_weights":[4.730837E-2,7.0847124E-2,-1.3044785E-2,4.9654823E-2,2.465939E-2,8.554558E-2,1.0986241E-2,3.3197124E-3,2.1355864E-2,-1.9227095E-2,7.540918E-2,2.3324426E-2,-2.5363374E-3],"categories":[],"categories_nodes":[],"categories_segments":[],"categories_sizes":[],"default_left":[0,0,0,0,0,0,0,0,0,0,0,0,0],"id":20,"left_children":[1,3,-1,5,-1,7,9,-1,-1,-1,11,-1,-1],"loss_changes":[1.5011406E0,7.907901E-1,0E0,4.570489E-1,0E0,6.130692E-1,1.4441522E0,0E0,0E0,0E0,8.159119E-1,0E0,0E0],"parents":[2147483647,0,0,1,1,3,3,5,5,6,6,10,10],"right_children":[2,4,-1,6,-1,8,10,-1,-1,-1,12,-1,-1],"split_conditions":[9.85664E-1,5.06492E-1,-1.3044785E-2,-4.11896E-1,2.465939E-2,-1.00528E0,-1.14274E-1,3.3197124E-3,2.1355864E-2,-1.9227095E-2,1.85526E-1,2.3324426E-2,-2.5363374E-3],"split_indices":[2,2,0,2,0,2,2,0,0,0,2,0,0],"split_type":[0,0,0,0,0,0,0,0,0,0,0,0,0],"sum_hessian":[4.72E2,4.02E2,7E1,3.29E2,7.3E1,1.7E2,1.59E2,8.1E1,8.9E1,5E1,1.09E2,5.8E1,5.1E1],"tree_param":{"num_deleted":"0","num_feature":"3","num_nodes":"13","size_leaf_vector":"1"}},{"base_weights":[-1.3232368E-2,1.2519837E-2,-3.3343315E-2,-9.8890856E-2,-7.335975E-3,-9.763455E-3,-2.020356E-2,2.0379279E-2,-5.298797E-2,-1.1967162E-1,1.8791502E-2,-1.1920473E-2,-2.4097437E-2,9.8676905E-3,-4.423725E-3],"categories":[],"categories_nodes":[],"categories_segments":[],"categories_sizes":[],"default_left":[0,0,0,0,0,0,0,0,0,0,0,0,0,0,0],"id":21,"left_children":[1,-1,3,5,7,-1,-1,-1,9,11,13,-1,-1,-1,-1],"loss_changes":[9.031732E-1,0E0,6.5388596E-1,1.2313032E-1,1.8114848E0,0E0,0E0,0E0,1.0074174E0,1.6679847E-1,2.3337485E-1,0E0,0E0,0E0,0E0],"parents":[2147483647,0,0,2,2,3,3,4,4,8,8,9,9,10,10],"right_children":[2,-1,4,6,8,-1,-1,-1,10,12,14,-1,-1,-1,-1],"split_conditions":[-9.82689E-1,1.2519837E-2,-2.68801E-1,-5.72996E-1,1.05888E-1,-9.763455E-3,-2.020356E-2,2.0379279E-2,7.8084E-1,4.00839E-1,1.314445E0,-1.1920473E-2,-2.4097437E-2,9.8676905E-3,-4.423725E-3],"split_indices":[0,0,0,0,0,0,0,0,0,0,0,0,0,0,0],"split_type":[0,0,0,0,0,0,0,0,0,0,0,0,0,0,0],"sum_hessian":[4.62E2,7.9E1,3.83E2,1.08E2,2.75E2,5.7E1,5.1E1,6.6E1,2.09E2,1.08E2,1.01E2,5.6E1,5.2E1,5.1E1,5E1],"tree_param":{"num_deleted":"0","num_feature":"3","num_nodes":"15","size_leaf_vector":"1"}},{"base_weights":[1.2483041E-2,9.149423E-2,-2.6224803E-2,2.4689613E-3,2.494883E-2,-2.9341543E-2,7.502366E-3,2.5108352E-2,-4.3302882E-2,-2.3484565E-2,5.2606754E-2,1.1481586E-2,3.4740877E-3],"categories":[],"categories_nodes":[],"categories_segments":[],"categories_sizes":[],"default_left":[0,0,0,0,0,0,0,0,0,0,0,0,0],"id":22,"left_children":[1,3,5,-1,-1,-1,7,-1,9,-1,11,-1,-1],"loss_changes":[1.507109E0,9.068805E-1,1.8924351E0,0E0,0E0,0E0,2.2573414E0,0E0,2.300289E0,0E0,7.92858E-2,0E0,0E0],"parents":[2147483647,0,0,1,1,2,2,6,6,8,8,10,10],"right_children":[2,4,6,-1,-1,-1,8,-1,10,-1,12,-1,-1],"split_conditions":[-4.20766E-1,-1.005129E0,-1.58097E-1,2.4689613E-3,2.494883E-2,-2.9341543E-2,1.13138E-1,2.5108352E-2,6.06821E-1,-2.3484565E-2,1.261914E0,1.1481586E-2,3.4740877E-3],"split_indices":[1,1,1,0,0,0,1,0,1,0,1,0,0],"split_type":[0,0,0,0,0,0,0,0,0,0,0,0,0],"sum_hessian":[4.91E2,1.61E2,3.3E2,8.1E1,8E1,5.4E1,2.76E2,6.6E1,2.1E2,9.6E1,1.14E2,6.2E1,5.2E1],"tree_param":{"num_deleted":"0","num_feature":"3","num_nodes":"13","size_leaf_vector":"1"}},{"base_weights":[2.1976873E-2,2.0223374E-2,2.4964318E-3,-1.4785953E-2,3.277872E-2,1.9134872E-2,-8.938325E-3,-2.924859E-2,6.0188495E-2,1.2577885E-1,-1.3092891E-2,2.4921518E-2,1.16985105E-2],"categories":[],"categories_nodes":[],"categories_segments":[],"categories_sizes":[],"default_left":[0,0,0,0,0,0,0,0,0,0,0,0,0],"id":23,"left_children":[1,-1,3,-1,5,-1,7,-1,9,11,-1,-1,-1],"loss_changes":[1.0900114E0,0E0,1.3009316E0,0E0,1.2941757E0,0E0,2.9440901E0,0E0,1.6263533E0,2.1080375E-1,0E0,0E0,0E0],"parents":[2147483647,0,0,2,2,4,4,6,6,8,8,9,9],"right_children":[2,-1,4,-1,6,-1,8,-1,10,12,-1,-1,-1],"split_conditions":[-1.097341E0,2.0223374E-2,-3.65925E-1,-1.4785953E-2,1.12884E-1,1.9134872E-2,4.47784E-1,-2.924859E-2,1.314445E0,7.9748E-1,-1.3092891E-2,2.4921518E-2,1.16985105E-2],"split_indices":[0,0,0,0,0,0,0,0,0,0,0,0,0],"split_type":[0,0,0,0,0,0,0,0,0,0,0,0,0],"sum_hessian":[4.95E2,7.2E1,4.23E2,9.7E1,3.26E2,9.9E1,2.27E2,6.1E1,1.66E2,1.15E2,5.1E1,6.1E1,5.4E1],"tree_param":{"num_deleted":"0","num_feature":"3","num_nodes":"13","size_leaf_vector":"1"}},{"base_weights":[-1.28983E-2,-1.5740609E-2,1.0317839E-2,2.6051365E-2,-1.4540123E-2,-2.9154054E-3,6.279953E-2,4.8765346E-2,-2.1345139E-2,2.0142846E-2,8.3181047E-4,2.423285E-6,1.9732004E-2],"categories":[],"categories_nodes":[],"categories_segments":[],"categories_sizes":[],"default_left":[0,0,0,0,0,0,0,0,0,0,0,0,0],"id":24,"left_children":[1,-1,3,5,-1,7,9,11,-1,-1,-1,-1,-1],"loss_changes":[1.0609317E0,0E0,6.724437E-1,3.6955613E-1,0E0,1.4116312E0,6.2546515E-1,5.7707775E-1,0E0,0E0,0E0,0E0,0E0],"parents":[2147483647,0,0,2,2,3,3,5,5,6,6,7,7],"right_children":[2,-1,4,6,-1,8,10,12,-1,-1,-1,-1,-1],"split_conditions":[-9.61315E-1,-1.5740609E-2,1.348899E0,1.86784E-1,-1.4540123E-2,-8.8145E-2,6.33466E-1,-3.65925E-1,-2.1345139E-2,2.0142846E-2,8.3181047E-4,2.423285E-6,1.9732004E-2],"split_indices":[0,0,0,0,0,0,0,0,0,0,0,0,0],"split_type":[0,0,0,0,0,0,0,0,0,0,0,0,0],"sum_hessian":[4.95E2,9.9E1,3.96E2,3.46E2,5E1,1.94E2,1.52E2,1.42E2,5.2E1,6.7E1,8.5E1,9E1,5.2E1],"tree_param":{"num_deleted":"0","num_feature":"3","num_nodes":"13","size_leaf_vector":"1"}},{"base_weights":[1.5566641E-2,-3.0092748E-2,8.986808E-2,1.813875E-2,-1.0900207E-1,4.010337E-2,1.449732E-2,-5.2960712E-2,-2.742753E-2,-1.2025944E-2,1.4463677E-2,-1.5575272E-2,2.58124E-4],"categories":[],"categories_nodes":[],"categories_segments":[],"categories_sizes":[],"default_left":[0,0,0,0,0,0,0,0,0,0,0,0,0],"id":25,"left_children":[1,3,5,-1,7,-1,9,11,-1,-1,-1,-1,-1],"loss_changes":[1.5870291E0,3.4690259E0,2.3772979E0,0E0,7.807789E-1,0E0,9.849954E-1,3.0618683E-1,0E0,0E0,0E0,0E0,0E0],"parents":[2147483647,0,0,1,1,2,2,4,4,6,6,7,7],"right_children":[2,4,6,-1,8,-1,10,12,-1,-1,-1,-1,-1],"split_conditions":[2.48735E-1,-7.21728E-1,4.938E-1,1.813875E-2,-1.32629E-1,4.010337E-2,1.041914E0,-3.73437E-1,-2.742753E-2,-1.2025944E-2,1.4463677E-2,-1.5575272E-2,2.58124E-4],"split_indices":[1,1,1,0,1,0,1,1,0,0,0,0,0],"split_type":[0,0,0,0,0,0,0,0,0,0,0,0,0],"sum_hessian":[4.66E2,2.89E2,1.77E2,9.9E1,1.9E2,5.2E1,1.25E2,1.09E2,8.1E1,5.8E1,6.7E1,5.6E1,5.3E1],"tree_param":{"num_deleted":"0","num_feature":"3","num_nodes":"13","size_leaf_vector":"1"}},{"base_weights":[-1.6680887E-2,5.6122143E-2,-1.1460477E-1,1.6763028E-2,3.3657257E-2,-3.171093E-2,-2.6441634E-2,1.9424602E-2,-2.427005E-2,6.3053723E-3,-1.3283995E-2,-1.8301284E-2,6.511833E-3],"categories":[],"categories_nodes":[],"categories_segments":[],"categories_sizes":[],"default_left":[0,0,0,0,0,0,0,0,0,0,0,0,0],"id":26,"left_children":[1,3,5,7,-1,-1,9,-1,11,-1,-1,-1,-1],"loss_changes":[3.4783306E0,1.8505521E0,1.7695482E0,1.0578336E0,0E0,0E0,4.7163022E-1,0E0,1.1166443E0,0E0,0E0,0E0,0E0],"parents":[2147483647,0,0,1,1,2,2,3,3,6,6,8,8],"right_children":[2,4,6,8,-1,-1,10,-1,12,-1,-1,-1,-1],"split_conditions":[1.13138E-1,-1.02581E-1,6.30402E-1,-1.167567E0,3.3657257E-2,-3.171093E-2,1.173873E0,1.9424602E-2,-6.3662E-1,6.3053723E-3,-1.3283995E-2,-1.8301284E-2,6.511833E-3],"split_indices":[1,1,1,1,0,0,1,0,1,0,0,0,0],"split_type":[0,0,0,0,0,0,0,0,0,0,0,0,0],"sum_hessian":[4.86E2,2.79E2,2.07E2,2.27E2,5.2E1,9.8E1,1.09E2,6E1,1.67E2,5.2E1,5.7E1,6.8E1,9.9E1],"tree_param":{"num_deleted":"0","num_feature":"3","num_nodes":"13","size_leaf_vector":"1"}},{"base_weights":[-8.526072E-3,-1.9817077E-2,1.7862055E-2,9.217569E-2,-3.5494577E-2,4.2413687E-3,1.9711485E-2,-3.477506E-2,3.1764485E-2,-8.824897E-3,8.0576345E-2,3.248659E-2,-7.7916184E-3],"categories":[],"categories_nodes":[],"categories_segments":[],"categories_sizes":[],"default_left":[0,0,0,0,0,0,0,0,0,0,0,0,0],"id":27,"left_children":[1,-1,3,5,7,-1,-1,-1,9,-1,11,-1,-1],"loss_changes":[1.4829674E0,0E0,1.4901936E0,3.8989305E-1,2.8993874E0,0E0,0E0,0E0,7.299837E-1,0E0,1.9397007E0,0E0,0E0],"parents":[2147483647,0,0,2,2,3,3,4,4,8,8,10,10],"right_children":[2,-1,4,6,8,-1,-1,-1,10,-1,12,-1,-1],"split_conditions":[-1.00528E0,-1.9817077E-2,4.1102E-2,-5.5721E-1,3.7194E-1,4.2413687E-3,1.9711485E-2,-3.477506E-2,7.49773E-1,-8.824897E-3,1.155282E0,3.248659E-2,-7.7916184E-3],"split_indices":[2,0,2,2,2,0,0,0,2,0,2,0,0],"split_type":[0,0,0,0,0,0,0,0,0,0,0,0,0],"sum_hessian":[4.53E2,7.9E1,3.74E2,1.56E2,2.18E2,6E1,9.6E1,5.5E1,1.63E2,5.7E1,1.06E2,5.2E1,5.4E1],"tree_param":{"num_deleted":"0","num_feature":"3","num_nodes":"13","size_leaf_vector":"1"}},{"base_weights":[2.833247E-2,2.2221643E-2,5.4222997E-3,-1.2234433E-1,6.489599E-2,-2.7180227E-2,-8.775785E-3,2.5924314E-2,3.471607E-2,-2.9542625E-3,8.5243165E-2,1.6637756E-2,8.393049E-3],"categories":[],"categories_nodes":[],"categories_segments":[],"categories_sizes":[],"default_left":[0,0,0,0,0,0,0,0,0,0,0,0,0],"id":28,"left_children":[1,-1,3,5,7,-1,-1,-1,9,-1,11,-1,-1],"loss_changes":[1.2481304E0,0E0,2.918262E0,4.4780016E-1,8.4743917E-1,0E0,0E0,0E0,5.6802183E-1,0E0,7.425916E-2,0E0,0E0],"parents":[2147483647,0,0,2,2,3,3,4,4,8,8,10,10],"right_children":[2,-1,4,6,8,-1,-1,-1,10,-1,12,-1,-1],"split_conditions":[-9.82689E-1,2.2221643E-2,-1.90363E-1,-5.27518E-1,1.12884E-1,-2.7180227E-2,-8.775785E-3,2.5924314E-2,7.28444E-1,-2.9542625E-3,1.196755E0,1.6637756E-2,8.393049E-3],"split_indices":[0,0,0,0,0,0,0,0,0,0,0,0,0],"split_type":[0,0,0,0,0,0,0,0,0,0,0,0,0],"sum_hessian":[4.54E2,7.2E1,3.82E2,1.21E2,2.61E2,6.2E1,5.9E1,5.6E1,2.05E2,9.9E1,1.06E2,5.5E1,5.1E1],"tree_param":{"num_deleted":"0","num_feature":"3","num_nodes":"13","size_leaf_vector":"1"}},{"base_weights":[1.1156522E-2,8.766014E-2,-6.0590625E-2,-5.7477094E-3,1.6133167E-1,-3.7176967E-2,3.452403E-3,5.408695E-2,8.416411E-3,1.82963E-2,-4.415499E-2,1.4085545E-4,-1.5838856E-2],"categories":[],"categories_nodes":[],"categories_segments":[],"categories_sizes":[],"default_left":[0,0,0,0,0,0,0,0,0,0,0,0,0],"id":29,"left_children":[1,3,5,-1,7,-1,9,-1,-1,-1,11,-1,-1],"loss_changes":[2.711347E0,2.2243428E0,3.0589252E0,0E0,3.145532E0,0E0,1.0831163E0,0E0,0E0,0E0,3.79652E-1,0E0,0E0],"parents":[2147483647,0,0,1,1,2,2,4,4,6,6,10,10],"right_children":[2,4,6,-1,8,-1,10,-1,-1,-1,12,-1,-1],"split_conditions":[-8.8145E-2,-9.61315E-1,2.27751E-1,-5.7477094E-3,-6.32069E-1,-3.7176967E-2,5.9044E-1,5.408695E-2,8.416411E-3,1.82963E-2,1.227331E0,1.4085545E-4,-1.5838856E-2],"split_indices":[0,0,0,0,0,0,0,0,0,0,0,0,0],"split_type":[0,0,0,0,0,0,0,0,0,0,0,0,0],"sum_hessian":[4.92E2,2.38E2,2.54E2,8.8E1,1.5E2,6.4E1,1.9E2,5.1E1,9.9E1,5.4E1,1.36E2,7.9E1,5.7E1],"tree_param":{"num_deleted":"0","num_feature":"3","num_nodes":"13","size_leaf_vector":"1"}},{"base_weights":[-2.1742502E-2,6.2844485E-2,-1.2045665E-1,4.4776773E-4,3.824695E-2,-3.159517E-2,-4.629222E-2,1.0179239E-1,-3.793827E-2,-1.3820795E-2,1.1407876E-3,2.4776137E-2,-8.048987E-4],"categories":[],"categories_nodes":[],"categories_segments":[],"categories_sizes":[],"default_left":[0,0,0,0,0,0,0,0,0,0,0,0,0],"id":30,"left_children":[1,3,5,7,-1,-1,9,11,-1,-1,-1,-1,-1],"loss_changes":[3.982138E0,3.080957E0,1.461606E0,5.032886E0,0E0,0E0,3.0216345E-1,9.517516E-1,0E0,0E0,0E0,0E0,0E0],"parents":[2147483647,0,0,1,1,2,2,3,3,6,6,7,7],"right_children":[2,4,6,8,-1,-1,10,12,-1,-1,-1,-1,-1],"split_conditions":[1.13138E-1,-2.10422E-1,6.06821E-1,-5.10747E-1,3.824695E-2,-3.159517E-2,1.239073E0,-8.20922E-1,-3.793827E-2,-1.3820795E-2,1.1407876E-3,2.4776137E-2,-8.048987E-4],"split_indices":[1,1,1,1,0,0,1,1,0,0,0,0,0],"split_type":[0,0,0,0,0,0,0,0,0,0,0,0,0],"sum_hessian":[4.75E2,2.56E2,2.19E2,1.94E2,6.2E1,9.8E1,1.21E2,1.39E2,5.5E1,6.5E1,5.6E1,8.7E1,5.2E1],"tree_param":{"num_deleted":"0","num_feature":"3","num_nodes":"13","size_leaf_vector":"1"}},{"base_weights":[-1.43295955E-2,6.3541315E-2,-4.8947487E-2,1.6177567E-3,1.7845117E-2,-1.1452613E-1,7.711031E-2,-6.055713E-2,-4.440388E-2,1.937511E-2,1.8085536E-3,-1.1241131E-1,7.165721E-3,-3.7150357E-3,-3.0391041E-2],"categories":[],"categories_nodes":[],"categories_segments":[],"categories_sizes":[],"default_left":[0,0,0,0,0,0,0,0,0,0,0,0,0,0,0],"id":31,"left_children":[1,3,5,-1,-1,7,9,11,-1,-1,-1,13,-1,-1,-1],"loss_changes":[1.3482777E0,4.4902462E-1,2.869109E0,0E0,0E0,2.2154157E0,4.0143418E-1,9.9963045E-1,0E0,0E0,0E0,9.435992E-1,0E0,0E0,0E0],"parents":[2147483647,0,0,1,1,2,2,5,5,6,6,7,7,11,11],"right_children":[2,4,6,-1,-1,8,10,12,-1,-1,-1,14,-1,-1,-1],"split_conditions":[-4.20766E-1,-9.27692E-1,6.55774E-1,1.6177567E-3,1.7845117E-2,3.78033E-1,1.280854E0,1.47542E-1,-4.440388E-2,1.937511E-2,1.8085536E-3,-1.32629E-1,7.165721E-3,-3.7150357E-3,-3.0391041E-2],"split_indices":[1,1,1,0,0,1,1,1,0,0,0,1,0,0,0],"split_type":[0,0,0,0,0,0,0,0,0,0,0,0,0,0,0],"sum_hessian":[4.98E2,1.53E2,3.45E2,7.9E1,7.4E1,2.27E2,1.18E2,1.76E2,5.1E1,6.5E1,5.3E1,1.19E2,5.7E1,6.1E1,5.8E1],"tree_param":{"num_deleted":"0","num_feature":"3","num_nodes":"15","size_leaf_vector":"1"}},{"base_weights":[2.2050234E-2,1.0786298E-1,-6.7811185E-3,-1.0084714E-2,3.5930086E-2,-2.4621604E-2,3.6160696E-2,1.2984698E-1,-4.0505487E-2,1.3149615E-2,2.4663823E-2,-2.7571213E-2,5.7103066E-3],"categories":[],"categories_nodes":[],"categories_segments":[],"categories_sizes":[],"default_left":[0,0,0,0,0,0,0,0,0,0,0,0,0],"id":32,"left_children":[1,3,5,-1,-1,-1,7,9,11,-1,-1,-1,-1],"loss_changes":[1.1511867E0,2.713521E0,2.364285E0,0E0,0E0,0E0,1.9804661E0,1.6645479E-1,1.7184998E0,0E0,0E0,0E0,0E0],"parents":[2147483647,0,0,1,1,2,2,6,6,7,7,8,8],"right_children":[2,4,6,-1,-1,-1,8,10,12,-1,-1,-1,-1],"split_conditions":[-6.50489E-1,-1.268952E0,-2.51632E-1,-1.0084714E-2,3.5930086E-2,-2.4621604E-2,3.95176E-1,6.395E-2,7.85704E-1,1.3149615E-2,2.4663823E-2,-2.7571213E-2,5.7103066E-3],"split_indices":[0,0,0,0,0,0,0,0,0,0,0,0,0],"split_type":[0,0,0,0,0,0,0,0,0,0,0,0,0],"sum_hessian":[4.64E2,1.16E2,3.48E2,5E1,6.6E1,7.4E1,2.74E2,1.23E2,1.51E2,5.7E1,6.6E1,5.3E1,9.8E1],"tree_param":{"num_deleted":"0","num_feature":"3","num_nodes":"13","size_leaf_vector":"1"}},{"base_weights":[3.4628805E-2,8.258609E-2,-1.0107958E-1,5.1139366E-2,3.0375466E-2,-9.315889E-3,-2.2675892E-2,1.1471461E-1,3.0415787E-3,1.0075906E-2,2.6166653E-2,-1.4620208E-2,4.9194276E-2,1.9555967E-2,-6.315421E-3],"categories":[],"categories_nodes":[],"categories_segments":[],"categories_sizes":[],"default_left":[0,0,0,0,0,0,0,0,0,0,0,0,0,0,0],"id":33,"left_children":[1,3,5,7,-1,-1,-1,9,11,-1,-1,-1,13,-1,-1],"loss_changes":[3.1127615E0,1.3208058E0,2.346499E-1,8.5890085E-1,0E0,0E0,0E0,3.3188164E-1,7.5164014E-1,0E0,0E0,0E0,8.281533E-1,0E0,0E0],"parents":[2147483647,0,0,1,1,2,2,3,3,7,7,8,8,12,12],"right_children":[2,4,6,8,-1,-1,-1,10,12,-1,-1,-1,14,-1,-1],"split_conditions":[5.85496E-1,2.00279E-1,1.119594E0,-8.18073E-1,3.0375466E-2,-9.315889E-3,-2.2675892E-2,-1.161214E0,-4.00249E-1,1.0075906E-2,2.6166653E-2,-1.4620208E-2,-6.6891E-2,1.9555967E-2,-6.315421E-3],"split_indices":[2,2,2,2,0,0,0,2,2,0,0,0,2,0,0],"split_type":[0,0,0,0,0,0,0,0,0,0,0,0,0,0,0],"sum_hessian":[4.76E2,3.52E2,1.24E2,2.8E2,7.2E1,7.1E1,5.3E1,1.2E2,1.6E2,6.8E1,5.2E1,5E1,1.1E2,5.8E1,5.2E1],"tree_param":{"num_deleted":"0","num_feature":"3","num_nodes":"15","size_leaf_vector":"1"}},{"base_weights":[-7.055847E-2,-1.2103062E-1,-2.1652421E-2,-7.527876E-2,-1.7643121E-1,3.5013434E-2,-9.158682E-2,-2.5291653E-2,2.050561E-3,-3.1651504E-2,-2.0883828E-2,-2.6831144E-2,-5.368785E-2,5.804179E-3,-1.874653E-2],"categories":[],"categories_nodes":[],"categories_segments":[],"categories_sizes":[],"default_left":[0,0,0,0,0,0,0,0,0,0,0,0,0,0,0],"id":34,"left_children":[1,3,5,7,9,-1,11,-1,-1,-1,-1,-1,13,-1,-1],"loss_changes":[1.1822081E0,5.84903E-1,4.3918195E0,1.0898442E0,1.0699415E-1,0E0,6.2886095E-1,0E0,0E0,0E0,0E0,0E0,9.005114E-1,0E0,0E0],"parents":[2147483647,0,0,1,1,2,2,3,3,4,4,6,6,12,12],"right_children":[2,4,6,8,10,-1,12,-1,-1,-1,-1,-1,14,-1,-1],"split_conditions":[-1.33494E-1,-8.18073E-1,1.77271E-1,-1.169211E0,-4.33127E-1,3.5013434E-2,4.8946E-1,-2.5291653E-2,2.050561E-3,-3.1651504E-2,-2.0883828E-2,-2.6831144E-2,8.40198E-1,5.804179E-3,-1.874653E-2],"split_indices":[2,2,2,2,2,0,2,0,0,0,0,0,2,0,0],"split_type":[0,0,0,0,0,0,0,0,0,0,0,0,0,0,0],"sum_hessian":[4.79E2,2.35E2,2.44E2,1.3E2,1.05E2,5.2E1,1.92E2,6.3E1,6.7E1,5.2E1,5.3E1,5.7E1,1.35E2,5.9E1,7.6E1],"tree_param":{"num_deleted":"0","num_feature":"3","num_nodes":"15","size_leaf_vector":"1"}},{"base_weights":[1.3536385E-2,8.665387E-2,-2.3293152E-2,-1.6680466E-2,4.2916592E-2,-9.313504E-2,2.8835274E-2,2.3277063E-2,-2.7298288E-2,-7.164365E-3,-2.2846442E-2,2.186769E-2,-6.0543597E-2,-2.7627377E-2,1.1096943E-2],"categories":[],"categories_nodes":[],"categories_segments":[],"categories_sizes":[],"default_left":[0,0,0,0,0,0,0,0,0,0,0,0,0,0,0],"id":35,"left_children":[1,3,5,7,-1,9,11,-1,-1,-1,-1,-1,13,-1,-1],"loss_changes":[1.2946025E0,3.3231E0,1.1677247E0,3.0681107E0,0E0,3.605572E-1,1.9321413E0,0E0,0E0,0E0,0E0,0E0,1.7600179E0,0E0,0E0],"parents":[2147483647,0,0,1,1,2,2,3,3,5,5,6,6,12,12],"right_children":[2,4,6,8,-1,10,12,-1,-1,-1,-1,-1,14,-1,-1],"split_conditions":[-5.66148E-1,-8.88843E-1,2.00279E-1,-1.346999E0,4.2916592E-2,-1.54246E-1,6.32759E-1,2.3277063E-2,-2.7298288E-2,-7.164365E-3,-2.2846442E-2,2.186769E-2,1.164787E0,-2.7627377E-2,1.1096943E-2],"split_indices":[2,2,2,2,0,2,2,0,0,0,0,0,2,0,0],"split_type":[0,0,0,0,0,0,0,0,0,0,0,0,0,0,0],"sum_hessian":[4.79E2,1.6E2,3.19E2,1.06E2,5.4E1,1.36E2,1.83E2,5.2E1,5.4E1,7.8E1,5.8E1,7.9E1,1.04E2,5.4E1,5E1],"tree_param":{"num_deleted":"0","num_feature":"3","num_nodes":"15","size_leaf_vector":"1"}},{"base_weights":[7.717E-3,-2.387044E-2,2.4429543E-2,5.2832E-2,-1.9487932E-1,2.872226E-2,1.641297E-2,-3.951802E-2,-1.7055595E-2,7.8295484E-2,-1.3714869E-2,2.362338E-3,2.3856035E-2],"categories":[],"categories_nodes":[],"categories_segments":[],"categories_sizes":[],"default_left":[0,0,0,0,0,0,0,0,0,0,0,0,0],"id":36,"left_children":[1,3,-1,5,7,9,-1,-1,-1,11,-1,-1,-1],"loss_changes":[2.375819E0,5.296366E0,0E0,3.7750167E-1,6.658602E-1,1.1805806E0,0E0,0E0,0E0,7.045382E-1,0E0,0E0,0E0],"parents":[2147483647,0,0,1,1,3,3,4,4,5,5,9,9],"right_children":[2,4,-1,6,8,10,-1,-1,-1,12,-1,-1,-1],"split_conditions":[8.96782E-1,1.72208E-1,2.4429543E-2,-2.77074E-1,5.06492E-1,-5.76479E-1,1.641297E-2,-3.951802E-2,-1.7055595E-2,-1.033228E0,-1.3714869E-2,2.362338E-3,2.3856035E-2],"split_indices":[2,2,0,2,2,2,0,0,0,2,0,0,0],"split_type":[0,0,0,0,0,0,0,0,0,0,0,0,0],"sum_hessian":[4.83E2,4.02E2,8.1E1,2.78E2,1.24E2,1.96E2,8.2E1,6.6E1,5.8E1,1.39E2,5.7E1,7.9E1,6E1],"tree_param":{"num_deleted":"0","num_feature":"3","num_nodes":"13","size_leaf_vector":"1"}},{"base_weights":[1.2003642E-2,-8.838314E-3,2.8466979E-2,2.1565752E-2,-1.5747169E-3,-1.4112614E-2,3.7653103E-2,2.3606364E-2,-4.9670427E-3,-1.6171629E-2,4.508515E-2,1.1249631E-2,2.4721373E-3],"categories":[],"categories_nodes":[],"categories_segments":[],"categories_sizes":[],"default_left":[0,0,0,0,0,0,0,0,0,0,0,0,0],"id":37,"left_children":[1,-1,3,-1,5,-1,7,-1,9,-1,11,-1,-1],"loss_changes":[5.574902E-1,0E0,1.3407745E0,0E0,1.1212565E0,0E0,1.1080451E0,0E0,8.336176E-1,0E0,9.202665E-2,0E0,0E0],"parents":[2147483647,0,0,2,2,4,4,6,6,8,8,10,10],"right_children":[2,-1,4,-1,6,-1,8,-1,10,-1,12,-1,-1],"split_conditions":[-9.75911E-1,-8.838314E-3,-3.96384E-1,2.1565752E-2,8.2466E-2,-1.4112614E-2,3.95176E-1,2.3606364E-2,7.70999E-1,-1.6171629E-2,1.227331E0,1.1249631E-2,2.4721373E-3],"split_indices":[0,0,0,0,0,0,0,0,0,0,0,0,0],"split_type":[0,0,0,0,0,0,0,0,0,0,0,0,0],"sum_hessian":[4.75E2,8.9E1,3.86E2,7.9E1,3.07E2,9.1E1,2.16E2,5.6E1,1.6E2,5.2E1,1.08E2,5.2E1,5.6E1],"tree_param":{"num_deleted":"0","num_feature":"3","num_nodes":"13","size_leaf_vector":"1"}},{"base_weights":[8.747755E-3,-7.756315E-2,4.5023378E-2,1.2175277E-3,-2.7075605E-2,1.7343129E-1,-3.235332E-2,1.6770942E-2,3.1725165E-2,-3.6204144E-2,4.556204E-2,3.4381177E-2,-4.5820273E-2,2.128806E-3,-1.574521E-2],"categories":[],"categories_nodes":[],"categories_segments":[],"categories_sizes":[],"default_left":[0,0,0,0,0,0,0,0,0,0,0,0,0,0,0],"id":38,"left_children":[1,3,5,-1,-1,7,9,-1,-1,-1,11,-1,13,-1,-1],"loss_changes":[1.5126253E0,1.2627213E0,3.3837764E0,0E0,0E0,2.7664757E-1,3.4796815E0,0E0,0E0,0E0,2.6284907E0,0E0,3.7419719E-1,0E0,0E0],"parents":[2147483647,0,0,1,1,2,2,5,5,6,6,10,10,12,12],"right_children":[2,4,6,-1,-1,8,10,-1,-1,-1,12,-1,14,-1,-1],"split_conditions":[-5.5721E-1,-1.048941E0,1.72208E-1,1.2175277E-3,-2.7075605E-2,-2.02695E-1,4.28618E-1,1.6770942E-2,3.1725165E-2,-3.6204144E-2,7.01423E-1,3.4381177E-2,1.140584E0,2.128806E-3,-1.574521E-2],"split_indices":[2,2,2,0,0,2,2,0,0,0,2,0,2,0,0],"split_type":[0,0,0,0,0,0,0,0,0,0,0,0,0,0,0],"sum_hessian":[4.81E2,1.42E2,3.39E2,7.8E1,6.4E1,1.27E2,2.12E2,5E1,7.7E1,5.7E1,1.55E2,5.1E1,1.04E2,5.2E1,5.2E1],"tree_param":{"num_deleted":"0","num_feature":"3","num_nodes":"15","size_leaf_vector":"1"}},{"base_weights":[8.038661E-3,5.819016E-2,-1.536731E-1,8.212703E-3,1.1352619E-1,-3.718466E-2,-1.2573931E-2,4.90018E-2,-1.7507248E-2,2.777806E-2,6.3273446E-3,-5.483139E-4,1.7850604E-2],"categories":[],"categories_nodes":[],"categories_segments":[],"categories_sizes":[],"default_left":[0,0,0,0,0,0,0,0,0,0,0,0,0],"id":39,"left_children":[1,3,5,7,9,-1,-1,11,-1,-1,-1,-1,-1],"loss_changes":[4.145087E0,1.0776335E0,7.755568E-1,1.0554309E0,9.380131E-1,0E0,0E0,5.754702E-1,0E0,0E0,0E0,0E0,0E0],"parents":[2147483647,0,0,1,1,2,2,3,3,4,4,7,7],"right_children":[2,4,6,8,10,-1,-1,12,-1,-1,-1,-1,-1],"split_conditions":[5.7655E-1,-2.49611E-1,1.047213E0,-5.68002E-1,1.59753E-1,-3.718466E-2,-1.2573931E-2,-9.43668E-1,-1.7507248E-2,2.777806E-2,6.3273446E-3,-5.483139E-4,1.7850604E-2],"split_indices":[1,1,1,1,1,0,0,1,0,0,0,0,0],"split_type":[0,0,0,0,0,0,0,0,0,0,0,0,0],"sum_hessian":[5.09E2,3.89E2,1.2E2,2.05E2,1.84E2,5E1,7E1,1.55E2,5E1,9.1E1,9.3E1,8.9E1,6.6E1],"tree_param":{"num_deleted":"0","num_feature":"3","num_nodes":"13","size_leaf_vector":"1"}},{"base_weights":[-2.5454491E-2,-3.3012994E-3,-7.6009884E-2,-4.3154202E-2,2.5156459E-2,-2.9498467E-2,6.8380185E-3,1.0483377E-2,-6.753185E-2,-2.508789E-2,-4.0314175E-2,2.599289E-3,-7.181047E-2,-2.6314305E-2,2.224189E-3],"categories":[],"categories_nodes":[],"categories_segments":[],"categories_sizes":[],"default_left":[0,0,0,0,0,0,0,0,0,0,0,0,0,0,0],"id":40,"left_children":[1,3,5,7,-1,-1,-1,-1,9,-1,11,-1,13,-1,-1],"loss_changes":[5.8437E-1,2.4880013E0,2.3415296E0,8.204162E-1,0E0,0E0,0E0,0E0,6.555139E-1,0E0,3.5164234E-1,0E0,1.1247658E0,0E0,0E0],"parents":[2147483647,0,0,1,1,2,2,3,3,8,8,10,10,12,12],"right_children":[2,4,6,8,-1,-1,-1,-1,10,-1,12,-1,14,-1,-1],"split_conditions":[4.21805E-1,1.04107E-1,8.96782E-1,-1.373777E0,2.5156459E-2,-2.9498467E-2,6.8380185E-3,1.0483377E-2,-9.71846E-1,-2.508789E-2,-5.76479E-1,2.599289E-3,-2.77074E-1,-2.6314305E-2,2.224189E-3],"split_indices":[2,2,2,2,0,0,0,0,2,0,2,0,2,0,0],"split_type":[0,0,0,0,0,0,0,0,0,0,0,0,0,0,0],"sum_hessian":[5.21E2,3.63E2,1.58E2,2.95E2,6.8E1,7.9E1,7.9E1,5.2E1,2.43E2,5.1E1,1.92E2,6.8E1,1.24E2,5.6E1,6.8E1],"tree_param":{"num_deleted":"0","num_feature":"3","num_nodes":"15","size_leaf_vector":"1"}},{"base_weights":[6.14835E-2,2.3083668E-2,4.5935836E-2,-1.4263304E-2,6.681972E-2,1.3297264E-3,-5.9678685E-3,1.2369214E-1,3.695482E-2,2.0351648E-2,1.6260896E-2,-5.8074407E-3,7.618786E-2,1.9217009E-2,2.9599405E-4],"categories":[],"categories_nodes":[],"categories_segments":[],"categories_sizes":[],"default_left":[0,0,0,0,0,0,0,0,0,0,0,0,0,0,0],"id":41,"left_children":[1,-1,3,5,7,-1,-1,9,11,-1,-1,-1,13,-1,-1],"loss_changes":[6.954881E-1,0E0,5.2897364E-1,6.469406E-2,5.253575E-1,0E0,0E0,4.895568E-3,6.145239E-1,0E0,0E0,0E0,5.238409E-1,0E0,0E0],"parents":[2147483647,0,0,2,2,3,3,4,4,7,7,8,8,12,12],"right_children":[2,-1,4,6,8,-1,-1,10,12,-1,-1,-1,14,-1,-1],"split_conditions":[-1.097341E0,2.3083668E-2,-3.65925E-1,-6.50489E-1,1.52702E-1,1.3297264E-3,-5.9678685E-3,-8.8145E-2,6.05019E-1,2.0351648E-2,1.6260896E-2,-5.8074407E-3,1.227331E0,1.9217009E-2,2.9599405E-4],"split_indices":[0,0,0,0,0,0,0,0,0,0,0,0,0,0,0],"split_type":[0,0,0,0,0,0,0,0,0,0,0,0,0,0,0],"sum_hessian":[4.88E2,6.9E1,4.19E2,1.08E2,3.11E2,5.7E1,5.1E1,1.06E2,2.05E2,5.5E1,5.1E1,7E1,1.35E2,7.9E1,5.6E1],"tree_param":{"num_deleted":"0","num_feature":"3","num_nodes":"15","size_leaf_vector":"1"}},{"base_weights":[-1.3295013E-2,2.4642803E-2,-2.9711353E-2,-5.640273E-2,8.067156E-2,6.2107197E-3,-1.0523641E-1,2.4990736E-2,5.60126E-2,-1.23076895E-2,-1.9096632E-2,2.0594649E-2,1.5869306E-2,8.1091765E-3,-1.6273761E-3],"categories":[],"categories_nodes":[],"categories_segments":[],"categories_sizes":[],"default_left":[0,0,0,0,0,0,0,0,0,0,0,0,0,0,0],"id":42,"left_children":[1,3,-1,5,7,-1,9,-1,11,-1,-1,13,-1,-1,-1],"loss_changes":[3.2926536E0,1.7754935E0,0E0,7.685655E-1,4.801631E-1,0E0,4.431665E-2,0E0,3.169611E-1,0E0,0E0,1.1318427E-1,0E0,0E0,0E0],"parents":[2147483647,0,0,1,1,3,3,4,4,6,6,8,8,11,11],"right_children":[2,4,-1,6,8,-1,10,-1,12,-1,-1,14,-1,-1,-1],"split_conditions":[8.52675E-1,-4.68071E-1,-2.9711353E-2,-1.206136E0,-1.70294E-1,6.2107197E-3,-8.42704E-1,2.4990736E-2,4.59713E-1,-1.23076895E-2,-1.9096632E-2,1.37109E-1,1.5869306E-2,8.1091765E-3,-1.6273761E-3],"split_indices":[2,2,0,2,2,0,2,0,2,0,0,2,0,0,0],"split_type":[0,0,0,0,0,0,0,0,0,0,0,0,0,0,0],"sum_hessian":[4.68E2,3.89E2,7.9E1,1.59E2,2.3E2,5.3E1,1.06E2,5E1,1.8E2,5.4E1,5.2E1,1.06E2,7.4E1,5.1E1,5.5E1],"tree_param":{"num_deleted":"0","num_feature":"3","num_nodes":"15","size_leaf_vector":"1"}},{"base_weights":[2.2349946E-4,6.3047364E-2,-5.8201123E-2,-1.3383803E-2,1.2044364E-1,-2.6456479E-2,-1.0357749E-2,3.5684742E-2,7.116437E-2,2.7631868E-2,-9.474204E-2,-4.423116E-3,3.2371923E-2,-2.80354E-2,7.160853E-4],"categories":[],"categories_nodes":[],"categories_segments":[],"categories_sizes":[],"default_left":[0,0,0,0,0,0,0,0,0,0,0,0,0,0,0],"id":43,"left_children":[1,3,5,-1,7,-1,9,-1,11,-1,13,-1,-1,-1,-1],"loss_changes":[1.8205475E0,2.0995798E0,1.4512281E0,0E0,9.9019575E-1,0E0,3.0384872E0,0E0,1.8116953E0,0E0,1.1840093E0,0E0,0E0,0E0,0E0],"parents":[2147483647,0,0,1,1,2,2,4,4,6,6,8,8,10,10],"right_children":[2,4,6,-1,8,-1,10,-1,12,-1,14,-1,-1,-1,-1],"split_conditions":[-4.0539E-2,-1.059324E0,2.88854E-1,-1.3383803E-2,-6.7359E-1,-2.6456479E-2,5.3079E-1,3.5684742E-2,-2.56618E-1,2.7631868E-2,1.047213E0,-4.423116E-3,3.2371923E-2,-2.80354E-2,7.160853E-4],"split_indices":[1,1,1,0,1,0,1,0,1,0,1,0,0,0,0],"split_type":[0,0,0,0,0,0,0,0,0,0,0,0,0,0,0],"sum_hessian":[4.94E2,2.38E2,2.56E2,6.5E1,1.73E2,7.3E1,1.83E2,5E1,1.23E2,5.5E1,1.28E2,7.3E1,5E1,6.6E1,6.2E1],"tree_param":{"num_deleted":"0","num_feature":"3","num_nodes":"15","size_leaf_vector":"1"}},{"base_weights":[-6.991322E-2,-3.4505866E-2,-1.576572E-1,-7.2507255E-2,1.99691E-2,-3.921993E-2,-7.5004655E-3,6.712591E-3,-9.916611E-2,-2.424165E-2,-5.3473465E-2,6.663864E-3,-2.0350978E-2],"categories":[],"categories_nodes":[],"categories_segments":[],"categories_sizes":[],"default_left":[0,0,0,0,0,0,0,0,0,0,0,0,0],"id":44,"left_children":[1,3,5,7,-1,-1,-1,-1,9,-1,11,-1,-1],"loss_changes":[1.4671748E0,2.1691825E0,1.506789E0,8.703288E-1,0E0,0E0,0E0,0E0,6.3619757E-1,0E0,1.0682694E0,0E0,0E0],"parents":[2147483647,0,0,1,1,2,2,3,3,8,8,10,10],"right_children":[2,4,6,8,-1,-1,-1,-1,10,-1,12,-1,-1],"split_conditions":[4.83027E-1,1.82359E-1,1.047213E0,-1.145864E0,1.99691E-2,-3.921993E-2,-7.5004655E-3,6.712591E-3,-3.95293E-1,-2.424165E-2,-9.3957E-2,6.663864E-3,-2.0350978E-2],"split_indices":[1,1,1,1,0,0,0,0,1,0,1,0,0],"split_type":[0,0,0,0,0,0,0,0,0,0,0,0,0],"sum_hessian":[4.73E2,3.38E2,1.35E2,2.76E2,6.2E1,6.8E1,6.7E1,5.1E1,2.25E2,9.4E1,1.31E2,6E1,7.1E1],"tree_param":{"num_deleted":"0","num_feature":"3","num_nodes":"13","size_leaf_vector":"1"}},{"base_weights":[3.3337127E-2,7.059035E-3,1.1126679E-1,4.8077624E-2,-1.8379262E-2,3.239379E-2,2.8466044E-3,-7.444625E-3,2.302124E-2,1.8972868E-2,-6.960564E-2,-1.381519E-2,-6.4425776E-3],"categories":[],"categories_nodes":[],"categories_segments":[],"categories_sizes":[],"default_left":[0,0,0,0,0,0,0,0,0,0,0,0,0],"id":45,"left_children":[1,3,5,7,-1,-1,-1,9,-1,-1,11,-1,-1],"loss_changes":[1.0067532E0,1.9673082E0,1.1939833E0,1.6455252E0,0E0,0E0,0E0,1.5489753E0,0E0,0E0,7.2196364E-2,0E0,0E0],"parents":[2147483647,0,0,1,1,2,2,3,3,7,7,10,10],"right_children":[2,4,6,8,-1,-1,-1,10,-1,-1,12,-1,-1],"split_conditions":[6.06821E-1,1.13138E-1,1.280854E0,-2.92323E-1,-1.8379262E-2,3.239379E-2,2.8466044E-3,-1.167567E0,2.302124E-2,1.8972868E-2,-6.61085E-1,-1.381519E-2,-6.4425776E-3],"split_indices":[1,1,1,1,0,0,0,1,0,0,1,0,0],"split_type":[0,0,0,0,0,0,0,0,0,0,0,0,0],"sum_hessian":[4.91E2,3.68E2,1.23E2,2.8E2,8.8E1,5.7E1,6.6E1,1.84E2,9.6E1,5.8E1,1.26E2,6.7E1,5.9E1],"tree_param":{"num_deleted":"0","num_feature":"3","num_nodes":"13","size_leaf_vector":"1"}},{"base_weights":[3.283565E-2,1.4632341E-2,2.5697531E-2,3.9756194E-2,-1.6905788E-2,1.3413206E-2,2.139646E-2,4.765967E-2,-1.50616495E-2,1.530023E-2,1.1769636E-2,-1.0016272E-2,1.0617898E-2],"categories":[],"categories_nodes":[],"categories_segments":[],"categories_sizes":[],"default_left":[0,0,0,0,0,0,0,0,0,0,0,0,0],"id":46,"left_children":[1,3,-1,5,-1,7,-1,9,-1,-1,11,-1,-1],"loss_changes":[1.1495063E0,1.3001611E0,0E0,9.168945E-1,0E0,1.0611643E0,0E0,4.0641874E-1,0E0,0E0,5.934258E-1,0E0,0E0],"parents":[2147483647,0,0,1,1,3,3,5,5,7,7,10,10],"right_children":[2,4,-1,6,-1,8,-1,10,-1,-1,12,-1,-1],"split_conditions":[1.164787E0,6.32759E-1,2.5697531E-2,2.00279E-1,-1.6905788E-2,-1.76517E-1,2.139646E-2,-1.033228E0,-1.50616495E-2,1.530023E-2,-6.25181E-1,-1.0016272E-2,1.0617898E-2],"split_indices":[2,2,0,2,0,2,0,2,0,0,2,0,0],"split_type":[0,0,0,0,0,0,0,0,0,0,0,0,0],"sum_hessian":[4.56E2,4.04E2,5.2E1,3.38E2,6.6E1,2.7E2,6.8E1,2.08E2,6.2E1,8.2E1,1.26E2,5.4E1,7.2E1],"tree_param":{"num_deleted":"0","num_feature":"3","num_nodes":"13","size_leaf_vector":"1"}},{"base_weights":[-9.15683E-3,-4.7717303E-2,1.17905736E-1,-1.8826794E-2,-3.0772053E-2,1.937801E-2,1.5526807E-2,3.7835922E-2,-8.243823E-2,-5.603996E-3,1.6709052E-2,-3.2079596E-2,-2.5907302E-2,1.4439077E-2,-1.5973078E-2],"categories":[],"categories_nodes":[],"categories_segments":[],"categories_sizes":[],"default_left":[0,0,0,0,0,0,0,0,0,0,0,0,0,0,0],"id":47,"left_children":[1,3,5,-1,7,-1,-1,9,11,-1,-1,-1,13,-1,-1],"loss_changes":[2.4407237E0,4.9970913E-1,5.4631233E-3,0E0,1.1197034E0,0E0,0E0,7.564105E-1,1.3317909E0,0E0,0E0,0E0,1.2604725E0,0E0,0E0],"parents":[2147483647,0,0,1,1,2,2,4,4,7,7,8,8,12,12],"right_children":[2,4,6,-1,8,-1,-1,10,12,-1,-1,-1,14,-1,-1],"split_conditions":[6.30402E-1,-1.109354E0,1.173873E0,-1.8826794E-2,-1.94759E-1,1.937801E-2,1.5526807E-2,-6.3662E-1,5.1666E-2,-5.603996E-3,1.6709052E-2,-3.2079596E-2,2.67321E-1,1.4439077E-2,-1.5973078E-2],"split_indices":[1,1,1,0,1,0,0,1,1,0,0,0,1,0,0],"split_type":[0,0,0,0,0,0,0,0,0,0,0,0,0,0,0],"sum_hessian":[4.96E2,3.81E2,1.15E2,6.7E1,3.14E2,6E1,5.5E1,1.35E2,1.79E2,6.7E1,6.8E1,5.3E1,1.26E2,5E1,7.6E1],"tree_param":{"num_deleted":"0","num_feature":"3","num_nodes":"15","size_leaf_vector":"1"}},{"base_weights":[1.2911594E-2,-2.994156E-2,1.0817916E-1,3.5424463E-2,-1.7082092E-1,3.628635E-2,4.5193706E-2,-1.14521235E-2,1.0844105E-1,-3.536345E-2,-1.6740197E-2,1.2068914E-2,1.0697785E-3,2.590079E-2,9.946654E-3],"categories":[],"categories_nodes":[],"categories_segments":[],"categories_sizes":[],"default_left":[0,0,0,0,0,0,0,0,0,0,0,0,0,0,0],"id":48,"left_children":[1,3,5,7,9,-1,11,-1,13,-1,-1,-1,-1,-1,-1],"loss_changes":[2.1057346E0,3.284357E0,1.336753E0,1.9996135E0,4.0822482E-1,0E0,1.470768E-1,0E0,3.89045E-1,0E0,0E0,0E0,0E0,0E0,0E0],"parents":[2147483647,0,0,1,1,2,2,3,3,4,4,6,6,8,8],"right_children":[2,4,6,8,10,-1,12,-1,14,-1,-1,-1,-1,-1,-1],"split_conditions":[4.5155E-1,-8.8145E-2,7.9748E-1,-9.61315E-1,1.32754E-1,3.628635E-2,1.252808E0,-1.14521235E-2,-5.72996E-1,-3.536345E-2,-1.6740197E-2,1.2068914E-2,1.0697785E-3,2.590079E-2,9.946654E-3],"split_indices":[0,0,0,0,0,0,0,0,0,0,0,0,0,0,0],"split_type":[0,0,0,0,0,0,0,0,0,0,0,0,0,0,0],"sum_hessian":[5.14E2,3.55E2,1.59E2,2.43E2,1.12E2,5E1,1.09E2,9.6E1,1.47E2,5.2E1,6E1,5.6E1,5.3E1,5.7E1,9E1],"tree_param":{"num_deleted":"0","num_feature":"3","num_nodes":"15","size_leaf_vector":"1"}},{"base_weights":[-1.1493483E-2,4.0488567E-2,-1.5367372E-1,-2.3648648E-2,1.2810197E-1,-3.4623727E-2,-7.489442E-3,-1.5274278E-2,1.1854912E-2,4.1122038E-2,5.9183217E-3,2.209318E-2,-1.2252508E-2],"categories":[],"categories_nodes":[],"categories_segments":[],"categories_sizes":[],"default_left":[0,0,0,0,0,0,0,0,0,0,0,0,0],"id":49,"left_children":[1,3,5,7,9,-1,-1,-1,11,-1,-1,-1,-1],"loss_changes":[3.672069E0,2.0484474E0,1.0530033E0,5.868722E-1,1.9829245E0,0E0,0E0,0E0,1.8615834E0,0E0,0E0,0E0,0E0],"parents":[2147483647,0,0,1,1,2,2,3,3,4,4,8,8],"right_children":[2,4,6,8,10,-1,-1,-1,12,-1,-1,-1,-1],"split_conditions":[5.85496E-1,-2.85695E-1,1.140584E0,-1.142342E0,6.403E-2,-3.4623727E-2,-7.489442E-3,-1.5274278E-2,-8.29019E-1,4.1122038E-2,5.9183217E-3,2.209318E-2,-1.2252508E-2],"split_indices":[2,2,2,2,2,0,0,0,2,0,0,0,0],"split_type":[0,0,0,0,0,0,0,0,0,0,0,0,0],"sum_hessian":[4.95E2,3.63E2,1.32E2,2.1E2,1.53E2,7.5E1,5.7E1,6.5E1,1.45E2,5.7E1,9.6E1,5.9E1,8.6E1],"tree_param":{"num_deleted":"0","num_feature":"3","num_nodes":"13","size_leaf_vector":"1"}},{"base_weights":[-2.8109754E-2,2.0533131E-2,-6.0727093E-2,-1.061759E-1,-9.462636E-3,-6.730809E-2,-3.149958E-2,1.3141018E-2,-6.5626174E-2,-1.7640786E-2,-4.7809305E-3,-1.8034449E-2,-3.6503354E-3],"categories":[],"categories_nodes":[],"categories_segments":[],"categories_sizes":[],"default_left":[0,0,0,0,0,0,0,0,0,0,0,0,0],"id":50,"left_children":[1,-1,3,5,7,9,-1,-1,11,-1,-1,-1,-1],"loss_changes":[2.7045808E0,0E0,9.7522676E-1,8.817036E-1,1.0851983E0,2.8676486E-1,0E0,0E0,2.8115505E-1,0E0,0E0,0E0,0E0],"parents":[2147483647,0,0,2,2,3,3,4,4,5,5,8,8],"right_children":[2,-1,4,6,8,10,-1,-1,12,-1,-1,-1,-1],"split_conditions":[-1.045957E0,2.0533131E-2,2.27751E-1,-8.8145E-2,7.07495E-1,-5.81309E-1,-3.149958E-2,1.3141018E-2,1.102295E0,-1.7640786E-2,-4.7809305E-3,-1.8034449E-2,-3.6503354E-3],"split_indices":[0,0,0,0,0,0,0,0,0,0,0,0,0],"split_type":[0,0,0,0,0,0,0,0,0,0,0,0,0],"sum_hessian":[5E2,8.2E1,4.18E2,2.21E2,1.97E2,1.62E2,5.9E1,7.2E1,1.25E2,6.6E1,9.6E1,5.3E1,7.2E1],"tree_param":{"num_deleted":"0","num_feature":"3","num_nodes":"13","size_leaf_vector":"1"}}]},"name":"gbtree"},"learner_model_param":{"base_score":"5.69853E-10","boost_from_average":"1","num_class":"0","num_feature":"3","num_target":"1"},"objective":{"name":"reg:squarederror","reg_loss_param":{"scale_pos_weight":"1"}}},"version":[3,0,5]}