{"learner":{"attributes":{"best_iteration":"6","best_score":"0.4639812735503117"},"feature_names":[],"feature_types":[],"gradient_booster":{"model":{"gbtree_model_param":{"num_parallel_tree":"1","num_trees":"57"},"iteration_indptr":[0,1,2,3,4,5,6,7,8,9,10,11,12,13,14,15,16,17,18,19,20,21,22,23,24,25,26,27,28,29,30,31,32,33,34,35,36,37,38,39,40,41,42,43,44,45,46,47,48,49,50,51,52,53,54,55,56,57],"tree_info":[0,0,0,0,0,0,0,0,0,0,0,0,0,0,0,0,0,0,0,0,0,0,0,0,0,0,0,0,0,0,0,0,0,0,0,0,0,0,0,0,0,0,0,0,0,0,0,0,0,0,0,0,0,0,0,0,0],"trees":[{"base_weights":[5.6544586E-10,-1.019731E0,4.58879E-1,-4.9237616E-2,-1.1455172E-1,6.2271106E-1,-3.5212713E-1,3.5784772E-1,8.759514E-1,-1.1403333E-2,-3.571407E-2,-7.2875516E-3,4.192013E-1,2.3058612E-2,7.606583E-2,5.0807697E-1,1.8108754E-1,4.299298E-2,6.8348735E-3,-1.9140828E-3,3.0034255E-2],"categories":[],"categories_nodes":[],"categories_segments":[],"categories_sizes":[],"default_left":[0,0,0,0,0,0,0,0,0,0,0,0,0,0,0,0,0,0,0,0,0],"id":0,"left_children":[1,3,5,-1,-1,7,9,11,13,-1,-1,-1,15,-1,-1,17,19,-1,-1,-1,-1],"loss_changes":[1.3570063E1,6.567478E-1,2.8766499E0,0E0,0E0,8.2680225E-1,2.6887715E-2,3.1990087E-1,3.169918E-1,0E0,0E0,0E0,9.845626E-2,0E0,0E0,1.1077535E-1,1.915144E-1,0E0,0E0,0E0,0E0],"parents":[2147483647,0,0,1,1,2,2,5,5,6,6,7,7,8,8,12,12,15,15,16,16],"right_children":[2,4,6,-1,-1,8,10,12,14,-1,-1,-1,16,-1,-1,18,20,-1,-1,-1,-1],"split_conditions":[5.8E0,8.5E0,1.28E1,-4.9237616E-2,-1.1455172E-1,8.2E0,1.8E1,1E0,7E0,-1.1403333E-2,-3.571407E-2,-7.2875516E-3,1.9E1,2.3058612E-2,7.606583E-2,7.5E0,2.5E1,4.299298E-2,6.8348735E-3,-1.9140828E-3,3.0034255E-2],"split_indices":[3,2,2,0,0,3,0,0,0,0,0,0,1,0,0,3,1,0,0,0,0],"split_type":[0,0,0,0,0,0,0,0,0,0,0,0,0,0,0,0,0,0,0,0,0],"sum_hessian":[2.7E1,8E0,1.9E1,6E0,2E0,1.6E1,3E0,9E0,7E0,2E0,1E0,1E0,8E0,2E0,5E0,5E0,3E0,4E0,1E0,2E0,1E0],"tree_param":{"num_deleted":"0","num_feature":"4","num_nodes":"21","size_leaf_vector":"1"}},{"base_weights":[-1.4686307E-3,-9.6145004E-1,4.3059644E-1,-6.1429787E-1,-1.08824134E-1,5.859951E-1,-3.3749694E-1,-1.3404443E-2,-4.928292E-2,3.380752E-1,8.226456E-1,-1.08331675E-2,-3.4374792E-2,-7.0142685E-3,3.9642212E-1,2.190568E-2,7.131173E-2,4.782758E-1,1.7453602E-1,4.04134E-2,6.5785656E-3,-1.8183787E-3,2.8907971E-2],"categories":[],"categories_nodes":[],"categories_segments":[],"categories_sizes":[],"default_left":[0,0,0,0,0,0,0,0,0,0,0,0,0,0,0,0,0,0,0,0,0,0,0],"id":1,"left_children":[1,3,5,7,-1,9,11,-1,-1,13,15,-1,-1,-1,17,-1,-1,19,21,-1,-1,-1,-1],"loss_changes":[1.2027682E1,6.3815975E-1,2.5849855E0,1.3079166E-2,0E0,7.1927977E-1,2.7107686E-2,0E0,0E0,2.8889954E-1,2.6634407E-1,0E0,0E0,0E0,7.998347E-2,0E0,0E0,9.46722E-2,1.7703955E-1,0E0,0E0,0E0,0E0],"parents":[2147483647,0,0,1,1,2,2,3,3,5,5,6,6,9,9,10,10,14,14,17,17,18,18],"right_children":[2,4,6,8,-1,10,12,-1,-1,14,16,-1,-1,-1,18,-1,-1,20,22,-1,-1,-1,-1],"split_conditions":[5.8E0,8.5E0,1.28E1,3E0,-1.08824134E-1,8.2E0,1.8E1,-1.3404443E-2,-4.928292E-2,1E0,7E0,-1.08331675E-2,-3.4374792E-2,-7.0142685E-3,1.9E1,2.190568E-2,7.131173E-2,7.5E0,2.5E1,4.04134E-2,6.5785656E-3,-1.8183787E-3,2.8907971E-2],"split_indices":[3,2,2,2,0,3,0,0,0,0,0,0,0,0,1,0,0,3,1,0,0,0,0],"split_type":[0,0,0,0,0,0,0,0,0,0,0,0,0,0,0,0,0,0,0,0,0,0,0],"sum_hessian":[2.7E1,8E0,1.9E1,6E0,2E0,1.6E1,3E0,1E0,5E0,9E0,7E0,2E0,1E0,1E0,8E0,2E0,5E0,5E0,3E0,4E0,1E0,2E0,1E0],"tree_param":{"num_deleted":"0","num_feature":"4","num_nodes":"23","size_leaf_vector":"1"}},{"base_weights":[-3.3740234E-3,-9.0839815E-1,4.0405554E-1,-5.7718086E-1,-1.0338294E-1,5.51474E-1,-3.2348666E-1,-1.2901776E-2,-4.6202738E-2,3.1942627E-1,7.7259934E-1,-1.0291509E-2,-3.3085737E-2,-6.7512332E-3,3.7492174E-1,2.0810397E-2,6.685474E-2,4.5023713E-1,1.6821821E-1,3.7988596E-2,6.3318694E-3,-1.7274598E-3,2.7823923E-2],"categories":[],"categories_nodes":[],"categories_segments":[],"categories_sizes":[],"default_left":[0,0,0,0,0,0,0,0,0,0,0,0,0,0,0,0,0,0,0,0,0,0,0],"id":2,"left_children":[1,3,5,7,-1,9,11,-1,-1,13,15,-1,-1,-1,17,-1,-1,19,21,-1,-1,-1,-1],"loss_changes":[1.0691584E1,6.055627E-1,2.323457E0,4.2254925E-3,0E0,6.2550926E-1,2.712819E-2,0E0,0E0,2.609712E-1,2.2322035E-1,0E0,0E0,0E0,6.437349E-2,0E0,0E0,8.0759525E-2,1.6366272E-1,0E0,0E0,0E0,0E0],"parents":[2147483647,0,0,1,1,2,2,3,3,5,5,6,6,9,9,10,10,14,14,17,17,18,18],"right_children":[2,4,6,8,-1,10,12,-1,-1,14,16,-1,-1,-1,18,-1,-1,20,22,-1,-1,-1,-1],"split_conditions":[5.8E0,8.5E0,1.28E1,3E0,-1.0338294E-1,8.2E0,1.8E1,-1.2901776E-2,-4.6202738E-2,1E0,7E0,-1.0291509E-2,-3.3085737E-2,-6.7512332E-3,1.9E1,2.0810397E-2,6.685474E-2,7.5E0,2.5E1,3.7988596E-2,6.3318694E-3,-1.7274598E-3,2.7823923E-2],"split_indices":[3,2,2,2,0,3,0,0,0,0,0,0,0,0,1,0,0,3,1,0,0,0,0],"split_type":[0,0,0,0,0,0,0,0,0,0,0,0,0,0,0,0,0,0,0,0,0,0,0],"sum_hessian":[2.7E1,8E0,1.9E1,6E0,2E0,1.6E1,3E0,1E0,5E0,9E0,7E0,2E0,1E0,1E0,8E0,2E0,5E0,5E0,3E0,4E0,1E0,2E0,1E0],"tree_param":{"num_deleted":"0","num_feature":"4","num_nodes":"23","size_leaf_vector":"1"}},{"base_weights":[-5.0686006E-3,-8.5832244E-1,3.7914905E-1,-4.0675186E-2,-9.8213784E-2,5.1901525E-1,-3.1006947E-1,3.0183586E-1,7.256125E-1,-9.776934E-3,-3.1845026E-2,-6.4980616E-3,3.5462672E-1,1.9769877E-2,6.267632E-2,4.2385608E-1,1.6212596E-1,3.570928E-2,6.0944245E-3,-1.6410869E-3,2.6780525E-2],"categories":[],"categories_nodes":[],"categories_segments":[],"categories_sizes":[],"default_left":[0,0,0,0,0,0,0,0,0,0,0,0,0,0,0,0,0,0,0,0,0],"id":3,"left_children":[1,3,5,-1,-1,7,9,11,13,-1,-1,-1,15,-1,-1,17,19,-1,-1,-1,-1],"loss_changes":[9.504817E0,5.729451E-1,2.0888984E0,0E0,0E0,5.4375124E-1,2.697903E-2,2.3580515E-1,1.8655205E-1,0E0,0E0,0E0,5.1222324E-2,0E0,0E0,6.875098E-2,1.5130025E-1,0E0,0E0,0E0,0E0],"parents":[2147483647,0,0,1,1,2,2,5,5,6,6,7,7,8,8,12,12,15,15,16,16],"right_children":[2,4,6,-1,-1,8,10,12,14,-1,-1,-1,16,-1,-1,18,20,-1,-1,-1,-1],"split_conditions":[5.8E0,8.5E0,1.28E1,-4.0675186E-2,-9.8213784E-2,8.2E0,1.8E1,1E0,7E0,-9.776934E-3,-3.1845026E-2,-6.4980616E-3,1.9E1,1.9769877E-2,6.267632E-2,7.5E0,2.5E1,3.570928E-2,6.0944245E-3,-1.6410869E-3,2.6780525E-2],"split_indices":[3,2,2,0,0,3,0,0,0,0,0,0,1,0,0,3,1,0,0,0,0],"split_type":[0,0,0,0,0,0,0,0,0,0,0,0,0,0,0,0,0,0,0,0,0],"sum_hessian":[2.7E1,8E0,1.9E1,6E0,2E0,1.6E1,3E0,9E0,7E0,2E0,1E0,1E0,8E0,2E0,5E0,5E0,3E0,4E0,1E0,2E0,1E0],"tree_param":{"num_deleted":"0","num_feature":"4","num_nodes":"21","size_leaf_vector":"1"}},{"base_weights":[-6.0320213E-3,-8.0938035E-1,3.5577634E-1,-5.074714E-1,-9.33031E-2,4.8849446E-1,-2.9721975E-1,-1.089264E-2,-4.0772863E-2,2.852427E-1,6.8149734E-1,-9.288087E-3,-3.0650834E-2,-6.2543848E-3,3.3546785E-1,1.8781384E-2,5.875905E-2,3.9903417E-1,1.5625137E-1,3.3566725E-2,5.8658835E-3,-1.5590325E-3,2.5776256E-2],"categories":[],"categories_nodes":[],"categories_segments":[],"categories_sizes":[],"default_left":[0,0,0,0,0,0,0,0,0,0,0,0,0,0,0,0,0,0,0,0,0,0,0],"id":4,"left_children":[1,3,5,7,-1,9,11,-1,-1,13,15,-1,-1,-1,17,-1,-1,19,21,-1,-1,-1,-1],"loss_changes":[8.426387E0,5.49737E-1,1.8784785E0,1.2751102E-2,0E0,4.7248697E-1,2.6686609E-2,0E0,0E0,2.1312249E-1,1.5541935E-1,0E0,0E0,0E0,4.017961E-2,0E0,0E0,5.839783E-2,1.3987489E-1,0E0,0E0,0E0,0E0],"parents":[2147483647,0,0,1,1,2,2,3,3,5,5,6,6,9,9,10,10,14,14,17,17,18,18],"right_children":[2,4,6,8,-1,10,12,-1,-1,14,16,-1,-1,-1,18,-1,-1,20,22,-1,-1,-1,-1],"split_conditions":[5.8E0,8.5E0,1.28E1,3E0,-9.33031E-2,8.2E0,1.8E1,-1.089264E-2,-4.0772863E-2,1E0,7E0,-9.288087E-3,-3.0650834E-2,-6.2543848E-3,1.9E1,1.8781384E-2,5.875905E-2,7.5E0,2.5E1,3.3566725E-2,5.8658835E-3,-1.5590325E-3,2.5776256E-2],"split_indices":[3,2,2,2,0,3,0,0,0,0,0,0,0,0,1,0,0,3,1,0,0,0,0],"split_type":[0,0,0,0,0,0,0,0,0,0,0,0,0,0,0,0,0,0,0,0,0,0,0],"sum_hessian":[2.7E1,8E0,1.9E1,6E0,2E0,1.6E1,3E0,1E0,5E0,9E0,7E0,2E0,1E0,1E0,8E0,2E0,5E0,5E0,3E0,4E0,1E0,2E0,1E0],"tree_param":{"num_deleted":"0","num_feature":"4","num_nodes":"23","size_leaf_vector":"1"}},{"base_weights":[-7.364315E-3,-7.6478446E-1,3.3384296E-1,-4.767918E-1,-8.863793E-2,4.597948E-1,-2.84913E-1,-1.04841655E-2,-3.8224563E-2,2.6958904E-1,6.400776E-1,-8.823683E-3,-2.9501429E-2,-6.019845E-3,3.1737995E-1,1.7842315E-2,5.508661E-2,3.7567872E-1,1.5058683E-1,3.155272E-2,5.6459126E-3,-1.4810808E-3,2.4809645E-2],"categories":[],"categories_nodes":[],"categories_segments":[],"categories_sizes":[],"default_left":[0,0,0,0,0,0,0,0,0,0,0,0,0,0,0,0,0,0,0,0,0,0,0],"id":5,"left_children":[1,3,5,7,-1,9,11,-1,-1,13,15,-1,-1,-1,17,-1,-1,19,21,-1,-1,-1,-1],"loss_changes":[7.491561E0,5.1748705E-1,1.6896701E0,6.2937737E-3,0E0,4.1038632E-1,2.6274413E-2,0E0,0E0,1.9267267E-1,1.2902713E-1,0E0,0E0,0E0,3.0942261E-2,0E0,0E0,4.948157E-2,1.2931535E-1,0E0,0E0,0E0,0E0],"parents":[2147483647,0,0,1,1,2,2,3,3,5,5,6,6,9,9,10,10,14,14,17,17,18,18],"right_children":[2,4,6,8,-1,10,12,-1,-1,14,16,-1,-1,-1,18,-1,-1,20,22,-1,-1,-1,-1],"split_conditions":[5.8E0,8.5E0,1.28E1,3E0,-8.863793E-2,8.2E0,1.8E1,-1.04841655E-2,-3.8224563E-2,1E0,7E0,-8.823683E-3,-2.9501429E-2,-6.019845E-3,1.9E1,1.7842315E-2,5.508661E-2,7.5E0,2.5E1,3.155272E-2,5.6459126E-3,-1.4810808E-3,2.4809645E-2],"split_indices":[3,2,2,2,0,3,0,0,0,0,0,0,0,0,1,0,0,3,1,0,0,0,0],"split_type":[0,0,0,0,0,0,0,0,0,0,0,0,0,0,0,0,0,0,0,0,0,0,0],"sum_hessian":[2.7E1,8E0,1.9E1,6E0,2E0,1.6E1,3E0,1E0,5E0,9E0,7E0,2E0,1E0,1E0,8E0,2E0,5E0,5E0,3E0,4E0,1E0,2E0,1E0],"tree_param":{"num_deleted":"0","num_feature":"4","num_nodes":"23","size_leaf_vector":"1"}},{"base_weights":[-8.534695E-3,-7.2268635E-1,3.132603E-1,-4.479908E-1,-8.420605E-2,4.328064E-1,-2.731258E-1,-1.009101E-2,-3.5835527E-2,2.548206E-1,6.011879E-1,-8.382498E-3,-2.8395124E-2,-5.794101E-3,3.003017E-1,1.6950198E-2,5.1643692E-2,3.5370257E-1,1.4512494E-1,2.9659556E-2,5.434191E-3,-1.4070268E-3,2.3879284E-2],"categories":[],"categories_nodes":[],"categories_segments":[],"categories_sizes":[],"default_left":[0,0,0,0,0,0,0,0,0,0,0,0,0,0,0,0,0,0,0,0,0,0,0],"id":6,"left_children":[1,3,5,7,-1,9,11,-1,-1,13,15,-1,-1,-1,17,-1,-1,19,21,-1,-1,-1,-1],"loss_changes":[6.661081E0,4.8607445E-1,1.5202144E0,1.1324883E-3,0E0,3.5628676E-1,2.5762945E-2,0E0,0E0,1.7423117E-1,1.06692076E-1,0E0,0E0,0E0,2.3248136E-2,0E0,0E0,4.181266E-2,1.1955578E-1,0E0,0E0,0E0,0E0],"parents":[2147483647,0,0,1,1,2,2,3,3,5,5,6,6,9,9,10,10,14,14,17,17,18,18],"right_children":[2,4,6,8,-1,10,12,-1,-1,14,16,-1,-1,-1,18,-1,-1,20,22,-1,-1,-1,-1],"split_conditions":[5.8E0,8.5E0,1.28E1,3E0,-8.420605E-2,8.2E0,1.8E1,-1.009101E-2,-3.5835527E-2,1E0,7E0,-8.382498E-3,-2.8395124E-2,-5.794101E-3,1.9E1,1.6950198E-2,5.1643692E-2,7.5E0,2.5E1,2.9659556E-2,5.434191E-3,-1.4070268E-3,2.3879284E-2],"split_indices":[3,2,2,2,0,3,0,0,0,0,0,0,0,0,1,0,0,3,1,0,0,0,0],"split_type":[0,0,0,0,0,0,0,0,0,0,0,0,0,0,0,0,0,0,0,0,0,0,0],"sum_hessian":[2.7E1,8E0,1.9E1,6E0,2E0,1.6E1,3E0,1E0,5E0,9E0,7E0,2E0,1E0,1E0,8E0,2E0,5E0,5E0,3E0,4E0,1E0,2E0,1E0],"tree_param":{"num_deleted":"0","num_feature":"4","num_nodes":"23","size_leaf_vector":"1"}},{"base_weights":[-9.556886E-3,-6.8294406E-1,2.9394516E-1,-3.1571433E-2,-7.9995744E-2,4.0742627E-1,-2.6183578E-1,-5.5768224E-3,4.4218513E-1,-7.963373E-3,-2.7330307E-2,5.011944E-1,1.3985863E-1,1.9217154E-2,5.8159816E-1,-1.782234E-2,2.298381E-2,2.829786E-2,5.5697907E-2,1.1060543E-4,-2.1156187E-3],"categories":[],"categories_nodes":[],"categories_segments":[],"categories_sizes":[],"default_left":[0,0,0,0,0,0,0,0,0,0,0,0,0,0,0,0,0,0,0,0,0],"id":7,"left_children":[1,3,5,-1,-1,7,9,-1,11,-1,-1,13,15,-1,17,19,-1,-1,-1,-1,-1],"loss_changes":[5.9232316E0,4.5566273E-1,1.3680915E0,0E0,0E0,3.1756592E-1,2.5170296E-2,0E0,2.153449E-1,0E0,0E0,1.0702801E-1,1.1053532E-1,0E0,1.5894413E-2,6.42853E-4,0E0,0E0,0E0,0E0,0E0],"parents":[2147483647,0,0,1,1,2,2,5,5,6,6,8,8,11,11,12,12,14,14,15,15],"right_children":[2,4,6,-1,-1,8,10,-1,12,-1,-1,14,16,-1,18,20,-1,-1,-1,-1,-1],"split_conditions":[5.8E0,8.5E0,1.28E1,-3.1571433E-2,-7.9995744E-2,1E0,1.8E1,-5.5768224E-3,1.9E1,-7.963373E-3,-2.7330307E-2,7E0,2.5E1,1.9217154E-2,1.4E1,1.2E1,2.298381E-2,2.829786E-2,5.5697907E-2,1.1060543E-4,-2.1156187E-3],"split_indices":[3,2,2,0,0,0,0,0,1,0,0,0,1,0,1,0,0,0,0,0,0],"split_type":[0,0,0,0,0,0,0,0,0,0,0,0,0,0,0,0,0,0,0,0,0],"sum_hessian":[2.7E1,8E0,1.9E1,6E0,2E0,1.6E1,3E0,1E0,1.5E1,2E0,1E0,1.2E1,3E0,4E0,8E0,2E0,1E0,5E0,3E0,1E0,1E0],"tree_param":{"num_deleted":"0","num_feature":"4","num_nodes":"21","size_leaf_vector":"1"}},{"base_weights":[-9.848913E-3,-6.441196E-1,2.7606535E-1,-3.938912E-1,-7.599595E-2,3.8384664E-1,-2.510215E-1,-8.528668E-3,-4.2163453E-1,2.5244752E-1,5.8267045E-1,-7.565205E-3,-2.6305422E-2,-3.4415055E-2,-8.830137E-3,-5.3676916E-3,2.8840986E-1,1.2151402E-2,6.343971E-1,2.4694245E-2,1.3461395E-1,2.8163233E-1,5.8177214E-2,-1.2865502E-3,2.2121917E-2,2.53043E-2,6.379337E-3],"categories":[],"categories_nodes":[],"categories_segments":[],"categories_sizes":[],"default_left":[0,0,0,0,0,0,0,0,0,0,0,0,0,0,0,0,0,0,0,0,0,0,0,0,0,0,0],"id":8,"left_children":[1,3,5,7,-1,9,11,-1,13,15,17,-1,-1,-1,-1,-1,19,-1,21,-1,23,25,-1,-1,-1,-1,-1],"loss_changes":[5.255536E0,4.3224645E-1,1.2325561E0,6.4646006E-3,0E0,2.9703593E-1,2.4512291E-2,0E0,1.3865352E-2,1.6047019E-1,2.7769089E-2,0E0,0E0,0E0,0E0,0E0,2.4780095E-2,0E0,3.0765533E-2,0E0,1.0240062E-1,4.184276E-3,0E0,0E0,0E0,0E0,0E0],"parents":[2147483647,0,0,1,1,2,2,3,3,5,5,6,6,8,8,9,9,10,10,16,16,18,18,20,20,21,21],"right_children":[2,4,6,8,-1,10,12,-1,14,16,18,-1,-1,-1,-1,-1,20,-1,22,-1,24,26,-1,-1,-1,-1,-1],"split_conditions":[5.8E0,8.5E0,1.28E1,3E0,-7.599595E-2,1.13E1,1.8E1,-8.528668E-3,1.9E1,1E0,7E0,-7.565205E-3,-2.6305422E-2,-3.4415055E-2,-8.830137E-3,-5.3676916E-3,1.9E1,1.2151402E-2,1.4E1,2.4694245E-2,2.5E1,2E1,5.8177214E-2,-1.2865502E-3,2.2121917E-2,2.53043E-2,6.379337E-3],"split_indices":[3,2,2,2,0,3,0,0,0,0,0,0,0,0,0,0,1,0,1,0,1,0,0,0,0,0,0],"split_type":[0,0,0,0,0,0,0,0,0,0,0,0,0,0,0,0,0,0,0,0,0,0,0,0,0,0,0],"sum_hessian":[2.7E1,8E0,1.9E1,6E0,2E0,1.6E1,3E0,1E0,5E0,1.1E1,5E0,2E0,1E0,4E0,1E0,1E0,1E1,1E0,4E0,7E0,3E0,2E0,2E0,2E0,1E0,1E0,1E0],"tree_param":{"num_deleted":"0","num_feature":"4","num_nodes":"27","size_leaf_vector":"1"}},{"base_weights":[-9.805469E-3,-6.100073E-1,2.6077563E-1,-3.7174562E-1,-7.219616E-2,3.6342132E-1,-2.4066256E-1,-8.208844E-3,-3.9721948E-1,2.3686078E-1,5.559722E-1,-7.1869446E-3,-2.5318967E-2,-3.2350153E-2,-8.499007E-3,-5.166403E-3,2.709182E-1,1.1695724E-2,6.047895E-1,2.8157827E-2,1.8479368E-1,2.710711E-1,5.5268355E-2,1.9090481E-2,-1.2222226E-3,2.435539E-2,6.140112E-3],"categories":[],"categories_nodes":[],"categories_segments":[],"categories_sizes":[],"default_left":[0,0,0,0,0,0,0,0,0,0,0,0,0,0,0,0,0,0,0,0,0,0,0,0,0,0,0],"id":9,"left_children":[1,3,5,7,-1,9,11,-1,13,15,17,-1,-1,-1,-1,-1,19,-1,21,-1,23,25,-1,-1,-1,-1,-1],"loss_changes":[4.706366E0,3.9826894E-1,1.1168715E0,3.295362E-3,0E0,2.8259087E-1,2.3802876E-2,0E0,9.233832E-3,1.4361733E-1,2.2857308E-2,0E0,0E0,0E0,0E0,0E0,2.9640019E-2,0E0,2.0702124E-2,0E0,1.16349906E-1,3.8763285E-3,0E0,0E0,0E0,0E0,0E0],"parents":[2147483647,0,0,1,1,2,2,3,3,5,5,6,6,8,8,9,9,10,10,16,16,18,18,20,20,21,21],"right_children":[2,4,6,8,-1,10,12,-1,14,16,18,-1,-1,-1,-1,-1,20,-1,22,-1,24,26,-1,-1,-1,-1,-1],"split_conditions":[5.8E0,8.5E0,1.28E1,3E0,-7.219616E-2,1.13E1,1.8E1,-8.208844E-3,1.9E1,1E0,7E0,-7.1869446E-3,-2.5318967E-2,-3.2350153E-2,-8.499007E-3,-5.166403E-3,4.6E0,1.1695724E-2,1.4E1,2.8157827E-2,1.9E1,2E1,5.5268355E-2,1.9090481E-2,-1.2222226E-3,2.435539E-2,6.140112E-3],"split_indices":[3,2,2,2,0,3,0,0,0,0,0,0,0,0,0,0,2,0,1,0,1,0,0,0,0,0,0],"split_type":[0,0,0,0,0,0,0,0,0,0,0,0,0,0,0,0,0,0,0,0,0,0,0,0,0,0,0],"sum_hessian":[2.7E1,8E0,1.9E1,6E0,2E0,1.6E1,3E0,1E0,5E0,1.1E1,5E0,2E0,1E0,4E0,1E0,1E0,1E1,1E0,4E0,3E0,7E0,2E0,2E0,5E0,2E0,1E0,1E0],"tree_param":{"num_deleted":"0","num_feature":"4","num_nodes":"27","size_leaf_vector":"1"}},{"base_weights":[-9.6215205E-3,-5.777294E-1,2.4650812E-1,-3.50873E-1,-6.858636E-2,3.4430116E-1,-2.3073934E-1,-7.901012E-3,-3.7423623E-1,2.2250119E-1,5.305176E-1,-6.8275975E-3,-2.4369506E-2,-3.0409144E-2,-8.180294E-3,-4.972663E-3,2.547835E-1,1.1257133E-2,5.76583E-1,2.6573949E-2,1.7316768E-1,2.6090595E-1,5.250493E-2,1.7897325E-2,-1.1611116E-3,2.3442063E-2,5.909858E-3],"categories":[],"categories_nodes":[],"categories_segments":[],"categories_sizes":[],"default_left":[0,0,0,0,0,0,0,0,0,0,0,0,0,0,0,0,0,0,0,0,0,0,0,0,0,0,0],"id":10,"left_children":[1,3,5,7,-1,9,11,-1,13,15,17,-1,-1,-1,-1,-1,19,-1,21,-1,23,25,-1,-1,-1,-1,-1],"loss_changes":[4.216675E0,3.66688E-1,1.0128734E0,7.2938204E-4,0E0,2.6753855E-1,2.3054093E-2,0E0,5.446017E-3,1.287716E-1,1.8603683E-2,0E0,0E0,0E0,0E0,0E0,2.800399E-2,0E0,1.2252212E-2,0E0,1.02491155E-1,3.5910755E-3,0E0,0E0,0E0,0E0,0E0],"parents":[2147483647,0,0,1,1,2,2,3,3,5,5,6,6,8,8,9,9,10,10,16,16,18,18,20,20,21,21],"right_children":[2,4,6,8,-1,10,12,-1,14,16,18,-1,-1,-1,-1,-1,20,-1,22,-1,24,26,-1,-1,-1,-1,-1],"split_conditions":[5.8E0,8.5E0,1.28E1,3E0,-6.858636E-2,1.13E1,1.8E1,-7.901012E-3,1.9E1,1E0,7E0,-6.8275975E-3,-2.4369506E-2,-3.0409144E-2,-8.180294E-3,-4.972663E-3,4.6E0,1.1257133E-2,1.4E1,2.6573949E-2,1.9E1,2E1,5.250493E-2,1.7897325E-2,-1.1611116E-3,2.3442063E-2,5.909858E-3],"split_indices":[3,2,2,2,0,3,0,0,0,0,0,0,0,0,0,0,2,0,1,0,1,0,0,0,0,0,0],"split_type":[0,0,0,0,0,0,0,0,0,0,0,0,0,0,0,0,0,0,0,0,0,0,0,0,0,0,0],"sum_hessian":[2.7E1,8E0,1.9E1,6E0,2E0,1.6E1,3E0,1E0,5E0,1.1E1,5E0,2E0,1E0,4E0,1E0,1E0,1E1,1E0,4E0,3E0,7E0,2E0,2E0,5E0,2E0,1E0,1E0],"tree_param":{"num_deleted":"0","num_feature":"4","num_nodes":"27","size_leaf_vector":"1"}},{"base_weights":[-9.429275E-3,-4.0986016E-1,3.1651014E-1,-8.4332086E-2,-6.0277367E-1,1.8424326E-1,5.0624776E-1,-1.528585E-2,1.9239904E-2,-6.129612E-3,-6.655333E-1,2.3008868E-1,-1.4707413E-2,1.0834992E-2,5.4971063E-1,-7.873533E-3,-5.5609655E-2,2.0313662E-2,-3.5997138E-3,2.4407837E-4,-1.8986623E-3,2.5112197E-1,4.987969E-2,2.2562984E-2,5.688238E-3],"categories":[],"categories_nodes":[],"categories_segments":[],"categories_sizes":[],"default_left":[0,0,0,0,0,0,0,0,0,0,0,0,0,0,0,0,0,0,0,0,0,0,0,0,0],"id":11,"left_children":[1,3,5,7,9,11,13,-1,-1,-1,15,17,19,-1,21,-1,-1,-1,-1,-1,-1,23,-1,-1,-1],"loss_changes":[3.7841787E0,7.6555085E-1,3.082633E-1,2.9664126E-1,2.0721221E-1,1.03714794E-1,1.4929533E-2,0E0,0E0,0E0,2.200954E-1,1.15012646E-1,6.540068E-4,0E0,5.2018166E-3,0E0,0E0,0E0,0E0,0E0,0E0,3.3267736E-3,0E0,0E0,0E0],"parents":[2147483647,0,0,1,1,2,2,3,3,4,4,5,5,6,6,10,10,11,11,12,12,14,14,21,21],"right_children":[2,4,6,8,10,12,14,-1,-1,-1,16,18,20,-1,22,-1,-1,-1,-1,-1,-1,24,-1,-1,-1],"split_conditions":[6.7E0,6.5E0,1.13E1,2.2E1,3E0,1.9E1,7E0,-1.528585E-2,1.9239904E-2,-6.129612E-3,6E0,1.28E1,1.2E1,1.0834992E-2,1.4E1,-7.873533E-3,-5.5609655E-2,2.0313662E-2,-3.5997138E-3,2.4407837E-4,-1.8986623E-3,2E1,4.987969E-2,2.2562984E-2,5.688238E-3],"split_indices":[3,2,3,1,0,1,0,0,0,0,1,2,0,0,1,0,0,0,0,0,0,0,0,0,0],"split_type":[0,0,0,0,0,0,0,0,0,0,0,0,0,0,0,0,0,0,0,0,0,0,0,0,0],"sum_hessian":[2.7E1,1.2E1,1.5E1,5E0,7E0,1E1,5E0,4E0,1E0,1E0,6E0,8E0,2E0,1E0,4E0,1E0,5E0,7E0,1E0,1E0,1E0,2E0,2E0,1E0,1E0],"tree_param":{"num_deleted":"0","num_feature":"4","num_nodes":"25","size_leaf_vector":"1"}},{"base_weights":[-7.3518446E-3,-5.165005E-1,2.2213264E-1,-2.30726E-2,-6.2376548E-2,3.095439E-1,-2.0489842E-1,1.9696714E-1,4.831068E-1,-6.2429844E-3,-2.1370286E-2,-4.2129685E-3,2.250865E-1,1.0428679E-2,3.9308142E-2,2.3956655E-2,1.4978291E-1,1.5509138E-2,-1.0616914E-3],"categories":[],"categories_nodes":[],"categories_segments":[],"categories_sizes":[],"default_left":[0,0,0,0,0,0,0,0,0,0,0,0,0,0,0,0,0,0,0],"id":12,"left_children":[1,3,5,-1,-1,7,9,11,13,-1,-1,-1,15,-1,-1,-1,17,-1,-1],"loss_changes":[3.3862994E0,3.366301E-1,8.0997163E-1,0E0,0E0,2.370094E-1,1.5231505E-2,9.806135E-2,1.1765003E-2,0E0,0E0,0E0,3.0297935E-2,0E0,0E0,0E0,7.7690676E-2,0E0,0E0],"parents":[2147483647,0,0,1,1,2,2,5,5,6,6,7,7,8,8,12,12,16,16],"right_children":[2,4,6,-1,-1,8,10,12,14,-1,-1,-1,16,-1,-1,-1,18,-1,-1],"split_conditions":[5.8E0,8.5E0,1.28E1,-2.30726E-2,-6.2376548E-2,1.13E1,1.8E1,1E0,7E0,-6.2429844E-3,-2.1370286E-2,-4.2129685E-3,4.6E0,1.0428679E-2,3.9308142E-2,2.3956655E-2,1.9E1,1.5509138E-2,-1.0616914E-3],"split_indices":[3,2,2,0,0,3,0,0,0,0,0,0,2,0,0,0,1,0,0],"split_type":[0,0,0,0,0,0,0,0,0,0,0,0,0,0,0,0,0,0,0],"sum_hessian":[2.7E1,8E0,1.9E1,6E0,2E0,1.6E1,3E0,1.1E1,5E0,2E0,1E0,1E0,1E1,1E0,4E0,3E0,7E0,5E0,2E0],"tree_param":{"num_deleted":"0","num_feature":"4","num_nodes":"19","size_leaf_vector":"1"}},{"base_weights":[-7.840972E-3,-4.8725733E-1,2.0828843E-1,-2.8785813E-1,-5.9257723E-2,2.9126507E-1,-1.9643435E-1,-6.166282E-3,-3.084288E-1,1.8504386E-1,4.5516327E-1,-5.930835E-3,-2.05689E-2,-2.5073372E-2,-6.713053E-3,-4.054982E-3,2.116963E-1,1.0037605E-2,4.9266204E-1,2.2609092E-2,1.4035513E-1,2.1549946E-1,4.5420296E-2,1.4539817E-2,-1.0086069E-3,2.0242818E-2,4.0008724E-3],"categories":[],"categories_nodes":[],"categories_segments":[],"categories_sizes":[],"default_left":[0,0,0,0,0,0,0,0,0,0,0,0,0,0,0,0,0,0,0,0,0,0,0,0,0,0,0],"id":13,"left_children":[1,3,5,7,-1,9,11,-1,13,15,17,-1,-1,-1,-1,-1,19,-1,21,-1,23,25,-1,-1,-1,-1,-1],"loss_changes":[3.002737E0,3.1604695E-1,7.28865E-1,4.2530894E-3,0E0,2.1173573E-1,1.4842391E-2,0E0,4.074514E-3,8.79201E-2,6.361246E-3,0E0,0E0,0E0,0E0,0E0,2.8127342E-2,0E0,2.6009083E-2,0E0,6.8446085E-2,1.2067884E-2,0E0,0E0,0E0,0E0,0E0],"parents":[2147483647,0,0,1,1,2,2,3,3,5,5,6,6,8,8,9,9,10,10,16,16,18,18,20,20,21,21],"right_children":[2,4,6,8,-1,10,12,-1,14,16,18,-1,-1,-1,-1,-1,20,-1,22,-1,24,26,-1,-1,-1,-1,-1],"split_conditions":[5.8E0,8.5E0,1.28E1,3E0,-5.9257723E-2,1.13E1,1.8E1,-6.166282E-3,1.9E1,1E0,7E0,-5.930835E-3,-2.05689E-2,-2.5073372E-2,-6.713053E-3,-4.054982E-3,4.6E0,1.0037605E-2,1.4E1,2.2609092E-2,1.9E1,2E1,4.5420296E-2,1.4539817E-2,-1.0086069E-3,2.0242818E-2,4.0008724E-3],"split_indices":[3,2,2,2,0,3,0,0,0,0,0,0,0,0,0,0,2,0,1,0,1,0,0,0,0,0,0],"split_type":[0,0,0,0,0,0,0,0,0,0,0,0,0,0,0,0,0,0,0,0,0,0,0,0,0,0,0],"sum_hessian":[2.7E1,8E0,1.9E1,6E0,2E0,1.6E1,3E0,1E0,5E0,1.1E1,5E0,2E0,1E0,4E0,1E0,1E0,1E1,1E0,4E0,3E0,7E0,2E0,2E0,5E0,2E0,1E0,1E0],"tree_param":{"num_deleted":"0","num_feature":"4","num_nodes":"27","size_leaf_vector":"1"}},{"base_weights":[-7.6787327E-3,-4.6151417E-1,1.9693115E-1,-2.716906E-1,-5.6294836E-2,2.7599588E-1,-1.8832672E-1,-5.9350464E-3,-2.905944E-1,1.7383935E-1,4.3430963E-1,-5.634293E-3,-1.979757E-2,-2.356897E-2,-6.4613135E-3,-3.9029205E-3,1.9910455E-1,9.661194E-3,4.6964517E-1,2.1337328E-2,1.315199E-1,2.0741825E-1,4.3149278E-2,1.3631078E-2,-9.581764E-4,1.9483712E-2,3.850841E-3],"categories":[],"categories_nodes":[],"categories_segments":[],"categories_sizes":[],"default_left":[0,0,0,0,0,0,0,0,0,0,0,0,0,0,0,0,0,0,0,0,0,0,0,0,0,0,0],"id":14,"left_children":[1,3,5,7,-1,9,11,-1,13,15,17,-1,-1,-1,-1,-1,19,-1,21,-1,23,25,-1,-1,-1,-1,-1],"loss_changes":[2.6909447E0,2.8994346E-1,6.6118354E-1,2.4845004E-3,0E0,1.9943714E-1,1.4420763E-2,0E0,1.9478202E-3,7.8843474E-2,4.2710304E-3,0E0,0E0,0E0,0E0,0E0,2.606684E-2,0E0,1.9226074E-2,0E0,6.0303167E-2,1.117976E-2,0E0,0E0,0E0,0E0,0E0],"parents":[2147483647,0,0,1,1,2,2,3,3,5,5,6,6,8,8,9,9,10,10,16,16,18,18,20,20,21,21],"right_children":[2,4,6,8,-1,10,12,-1,14,16,18,-1,-1,-1,-1,-1,20,-1,22,-1,24,26,-1,-1,-1,-1,-1],"split_conditions":[5.8E0,8.5E0,1.28E1,3E0,-5.6294836E-2,1.13E1,1.8E1,-5.9350464E-3,1.9E1,1E0,7E0,-5.634293E-3,-1.979757E-2,-2.356897E-2,-6.4613135E-3,-3.9029205E-3,4.6E0,9.661194E-3,1.4E1,2.1337328E-2,1.9E1,2E1,4.3149278E-2,1.3631078E-2,-9.581764E-4,1.9483712E-2,3.850841E-3],"split_indices":[3,2,2,2,0,3,0,0,0,0,0,0,0,0,0,0,2,0,1,0,1,0,0,0,0,0,0],"split_type":[0,0,0,0,0,0,0,0,0,0,0,0,0,0,0,0,0,0,0,0,0,0,0,0,0,0,0],"sum_hessian":[2.7E1,8E0,1.9E1,6E0,2E0,1.6E1,3E0,1E0,5E0,1.1E1,5E0,2E0,1E0,4E0,1E0,1E0,1E1,1E0,4E0,3E0,7E0,2E0,2E0,5E0,2E0,1E0,1E0],"tree_param":{"num_deleted":"0","num_feature":"4","num_nodes":"27","size_leaf_vector":"1"}},{"base_weights":[-7.5113853E-3,-3.274058E-1,2.5287232E-1,-5.686956E-2,-4.893823E-1,1.4176303E-1,4.1442725E-1,-1.1507077E-2,1.5972042E-2,-5.231947E-3,-5.393628E-1,1.7731157E-1,-1.2136902E-2,9.298899E-3,4.4771856E-1,-6.2190136E-3,-4.5121245E-2,1.5659895E-2,-2.7969205E-3,3.4849328E-4,-1.7138948E-3,1.9964008E-1,4.0991817E-2,1.8753074E-2,3.7064352E-3],"categories":[],"categories_nodes":[],"categories_segments":[],"categories_sizes":[],"default_left":[0,0,0,0,0,0,0,0,0,0,0,0,0,0,0,0,0,0,0,0,0,0,0,0,0],"id":15,"left_children":[1,3,5,7,9,11,13,-1,-1,-1,15,17,19,-1,21,-1,-1,-1,-1,-1,-1,23,-1,-1,-1],"loss_changes":[2.41506E0,5.4183567E-1,2.2845352E-1,1.889998E-1,1.301583E-1,6.233211E-2,2.5045872E-3,0E0,0E0,0E0,1.4902067E-1,6.860167E-2,6.4568955E-4,0E0,1.3484359E-2,0E0,0E0,0E0,0E0,0E0,0E0,1.0357E-2,0E0,0E0,0E0],"parents":[2147483647,0,0,1,1,2,2,3,3,4,4,5,5,6,6,10,10,11,11,12,12,14,14,21,21],"right_children":[2,4,6,8,10,12,14,-1,-1,-1,16,18,20,-1,22,-1,-1,-1,-1,-1,-1,24,-1,-1,-1],"split_conditions":[6.7E0,6.5E0,1.13E1,2.2E1,3E0,1.9E1,7E0,-1.1507077E-2,1.5972042E-2,-5.231947E-3,6E0,1.28E1,1.2E1,9.298899E-3,1.4E1,-6.2190136E-3,-4.5121245E-2,1.5659895E-2,-2.7969205E-3,3.4849328E-4,-1.7138948E-3,2E1,4.0991817E-2,1.8753074E-2,3.7064352E-3],"split_indices":[3,2,3,1,0,1,0,0,0,0,1,2,0,0,1,0,0,0,0,0,0,0,0,0,0],"split_type":[0,0,0,0,0,0,0,0,0,0,0,0,0,0,0,0,0,0,0,0,0,0,0,0,0],"sum_hessian":[2.7E1,1.2E1,1.5E1,5E0,7E0,1E1,5E0,4E0,1E0,1E0,6E0,8E0,2E0,1E0,4E0,1E0,5E0,7E0,1E0,1E0,1E0,2E0,2E0,1E0,1E0],"tree_param":{"num_deleted":"0","num_feature":"4","num_nodes":"25","size_leaf_vector":"1"}},{"base_weights":[-5.8001555E-3,-4.1257116E-1,1.7753682E-1,-2.3773988E-1,-5.1224038E-2,2.4822511E-1,-1.6727264E-1,-7.839847E-3,-2.7011704E-1,1.539171E-1,3.9547023E-1,-2.692036E-3,-1.4932575E-2,-2.2330573E-2,-5.985801E-3,-3.3250456E-3,1.7597029E-1,8.95019E-3,4.2682993E-1,1.9250382E-2,1.1362326E-1,1.9215357E-1,3.8942225E-2,1.18003925E-2,-8.7613263E-4,1.8049834E-2,3.5674432E-3],"categories":[],"categories_nodes":[],"categories_segments":[],"categories_sizes":[],"default_left":[0,0,0,0,0,0,0,0,0,0,0,0,0,0,0,0,0,0,0,0,0,0,0,0,0,0,0],"id":16,"left_children":[1,3,5,7,-1,9,11,-1,13,15,17,-1,-1,-1,-1,-1,19,-1,21,-1,23,25,-1,-1,-1,-1,-1],"loss_changes":[2.161379E0,2.6312113E-1,5.2900124E-1,1.9547343E-3,0E0,1.7519891E-1,9.579785E-3,0E0,2.522111E-3,6.0266256E-2,1.0208488E-3,0E0,0E0,0E0,0E0,0E0,2.6182592E-2,0E0,8.648276E-3,0E0,4.565998E-2,9.594806E-3,0E0,0E0,0E0,0E0,0E0],"parents":[2147483647,0,0,1,1,2,2,3,3,5,5,6,6,8,8,9,9,10,10,16,16,18,18,20,20,21,21],"right_children":[2,4,6,8,-1,10,12,-1,14,16,18,-1,-1,-1,-1,-1,20,-1,22,-1,24,26,-1,-1,-1,-1,-1],"split_conditions":[5.8E0,8.5E0,1.28E1,1.1E1,-5.1224038E-2,1.13E1,4E0,-7.839847E-3,1.9E1,1E0,7E0,-2.692036E-3,-1.4932575E-2,-2.2330573E-2,-5.985801E-3,-3.3250456E-3,4.6E0,8.95019E-3,1.4E1,1.9250382E-2,1.9E1,2E1,3.8942225E-2,1.18003925E-2,-8.7613263E-4,1.8049834E-2,3.5674432E-3],"split_indices":[3,2,2,0,0,3,1,0,0,0,0,0,0,0,0,0,2,0,1,0,1,0,0,0,0,0,0],"split_type":[0,0,0,0,0,0,0,0,0,0,0,0,0,0,0,0,0,0,0,0,0,0,0,0,0,0,0],"sum_hessian":[2.7E1,8E0,1.9E1,6E0,2E0,1.6E1,3E0,2E0,4E0,1.1E1,5E0,1E0,2E0,3E0,1E0,1E0,1E1,1E0,4E0,3E0,7E0,2E0,2E0,5E0,2E0,1E0,1E0],"tree_param":{"num_deleted":"0","num_feature":"4","num_nodes":"27","size_leaf_vector":"1"}},{"base_weights":[-5.673919E-3,-3.9133725E-1,1.6815828E-1,-2.2507454E-1,-4.8662838E-2,2.352764E-1,-1.5913334E-1,-7.447855E-3,-2.5552154E-1,1.4461079E-1,2.830462E-2,-4.7112415E-3,-1.680314E-2,-2.107448E-2,-5.7613337E-3,-3.2003564E-3,1.6551566E-1,1.8167548E-2,1.0646706E-1,1.1062869E-2,-8.323259E-4],"categories":[],"categories_nodes":[],"categories_segments":[],"categories_sizes":[],"default_left":[0,0,0,0,0,0,0,0,0,0,0,0,0,0,0,0,0,0,0,0,0],"id":17,"left_children":[1,3,5,7,-1,9,11,-1,13,15,-1,-1,-1,-1,-1,-1,17,-1,19,-1,-1],"loss_changes":[1.9429463E0,2.3927772E-1,4.7678435E-1,1.4306903E-3,0E0,1.6447413E-1,1.0933578E-2,0E0,1.1740029E-3,5.4044098E-2,0E0,0E0,0E0,0E0,0E0,0E0,2.4041265E-2,0E0,4.02338E-2,0E0,0E0],"parents":[2147483647,0,0,1,1,2,2,3,3,5,5,6,6,8,8,9,9,16,16,18,18],"right_children":[2,4,6,8,-1,10,12,-1,14,16,-1,-1,-1,-1,-1,-1,18,-1,20,-1,-1],"split_conditions":[5.8E0,8.5E0,1.28E1,1.1E1,-4.8662838E-2,1.13E1,1.8E1,-7.447855E-3,1.9E1,1E0,2.830462E-2,-4.7112415E-3,-1.680314E-2,-2.107448E-2,-5.7613337E-3,-3.2003564E-3,4.6E0,1.8167548E-2,1.9E1,1.1062869E-2,-8.323259E-4],"split_indices":[3,2,2,0,0,3,0,0,0,0,0,0,0,0,0,0,2,0,1,0,0],"split_type":[0,0,0,0,0,0,0,0,0,0,0,0,0,0,0,0,0,0,0,0,0],"sum_hessian":[2.7E1,8E0,1.9E1,6E0,2E0,1.6E1,3E0,2E0,4E0,1.1E1,5E0,2E0,1E0,3E0,1E0,1E0,1E1,3E0,7E0,5E0,2E0],"tree_param":{"num_deleted":"0","num_feature":"4","num_nodes":"21","size_leaf_vector":"1"}},{"base_weights":[-7.0683267E-3,-3.7120324E-1,1.571458E-1,-2.1309163E-1,-4.6229698E-2,2.2077787E-1,-1.5257694E-1,-4.7076773E-3,-1.7076293E-2,1.5339881E-1,3.0105758E-2,-4.4756797E-3,-1.6173022E-2,2.2770064E-2,8.483454E-2,-3.080343E-3,1.01532236E-1,9.815164E-3,-7.907096E-4],"categories":[],"categories_nodes":[],"categories_segments":[],"categories_sizes":[],"default_left":[0,0,0,0,0,0,0,0,0,0,0,0,0,0,0,0,0,0,0],"id":18,"left_children":[1,3,5,7,-1,9,11,-1,-1,13,-1,-1,-1,-1,15,-1,17,-1,-1],"loss_changes":[1.7326239E0,2.1756148E-1,4.278516E-1,1.0633171E-3,0E0,1.4532828E-1,1.0566153E-2,0E0,0E0,1.18423074E-1,0E0,0E0,0E0,0E0,2.7295768E-2,0E0,3.425874E-2,0E0,0E0],"parents":[2147483647,0,0,1,1,2,2,3,3,5,5,6,6,9,9,14,14,16,16],"right_children":[2,4,6,8,-1,10,12,-1,-1,14,-1,-1,-1,-1,16,-1,18,-1,-1],"split_conditions":[5.8E0,8.5E0,1.28E1,3E0,-4.6229698E-2,2.1E1,1.8E1,-4.7076773E-3,-1.7076293E-2,4E0,3.0105758E-2,-4.4756797E-3,-1.6173022E-2,2.2770064E-2,1E0,-3.080343E-3,1.9E1,9.815164E-3,-7.907096E-4],"split_indices":[3,2,2,2,0,0,0,0,0,2,0,0,0,0,0,0,1,0,0],"split_type":[0,0,0,0,0,0,0,0,0,0,0,0,0,0,0,0,0,0,0],"sum_hessian":[2.7E1,8E0,1.9E1,6E0,2E0,1.6E1,3E0,1E0,5E0,1.3E1,3E0,2E0,1E0,3E0,1E1,1E0,9E0,7E0,2E0],"tree_param":{"num_deleted":"0","num_feature":"4","num_nodes":"19","size_leaf_vector":"1"}},{"base_weights":[-7.6039997E-3,-3.5092008E-1,1.4726843E-1,-2.0022175E-1,-4.391821E-2,2.0767953E-1,-1.4629585E-1,-6.5308623E-3,-2.2806354E-1,1.2524849E-1,3.3792835E-1,-4.251896E-3,-1.5566533E-2,-1.8928498E-2,-4.9049235E-3,-2.9648298E-3,1.4382218E-1,2.082757E-1,3.6982186E-2,1.5970167E-2,9.1287725E-2,1.8523764E-2,2.0041713E-3,-1.0577461E-3,9.657646E-3],"categories":[],"categories_nodes":[],"categories_segments":[],"categories_sizes":[],"default_left":[0,0,0,0,0,0,0,0,0,0,0,0,0,0,0,0,0,0,0,0,0,0,0,0,0],"id":19,"left_children":[1,3,5,7,-1,9,11,-1,13,15,17,-1,-1,-1,-1,-1,19,21,-1,-1,23,-1,-1,-1,-1],"loss_changes":[1.5404449E0,2.0101547E-1,3.8507345E-1,2.191484E-3,0E0,1.4019626E-1,1.0189176E-2,0E0,3.2716691E-3,4.241222E-2,1.8007338E-2,0E0,0E0,0E0,0E0,0E0,2.050078E-2,2.853769E-2,0E0,0E0,3.3417247E-2,0E0,0E0,0E0,0E0],"parents":[2147483647,0,0,1,1,2,2,3,3,5,5,6,6,8,8,9,9,10,10,16,16,17,17,20,20],"right_children":[2,4,6,8,-1,10,12,-1,14,16,18,-1,-1,-1,-1,-1,20,22,-1,-1,24,-1,-1,-1,-1],"split_conditions":[5.8E0,8.5E0,1.28E1,1.1E1,-4.391821E-2,1.13E1,1.8E1,-6.5308623E-3,1.9E1,1E0,2.1E1,-4.251896E-3,-1.5566533E-2,-1.8928498E-2,-4.9049235E-3,-2.9648298E-3,4.6E0,2E1,3.6982186E-2,1.5970167E-2,5.3E0,1.8523764E-2,2.0041713E-3,-1.0577461E-3,9.657646E-3],"split_indices":[3,2,2,0,0,3,0,0,0,0,0,0,0,0,0,0,2,0,0,0,2,0,0,0,0],"split_type":[0,0,0,0,0,0,0,0,0,0,0,0,0,0,0,0,0,0,0,0,0,0,0,0,0],"sum_hessian":[2.7E1,8E0,1.9E1,6E0,2E0,1.6E1,3E0,2E0,4E0,1.1E1,5E0,2E0,1E0,3E0,1E0,1E0,1E1,4E0,1E0,3E0,7E0,3E0,1E0,2E0,5E0],"tree_param":{"num_deleted":"0","num_feature":"4","num_nodes":"25","size_leaf_vector":"1"}},{"base_weights":[-7.5688995E-3,-3.3285466E-1,1.3918814E-1,-1.8954287E-1,-4.1722298E-2,1.967574E-1,-1.4027826E-1,-6.204319E-3,-2.1572548E-1,1.17655285E-1,3.2216874E-1,-4.0393006E-3,-1.4982789E-2,-1.786377E-2,-4.7209887E-3,-2.8536487E-3,1.3526915E-1,1.9676062E-1,3.559535E-2,1.5071845E-2,8.551613E-2,1.7481802E-2,1.9290157E-3,-1.0048589E-3,9.054042E-3],"categories":[],"categories_nodes":[],"categories_segments":[],"categories_sizes":[],"default_left":[0,0,0,0,0,0,0,0,0,0,0,0,0,0,0,0,0,0,0,0,0,0,0,0,0],"id":20,"left_children":[1,3,5,7,-1,9,11,-1,13,15,17,-1,-1,-1,-1,-1,19,21,-1,-1,23,-1,-1,-1,-1],"loss_changes":[1.3829927E0,1.8275553E-1,3.4937435E-1,1.7317832E-3,0E0,1.3074023E-1,9.806387E-3,0E0,2.1628141E-3,3.8057417E-2,2.1316707E-2,0E0,0E0,0E0,0E0,0E0,1.8765211E-2,2.5074393E-2,0E0,0E0,2.947519E-2,0E0,0E0,0E0,0E0],"parents":[2147483647,0,0,1,1,2,2,3,3,5,5,6,6,8,8,9,9,10,10,16,16,17,17,20,20],"right_children":[2,4,6,8,-1,10,12,-1,14,16,18,-1,-1,-1,-1,-1,20,22,-1,-1,24,-1,-1,-1,-1],"split_conditions":[5.8E0,8.5E0,1.28E1,1.1E1,-4.1722298E-2,1.13E1,1.8E1,-6.204319E-3,1.9E1,1E0,2.1E1,-4.0393006E-3,-1.4982789E-2,-1.786377E-2,-4.7209887E-3,-2.8536487E-3,4.6E0,2E1,3.559535E-2,1.5071845E-2,5.3E0,1.7481802E-2,1.9290157E-3,-1.0048589E-3,9.054042E-3],"split_indices":[3,2,2,0,0,3,0,0,0,0,0,0,0,0,0,0,2,0,0,0,2,0,0,0,0],"split_type":[0,0,0,0,0,0,0,0,0,0,0,0,0,0,0,0,0,0,0,0,0,0,0,0,0],"sum_hessian":[2.7E1,8E0,1.9E1,6E0,2E0,1.6E1,3E0,2E0,4E0,1.1E1,5E0,2E0,1E0,3E0,1E0,1E0,1E1,4E0,1E0,3E0,7E0,3E0,1E0,2E0,5E0],"tree_param":{"num_deleted":"0","num_feature":"4","num_nodes":"25","size_leaf_vector":"1"}},{"base_weights":[-7.5105177E-3,-2.3711427E-1,1.7951193E-1,-3.5310593E-2,-3.5882774E-1,9.355892E-2,3.071738E-1,-7.958739E-3,1.1951964E-2,-3.820348E-3,-3.9553514E-1,1.1953824E-1,-1.5565349E-2,1.8588576E-1,3.4260526E-2,-4.5439517E-3,-3.3094674E-2,1.4093271E-1,-1.9356554E-3,5.064913E-4,-2.257593E-3,1.6498452E-2,1.8566765E-3,1.4187279E-2,7.416136E-2,7.921835E-3,-1.9384152E-3],"categories":[],"categories_nodes":[],"categories_segments":[],"categories_sizes":[],"default_left":[0,0,0,0,0,0,0,0,0,0,0,0,0,0,0,0,0,0,0,0,0,0,0,0,0,0,0],"id":21,"left_children":[1,3,5,7,9,11,13,-1,-1,-1,15,17,19,21,-1,-1,-1,23,-1,-1,-1,-1,-1,-1,25,-1,-1],"loss_changes":[1.2449144E0,3.0663842E-1,1.4682788E-1,9.961346E-2,7.026684E-2,3.304536E-2,2.3978412E-2,0E0,0E0,0E0,8.047962E-2,3.1623885E-2,1.1765409E-3,2.2021785E-2,0E0,0E0,0E0,1.1734962E-2,0E0,0E0,0E0,0E0,0E0,0E0,1.846256E-2,0E0,0E0],"parents":[2147483647,0,0,1,1,2,2,3,3,4,4,5,5,6,6,10,10,11,11,12,12,13,13,17,17,24,24],"right_children":[2,4,6,8,10,12,14,-1,-1,-1,16,18,20,22,-1,-1,-1,24,-1,-1,-1,-1,-1,-1,26,-1,-1],"split_conditions":[6.7E0,6.5E0,1.13E1,2.2E1,3E0,1.9E1,2.1E1,-7.958739E-3,1.1951964E-2,-3.820348E-3,6E0,1.28E1,1.2E1,2E1,3.4260526E-2,-4.5439517E-3,-3.3094674E-2,7.4E0,-1.9356554E-3,5.064913E-4,-2.257593E-3,1.6498452E-2,1.8566765E-3,1.4187279E-2,9E0,7.921835E-3,-1.9384152E-3],"split_indices":[3,2,3,1,0,1,0,0,0,0,1,2,0,0,0,0,0,3,0,0,0,0,0,0,1,0,0],"split_type":[0,0,0,0,0,0,0,0,0,0,0,0,0,0,0,0,0,0,0,0,0,0,0,0,0,0,0],"sum_hessian":[2.7E1,1.2E1,1.5E1,5E0,7E0,1E1,5E0,4E0,1E0,1E0,6E0,8E0,2E0,4E0,1E0,1E0,5E0,7E0,1E0,1E0,1E0,3E0,1E0,3E0,4E0,3E0,1E0],"tree_param":{"num_deleted":"0","num_feature":"4","num_nodes":"27","size_leaf_vector":"1"}},{"base_weights":[-5.8174515E-3,-2.9785866E-1,1.2589197E-1,-1.6592427E-1,-3.7981454E-2,1.7747295E-1,-1.2480024E-1,-5.4961676E-3,-1.4124348E-2,1.2002985E-1,3.3415556E-1,-3.6934356E-3,-1.3179884E-2,1.8714214E-2,6.2029686E-2,3.297576E-2,1.1431719E-2,8.080795E-2,-1.4981648E-2,-2.4481842E-3,7.4302168E-3,4.8749786E-4,-2.1729334E-3],"categories":[],"categories_nodes":[],"categories_segments":[],"categories_sizes":[],"default_left":[0,0,0,0,0,0,0,0,0,0,0,0,0,0,0,0,0,0,0,0,0,0,0],"id":22,"left_children":[1,3,5,7,-1,9,11,-1,-1,13,15,-1,-1,-1,17,-1,-1,19,21,-1,-1,-1,-1],"loss_changes":[1.1145061E0,1.6361976E-1,2.8076765E-1,7.2565675E-4,0E0,1.128971E-1,6.738361E-3,0E0,0E0,8.967079E-2,9.689748E-3,0E0,0E0,0E0,1.711816E-2,0E0,0E0,2.1879952E-2,1.089955E-3,0E0,0E0,0E0,0E0],"parents":[2147483647,0,0,1,1,2,2,3,3,5,5,6,6,9,9,10,10,14,14,17,17,18,18],"right_children":[2,4,6,8,-1,10,12,-1,-1,14,16,-1,-1,-1,18,-1,-1,20,22,-1,-1,-1,-1],"split_conditions":[5.8E0,8.5E0,1.28E1,1.1E1,-3.7981454E-2,2.1E1,1.8E1,-5.4961676E-3,-1.4124348E-2,4E0,2.2E1,-3.6934356E-3,-1.3179884E-2,1.8714214E-2,1.9E1,3.297576E-2,1.1431719E-2,1E0,1.2E1,-2.4481842E-3,7.4302168E-3,4.8749786E-4,-2.1729334E-3],"split_indices":[3,2,2,0,0,0,0,0,0,2,0,0,0,0,1,0,0,0,0,0,0,0,0],"split_type":[0,0,0,0,0,0,0,0,0,0,0,0,0,0,0,0,0,0,0,0,0,0,0],"sum_hessian":[2.7E1,8E0,1.9E1,6E0,2E0,1.6E1,3E0,2E0,4E0,1.3E1,3E0,2E0,1E0,3E0,1E1,1E0,2E0,8E0,2E0,1E0,7E0,1E0,1E0],"tree_param":{"num_deleted":"0","num_feature":"4","num_nodes":"23","size_leaf_vector":"1"}},{"base_weights":[-5.6688874E-3,-2.8191948E-1,1.1892732E-1,-1.5628289E-1,-3.6082376E-2,1.6806945E-1,-1.1965855E-1,-5.22136E-3,-1.7702517E-1,1.1259982E-1,3.201958E-1,-3.508764E-3,-1.2685638E-2,-1.4674165E-2,-3.8438907E-3,1.766154E-2,5.7677153E-2,3.1739168E-2,1.0860135E-2,7.530091E-2,-1.4419836E-2,-2.3563772E-3,6.942609E-3,4.6921673E-4,-2.0914483E-3],"categories":[],"categories_nodes":[],"categories_segments":[],"categories_sizes":[],"default_left":[0,0,0,0,0,0,0,0,0,0,0,0,0,0,0,0,0,0,0,0,0,0,0,0,0],"id":23,"left_children":[1,3,5,7,-1,9,11,-1,13,15,17,-1,-1,-1,-1,-1,19,-1,-1,21,23,-1,-1,-1,-1],"loss_changes":[9.972817E-1,1.5002996E-1,2.5460327E-1,2.592057E-4,0E0,1.0739869E-1,6.5113343E-3,0E0,1.6882867E-3,8.0908E-2,1.0978967E-2,0E0,0E0,0E0,0E0,0E0,1.5062649E-2,0E0,0E0,1.9493025E-2,1.0097411E-3,0E0,0E0,0E0,0E0],"parents":[2147483647,0,0,1,1,2,2,3,3,5,5,6,6,8,8,9,9,10,10,16,16,19,19,20,20],"right_children":[2,4,6,8,-1,10,12,-1,14,16,18,-1,-1,-1,-1,-1,20,-1,-1,22,24,-1,-1,-1,-1],"split_conditions":[5.8E0,8.5E0,1.28E1,1.1E1,-3.6082376E-2,2.1E1,1.8E1,-5.22136E-3,1.9E1,4E0,2.2E1,-3.508764E-3,-1.2685638E-2,-1.4674165E-2,-3.8438907E-3,1.766154E-2,1.9E1,3.1739168E-2,1.0860135E-2,1E0,1.2E1,-2.3563772E-3,6.942609E-3,4.6921673E-4,-2.0914483E-3],"split_indices":[3,2,2,0,0,0,0,0,0,2,0,0,0,0,0,0,1,0,0,0,0,0,0,0,0],"split_type":[0,0,0,0,0,0,0,0,0,0,0,0,0,0,0,0,0,0,0,0,0,0,0,0,0],"sum_hessian":[2.7E1,8E0,1.9E1,6E0,2E0,1.6E1,3E0,2E0,4E0,1.3E1,3E0,2E0,1E0,3E0,1E0,3E0,1E1,1E0,2E0,8E0,2E0,1E0,7E0,1E0,1E0],"tree_param":{"num_deleted":"0","num_feature":"4","num_nodes":"25","size_leaf_vector":"1"}},{"base_weights":[-5.7005496E-3,-2.0102628E-1,1.533579E-1,-2.8886365E-2,-3.0500293E-1,9.4338655E-2,3.0683094E-1,-6.655643E-3,1.0139676E-2,-3.407003E-3,-3.3559573E-1,1.5127056E-2,4.1962627E-2,3.0548949E-2,1.0317127E-2,-3.6997444E-3,-2.8131379E-2,7.6460354E-2,6.2207496E-3,-2.4047056E-3,1.11606814E-1,-2.4040032E-3,3.3371154E-2,2.498081E-3,9.495294E-3,4.5162108E-4,3.036035E-3],"categories":[],"categories_nodes":[],"categories_segments":[],"categories_sizes":[],"default_left":[0,0,0,0,0,0,0,0,0,0,0,0,0,0,0,0,0,0,0,0,0,0,0,0,0,0,0],"id":24,"left_children":[1,3,5,7,9,11,13,-1,-1,-1,15,-1,17,-1,-1,-1,-1,19,21,-1,23,-1,25,-1,-1,-1,-1],"loss_changes":[9.007387E-1,2.2387052E-1,1.1597976E-1,7.092484E-2,4.8284292E-2,6.4633444E-2,1.2006849E-2,0E0,0E0,0E0,6.0628176E-2,0E0,1.1854492E-2,0E0,0E0,0E0,0E0,2.2649435E-2,7.304606E-3,0E0,4.8014894E-4,0E0,5.3398823E-4,0E0,0E0,0E0,0E0],"parents":[2147483647,0,0,1,1,2,2,3,3,4,4,5,5,6,6,10,10,12,12,17,17,18,18,20,20,22,22],"right_children":[2,4,6,8,10,12,14,-1,-1,-1,16,-1,18,-1,-1,-1,-1,20,22,-1,24,-1,26,-1,-1,-1,-1],"split_conditions":[6.7E0,6.5E0,2.1E1,2.2E1,3E0,4.6E0,2.2E1,-6.655643E-3,1.0139676E-2,-3.407003E-3,6E0,1.5127056E-2,9E0,3.0548949E-2,1.0317127E-2,-3.6997444E-3,-2.8131379E-2,5.1E0,7.3E0,-2.4047056E-3,2E0,-2.4040032E-3,1.2E1,2.498081E-3,9.495294E-3,4.5162108E-4,3.036035E-3],"split_indices":[3,2,0,1,0,2,0,0,0,0,1,0,0,0,0,0,0,2,3,0,0,0,0,0,0,0,0],"split_type":[0,0,0,0,0,0,0,0,0,0,0,0,0,0,0,0,0,0,0,0,0,0,0,0,0,0,0],"sum_hessian":[2.7E1,1.2E1,1.5E1,5E0,7E0,1.2E1,3E0,4E0,1E0,1E0,6E0,3E0,9E0,1E0,2E0,1E0,5E0,4E0,5E0,1E0,3E0,2E0,3E0,1E0,2E0,1E0,2E0],"tree_param":{"num_deleted":"0","num_feature":"4","num_nodes":"27","size_leaf_vector":"1"}},{"base_weights":[-4.0261797E-3,-2.522899E-1,1.078938E-1,-1.024009E-2,-3.287169E-2,1.5193322E-1,-1.06247164E-1,1.004803E-1,2.9403514E-1,-1.5028357E-3,-9.622826E-3,1.5910694E-2,5.0741266E-2,2.9403364E-2,9.80127E-3,6.642654E-2,-1.3228299E-2,-2.018426E-3,6.109346E-3,4.346853E-4,-1.922869E-3],"categories":[],"categories_nodes":[],"categories_segments":[],"categories_sizes":[],"default_left":[0,0,0,0,0,0,0,0,0,0,0,0,0,0,0,0,0,0,0,0,0],"id":25,"left_children":[1,3,5,-1,-1,7,9,11,13,-1,-1,-1,15,-1,-1,17,19,-1,-1,-1,-1],"loss_changes":[8.0521935E-1,1.3393217E-1,2.047553E-1,0E0,0E0,9.4751775E-2,5.035199E-3,6.699124E-2,1.2806296E-2,0E0,0E0,0E0,1.1915889E-2,0E0,0E0,1.4819358E-2,8.5685897E-4,0E0,0E0,0E0,0E0],"parents":[2147483647,0,0,1,1,2,2,5,5,6,6,7,7,8,8,12,12,15,15,16,16],"right_children":[2,4,6,-1,-1,8,10,12,14,-1,-1,-1,16,-1,-1,18,20,-1,-1,-1,-1],"split_conditions":[5.8E0,8.5E0,1.28E1,-1.024009E-2,-3.287169E-2,2.1E1,4E0,4E0,2.2E1,-1.5028357E-3,-9.622826E-3,1.5910694E-2,1.9E1,2.9403364E-2,9.80127E-3,1E0,1.2E1,-2.018426E-3,6.109346E-3,4.346853E-4,-1.922869E-3],"split_indices":[3,2,2,0,0,0,1,2,0,0,0,0,1,0,0,0,0,0,0,0,0],"split_type":[0,0,0,0,0,0,0,0,0,0,0,0,0,0,0,0,0,0,0,0,0],"sum_hessian":[2.7E1,8E0,1.9E1,6E0,2E0,1.6E1,3E0,1.3E1,3E0,1E0,2E0,3E0,1E1,1E0,2E0,8E0,2E0,1E0,7E0,1E0,1E0],"tree_param":{"num_deleted":"0","num_feature":"4","num_nodes":"21","size_leaf_vector":"1"}},{"base_weights":[-3.5999094E-3,-2.8268644E-1,8.536398E-2,-1.4593619E-1,-3.1228103E-2,2.550395E-2,2.4074006E-1,-1.2093018E-2,-3.1770007E-3,5.984338E-2,-1.0106005E-1,1.3795081E-1,2.830074E-2,-4.1155056E-3,8.353563E-2,-2.9099088E-3,-1.0794144E-2,1.2480331E-2,9.051182E-4,2.1067739E-2,1.121361E-1,3.2469153E-3,-2.5436294E-3,1.036417E-2,3.8652048E-3],"categories":[],"categories_nodes":[],"categories_segments":[],"categories_sizes":[],"default_left":[0,0,0,0,0,0,0,0,0,0,0,0,0,0,0,0,0,0,0,0,0,0,0,0,0],"id":26,"left_children":[1,3,5,7,-1,9,11,-1,-1,13,15,17,-1,-1,19,-1,-1,-1,-1,21,23,-1,-1,-1,-1],"loss_changes":[7.1933264E-1,6.7209184E-2,1.9847816E-1,1.0955408E-3,0E0,7.993208E-2,3.2193184E-2,0E0,0E0,4.2634465E-2,5.0905384E-3,1.5900843E-2,0E0,0E0,1.9076876E-2,0E0,0E0,0E0,0E0,7.5780735E-3,5.508706E-3,0E0,0E0,0E0,0E0],"parents":[2147483647,0,0,1,1,2,2,3,3,5,5,6,6,9,9,10,10,11,11,14,14,19,19,20,20],"right_children":[2,4,6,8,-1,10,12,-1,-1,14,16,18,-1,-1,20,-1,-1,-1,-1,22,24,-1,-1,-1,-1],"split_conditions":[4.1E0,8.5E0,1.13E1,1.9E1,-3.1228103E-2,1.28E1,2.1E1,-1.2093018E-2,-3.1770007E-3,5.8E0,1.8E1,2E1,2.830074E-2,-4.1155056E-3,6E0,-2.9099088E-3,-1.0794144E-2,1.2480331E-2,9.051182E-4,5E0,1.9E1,3.2469153E-3,-2.5436294E-3,1.036417E-2,3.8652048E-3],"split_indices":[3,2,3,0,0,2,0,0,0,3,0,0,0,0,0,0,0,0,0,0,1,0,0,0,0],"split_type":[0,0,0,0,0,0,0,0,0,0,0,0,0,0,0,0,0,0,0,0,0,0,0,0,0],"sum_hessian":[2.7E1,6E0,2.1E1,4E0,2E0,1.6E1,5E0,3E0,1E0,1.3E1,3E0,4E0,1E0,2E0,1.1E1,2E0,1E0,3E0,1E0,4E0,7E0,3E0,1E0,4E0,3E0],"tree_param":{"num_deleted":"0","num_feature":"4","num_nodes":"25","size_leaf_vector":"1"}},{"base_weights":[-3.6048777E-3,-1.6921714E-1,1.3118039E-1,-2.1132575E-2,-2.5912842E-1,7.8521594E-2,2.6952636E-1,-5.5090687E-3,9.017842E-3,-2.8092626E-3,-2.8544483E-1,1.3036064E-2,3.2552402E-2,2.723946E-2,8.792998E-3,-3.0578638E-3,-2.3957135E-2,6.304652E-2,1.7152351E-3,-2.4482433E-3,9.512977E-2,-2.2220425E-3,2.4793278E-2,2.053543E-3,8.143949E-3,2.7343942E-4,2.297035E-3],"categories":[],"categories_nodes":[],"categories_segments":[],"categories_sizes":[],"default_left":[0,0,0,0,0,0,0,0,0,0,0,0,0,0,0,0,0,0,0,0,0,0,0,0,0,0,0],"id":27,"left_children":[1,3,5,7,9,11,13,-1,-1,-1,15,-1,17,-1,-1,-1,-1,19,21,-1,23,-1,25,-1,-1,-1,-1],"loss_changes":[6.4721656E-1,1.676121E-1,9.5398456E-2,5.3212415E-2,3.5976887E-2,5.128874E-2,1.4475793E-2,0E0,0E0,0E0,4.518062E-2,0E0,9.2953835E-3,0E0,0E0,0E0,0E0,1.8455539E-2,5.0744936E-3,0E0,6.734431E-4,0E0,3.8182153E-4,0E0,0E0,0E0,0E0],"parents":[2147483647,0,0,1,1,2,2,3,3,4,4,5,5,6,6,10,10,12,12,17,17,18,18,20,20,22,22],"right_children":[2,4,6,8,10,12,14,-1,-1,-1,16,-1,18,-1,-1,-1,-1,20,22,-1,24,-1,26,-1,-1,-1,-1],"split_conditions":[6.7E0,6.5E0,2.1E1,2.2E1,3E0,4.6E0,2.2E1,-5.5090687E-3,9.017842E-3,-2.8092626E-3,6E0,1.3036064E-2,9E0,2.723946E-2,8.792998E-3,-3.0578638E-3,-2.3957135E-2,5.1E0,7.3E0,-2.4482433E-3,2E0,-2.2220425E-3,1.2E1,2.053543E-3,8.143949E-3,2.7343942E-4,2.297035E-3],"split_indices":[3,2,0,1,0,2,0,0,0,0,1,0,0,0,0,0,0,2,3,0,0,0,0,0,0,0,0],"split_type":[0,0,0,0,0,0,0,0,0,0,0,0,0,0,0,0,0,0,0,0,0,0,0,0,0,0,0],"sum_hessian":[2.7E1,1.2E1,1.5E1,5E0,7E0,1.2E1,3E0,4E0,1E0,1E0,6E0,3E0,9E0,1E0,2E0,1E0,5E0,4E0,5E0,1E0,3E0,2E0,3E0,1E0,2E0,1E0,2E0],"tree_param":{"num_deleted":"0","num_feature":"4","num_nodes":"27","size_leaf_vector":"1"}},{"base_weights":[-2.232698E-3,-2.532139E-1,7.7726446E-2,-9.506156E-3,-2.8468842E-2,2.3290638E-2,2.1900684E-1,5.3898472E-2,-8.965944E-2,1.2297897E-1,2.6217982E-2,-3.6342763E-3,7.49958E-2,-1.2540305E-3,-8.129924E-3,1.2636612E-2,3.647678E-2,1.8201862E-2,1.01117544E-1,3.3186001E-3,7.8503793E-4,2.8846415E-3,-2.3564342E-3,9.321914E-3,3.5152396E-3],"categories":[],"categories_nodes":[],"categories_segments":[],"categories_sizes":[],"default_left":[0,0,0,0,0,0,0,0,0,0,0,0,0,0,0,0,0,0,0,0,0,0,0,0,0],"id":28,"left_children":[1,3,5,-1,-1,7,9,11,13,15,-1,-1,17,-1,-1,-1,19,21,23,-1,-1,-1,-1,-1,-1],"loss_changes":[5.815922E-1,6.375849E-2,1.6409484E-1,0E0,0E0,6.3604176E-2,3.2237858E-2,3.3866063E-2,3.654901E-3,1.35373175E-2,0E0,0E0,1.5962154E-2,0E0,0E0,0E0,1.4322763E-4,6.235051E-3,4.231803E-3,0E0,0E0,0E0,0E0,0E0,0E0],"parents":[2147483647,0,0,1,1,2,2,5,5,6,6,7,7,8,8,9,9,12,12,16,16,17,17,18,18],"right_children":[2,4,6,-1,-1,8,10,12,14,16,-1,-1,18,-1,-1,-1,20,22,24,-1,-1,-1,-1,-1,-1],"split_conditions":[4.1E0,8.5E0,1.13E1,-9.506156E-3,-2.8468842E-2,1.28E1,2.1E1,5.8E0,4E0,4E0,2.6217982E-2,-3.6342763E-3,6E0,-1.2540305E-3,-8.129924E-3,1.2636612E-2,7E0,5E0,1.9E1,3.3186001E-3,7.8503793E-4,2.8846415E-3,-2.3564342E-3,9.321914E-3,3.5152396E-3],"split_indices":[3,2,3,0,0,2,0,3,1,2,0,0,0,0,0,0,0,0,1,0,0,0,0,0,0],"split_type":[0,0,0,0,0,0,0,0,0,0,0,0,0,0,0,0,0,0,0,0,0,0,0,0,0],"sum_hessian":[2.7E1,6E0,2.1E1,4E0,2E0,1.6E1,5E0,1.3E1,3E0,4E0,1E0,2E0,1.1E1,1E0,2E0,2E0,2E0,4E0,7E0,1E0,1E0,3E0,1E0,4E0,3E0],"tree_param":{"num_deleted":"0","num_feature":"4","num_nodes":"25","size_leaf_vector":"1"}},{"base_weights":[-1.8748775E-3,-2.3964787E-1,7.3865384E-2,-1.19143814E-1,-2.70454E-2,2.1564255E-2,2.0974103E-1,-9.876377E-3,-2.5867124E-3,5.0551157E-2,-8.528097E-2,1.17103584E-1,2.523481E-2,-3.4525627E-3,7.048489E-2,-2.4040316E-3,-9.186099E-3,1.20047815E-2,3.5108894E-2,-1.9660788E-3,8.165886E-2,3.1941524E-3,7.555984E-4,9.751209E-3,3.5454659E-3],"categories":[],"categories_nodes":[],"categories_segments":[],"categories_sizes":[],"default_left":[0,0,0,0,0,0,0,0,0,0,0,0,0,0,0,0,0,0,0,0,0,0,0,0,0],"id":29,"left_children":[1,3,5,7,-1,9,11,-1,-1,13,15,17,-1,-1,19,-1,-1,-1,21,-1,23,-1,-1,-1,-1],"loss_changes":[5.2195334E-1,5.906716E-2,1.5181899E-1,7.665828E-4,0E0,5.696196E-2,3.1034648E-2,0E0,0E0,3.0199002E-2,3.9942972E-3,1.1992864E-2,0E0,0E0,1.5106812E-2,0E0,0E0,0E0,1.3268786E-4,0E0,1.2144692E-2,0E0,0E0,0E0,0E0],"parents":[2147483647,0,0,1,1,2,2,3,3,5,5,6,6,9,9,10,10,11,11,14,14,18,18,20,20],"right_children":[2,4,6,8,-1,10,12,-1,-1,14,16,18,-1,-1,20,-1,-1,-1,22,-1,24,-1,-1,-1,-1],"split_conditions":[4.1E0,8.5E0,1.13E1,1.9E1,-2.70454E-2,1.28E1,2.1E1,-9.876377E-3,-2.5867124E-3,5.8E0,1.8E1,4E0,2.523481E-2,-3.4525627E-3,1E0,-2.4040316E-3,-9.186099E-3,1.20047815E-2,7E0,-1.9660788E-3,4.6E0,3.1941524E-3,7.555984E-4,9.751209E-3,3.5454659E-3],"split_indices":[3,2,3,0,0,2,0,0,0,3,0,2,0,0,0,0,0,0,0,0,2,0,0,0,0],"split_type":[0,0,0,0,0,0,0,0,0,0,0,0,0,0,0,0,0,0,0,0,0,0,0,0,0],"sum_hessian":[2.7E1,6E0,2.1E1,4E0,2E0,1.6E1,5E0,3E0,1E0,1.3E1,3E0,4E0,1E0,2E0,1.1E1,2E0,1E0,2E0,2E0,1E0,1E1,1E0,1E0,3E0,7E0],"tree_param":{"num_deleted":"0","num_feature":"4","num_nodes":"25","size_leaf_vector":"1"}},{"base_weights":[-1.8068085E-3,-2.2731836E-1,7.002899E-2,-1.12700656E-1,-2.5693132E-2,1.9728579E-2,2.0087534E-1,-9.320831E-3,-2.4897114E-3,4.732254E-2,-8.178243E-2,1.1151172E-1,2.4288503E-2,-3.2799349E-3,6.6142745E-2,-2.28383E-3,-8.841621E-3,1.1404543E-2,3.3792306E-2,1.3967154E-2,9.048465E-2,3.0743715E-3,7.272631E-4,2.509932E-3,-2.4010225E-3,8.456784E-3,3.0017172E-3],"categories":[],"categories_nodes":[],"categories_segments":[],"categories_sizes":[],"default_left":[0,0,0,0,0,0,0,0,0,0,0,0,0,0,0,0,0,0,0,0,0,0,0,0,0,0,0],"id":30,"left_children":[1,3,5,7,-1,9,11,-1,-1,13,15,17,-1,-1,19,-1,-1,-1,21,23,25,-1,-1,-1,-1,-1,-1],"loss_changes":[4.695134E-1,5.3864747E-2,1.4083278E-1,4.7661364E-4,0E0,5.14887E-2,2.9822275E-2,0E0,0E0,2.688402E-2,3.823623E-3,1.0618687E-2,0E0,0E0,1.3976827E-2,0E0,0E0,0E0,1.2292317E-4,5.5541666E-3,4.478395E-3,0E0,0E0,0E0,0E0,0E0,0E0],"parents":[2147483647,0,0,1,1,2,2,3,3,5,5,6,6,9,9,10,10,11,11,14,14,18,18,19,19,20,20],"right_children":[2,4,6,8,-1,10,12,-1,-1,14,16,18,-1,-1,20,-1,-1,-1,22,24,26,-1,-1,-1,-1,-1,-1],"split_conditions":[4.1E0,8.5E0,1.13E1,1.9E1,-2.5693132E-2,1.28E1,2.1E1,-9.320831E-3,-2.4897114E-3,5.8E0,1.8E1,4E0,2.4288503E-2,-3.2799349E-3,6E0,-2.28383E-3,-8.841621E-3,1.1404543E-2,7E0,5E0,1.9E1,3.0743715E-3,7.272631E-4,2.509932E-3,-2.4010225E-3,8.456784E-3,3.0017172E-3],"split_indices":[3,2,3,0,0,2,0,0,0,3,0,2,0,0,0,0,0,0,0,0,1,0,0,0,0,0,0],"split_type":[0,0,0,0,0,0,0,0,0,0,0,0,0,0,0,0,0,0,0,0,0,0,0,0,0,0,0],"sum_hessian":[2.7E1,6E0,2.1E1,4E0,2E0,1.6E1,5E0,3E0,1E0,1.3E1,3E0,4E0,1E0,2E0,1.1E1,2E0,1E0,2E0,2E0,4E0,7E0,1E0,1E0,3E0,1E0,4E0,3E0],"tree_param":{"num_deleted":"0","num_feature":"4","num_nodes":"27","size_leaf_vector":"1"}},{"base_weights":[-1.7015375E-3,-2.1562712E-1,6.644304E-2,-1.066102E-1,-2.4408473E-2,1.8081998E-2,1.9239214E-1,-8.796533E-3,-2.3963482E-3,4.4365317E-2,-7.8430116E-2,1.0618959E-1,2.3377683E-2,-3.1159387E-3,6.2145997E-2,-2.1696386E-3,-8.51006E-3,1.2807038E-1,6.9999177E-4,-1.9864738E-3,7.2611324E-2,2.9590824E-3,1.0834318E-2,8.940796E-3,3.017645E-3],"categories":[],"categories_nodes":[],"categories_segments":[],"categories_sizes":[],"default_left":[0,0,0,0,0,0,0,0,0,0,0,0,0,0,0,0,0,0,0,0,0,0,0,0,0],"id":31,"left_children":[1,3,5,7,-1,9,11,-1,-1,13,15,17,-1,-1,19,-1,-1,21,-1,-1,23,-1,-1,-1,-1],"loss_changes":[4.2250726E-1,4.910913E-2,1.305238E-1,2.3815036E-4,0E0,4.660277E-2,2.8609559E-2,0E0,0E0,2.3967735E-2,3.655173E-3,9.401154E-3,0E0,0E0,1.3053998E-2,0E0,0E0,1.0917336E-4,0E0,0E0,1.1799246E-2,0E0,0E0,0E0,0E0],"parents":[2147483647,0,0,1,1,2,2,3,3,5,5,6,6,9,9,10,10,11,11,14,14,17,17,20,20],"right_children":[2,4,6,8,-1,10,12,-1,-1,14,16,18,-1,-1,20,-1,-1,22,-1,-1,24,-1,-1,-1,-1],"split_conditions":[4.1E0,8.5E0,1.13E1,1.9E1,-2.4408473E-2,1.28E1,2.1E1,-8.796533E-3,-2.3963482E-3,5.8E0,1.8E1,2E1,2.3377683E-2,-3.1159387E-3,1E0,-2.1696386E-3,-8.51006E-3,7E0,6.9999177E-4,-1.9864738E-3,4.6E0,2.9590824E-3,1.0834318E-2,8.940796E-3,3.017645E-3],"split_indices":[3,2,3,0,0,2,0,0,0,3,0,0,0,0,0,0,0,0,0,0,2,0,0,0,0],"split_type":[0,0,0,0,0,0,0,0,0,0,0,0,0,0,0,0,0,0,0,0,0,0,0,0,0],"sum_hessian":[2.7E1,6E0,2.1E1,4E0,2E0,1.6E1,5E0,3E0,1E0,1.3E1,3E0,4E0,1E0,2E0,1.1E1,2E0,1E0,3E0,1E0,1E0,1E1,1E0,2E0,3E0,7E0],"tree_param":{"num_deleted":"0","num_feature":"4","num_nodes":"25","size_leaf_vector":"1"}},{"base_weights":[-1.6294267E-3,-2.0454101E-1,6.3007414E-2,-1.00853026E-1,-2.3188049E-2,1.6500922E-2,1.8427457E-1,-8.301729E-3,-2.3064853E-3,4.152763E-2,-7.521778E-2,1.0112405E-1,2.2501022E-2,-2.960141E-3,5.8316037E-2,-2.0611566E-3,-8.190933E-3,9.143509E-3,6.7374186E-4,1.0343472E-2,8.100939E-2,2.1817735E-3,-2.424146E-3,7.6794713E-3,2.5520693E-3],"categories":[],"categories_nodes":[],"categories_segments":[],"categories_sizes":[],"default_left":[0,0,0,0,0,0,0,0,0,0,0,0,0,0,0,0,0,0,0,0,0,0,0,0,0],"id":32,"left_children":[1,3,5,7,-1,9,11,-1,-1,13,15,17,-1,-1,19,-1,-1,-1,-1,21,23,-1,-1,-1,-1],"loss_changes":[3.801234E-1,4.4763148E-2,1.210329E-1,4.370138E-5,0E0,4.2145707E-2,2.7403995E-2,0E0,0E0,2.1338804E-2,3.489647E-3,8.482587E-3,0E0,0E0,1.2225982E-2,0E0,0E0,0E0,0E0,4.939464E-3,4.5529194E-3,0E0,0E0,0E0,0E0],"parents":[2147483647,0,0,1,1,2,2,3,3,5,5,6,6,9,9,10,10,11,11,14,14,19,19,20,20],"right_children":[2,4,6,8,-1,10,12,-1,-1,14,16,18,-1,-1,20,-1,-1,-1,-1,22,24,-1,-1,-1,-1],"split_conditions":[4.1E0,8.5E0,1.13E1,1.9E1,-2.3188049E-2,1.28E1,2.1E1,-8.301729E-3,-2.3064853E-3,5.8E0,1.8E1,2E1,2.2501022E-2,-2.960141E-3,6E0,-2.0611566E-3,-8.190933E-3,9.143509E-3,6.7374186E-4,5E0,1.9E1,2.1817735E-3,-2.424146E-3,7.6794713E-3,2.5520693E-3],"split_indices":[3,2,3,0,0,2,0,0,0,3,0,0,0,0,0,0,0,0,0,0,1,0,0,0,0],"split_type":[0,0,0,0,0,0,0,0,0,0,0,0,0,0,0,0,0,0,0,0,0,0,0,0,0],"sum_hessian":[2.7E1,6E0,2.1E1,4E0,2E0,1.6E1,5E0,3E0,1E0,1.3E1,3E0,4E0,1E0,2E0,1.1E1,2E0,1E0,3E0,1E0,4E0,7E0,3E0,1E0,4E0,3E0],"tree_param":{"num_deleted":"0","num_feature":"4","num_nodes":"25","size_leaf_vector":"1"}},{"base_weights":[-1.6751162E-3,-1.9402848E-1,5.960437E-2,-7.155802E-3,-2.2028651E-2,1.5073764E-2,1.7584036E-1,3.891513E-2,-7.213947E-2,9.5503196E-2,2.1657234E-2,-2.8121339E-3,5.477477E-2,-1.9580987E-3,-7.883772E-3,9.835425E-3,2.8032988E-2,-1.9937973E-3,6.458774E-2,2.5052358E-3,6.484755E-4,8.205126E-3,2.5580479E-3],"categories":[],"categories_nodes":[],"categories_segments":[],"categories_sizes":[],"default_left":[0,0,0,0,0,0,0,0,0,0,0,0,0,0,0,0,0,0,0,0,0,0,0],"id":33,"left_children":[1,3,5,-1,-1,7,9,11,13,15,-1,-1,17,-1,-1,-1,19,-1,21,-1,-1,-1,-1],"loss_changes":[3.416098E-1,4.0792704E-2,1.1122272E-1,0E0,0E0,3.8155127E-2,2.6853576E-2,1.9019527E-2,3.3276211E-3,8.3455555E-3,0E0,0E0,1.1297446E-2,0E0,0E0,0E0,2.3513101E-5,0E0,1.1294037E-2,0E0,0E0,0E0,0E0],"parents":[2147483647,0,0,1,1,2,2,5,5,6,6,7,7,8,8,9,9,12,12,16,16,18,18],"right_children":[2,4,6,-1,-1,8,10,12,14,16,-1,-1,18,-1,-1,-1,20,-1,22,-1,-1,-1,-1],"split_conditions":[4.1E0,8.5E0,1.13E1,-7.155802E-3,-2.2028651E-2,1.28E1,2.1E1,5.8E0,1.8E1,4E0,2.1657234E-2,-2.8121339E-3,1E0,-1.9580987E-3,-7.883772E-3,9.835425E-3,7E0,-1.9937973E-3,4.6E0,2.5052358E-3,6.484755E-4,8.205126E-3,2.5580479E-3],"split_indices":[3,2,3,0,0,2,0,3,0,2,0,0,0,0,0,0,0,0,2,0,0,0,0],"split_type":[0,0,0,0,0,0,0,0,0,0,0,0,0,0,0,0,0,0,0,0,0,0,0],"sum_hessian":[2.7E1,6E0,2.1E1,4E0,2E0,1.6E1,5E0,1.3E1,3E0,4E0,1E0,2E0,1.1E1,2E0,1E0,2E0,2E0,1E0,1E1,1E0,1E0,3E0,7E0],"tree_param":{"num_deleted":"0","num_feature":"4","num_nodes":"23","size_leaf_vector":"1"}},{"base_weights":[-1.4931533E-3,-1.1565463E-1,9.135637E-2,-9.984289E-3,-1.8045056E-1,5.0664127E-2,2.0076707E-1,-3.830963E-3,7.3309424E-3,-1.9516513E-3,-1.9879435E-1,9.186688E-3,1.6867695E-2,2.0845087E-2,6.1799823E-3,-1.9911649E-3,-2.2307712E-1,4.4385612E-2,-8.875184E-3,-1.8270774E-2,-4.515419E-3,-2.4291673E-3,7.167646E-2,-2.5417227E-2,1.2104452E-3,1.3503794E-3,6.2673935E-3,-4.189465E-4,-2.2624251E-3],"categories":[],"categories_nodes":[],"categories_segments":[],"categories_sizes":[],"default_left":[0,0,0,0,0,0,0,0,0,0,0,0,0,0,0,0,0,0,0,0,0,0,0,0,0,0,0,0,0],"id":34,"left_children":[1,3,5,7,9,11,13,-1,-1,-1,15,-1,17,-1,-1,-1,19,21,23,-1,-1,-1,25,27,-1,-1,-1,-1,-1],"loss_changes":[3.0736127E-1,8.720943E-2,6.1062977E-2,3.155598E-2,1.7489403E-2,2.9490482E-2,1.3634652E-2,0E0,0E0,0E0,2.3355722E-2,0E0,7.477835E-3,0E0,0E0,0E0,5.398929E-3,1.279773E-2,2.8929564E-3,0E0,0E0,0E0,1.0477547E-3,2.0816643E-4,0E0,0E0,0E0,0E0,0E0],"parents":[2147483647,0,0,1,1,2,2,3,3,4,4,5,5,6,6,10,10,12,12,16,16,17,17,18,18,22,22,23,23],"right_children":[2,4,6,8,10,12,14,-1,-1,-1,16,-1,18,-1,-1,-1,20,22,24,-1,-1,-1,26,28,-1,-1,-1,-1,-1],"split_conditions":[6.7E0,6.5E0,2.1E1,2.2E1,6E0,4.6E0,2.2E1,-3.830963E-3,7.3309424E-3,-1.9516513E-3,3E0,9.186688E-3,9E0,2.0845087E-2,6.1799823E-3,-1.9911649E-3,2.4E1,5.1E0,7.4E0,-1.8270774E-2,-4.515419E-3,-2.4291673E-3,2E0,1.2E1,1.2104452E-3,1.3503794E-3,6.2673935E-3,-4.189465E-4,-2.2624251E-3],"split_indices":[3,2,0,1,1,2,0,0,0,0,0,0,0,0,0,0,1,2,3,0,0,0,0,0,0,0,0,0,0],"split_type":[0,0,0,0,0,0,0,0,0,0,0,0,0,0,0,0,0,0,0,0,0,0,0,0,0,0,0,0,0],"sum_hessian":[2.7E1,1.2E1,1.5E1,5E0,7E0,1.2E1,3E0,4E0,1E0,1E0,6E0,3E0,9E0,1E0,2E0,1E0,5E0,4E0,5E0,4E0,1E0,1E0,3E0,3E0,2E0,1E0,2E0,1E0,2E0],"tree_param":{"num_deleted":"0","num_feature":"4","num_nodes":"29","size_leaf_vector":"1"}},{"base_weights":[-7.84726E-4,-1.743441E-1,5.447438E-2,-8.397231E-2,-2.0013679E-2,1.3798376E-2,1.60644E-1,-6.933172E-3,-1.8784651E-3,3.4914706E-2,-6.355837E-2,8.576801E-2,2.0063398E-2,-2.4799781E-3,4.9000416E-2,-7.142846E-4,-5.8796476E-3,8.884317E-3,2.4489125E-2,6.398371E-3,6.9501646E-2,2.1762617E-3,5.787648E-4,1.7688839E-3,-2.3380732E-3,6.6829477E-3,2.0715622E-3],"categories":[],"categories_nodes":[],"categories_segments":[],"categories_sizes":[],"default_left":[0,0,0,0,0,0,0,0,0,0,0,0,0,0,0,0,0,0,0,0,0,0,0,0,0,0,0],"id":35,"left_children":[1,3,5,7,-1,9,11,-1,-1,13,15,17,-1,-1,19,-1,-1,-1,21,23,25,-1,-1,-1,-1,-1,-1],"loss_changes":[2.7803788E-1,3.6110938E-2,9.2791595E-2,1.8018484E-4,0E0,2.998846E-2,2.5067091E-2,0E0,0E0,1.50261335E-2,2.460206E-3,7.114969E-3,0E0,0E0,1.0036033E-2,0E0,0E0,0E0,3.9002625E-6,3.96401E-3,4.107181E-3,0E0,0E0,0E0,0E0,0E0,0E0],"parents":[2147483647,0,0,1,1,2,2,3,3,5,5,6,6,9,9,10,10,11,11,14,14,18,18,19,19,20,20],"right_children":[2,4,6,8,-1,10,12,-1,-1,14,16,18,-1,-1,20,-1,-1,-1,22,24,26,-1,-1,-1,-1,-1,-1],"split_conditions":[4.1E0,8.5E0,1.13E1,1.9E1,-2.0013679E-2,1.28E1,2.1E1,-6.933172E-3,-1.8784651E-3,5.8E0,4E0,4E0,2.0063398E-2,-2.4799781E-3,6E0,-7.142846E-4,-5.8796476E-3,8.884317E-3,7E0,5E0,1.9E1,2.1762617E-3,5.787648E-4,1.7688839E-3,-2.3380732E-3,6.6829477E-3,2.0715622E-3],"split_indices":[3,2,3,0,0,2,0,0,0,3,1,2,0,0,0,0,0,0,0,0,1,0,0,0,0,0,0],"split_type":[0,0,0,0,0,0,0,0,0,0,0,0,0,0,0,0,0,0,0,0,0,0,0,0,0,0,0],"sum_hessian":[2.7E1,6E0,2.1E1,4E0,2E0,1.6E1,5E0,3E0,1E0,1.3E1,3E0,4E0,1E0,2E0,1.1E1,1E0,2E0,2E0,2E0,4E0,7E0,1E0,1E0,3E0,1E0,4E0,3E0],"tree_param":{"num_deleted":"0","num_feature":"4","num_nodes":"27","size_leaf_vector":"1"}},{"base_weights":[-6.5484224E-4,-1.653862E-1,5.1789448E-2,-7.9436734E-2,-1.9012993E-2,1.2711229E-2,1.538795E-1,-6.5431823E-3,-1.8080235E-3,3.270363E-2,-6.043998E-2,8.166328E-2,1.931102E-2,-2.3559795E-3,4.60075E-2,-1.5890055E-3,-6.6824895E-3,8.4401015E-3,2.3570785E-2,5.804652E-3,6.538334E-2,2.0946523E-3,5.570613E-4,1.6693841E-3,-2.2503957E-3,6.281972E-3,1.955037E-3],"categories":[],"categories_nodes":[],"categories_segments":[],"categories_sizes":[],"default_left":[0,0,0,0,0,0,0,0,0,0,0,0,0,0,0,0,0,0,0,0,0,0,0,0,0,0,0],"id":36,"left_children":[1,3,5,7,-1,9,11,-1,-1,13,15,17,-1,-1,19,-1,-1,-1,21,23,25,-1,-1,-1,-1,-1,-1],"loss_changes":[2.504634E-1,3.2879576E-2,8.581293E-2,5.628541E-5,0E0,2.6838565E-2,2.3863241E-2,0E0,0E0,1.3387238E-2,2.612235E-3,6.3144565E-3,0E0,0E0,8.9680385E-3,0E0,0E0,0E0,3.6132988E-6,3.6139183E-3,3.596507E-3,0E0,0E0,0E0,0E0,0E0,0E0],"parents":[2147483647,0,0,1,1,2,2,3,3,5,5,6,6,9,9,10,10,11,11,14,14,18,18,19,19,20,20],"right_children":[2,4,6,8,-1,10,12,-1,-1,14,16,18,-1,-1,20,-1,-1,-1,22,24,26,-1,-1,-1,-1,-1,-1],"split_conditions":[4.1E0,8.5E0,1.13E1,1.9E1,-1.9012993E-2,1.28E1,2.1E1,-6.5431823E-3,-1.8080235E-3,5.8E0,1.8E1,4E0,1.931102E-2,-2.3559795E-3,6E0,-1.5890055E-3,-6.6824895E-3,8.4401015E-3,7E0,5E0,1.9E1,2.0946523E-3,5.570613E-4,1.6693841E-3,-2.2503957E-3,6.281972E-3,1.955037E-3],"split_indices":[3,2,3,0,0,2,0,0,0,3,0,2,0,0,0,0,0,0,0,0,1,0,0,0,0,0,0],"split_type":[0,0,0,0,0,0,0,0,0,0,0,0,0,0,0,0,0,0,0,0,0,0,0,0,0,0,0],"sum_hessian":[2.7E1,6E0,2.1E1,4E0,2E0,1.6E1,5E0,3E0,1E0,1.3E1,3E0,4E0,1E0,2E0,1.1E1,2E0,1E0,2E0,2E0,4E0,7E0,1E0,1E0,3E0,1E0,4E0,3E0],"tree_param":{"num_deleted":"0","num_feature":"4","num_nodes":"27","size_leaf_vector":"1"}},{"base_weights":[-6.0332933E-4,-1.5689139E-1,4.9152117E-2,-5.636192E-3,-1.8062342E-2,1.1583096E-2,1.4740565E-1,3.0629432E-2,-5.7974853E-2,7.77569E-2,1.8586855E-2,-2.2381798E-3,4.3194935E-2,-1.5095555E-3,-6.431895E-3,8.018096E-3,2.2686878E-2,-1.1061053E-2,5.5152237E-2,2.0161027E-3,5.3617137E-4,-1.9043037E-3,6.599352E-4,6.9349487E-3,1.9463407E-3],"categories":[],"categories_nodes":[],"categories_segments":[],"categories_sizes":[],"default_left":[0,0,0,0,0,0,0,0,0,0,0,0,0,0,0,0,0,0,0,0,0,0,0,0,0],"id":37,"left_children":[1,3,5,-1,-1,7,9,11,13,15,-1,-1,17,-1,-1,-1,19,21,23,-1,-1,-1,-1,-1,-1],"loss_changes":[2.2544466E-1,2.993168E-2,7.950094E-2,0E0,0E0,2.4297746E-2,2.2694305E-2,1.1927066E-2,2.4800766E-3,5.601339E-3,0E0,0E0,8.395106E-3,0E0,0E0,0E0,3.3472897E-6,1.0771857E-3,8.4963925E-3,0E0,0E0,0E0,0E0,0E0,0E0],"parents":[2147483647,0,0,1,1,2,2,5,5,6,6,7,7,8,8,9,9,12,12,16,16,17,17,18,18],"right_children":[2,4,6,-1,-1,8,10,12,14,16,-1,-1,18,-1,-1,-1,20,22,24,-1,-1,-1,-1,-1,-1],"split_conditions":[4.1E0,8.5E0,1.13E1,-5.636192E-3,-1.8062342E-2,1.28E1,2.1E1,5.8E0,1.8E1,4E0,1.8586855E-2,-2.2381798E-3,2E0,-1.5095555E-3,-6.431895E-3,8.018096E-3,7E0,1E0,4.6E0,2.0161027E-3,5.3617137E-4,-1.9043037E-3,6.599352E-4,6.9349487E-3,1.9463407E-3],"split_indices":[3,2,3,0,0,2,0,3,0,2,0,0,1,0,0,0,0,0,2,0,0,0,0,0,0],"split_type":[0,0,0,0,0,0,0,0,0,0,0,0,0,0,0,0,0,0,0,0,0,0,0,0,0],"sum_hessian":[2.7E1,6E0,2.1E1,4E0,2E0,1.6E1,5E0,1.3E1,3E0,4E0,1E0,2E0,1.1E1,2E0,1E0,2E0,2E0,2E0,9E0,1E0,1E0,1E0,1E0,3E0,6E0],"tree_param":{"num_deleted":"0","num_feature":"4","num_nodes":"25","size_leaf_vector":"1"}},{"base_weights":[-4.5393253E-4,-1.249579E-1,5.5595547E-2,-6.2607445E-2,-1.7159224E-2,1.764349E-2,1.4120977E-1,-1.2276951E-3,-6.7585595E-2,4.059173E-2,-5.5612102E-2,7.4039206E-2,1.7889848E-2,-5.4711583E-3,-1.5288637E-3,3.468439E-3,5.871982E-2,-1.4340773E-3,-6.1906995E-3,7.6171905E-3,2.1836132E-2,1.9262172E-2,-2.2389935E-3,7.6436535E-2,2.1893978E-2,1.940499E-3,5.16066E-4,-1.8328921E-3,3.1481455E-3,6.351874E-4,6.8483315E-3,-2.240585E-3,6.644974E-3],"categories":[],"categories_nodes":[],"categories_segments":[],"categories_sizes":[],"default_left":[0,0,0,0,0,0,0,0,0,0,0,0,0,0,0,0,0,0,0,0,0,0,0,0,0,0,0,0,0,0,0,0,0],"id":38,"left_children":[1,3,5,7,-1,9,11,-1,13,15,17,19,-1,-1,-1,21,23,-1,-1,-1,25,27,-1,29,31,-1,-1,-1,-1,-1,-1,-1,-1],"loss_changes":[2.0234182E-1,4.3941677E-2,6.2493276E-2,5.04937E-4,0E0,2.7473696E-2,2.1562189E-2,0E0,3.1827018E-5,7.872026E-3,2.352599E-3,4.9662814E-3,0E0,0E0,0E0,3.2064077E-3,3.5459623E-3,0E0,0E0,0E0,3.1002564E-6,4.996131E-3,0E0,4.2815916E-3,1.6459864E-2,0E0,0E0,0E0,0E0,0E0,0E0,0E0,0E0],"parents":[2147483647,0,0,1,1,2,2,3,3,5,5,6,6,8,8,9,9,10,10,11,11,15,15,16,16,20,20,21,21,23,23,24,24],"right_children":[2,4,6,8,-1,10,12,-1,14,16,18,20,-1,-1,-1,22,24,-1,-1,-1,26,28,-1,30,32,-1,-1,-1,-1,-1,-1,-1,-1],"split_conditions":[5.8E0,8.5E0,1.13E1,3E0,-1.7159224E-2,1.28E1,2.1E1,-1.2276951E-3,1.9E1,6E0,1.8E1,4E0,1.7889848E-2,-5.4711583E-3,-1.5288637E-3,5E0,1.9E1,-1.4340773E-3,-6.1906995E-3,7.6171905E-3,7E0,1E0,-2.2389935E-3,2E0,2.5E1,1.940499E-3,5.16066E-4,-1.8328921E-3,3.1481455E-3,6.351874E-4,6.8483315E-3,-2.240585E-3,6.644974E-3],"split_indices":[3,2,3,2,0,2,0,0,0,0,0,2,0,0,0,0,1,0,0,0,0,0,0,1,1,0,0,0,0,0,0,0,0],"split_type":[0,0,0,0,0,0,0,0,0,0,0,0,0,0,0,0,0,0,0,0,0,0,0,0,0,0,0,0,0,0,0,0,0],"sum_hessian":[2.7E1,8E0,1.9E1,6E0,2E0,1.4E1,5E0,1E0,5E0,1.1E1,3E0,4E0,1E0,4E0,1E0,4E0,7E0,2E0,1E0,2E0,2E0,3E0,1E0,4E0,3E0,1E0,1E0,1E0,2E0,1E0,3E0,2E0,1E0],"tree_param":{"num_deleted":"0","num_feature":"4","num_nodes":"33","size_leaf_vector":"1"}},{"base_weights":[-2.0859923E-4,-1.410442E-1,4.461221E-2,-6.705178E-2,-1.6301263E-2,9.987696E-3,1.3527963E-1,-5.550339E-3,-1.4715315E-3,2.7370026E-2,-5.3347386E-2,7.0501015E-2,1.7218977E-2,-1.9587995E-3,3.846103E-2,-1.3623738E-3,-5.958548E-3,7.2363303E-3,2.1017283E-2,3.0235588E-3,5.580182E-2,1.8677306E-3,4.9671385E-4,1.3609744E-3,-2.1550315E-3,5.89569E-3,1.9796668E-3],"categories":[],"categories_nodes":[],"categories_segments":[],"categories_sizes":[],"default_left":[0,0,0,0,0,0,0,0,0,0,0,0,0,0,0,0,0,0,0,0,0,0,0,0,0,0,0],"id":39,"left_children":[1,3,5,7,-1,9,11,-1,-1,13,15,17,-1,-1,19,-1,-1,-1,21,23,25,-1,-1,-1,-1,-1,-1],"loss_changes":[1.8303852E-1,2.4948731E-2,6.7713805E-2,1.968909E-4,0E0,2.0175613E-2,2.0468295E-2,0E0,0E0,9.309697E-3,2.2298722E-3,4.400935E-3,0E0,0E0,7.2054435E-3,0E0,0E0,0E0,2.871966E-6,2.922704E-3,3.2905042E-3,0E0,0E0,0E0,0E0,0E0,0E0],"parents":[2147483647,0,0,1,1,2,2,3,3,5,5,6,6,9,9,10,10,11,11,14,14,18,18,19,19,20,20],"right_children":[2,4,6,8,-1,10,12,-1,-1,14,16,18,-1,-1,20,-1,-1,-1,22,24,26,-1,-1,-1,-1,-1,-1],"split_conditions":[4.1E0,8.5E0,1.13E1,1.9E1,-1.6301263E-2,1.28E1,2.1E1,-5.550339E-3,-1.4715315E-3,5.8E0,1.8E1,4E0,1.7218977E-2,-1.9587995E-3,6E0,-1.3623738E-3,-5.958548E-3,7.2363303E-3,7E0,5E0,1.4E1,1.8677306E-3,4.9671385E-4,1.3609744E-3,-2.1550315E-3,5.89569E-3,1.9796668E-3],"split_indices":[3,2,3,0,0,2,0,0,0,3,0,2,0,0,0,0,0,0,0,0,0,0,0,0,0,0,0],"split_type":[0,0,0,0,0,0,0,0,0,0,0,0,0,0,0,0,0,0,0,0,0,0,0,0,0,0,0],"sum_hessian":[2.7E1,6E0,2.1E1,4E0,2E0,1.6E1,5E0,3E0,1E0,1.3E1,3E0,4E0,1E0,2E0,1.1E1,2E0,1E0,2E0,2E0,4E0,7E0,1E0,1E0,3E0,1E0,3E0,4E0],"tree_param":{"num_deleted":"0","num_feature":"4","num_nodes":"27","size_leaf_vector":"1"}},{"base_weights":[-1.4658645E-4,-1.3379776E-1,4.238545E-2,-6.3427284E-2,-1.5486199E-2,9.109305E-3,1.2960362E-1,-5.238133E-3,-1.4163494E-3,2.5683174E-2,-5.1176563E-2,6.713359E-2,1.6573267E-2,-1.7130382E-2,3.8916904E-2,-1.2942553E-3,-5.7351016E-3,6.874514E-3,2.022914E-2,-2.3321891E-3,9.287261E-4,5.5142418E-2,8.417809E-3,1.7976903E-3,4.7808813E-4,6.7613395E-3,4.76103E-4,-2.2981805E-3,6.1747003E-3],"categories":[],"categories_nodes":[],"categories_segments":[],"categories_sizes":[],"default_left":[0,0,0,0,0,0,0,0,0,0,0,0,0,0,0,0,0,0,0,0,0,0,0,0,0,0,0,0,0],"id":40,"left_children":[1,3,5,7,-1,9,11,-1,-1,13,15,17,-1,19,21,-1,-1,-1,23,-1,-1,25,27,-1,-1,-1,-1,-1,-1],"loss_changes":[1.6483589E-1,2.2707462E-2,6.2669665E-2,1.0965392E-4,0E0,1.8300269E-2,1.9413568E-2,0E0,0E0,8.598825E-3,2.1119388E-3,3.8978253E-3,0E0,2.0337342E-3,4.97932E-3,0E0,0E0,0E0,2.6597409E-6,0E0,0E0,1.1385333E-2,1.695777E-2,0E0,0E0,0E0,0E0,0E0,0E0],"parents":[2147483647,0,0,1,1,2,2,3,3,5,5,6,6,9,9,10,10,11,11,13,13,14,14,18,18,21,21,22,22],"right_children":[2,4,6,8,-1,10,12,-1,-1,14,16,18,-1,20,22,-1,-1,-1,24,-1,-1,26,28,-1,-1,-1,-1,-1,-1],"split_conditions":[4.1E0,8.5E0,1.13E1,1.9E1,-1.5486199E-2,1.28E1,2.1E1,-5.238133E-3,-1.4163494E-3,4E0,1.8E1,4E0,1.6573267E-2,6.5E0,1.9E1,-1.2942553E-3,-5.7351016E-3,6.874514E-3,7E0,-2.3321891E-3,9.287261E-4,7.4E0,2.5E1,1.7976903E-3,4.7808813E-4,6.7613395E-3,4.76103E-4,-2.2981805E-3,6.1747003E-3],"split_indices":[3,2,3,0,0,2,0,0,0,0,0,2,0,2,1,0,0,0,0,0,0,3,1,0,0,0,0,0,0],"split_type":[0,0,0,0,0,0,0,0,0,0,0,0,0,0,0,0,0,0,0,0,0,0,0,0,0,0,0,0,0],"sum_hessian":[2.7E1,6E0,2.1E1,4E0,2E0,1.6E1,5E0,3E0,1E0,1.3E1,3E0,4E0,1E0,3E0,1E1,2E0,1E0,2E0,2E0,2E0,1E0,6E0,4E0,1E0,1E0,3E0,3E0,3E0,1E0],"tree_param":{"num_deleted":"0","num_feature":"4","num_nodes":"29","size_leaf_vector":"1"}},{"base_weights":[8.812081E-5,-1.2692589E-1,4.0497664E-2,-6.0001146E-2,-1.4711887E-2,8.583825E-3,1.24170594E-1,-4.943489E-3,-1.3632373E-3,2.4450548E-2,-4.909566E-2,6.392862E-2,1.5951768E-2,-1.6196463E-2,3.70085E-2,-1.2295425E-3,-5.5200355E-3,6.530786E-3,1.9470552E-2,-2.215579E-3,8.938987E-4,5.2040663E-2,8.561779E-3,1.7302774E-3,4.601598E-4,6.3810158E-3,4.4932144E-4,-2.168908E-3,5.94315E-3],"categories":[],"categories_nodes":[],"categories_segments":[],"categories_sizes":[],"default_left":[0,0,0,0,0,0,0,0,0,0,0,0,0,0,0,0,0,0,0,0,0,0,0,0,0,0,0,0,0],"id":41,"left_children":[1,3,5,7,-1,9,11,-1,-1,13,15,17,-1,19,21,-1,-1,-1,23,-1,-1,25,27,-1,-1,-1,-1,-1,-1],"loss_changes":[1.4885238E-1,2.066388E-2,5.768127E-2,3.8273633E-5,0E0,1.675855E-2,1.8398598E-2,0E0,0E0,7.7456133E-3,1.9988026E-3,3.450254E-3,0E0,1.8528277E-3,4.258211E-3,0E0,0E0,0E0,2.4641631E-6,0E0,0E0,1.0140518E-2,1.5537247E-2,0E0,0E0,0E0,0E0,0E0,0E0],"parents":[2147483647,0,0,1,1,2,2,3,3,5,5,6,6,9,9,10,10,11,11,13,13,14,14,18,18,21,21,22,22],"right_children":[2,4,6,8,-1,10,12,-1,-1,14,16,18,-1,20,22,-1,-1,-1,24,-1,-1,26,28,-1,-1,-1,-1,-1,-1],"split_conditions":[4.1E0,8.5E0,1.13E1,1.9E1,-1.4711887E-2,1.28E1,2.1E1,-4.943489E-3,-1.3632373E-3,4E0,1.8E1,4E0,1.5951768E-2,6.5E0,1.9E1,-1.2295425E-3,-5.5200355E-3,6.530786E-3,7E0,-2.215579E-3,8.938987E-4,7.4E0,2.5E1,1.7302774E-3,4.601598E-4,6.3810158E-3,4.4932144E-4,-2.168908E-3,5.94315E-3],"split_indices":[3,2,3,0,0,2,0,0,0,0,0,2,0,2,1,0,0,0,0,0,0,3,1,0,0,0,0,0,0],"split_type":[0,0,0,0,0,0,0,0,0,0,0,0,0,0,0,0,0,0,0,0,0,0,0,0,0,0,0,0,0],"sum_hessian":[2.7E1,6E0,2.1E1,4E0,2E0,1.6E1,5E0,3E0,1E0,1.3E1,3E0,4E0,1E0,3E0,1E1,2E0,1E0,2E0,2E0,2E0,1E0,6E0,4E0,1E0,1E0,3E0,3E0,3E0,1E0],"tree_param":{"num_deleted":"0","num_feature":"4","num_nodes":"29","size_leaf_vector":"1"}},{"base_weights":[3.0250807E-4,-1.2040908E-1,3.869699E-2,-4.2571807E-3,-1.3976289E-2,8.089054E-3,1.1896998E-1,2.3279818E-2,-4.710088E-2,6.087823E-2,1.5353577E-2,-6.4145452E-3,4.0489413E-2,-1.1680656E-3,-5.3130337E-3,6.2042475E-3,1.8740416E-2,-2.1048004E-3,1.1426184E-2,6.420646E-2,8.674486E-3,1.6653925E-3,4.4290425E-4,2.5485659E-3,-2.108921E-3,5.0242693E-4,5.768142E-3,-2.0469073E-3,5.72028E-3],"categories":[],"categories_nodes":[],"categories_segments":[],"categories_sizes":[],"default_left":[0,0,0,0,0,0,0,0,0,0,0,0,0,0,0,0,0,0,0,0,0,0,0,0,0,0,0,0,0],"id":42,"left_children":[1,3,5,-1,-1,7,9,11,13,15,-1,17,19,-1,-1,-1,21,-1,23,25,27,-1,-1,-1,-1,-1,-1,-1,-1],"loss_changes":[1.3442992E-1,1.8800959E-2,5.3091425E-2,0E0,0E0,1.5348912E-2,1.7423607E-2,7.4141123E-3,1.8904349E-3,3.0522477E-3,0E0,2.6381172E-3,6.234048E-3,0E0,0E0,0E0,2.2824388E-6,0E0,4.5232195E-3,3.1371135E-3,1.4237547E-2,0E0,0E0,0E0,0E0,0E0,0E0,0E0,0E0],"parents":[2147483647,0,0,1,1,2,2,5,5,6,6,7,7,8,8,9,9,11,11,12,12,16,16,18,18,19,19,20,20],"right_children":[2,4,6,-1,-1,8,10,12,14,16,-1,18,20,-1,-1,-1,22,-1,24,26,28,-1,-1,-1,-1,-1,-1,-1,-1],"split_conditions":[4.1E0,8.5E0,1.13E1,-4.2571807E-3,-1.3976289E-2,1.28E1,2.1E1,6E0,1.8E1,4E0,1.5353577E-2,6.5E0,1.9E1,-1.1680656E-3,-5.3130337E-3,6.2042475E-3,7E0,-2.1048004E-3,5E0,2E0,2.5E1,1.6653925E-3,4.4290425E-4,2.5485659E-3,-2.108921E-3,5.0242693E-4,5.768142E-3,-2.0469073E-3,5.72028E-3],"split_indices":[3,2,3,0,0,2,0,0,0,2,0,3,1,0,0,0,0,0,0,1,1,0,0,0,0,0,0,0,0],"split_type":[0,0,0,0,0,0,0,0,0,0,0,0,0,0,0,0,0,0,0,0,0,0,0,0,0,0,0,0,0],"sum_hessian":[2.7E1,6E0,2.1E1,4E0,2E0,1.6E1,5E0,1.3E1,3E0,4E0,1E0,5E0,8E0,2E0,1E0,2E0,2E0,2E0,3E0,4E0,4E0,1E0,1E0,2E0,1E0,1E0,3E0,3E0,1E0],"tree_param":{"num_deleted":"0","num_feature":"4","num_nodes":"29","size_leaf_vector":"1"}},{"base_weights":[5.380577E-4,-7.123768E-2,5.882222E-2,-8.597399E-4,-1.1511643E-1,3.0024007E-2,1.3771085E-1,-2.2796849E-3,5.5057704E-3,-7.430054E-2,-1.5031037E-2,5.853976E-3,7.810003E-3,1.4777819E-2,3.919207E-3,-1.6593155E-3,-6.805968E-3,-1.1829775E-2,2.9815737E-2,-2.5147232E-3,1.5784979E-3,5.0085606E-3,3.8792677E-3,6.065875E-4,-3.2799115E-4],"categories":[],"categories_nodes":[],"categories_segments":[],"categories_sizes":[],"default_left":[0,0,0,0,0,0,0,0,0,0,0,0,0,0,0,0,0,0,0,0,0,0,0,0,0],"id":43,"left_children":[1,3,5,7,9,11,13,-1,-1,15,-1,-1,17,-1,-1,-1,-1,19,21,-1,-1,-1,23,-1,-1],"loss_changes":[1.2132525E-1,4.0046275E-2,3.2215E-2,1.5393224E-2,1.2961052E-2,1.326032E-2,9.982586E-3,0E0,0E0,3.998846E-3,0E0,0E0,4.6745907E-3,0E0,0E0,0E0,0E0,4.986169E-3,4.534656E-3,0E0,0E0,0E0,1.7429431E-4,0E0,0E0],"parents":[2147483647,0,0,1,1,2,2,3,3,4,4,5,5,6,6,9,9,12,12,17,17,18,18,22,22],"right_children":[2,4,6,8,10,12,14,-1,-1,16,-1,-1,18,-1,-1,-1,-1,20,22,-1,-1,-1,24,-1,-1],"split_conditions":[6.7E0,6.5E0,2.1E1,2.2E1,2.5E1,4.6E0,2.2E1,-2.2796849E-3,5.5057704E-3,1.1E1,-1.5031037E-2,5.853976E-3,7.8E0,1.4777819E-2,3.919207E-3,-1.6593155E-3,-6.805968E-3,8.2E0,9E0,-2.5147232E-3,1.5784979E-3,5.0085606E-3,1.28E1,6.065875E-4,-3.2799115E-4],"split_indices":[3,2,0,1,0,2,0,0,0,1,0,0,2,0,0,0,0,3,0,0,0,0,2,0,0],"split_type":[0,0,0,0,0,0,0,0,0,0,0,0,0,0,0,0,0,0,0,0,0,0,0,0,0],"sum_hessian":[2.7E1,1.2E1,1.5E1,5E0,7E0,1.2E1,3E0,4E0,1E0,6E0,1E0,3E0,9E0,1E0,2E0,2E0,4E0,5E0,4E0,3E0,2E0,1E0,3E0,2E0,1E0],"tree_param":{"num_deleted":"0","num_feature":"4","num_nodes":"25","size_leaf_vector":"1"}},{"base_weights":[8.059772E-4,-1.08356304E-1,3.5502795E-2,-4.984646E-2,-1.27315475E-2,7.3989946E-3,1.092131E-1,-4.1279825E-3,-1.0902465E-3,2.1267427E-2,-4.2990267E-2,5.5196244E-2,1.4223652E-2,-6.2707067E-3,3.7263136E-2,-1.4133056E-2,-4.8585716E-3,4.972874E-3,4.035473E-4,-1.8855751E-3,9.449691E-3,5.7954393E-2,9.119248E-3,-1.2742773E-3,-3.1569155E-4,2.2353255E-3,-1.9355346E-3,4.6083928E-4,5.202805E-3,-1.794722E-3,5.299303E-3],"categories":[],"categories_nodes":[],"categories_segments":[],"categories_sizes":[],"default_left":[0,0,0,0,0,0,0,0,0,0,0,0,0,0,0,0,0,0,0,0,0,0,0,0,0,0,0,0,0,0,0],"id":44,"left_children":[1,3,5,7,-1,9,11,-1,-1,13,15,17,-1,19,21,23,-1,-1,-1,-1,25,27,29,-1,-1,-1,-1,-1,-1,-1,-1],"loss_changes":[1.098993E-1,1.6684934E-2,4.4765808E-2,1.1678226E-4,0E0,1.2794234E-2,1.5601367E-2,0E0,0E0,6.4005535E-3,1.5997207E-3,2.4101818E-3,0E0,2.0174657E-3,4.712493E-3,1.3550161E-5,0E0,0E0,0E0,0E0,3.6397248E-3,2.531143E-3,1.1859632E-2,0E0,0E0,0E0,0E0,0E0,0E0,0E0,0E0],"parents":[2147483647,0,0,1,1,2,2,3,3,5,5,6,6,9,9,10,10,11,11,13,13,14,14,15,15,20,20,21,21,22,22],"right_children":[2,4,6,8,-1,10,12,-1,-1,14,16,18,-1,20,22,24,-1,-1,-1,-1,26,28,30,-1,-1,-1,-1,-1,-1,-1,-1],"split_conditions":[4.1E0,8.5E0,1.13E1,1.9E1,-1.27315475E-2,1.28E1,2.1E1,-4.1279825E-3,-1.0902465E-3,6E0,1.8E1,2E1,1.4223652E-2,6.5E0,1.9E1,3E0,-4.8585716E-3,4.972874E-3,4.035473E-4,-1.8855751E-3,5E0,2E0,2.5E1,-1.2742773E-3,-3.1569155E-4,2.2353255E-3,-1.9355346E-3,4.6083928E-4,5.202805E-3,-1.794722E-3,5.299303E-3],"split_indices":[3,2,3,0,0,2,0,0,0,0,0,0,0,3,1,0,0,0,0,0,0,1,1,0,0,0,0,0,0,0,0],"split_type":[0,0,0,0,0,0,0,0,0,0,0,0,0,0,0,0,0,0,0,0,0,0,0,0,0,0,0,0,0,0,0],"sum_hessian":[2.7E1,6E0,2.1E1,4E0,2E0,1.6E1,5E0,3E0,1E0,1.3E1,3E0,4E0,1E0,5E0,8E0,2E0,1E0,3E0,1E0,2E0,3E0,4E0,4E0,1E0,1E0,2E0,1E0,1E0,3E0,3E0,1E0],"tree_param":{"num_deleted":"0","num_feature":"4","num_nodes":"31","size_leaf_vector":"1"}},{"base_weights":[8.4496255E-4,-1.02793835E-1,3.3782538E-2,-5.7748646E-2,-1.39899375E-2,6.910762E-3,1.0428881E-1,-5.1742126E-3,-1.7633468E-3,2.0213963E-2,-4.1378137E-2,5.213184E-2,1.3690264E-2,-6.0647004E-3,3.5487078E-2,-1.3603066E-2,-4.6763755E-3,5.352694E-3,1.1637859E-3,-1.791296E-3,8.815907E-3,5.4740526E-2,9.136216E-3,-1.2264921E-3,-3.0385295E-4,2.1235587E-3,-1.8629518E-3,4.4355693E-4,4.910146E-3,-1.6937688E-3,5.100578E-3],"categories":[],"categories_nodes":[],"categories_segments":[],"categories_sizes":[],"default_left":[0,0,0,0,0,0,0,0,0,0,0,0,0,0,0,0,0,0,0,0,0,0,0,0,0,0,0,0,0,0,0],"id":45,"left_children":[1,3,5,7,-1,9,11,-1,-1,13,15,17,-1,19,21,23,-1,-1,-1,-1,25,27,29,-1,-1,-1,-1,-1,-1,-1,-1],"loss_changes":[9.905374E-2,1.5632167E-2,4.0961117E-2,6.871093E-4,0E0,1.1757166E-2,1.49711E-2,0E0,0E0,5.8342167E-3,1.4819922E-3,2.4144128E-3,0E0,1.8015258E-3,4.065981E-3,1.2553064E-5,0E0,0E0,0E0,0E0,3.3281737E-3,2.2318847E-3,1.08728185E-2,0E0,0E0,0E0,0E0,0E0,0E0,0E0,0E0],"parents":[2147483647,0,0,1,1,2,2,3,3,5,5,6,6,9,9,10,10,11,11,13,13,14,14,15,15,20,20,21,21,22,22],"right_children":[2,4,6,8,-1,10,12,-1,-1,14,16,18,-1,20,22,24,-1,-1,-1,-1,26,28,30,-1,-1,-1,-1,-1,-1,-1,-1],"split_conditions":[4.1E0,2.5E1,1.13E1,1.6E1,-1.39899375E-2,1.28E1,2.1E1,-5.1742126E-3,-1.7633468E-3,6E0,1.8E1,4E0,1.3690264E-2,6.5E0,1.9E1,3E0,-4.6763755E-3,5.352694E-3,1.1637859E-3,-1.791296E-3,5E0,2E0,2.5E1,-1.2264921E-3,-3.0385295E-4,2.1235587E-3,-1.8629518E-3,4.4355693E-4,4.910146E-3,-1.6937688E-3,5.100578E-3],"split_indices":[3,0,3,0,0,2,0,0,0,0,0,2,0,3,1,0,0,0,0,0,0,1,1,0,0,0,0,0,0,0,0],"split_type":[0,0,0,0,0,0,0,0,0,0,0,0,0,0,0,0,0,0,0,0,0,0,0,0,0,0,0,0,0,0,0],"sum_hessian":[2.7E1,6E0,2.1E1,5E0,1E0,1.6E1,5E0,3E0,2E0,1.3E1,3E0,4E0,1E0,5E0,8E0,2E0,1E0,2E0,2E0,2E0,3E0,4E0,4E0,1E0,1E0,2E0,1E0,1E0,3E0,3E0,1E0],"tree_param":{"num_deleted":"0","num_feature":"4","num_nodes":"31","size_leaf_vector":"1"}},{"base_weights":[7.923816E-4,-9.807395E-2,3.2213833E-2,-5.4573763E-2,-1.3465316E-2,6.4526317E-3,9.9834934E-2,-4.518344E-3,-9.832375E-4,1.9214325E-2,-3.9826453E-2,4.952523E-2,1.317688E-2,-5.864958E-3,3.379892E-2,-1.3092955E-2,-4.5010108E-3,5.085057E-3,1.4741291E-2,-1.7017309E-3,8.219872E-3,5.1705707E-2,9.132353E-3,-1.1804989E-3,-2.9245857E-4,1.313622E-3,3.447734E-4,2.0173811E-3,-1.7930908E-3,4.2692275E-4,4.6339487E-3,-1.5984947E-3,4.9093054E-3],"categories":[],"categories_nodes":[],"categories_segments":[],"categories_sizes":[],"default_left":[0,0,0,0,0,0,0,0,0,0,0,0,0,0,0,0,0,0,0,0,0,0,0,0,0,0,0,0,0,0,0,0,0],"id":46,"left_children":[1,3,5,7,-1,9,11,-1,-1,13,15,17,-1,19,21,23,-1,-1,25,-1,27,29,31,-1,-1,-1,-1,-1,-1,-1,-1,-1,-1],"loss_changes":[9.0142004E-2,1.5007727E-2,3.767982E-2,6.210115E-4,0E0,1.080543E-2,1.4196821E-2,0E0,0E0,5.3190263E-3,1.372925E-3,2.1790043E-3,0E0,1.6083523E-3,3.5030954E-3,1.162925E-5,0E0,0E0,3.8949656E-6,0E0,3.043482E-3,1.9674348E-3,9.969364E-3,0E0,0E0,0E0,0E0,0E0,0E0,0E0,0E0,0E0,0E0],"parents":[2147483647,0,0,1,1,2,2,3,3,5,5,6,6,9,9,10,10,11,11,13,13,14,14,15,15,18,18,20,20,21,21,22,22],"right_children":[2,4,6,8,-1,10,12,-1,-1,14,16,18,-1,20,22,24,-1,-1,26,-1,28,30,32,-1,-1,-1,-1,-1,-1,-1,-1,-1,-1],"split_conditions":[4.1E0,2.5E1,1.13E1,1.9E1,-1.3465316E-2,1.28E1,2.1E1,-4.518344E-3,-9.832375E-4,6E0,1.8E1,4E0,1.317688E-2,6.5E0,1.9E1,3E0,-4.5010108E-3,5.085057E-3,7E0,-1.7017309E-3,5E0,2E0,2.5E1,-1.1804989E-3,-2.9245857E-4,1.313622E-3,3.447734E-4,2.0173811E-3,-1.7930908E-3,4.2692275E-4,4.6339487E-3,-1.5984947E-3,4.9093054E-3],"split_indices":[3,0,3,0,0,2,0,0,0,0,0,2,0,3,1,0,0,0,0,0,0,1,1,0,0,0,0,0,0,0,0,0,0],"split_type":[0,0,0,0,0,0,0,0,0,0,0,0,0,0,0,0,0,0,0,0,0,0,0,0,0,0,0,0,0,0,0,0,0],"sum_hessian":[2.7E1,6E0,2.1E1,5E0,1E0,1.6E1,5E0,4E0,1E0,1.3E1,3E0,4E0,1E0,5E0,8E0,2E0,1E0,2E0,2E0,2E0,3E0,4E0,4E0,1E0,1E0,1E0,1E0,2E0,1E0,1E0,3E0,3E0,1E0],"tree_param":{"num_deleted":"0","num_feature":"4","num_nodes":"33","size_leaf_vector":"1"}},{"base_weights":[7.9986313E-4,-9.342796E-2,3.0745087E-2,-5.139768E-2,-1.2960363E-2,6.0228137E-3,9.566735E-2,-4.629009E-3,-1.5376405E-3,1.8265693E-2,-3.8332965E-2,4.715951E-2,1.2682745E-2,-5.67133E-3,3.2194186E-2,-1.2601967E-2,-4.332224E-3,4.830802E-3,1.4188498E-2,-1.616645E-3,7.659454E-3,4.8839938E-2,9.109597E-3,-1.1362302E-3,-2.8149114E-4,1.264361E-3,3.3184513E-4,1.9165121E-3,-1.7258502E-3,4.109122E-4,4.3732882E-3,-1.508579E-3,4.7252076E-3],"categories":[],"categories_nodes":[],"categories_segments":[],"categories_sizes":[],"default_left":[0,0,0,0,0,0,0,0,0,0,0,0,0,0,0,0,0,0,0,0,0,0,0,0,0,0,0,0,0,0,0,0,0],"id":47,"left_children":[1,3,5,7,-1,9,11,-1,-1,13,15,17,-1,19,21,23,-1,-1,25,-1,27,29,31,-1,-1,-1,-1,-1,-1,-1,-1,-1,-1],"loss_changes":[8.187931E-2,1.4471855E-2,3.473438E-2,6.4814277E-4,0E0,9.931899E-3,1.3398483E-2,0E0,0E0,4.850277E-3,1.2718877E-3,1.9300524E-3,0E0,1.4355733E-3,3.013431E-3,1.0773481E-5,0E0,0E0,3.6078854E-6,0E0,2.7833174E-3,1.7337995E-3,9.142128E-3,0E0,0E0,0E0,0E0,0E0,0E0,0E0,0E0,0E0,0E0],"parents":[2147483647,0,0,1,1,2,2,3,3,5,5,6,6,9,9,10,10,11,11,13,13,14,14,15,15,18,18,20,20,21,21,22,22],"right_children":[2,4,6,8,-1,10,12,-1,-1,14,16,18,-1,20,22,24,-1,-1,26,-1,28,30,32,-1,-1,-1,-1,-1,-1,-1,-1,-1,-1],"split_conditions":[4.1E0,2.5E1,1.13E1,1.6E1,-1.2960363E-2,1.28E1,2.1E1,-4.629009E-3,-1.5376405E-3,6E0,1.8E1,4E0,1.2682745E-2,6.5E0,1.9E1,3E0,-4.332224E-3,4.830802E-3,7E0,-1.616645E-3,5E0,2E0,2.5E1,-1.1362302E-3,-2.8149114E-4,1.264361E-3,3.3184513E-4,1.9165121E-3,-1.7258502E-3,4.109122E-4,4.3732882E-3,-1.508579E-3,4.7252076E-3],"split_indices":[3,0,3,0,0,2,0,0,0,0,0,2,0,3,1,0,0,0,0,0,0,1,1,0,0,0,0,0,0,0,0,0,0],"split_type":[0,0,0,0,0,0,0,0,0,0,0,0,0,0,0,0,0,0,0,0,0,0,0,0,0,0,0,0,0,0,0,0,0],"sum_hessian":[2.7E1,6E0,2.1E1,5E0,1E0,1.6E1,5E0,3E0,2E0,1.3E1,3E0,4E0,1E0,5E0,8E0,2E0,1E0,2E0,2E0,2E0,3E0,4E0,4E0,1E0,1E0,1E0,1E0,2E0,1E0,1E0,3E0,3E0,1E0],"tree_param":{"num_deleted":"0","num_feature":"4","num_nodes":"33","size_leaf_vector":"1"}},{"base_weights":[7.687107E-4,-8.9153305E-2,2.934532E-2,-4.857065E-2,-1.2474347E-2,5.6196246E-3,9.167724E-2,-4.3686293E-3,-1.4607594E-3,1.7365392E-2,-3.6895473E-2,4.490794E-2,1.220714E-2,-5.483642E-3,3.0668596E-2,-1.2129392E-2,-4.1697645E-3,4.5892596E-3,1.3656437E-2,-1.5358124E-3,7.1326606E-3,4.6133768E-2,9.0697035E-3,-1.0936216E-3,-2.7093498E-4,1.2169473E-3,3.1940194E-4,1.8206865E-3,-1.6611307E-3,3.9550292E-4,4.1272896E-3,-1.4237212E-3,4.548012E-3],"categories":[],"categories_nodes":[],"categories_segments":[],"categories_sizes":[],"default_left":[0,0,0,0,0,0,0,0,0,0,0,0,0,0,0,0,0,0,0,0,0,0,0,0,0,0,0,0,0,0,0,0,0],"id":48,"left_children":[1,3,5,7,-1,9,11,-1,-1,13,15,17,-1,19,21,23,-1,-1,25,-1,27,29,31,-1,-1,-1,-1,-1,-1,-1,-1,-1,-1],"loss_changes":[7.456689E-2,1.3844214E-2,3.2019906E-2,5.5488385E-4,0E0,9.130037E-3,1.263817E-2,0E0,0E0,4.4236905E-3,1.1782842E-3,1.7085755E-3,0E0,1.2810613E-3,2.5878558E-3,9.98078E-6,0E0,0E0,3.3418764E-6,0E0,2.545551E-3,1.5274277E-3,8.38457E-3,0E0,0E0,0E0,0E0,0E0,0E0,0E0,0E0,0E0,0E0],"parents":[2147483647,0,0,1,1,2,2,3,3,5,5,6,6,9,9,10,10,11,11,13,13,14,14,15,15,18,18,20,20,21,21,22,22],"right_children":[2,4,6,8,-1,10,12,-1,-1,14,16,18,-1,20,22,24,-1,-1,26,-1,28,30,32,-1,-1,-1,-1,-1,-1,-1,-1,-1,-1],"split_conditions":[4.1E0,2.5E1,1.13E1,1.6E1,-1.2474347E-2,1.28E1,2.1E1,-4.3686293E-3,-1.4607594E-3,6E0,1.8E1,4E0,1.220714E-2,6.5E0,1.9E1,3E0,-4.1697645E-3,4.5892596E-3,7E0,-1.5358124E-3,5E0,2E0,2.5E1,-1.0936216E-3,-2.7093498E-4,1.2169473E-3,3.1940194E-4,1.8206865E-3,-1.6611307E-3,3.9550292E-4,4.1272896E-3,-1.4237212E-3,4.548012E-3],"split_indices":[3,0,3,0,0,2,0,0,0,0,0,2,0,3,1,0,0,0,0,0,0,1,1,0,0,0,0,0,0,0,0,0,0],"split_type":[0,0,0,0,0,0,0,0,0,0,0,0,0,0,0,0,0,0,0,0,0,0,0,0,0,0,0,0,0,0,0,0,0],"sum_hessian":[2.7E1,6E0,2.1E1,5E0,1E0,1.6E1,5E0,3E0,2E0,1.3E1,3E0,4E0,1E0,5E0,8E0,2E0,1E0,2E0,2E0,2E0,3E0,4E0,4E0,1E0,1E0,1E0,1E0,2E0,1E0,1E0,3E0,3E0,1E0],"tree_param":{"num_deleted":"0","num_feature":"4","num_nodes":"33","size_leaf_vector":"1"}},{"base_weights":[7.383883E-4,-8.508166E-2,2.8011205E-2,-4.589945E-2,-1.200656E-2,5.2414844E-3,8.785688E-2,-4.122896E-3,-1.3877229E-3,1.6510915E-2,-3.5511892E-2,4.276494E-2,1.1749373E-2,-5.3017386E-3,2.9218137E-2,-1.1674538E-2,-4.0133987E-3,4.359794E-3,1.3144314E-2,-1.4590211E-3,6.637603E-3,4.3578316E-2,9.014333E-3,-1.0526106E-3,-2.6077498E-4,1.1713118E-3,3.0742364E-4,1.7296523E-3,-1.598838E-3,4.3804855E-3,1.0668039E-3,-1.343637E-3,4.3774615E-3],"categories":[],"categories_nodes":[],"categories_segments":[],"categories_sizes":[],"default_left":[0,0,0,0,0,0,0,0,0,0,0,0,0,0,0,0,0,0,0,0,0,0,0,0,0,0,0,0,0,0,0,0,0],"id":49,"left_children":[1,3,5,7,-1,9,11,-1,-1,13,15,17,-1,19,21,23,-1,-1,25,-1,27,29,31,-1,-1,-1,-1,-1,-1,-1,-1,-1,-1],"loss_changes":[6.791877E-2,1.3224326E-2,2.9518224E-2,4.7418382E-4,0E0,8.393879E-3,1.1914849E-2,0E0,0E0,4.035403E-3,1.0915701E-3,1.5116129E-3,0E0,1.1429099E-3,2.2183429E-3,9.2462E-6,0E0,0E0,3.09624E-6,0E0,2.3282412E-3,1.3455711E-3,7.6907356E-3,0E0,0E0,0E0,0E0,0E0,0E0,0E0,0E0,0E0,0E0],"parents":[2147483647,0,0,1,1,2,2,3,3,5,5,6,6,9,9,10,10,11,11,13,13,14,14,15,15,18,18,20,20,21,21,22,22],"right_children":[2,4,6,8,-1,10,12,-1,-1,14,16,18,-1,20,22,24,-1,-1,26,-1,28,30,32,-1,-1,-1,-1,-1,-1,-1,-1,-1,-1],"split_conditions":[4.1E0,2.5E1,1.13E1,1.6E1,-1.200656E-2,1.28E1,2.1E1,-4.122896E-3,-1.3877229E-3,6E0,1.8E1,4E0,1.1749373E-2,6.5E0,1.9E1,3E0,-4.0133987E-3,4.359794E-3,7E0,-1.4590211E-3,5E0,7.4E0,2.5E1,-1.0526106E-3,-2.6077498E-4,1.1713118E-3,3.0742364E-4,1.7296523E-3,-1.598838E-3,4.3804855E-3,1.0668039E-3,-1.343637E-3,4.3774615E-3],"split_indices":[3,0,3,0,0,2,0,0,0,0,0,2,0,3,1,0,0,0,0,0,0,3,1,0,0,0,0,0,0,0,0,0,0],"split_type":[0,0,0,0,0,0,0,0,0,0,0,0,0,0,0,0,0,0,0,0,0,0,0,0,0,0,0,0,0,0,0,0,0],"sum_hessian":[2.7E1,6E0,2.1E1,5E0,1E0,1.6E1,5E0,3E0,2E0,1.3E1,3E0,4E0,1E0,5E0,8E0,2E0,1E0,2E0,2E0,2E0,3E0,4E0,4E0,1E0,1E0,1E0,1E0,2E0,1E0,2E0,2E0,3E0,1E0],"tree_param":{"num_deleted":"0","num_feature":"4","num_nodes":"33","size_leaf_vector":"1"}},{"base_weights":[7.507514E-4,-8.1202984E-2,2.6792815E-2,-4.3375414E-2,-1.1556316E-2,4.9557933E-3,8.419891E-2,-3.8909812E-3,-1.318337E-3,1.5783519E-2,-3.418019E-2,4.072525E-2,1.1308771E-2,8.354956E-3,4.2133057E-3,-1.1236742E-2,-3.8628953E-3,4.1418015E-3,1.2651394E-2,-1.0388273E-2,2.1368008E-2,-1.0131374E-3,-2.509961E-4,1.1273873E-3,2.958946E-4,3.351613E-4,-2.0051228E-3,-8.5159024E-4,2.562596E-3],"categories":[],"categories_nodes":[],"categories_segments":[],"categories_sizes":[],"default_left":[0,0,0,0,0,0,0,0,0,0,0,0,0,0,0,0,0,0,0,0,0,0,0,0,0,0,0,0,0],"id":50,"left_children":[1,3,5,7,-1,9,11,-1,-1,13,15,17,-1,19,-1,21,-1,-1,23,25,27,-1,-1,-1,-1,-1,-1,-1,-1],"loss_changes":[6.19345E-2,1.2614969E-2,2.7161445E-2,4.0441472E-4,0E0,7.7432957E-3,1.1227384E-2,0E0,0E0,3.7315986E-3,1.0112366E-3,1.3365215E-3,0E0,3.3927627E-3,0E0,8.565607E-6,0E0,0E0,2.8686773E-6,1.5766596E-3,3.7387335E-3,0E0,0E0,0E0,0E0,0E0,0E0,0E0,0E0],"parents":[2147483647,0,0,1,1,2,2,3,3,5,5,6,6,9,9,10,10,11,11,13,13,15,15,18,18,19,19,20,20],"right_children":[2,4,6,8,-1,10,12,-1,-1,14,16,18,-1,20,-1,22,-1,-1,24,26,28,-1,-1,-1,-1,-1,-1,-1,-1],"split_conditions":[4.1E0,2.5E1,1.13E1,1.6E1,-1.1556316E-2,1.28E1,2.1E1,-3.8909812E-3,-1.318337E-3,2.5E1,1.8E1,4E0,1.1308771E-2,6.8E0,4.2133057E-3,3E0,-3.8628953E-3,4.1418015E-3,7E0,4.6E0,6E0,-1.0131374E-3,-2.509961E-4,1.1273873E-3,2.958946E-4,3.351613E-4,-2.0051228E-3,-8.5159024E-4,2.562596E-3],"split_indices":[3,0,3,0,0,2,0,0,0,1,0,2,0,3,0,0,0,0,0,2,0,0,0,0,0,0,0,0,0],"split_type":[0,0,0,0,0,0,0,0,0,0,0,0,0,0,0,0,0,0,0,0,0,0,0,0,0,0,0,0,0],"sum_hessian":[2.7E1,6E0,2.1E1,5E0,1E0,1.6E1,5E0,3E0,2E0,1.3E1,3E0,4E0,1E0,1.2E1,1E0,2E0,1E0,2E0,2E0,5E0,7E0,1E0,1E0,1E0,1E0,3E0,2E0,2E0,5E0],"tree_param":{"num_deleted":"0","num_feature":"4","num_nodes":"29","size_leaf_vector":"1"}},{"base_weights":[6.6714716E-4,-7.750784E-2,2.551068E-2,-4.099047E-2,-1.1122951E-2,4.532777E-3,8.069629E-2,-4.054028E-3,-1.5709073E-3,1.4903638E-2,-3.289843E-2,3.878387E-2,1.0884691E-2,7.731496E-3,4.055306E-3,-1.0815367E-2,-3.7180358E-3,3.4935887E-3,2.847992E-4,1.690318E-2,-1.713059E-2,-9.751451E-4,-2.4158378E-4,-3.4643637E-4,2.9512006E-3,-4.0706352E-4,-1.958993E-3],"categories":[],"categories_nodes":[],"categories_segments":[],"categories_sizes":[],"default_left":[0,0,0,0,0,0,0,0,0,0,0,0,0,0,0,0,0,0,0,0,0,0,0,0,0,0,0],"id":51,"left_children":[1,3,5,7,-1,9,11,-1,-1,13,15,17,-1,19,-1,21,-1,-1,-1,23,25,-1,-1,-1,-1,-1,-1],"loss_changes":[5.6357276E-2,1.2018409E-2,2.5103148E-2,4.389407E-4,0E0,7.089602E-3,1.0574564E-2,0E0,0E0,3.5147208E-3,9.368146E-4,1.1871206E-3,0E0,3.253915E-3,0E0,7.935247E-6,0E0,0E0,0E0,5.0126985E-3,2.7904438E-4,0E0,0E0,0E0,0E0,0E0,0E0],"parents":[2147483647,0,0,1,1,2,2,3,3,5,5,6,6,9,9,10,10,11,11,13,13,15,15,19,19,20,20],"right_children":[2,4,6,8,-1,10,12,-1,-1,14,16,18,-1,20,-1,22,-1,-1,-1,24,26,-1,-1,-1,-1,-1,-1],"split_conditions":[4.1E0,2.5E1,1.13E1,1.3E1,-1.1122951E-2,1.28E1,2.1E1,-4.054028E-3,-1.5709073E-3,2.5E1,1.8E1,2E1,1.0884691E-2,1.9E1,4.055306E-3,3E0,-3.7180358E-3,3.4935887E-3,2.847992E-4,6E0,1.2E1,-9.751451E-4,-2.4158378E-4,-3.4643637E-4,2.9512006E-3,-4.0706352E-4,-1.958993E-3],"split_indices":[3,0,3,0,0,2,0,0,0,1,0,0,0,1,0,0,0,0,0,0,0,0,0,0,0,0,0],"split_type":[0,0,0,0,0,0,0,0,0,0,0,0,0,0,0,0,0,0,0,0,0,0,0,0,0,0,0],"sum_hessian":[2.7E1,6E0,2.1E1,5E0,1E0,1.6E1,5E0,2E0,3E0,1.3E1,3E0,4E0,1E0,1.2E1,1E0,2E0,1E0,3E0,1E0,9E0,3E0,1E0,1E0,5E0,4E0,2E0,1E0],"tree_param":{"num_deleted":"0","num_feature":"4","num_nodes":"27","size_leaf_vector":"1"}},{"base_weights":[5.1976944E-4,-7.4087314E-2,2.423476E-2,-3.8853686E-2,-1.0705841E-2,4.155122E-3,7.7087946E-2,-3.851326E-3,-1.4825453E-3,1.4092575E-2,-3.1664744E-2,3.663078E-2,1.0476517E-2,7.1699913E-3,3.9032311E-3,-1.0409792E-2,-3.57861E-3,3.760034E-3,8.188136E-4,1.5895912E-2,-1.6437307E-2,-9.3857705E-4,-2.3252462E-4,-3.247846E-4,2.7741285E-3,-3.867102E-4,-1.885531E-3],"categories":[],"categories_nodes":[],"categories_segments":[],"categories_sizes":[],"default_left":[0,0,0,0,0,0,0,0,0,0,0,0,0,0,0,0,0,0,0,0,0,0,0,0,0,0,0],"id":52,"left_children":[1,3,5,7,-1,9,11,-1,-1,13,15,17,-1,19,-1,21,-1,-1,-1,23,25,-1,-1,-1,-1,-1,-1],"loss_changes":[5.133606E-2,1.1387154E-2,2.3027694E-2,4.161056E-4,0E0,6.497528E-3,1.0078609E-2,0E0,0E0,3.3048696E-3,8.678711E-4,1.1886954E-3,0E0,2.939226E-3,0E0,7.351162E-6,0E0,0E0,0E0,4.426418E-3,2.6309746E-4,0E0,0E0,0E0,0E0,0E0,0E0],"parents":[2147483647,0,0,1,1,2,2,3,3,5,5,6,6,9,9,10,10,11,11,13,13,15,15,19,19,20,20],"right_children":[2,4,6,8,-1,10,12,-1,-1,14,16,18,-1,20,-1,22,-1,-1,-1,24,26,-1,-1,-1,-1,-1,-1],"split_conditions":[4.1E0,2.5E1,1.13E1,1.3E1,-1.0705841E-2,1.28E1,2.1E1,-3.851326E-3,-1.4825453E-3,2.5E1,1.8E1,4E0,1.0476517E-2,1.9E1,3.9032311E-3,3E0,-3.57861E-3,3.760034E-3,8.188136E-4,6E0,1.2E1,-9.3857705E-4,-2.3252462E-4,-3.247846E-4,2.7741285E-3,-3.867102E-4,-1.885531E-3],"split_indices":[3,0,3,0,0,2,0,0,0,1,0,2,0,1,0,0,0,0,0,0,0,0,0,0,0,0,0],"split_type":[0,0,0,0,0,0,0,0,0,0,0,0,0,0,0,0,0,0,0,0,0,0,0,0,0,0,0],"sum_hessian":[2.7E1,6E0,2.1E1,5E0,1E0,1.6E1,5E0,2E0,3E0,1.3E1,3E0,4E0,1E0,1.2E1,1E0,2E0,1E0,2E0,2E0,9E0,3E0,1E0,1E0,5E0,4E0,2E0,1E0],"tree_param":{"num_deleted":"0","num_feature":"4","num_nodes":"27","size_leaf_vector":"1"}},{"base_weights":[4.2174142E-4,-4.4221558E-2,3.6668066E-2,-2.5008095E-2,-1.0304368E-2,2.0940563E-2,9.784039E-2,2.9748717E-2,-3.8934328E-2,2.8776778E-2,-1.7384492E-2,9.233952E-4,1.0083649E-2,-4.101299E-4,3.7568607E-3,-1.5063819E-3,-5.376655E-2,3.822243E-2,3.2987073E-4,-1.4093195E-4,-1.8148235E-3,-4.466274E-3,-1.1486807E-3,7.017903E-3,5.265504E-2,2.429207E-3,-2.2380521E-4,1.6896413E-3,-1.4817764E-3,4.391461E-3,8.6873176E-4,2.987087E-5,2.4341495E-4],"categories":[],"categories_nodes":[],"categories_segments":[],"categories_sizes":[],"default_left":[0,0,0,0,0,0,0,0,0,0,0,0,0,0,0,0,0,0,0,0,0,0,0,0,0,0,0,0,0,0,0,0,0],"id":53,"left_children":[1,3,5,7,-1,9,11,13,15,17,19,-1,-1,-1,-1,-1,21,23,25,-1,-1,-1,-1,27,29,31,-1,-1,-1,-1,-1,-1,-1],"loss_changes":[4.6929874E-2,1.983564E-2,1.3344575E-2,1.0308921E-2,0E0,4.7047986E-3,7.737819E-3,2.4231598E-3,1.7158529E-3,3.211786E-3,2.7145242E-4,0E0,0E0,0E0,0E0,0E0,1.9989535E-4,3.6837365E-3,3.507722E-5,0E0,0E0,0E0,0E0,2.1062822E-3,7.7517703E-4,3.6810725E-6,0E0,0E0,0E0,0E0,0E0,0E0,0E0],"parents":[2147483647,0,0,1,1,2,2,3,3,5,5,6,6,7,7,8,8,9,9,10,10,16,16,17,17,18,18,23,23,24,24,25,25],"right_children":[2,4,6,8,-1,10,12,14,16,18,20,-1,-1,-1,-1,-1,22,24,26,-1,-1,-1,-1,28,30,32,-1,-1,-1,-1,-1,-1,-1],"split_conditions":[6.7E0,2.5E1,1.38E1,3.5E0,-1.0304368E-2,1.9E1,7E0,1.1E1,1.2E1,8.7E0,1.2E1,9.233952E-4,1.0083649E-2,-4.101299E-4,3.7568607E-3,-1.5063819E-3,2.4E1,6E0,1.28E1,-1.4093195E-4,-1.8148235E-3,-4.466274E-3,-1.1486807E-3,5E0,2.4E1,1.7E1,-2.2380521E-4,1.6896413E-3,-1.4817764E-3,4.391461E-3,8.6873176E-4,2.987087E-5,2.4341495E-4],"split_indices":[3,0,3,2,0,1,0,0,1,2,0,0,0,0,0,0,1,0,2,0,0,0,0,0,0,0,0,0,0,0,0,0,0],"split_type":[0,0,0,0,0,0,0,0,0,0,0,0,0,0,0,0,0,0,0,0,0,0,0,0,0,0,0,0,0,0,0,0,0],"sum_hessian":[2.7E1,1.2E1,1.5E1,1.1E1,1E0,1.3E1,2E0,2E0,9E0,1.1E1,2E0,1E0,1E0,1E0,1E0,5E0,4E0,8E0,3E0,1E0,1E0,3E0,1E0,3E0,5E0,2E0,1E0,2E0,1E0,4E0,1E0,1E0,1E0],"tree_param":{"num_deleted":"0","num_feature":"4","num_nodes":"33","size_leaf_vector":"1"}},{"base_weights":[4.0761594E-4,-6.747948E-2,2.1989526E-2,-3.4646273E-2,-9.917951E-3,3.5829002E-3,7.047671E-2,-2.8935815E-3,-5.614579E-4,1.2615864E-2,-2.8928198E-2,3.280933E-2,9.705511E-3,6.1689247E-3,3.6159777E-3,-9.442697E-3,-3.2769265E-3,3.3524632E-3,9.982705E-3,1.409204E-2,-1.5181094E-2,-8.468908E-4,-2.1541269E-4,8.887679E-4,2.3428649E-4,-2.9054435E-4,2.4624593E-3,-3.5359774E-4,-1.7467675E-3],"categories":[],"categories_nodes":[],"categories_segments":[],"categories_sizes":[],"default_left":[0,0,0,0,0,0,0,0,0,0,0,0,0,0,0,0,0,0,0,0,0,0,0,0,0,0,0,0,0],"id":54,"left_children":[1,3,5,7,-1,9,11,-1,-1,13,15,17,-1,19,-1,21,-1,-1,23,25,27,-1,-1,-1,-1,-1,-1,-1,-1],"loss_changes":[4.2507567E-2,1.0302316E-2,1.9382168E-2,3.5239896E-4,0E0,5.3573707E-3,9.072706E-3,0E0,0E0,2.9154762E-3,7.3817396E-4,9.1084186E-4,0E0,2.412995E-3,0E0,4.018075E-6,0E0,0E0,1.4095858E-6,3.4941481E-3,2.2969086E-4,0E0,0E0,0E0,0E0,0E0,0E0,0E0,0E0],"parents":[2147483647,0,0,1,1,2,2,3,3,5,5,6,6,9,9,10,10,11,11,13,13,15,15,18,18,19,19,20,20],"right_children":[2,4,6,8,-1,10,12,-1,-1,14,16,18,-1,20,-1,22,-1,-1,24,26,28,-1,-1,-1,-1,-1,-1,-1,-1],"split_conditions":[4.1E0,2.5E1,1.13E1,1.9E1,-9.917951E-3,1.28E1,2.1E1,-2.8935815E-3,-5.614579E-4,2.5E1,1.8E1,4E0,9.705511E-3,1.9E1,3.6159777E-3,3E0,-3.2769265E-3,3.3524632E-3,7E0,6E0,1.2E1,-8.468908E-4,-2.1541269E-4,8.887679E-4,2.3428649E-4,-2.9054435E-4,2.4624593E-3,-3.5359774E-4,-1.7467675E-3],"split_indices":[3,0,3,0,0,2,0,0,0,1,0,2,0,1,0,0,0,0,0,0,0,0,0,0,0,0,0,0,0],"split_type":[0,0,0,0,0,0,0,0,0,0,0,0,0,0,0,0,0,0,0,0,0,0,0,0,0,0,0,0,0],"sum_hessian":[2.7E1,6E0,2.1E1,5E0,1E0,1.6E1,5E0,4E0,1E0,1.3E1,3E0,4E0,1E0,1.2E1,1E0,2E0,1E0,2E0,2E0,9E0,3E0,1E0,1E0,1E0,1E0,5E0,4E0,2E0,1E0],"tree_param":{"num_deleted":"0","num_feature":"4","num_nodes":"29","size_leaf_vector":"1"}},{"base_weights":[3.826391E-4,-4.0180508E-2,3.331628E-2,-2.2315493E-2,-9.546027E-3,1.8652909E-2,9.063993E-2,2.7545681E-2,-3.5042293E-2,2.5769839E-2,-1.6032452E-2,8.5543917E-4,9.341553E-3,-3.814895E-4,3.4803788E-3,-1.3511946E-3,-4.846548E-2,3.449438E-2,-3.028363E-4,-1.223871E-4,-1.6812637E-3,-4.045091E-3,-9.970956E-4,6.7614466E-3,4.723394E-2,-1.8061697E-4,2.2550003E-4,1.6196878E-3,-1.4153146E-3,3.95353E-3,7.4381236E-4],"categories":[],"categories_nodes":[],"categories_segments":[],"categories_sizes":[],"default_left":[0,0,0,0,0,0,0,0,0,0,0,0,0,0,0,0,0,0,0,0,0,0,0,0,0,0,0,0,0,0,0],"id":55,"left_children":[1,3,5,7,-1,9,11,13,15,17,19,-1,-1,-1,-1,-1,21,23,25,-1,-1,-1,-1,27,29,-1,-1,-1,-1,-1,-1],"loss_changes":[3.8743652E-2,1.73882E-2,1.1758231E-2,8.5801445E-3,0E0,3.8690995E-3,6.6408124E-3,2.082309E-3,1.4123302E-3,2.7401121E-3,2.392375E-4,0E0,0E0,0E0,0E0,0E0,2.447199E-4,2.8603794E-3,3.5111916E-5,0E0,0E0,0E0,0E0,1.9284904E-3,7.041292E-4,0E0,0E0,0E0,0E0,0E0,0E0],"parents":[2147483647,0,0,1,1,2,2,3,3,5,5,6,6,7,7,8,8,9,9,10,10,16,16,17,17,18,18,23,23,24,24],"right_children":[2,4,6,8,-1,10,12,14,16,18,20,-1,-1,-1,-1,-1,22,24,26,-1,-1,-1,-1,28,30,-1,-1,-1,-1,-1,-1],"split_conditions":[6.7E0,2.5E1,1.38E1,3.5E0,-9.546027E-3,1.9E1,7E0,1.1E1,1.2E1,8.7E0,1.2E1,8.5543917E-4,9.341553E-3,-3.814895E-4,3.4803788E-3,-1.3511946E-3,2.4E1,6E0,1.8E1,-1.223871E-4,-1.6812637E-3,-4.045091E-3,-9.970956E-4,5E0,2.4E1,-1.8061697E-4,2.2550003E-4,1.6196878E-3,-1.4153146E-3,3.95353E-3,7.4381236E-4],"split_indices":[3,0,3,2,0,1,0,0,1,2,0,0,0,0,0,0,1,0,0,0,0,0,0,0,0,0,0,0,0,0,0],"split_type":[0,0,0,0,0,0,0,0,0,0,0,0,0,0,0,0,0,0,0,0,0,0,0,0,0,0,0,0,0,0,0],"sum_hessian":[2.7E1,1.2E1,1.5E1,1.1E1,1E0,1.3E1,2E0,2E0,9E0,1.1E1,2E0,1E0,1E0,1E0,1E0,5E0,4E0,8E0,3E0,1E0,1E0,3E0,1E0,3E0,5E0,2E0,1E0,2E0,1E0,4E0,1E0],"tree_param":{"num_deleted":"0","num_feature":"4","num_nodes":"31","size_leaf_vector":"1"}},{"base_weights":[3.7176855E-4,-6.1280984E-2,1.9971654E-2,-3.0658701E-2,-9.18805E-3,3.0811315E-3,6.449953E-2,-3.088507E-3,-1.1327238E-3,1.1298278E-2,-2.6449166E-2,2.9446136E-2,8.991243E-3,5.29586E-3,3.3498646E-3,-8.577992E-3,-3.002351E-3,2.6520533E-3,2.1704436E-4,1.2493144E-2,-1.4021315E-2,-7.644626E-4,-2.0056163E-4,-1.1533548E-3,1.6037404E-3,-3.2332054E-4,-1.6182164E-3],"categories":[],"categories_nodes":[],"categories_segments":[],"categories_sizes":[],"default_left":[0,0,0,0,0,0,0,0,0,0,0,0,0,0,0,0,0,0,0,0,0,0,0,0,0,0,0],"id":56,"left_children":[1,3,5,7,-1,9,11,-1,-1,13,15,17,-1,19,-1,21,-1,-1,-1,23,25,-1,-1,-1,-1,-1,-1],"loss_changes":[3.5058714E-2,9.368319E-3,1.6347447E-2,3.6006467E-4,0E0,4.4239615E-3,8.118222E-3,0E0,0E0,2.567384E-3,6.275291E-4,6.828937E-4,0E0,1.9825757E-3,0E0,1.3440731E-6,0E0,0E0,0E0,2.806599E-3,2.0042999E-4,0E0,0E0,0E0,0E0,0E0,0E0],"parents":[2147483647,0,0,1,1,2,2,3,3,5,5,6,6,9,9,10,10,11,11,13,13,15,15,19,19,20,20],"right_children":[2,4,6,8,-1,10,12,-1,-1,14,16,18,-1,20,-1,22,-1,-1,-1,24,26,-1,-1,-1,-1,-1,-1],"split_conditions":[4.1E0,2.5E1,1.13E1,1.3E1,-9.18805E-3,1.28E1,2.1E1,-3.088507E-3,-1.1327238E-3,2.5E1,1.8E1,2E1,8.991243E-3,1.9E1,3.3498646E-3,3E0,-3.002351E-3,2.6520533E-3,2.1704436E-4,6.5E0,1.2E1,-7.644626E-4,-2.0056163E-4,-1.1533548E-3,1.6037404E-3,-3.2332054E-4,-1.6182164E-3],"split_indices":[3,0,3,0,0,2,0,0,0,1,0,0,0,1,0,0,0,0,0,3,0,0,0,0,0,0,0],"split_type":[0,0,0,0,0,0,0,0,0,0,0,0,0,0,0,0,0,0,0,0,0,0,0,0,0,0,0],"sum_hessian":[2.7E1,6E0,2.1E1,5E0,1E0,1.6E1,5E0,2E0,3E0,1.3E1,3E0,4E0,1E0,1.2E1,1E0,2E0,1E0,3E0,1E0,9E0,3E0,1E0,1E0,2E0,7E0,2E0,1E0],"tree_param":{"num_deleted":"0","num_feature":"4","num_nodes":"27","size_leaf_vector":"1"}}]},"name":"gbtree"},"learner_model_param":{"base_score":"6.208817E-10","boost_from_average":"1","num_class":"0","num_feature":"4","num_target":"1"},"objective":{"name":"reg:squarederror","reg_loss_param":{"scale_pos_weight":"1"}}},"version":[3,0,5]}