tree
version=v4
num_class=1
num_tree_per_iteration=1
label_index=0
max_feature_idx=29
objective=regression
feature_names=Column_0 Column_1 Column_2 Column_3 Column_4 Column_5 Column_6 Column_7 Column_8 Column_9 Column_10 Column_11 Column_12 Column_13 Column_14 Column_15 Column_16 Column_17 Column_18 Column_19 Column_20 Column_21 Column_22 Column_23 Column_24 Column_25 Column_26 Column_27 Column_28 Column_29
feature_infos=[2.1899999999999999:4988.4700000000003] [-2.9015240000000002:3.2546469999999998] [-3.2394379999999998:3.1218970000000001] [-2.6490999999999998:3.657702] [-3.7087970000000001:2.8408859999999998] [-2.8647100000000001:3.5994670000000002] [-2.8147150000000001:3.0948289999999998] [-3.4089670000000001:3.0934300000000001] [-4.0540500000000002:3.0517110000000001] [-2.706518:2.490224] [-3.0464250000000002:2.8273239999999999] [-3.1005180000000001:2.9676990000000001] [-2.9309310000000002:3.0654750000000002] [-3.1997610000000001:3.1983980000000001] [-3.1046049999999998:3.2160199999999999] [-2.957525:2.571431] [-3.4897800000000001:3.3176869999999998] [-2.6629320000000001:2.7323620000000002] [-2.8139439999999998:2.9856400000000001] [-3.2646359999999999:2.8418239999999999] [-3.053153:2.8918949999999999] [-3.285666:2.9311240000000001] [-2.8714659999999999:2.915063] [-3.144962:3.9385029999999999] [-2.750909:3.4135260000000001] [-3.091996:3.8091650000000001] [-3.5927470000000001:3.1989800000000002] [-3.3637260000000002:3.5420950000000002] [-3.5433189999999999:3.2020010000000001] [0:1]
tree_sizes=6331 5981

Tree=0
num_leaves=63
num_cat=0
split_feature=16 14 26 25 23 9 21 23 27 11 1 25 26 10 5 5 21 8 1 11 19 1 17 15 15 1 5 5 10 9 19 8 10 1 2 27 25 7 10 4 12 17 1 16 5 28 8 1 27 27 23 27 4 22 15 27 2 19 10 14 11 1
split_gain=9.36279 18.1661 9.33041 12.9585 19.0411 11.0475 8.55181 11.0512 7.72974 6.66723 9.02125 5.5882 5.56307 5.65175 4.91812 7.14696 5.116 4.91954 6.8398 8.37544 10.0459 5.50632 5.45641 10.9338 4.17013 4.62463 3.97434 4.58741 4.88094 3.84032 3.71567 3.59138 4.49608 2.90621 3.39819 2.35737 2.26001 2.21384 2.19118 1.94965 1.80451 1.76524 1.54844 1.38432 1.37762 1.23759 1.13028 1.10009 1.01517 1.38924 0.970266 0.933923 1.25972 0.917325 0.886394 0.638142 0.617631 0.603255 0.458293 0.296379 0.28041 0.223421
threshold=-1.7090399999999997 0.42477700000000002 -0.38067699999999999 1.5062800000000001 0.13093450000000004 -1.2399774999999997 1.7640270000000002 0.26384700000000005 1.6567960000000002 -0.75557449999999993 0.14305400000000004 0.57615150000000015 -0.44067099999999998 -1.3141594999999999 1.9104435000000002 1.0300700000000003 0.88799250000000007 -0.32756449999999998 0.17491400000000004 -0.14479899999999998 -0.10246649999999999 -0.37786849999999994 1.0000000180025095e-35 0.06874050000000001 1.5296370000000004 1.8331005000000002 -0.53212249999999994 0.0097620000000000016 -0.33405149999999995 0.69634700000000016 -1.2730549999999996 0.53712050000000011 0.1215335 -0.30498499999999995 0.5235415000000001 0.15008900000000003 -0.22226799999999997 -0.78879899999999992 -0.37893299999999996 0.27303250000000007 0.052700000000000004 -0.16039349999999997 -0.57950849999999987 -0.29721299999999995 0.5123525000000001 -0.30973999999999996 0.47493250000000004 0.48178000000000004 -0.83357749999999986 -1.1404354999999999 0.65657650000000012 0.12380250000000002 0.19234300000000001 0.33956100000000006 0.029374000000000004 -0.29015649999999998 -0.41825549999999995 0.4657265000000001 -0.61181899999999989 0.14620650000000004 -0.30673849999999997 0.68295550000000016
decision_type=2 2 2 2 2 2 2 2 2 2 2 2 2 2 2 2 2 2 2 2 2 2 2 2 2 2 2 2 2 2 2 2 2 2 2 2 2 2 2 2 2 2 2 2 2 2 2 2 2 2 2 2 2 2 2 2 2 2 2 2 2 2
left_child=1 -1 3 5 -5 9 14 -8 11 -2 -11 12 13 -7 15 16 17 18 19 21 -21 -4 45 -24 25 30 37 28 -28 46 -19 32 44 34 42 48 -34 -15 53 -25 58 -42 43 -32 -29 -20 50 -40 49 -35 59 52 -39 -37 55 -13 -45 -48 -17 -18 -50 -47
right_child=2 -3 6 4 -6 8 7 -9 -10 10 -12 54 -14 26 -16 40 29 24 22 20 -22 -23 23 39 -26 -27 27 31 -30 -31 33 -33 36 35 -36 38 -38 51 47 -41 41 -43 -44 56 -46 61 57 -49 60 -51 -52 -53 -54 -55 -56 -57 -58 -59 -60 -61 -62 -63
leaf_value=-0.082228303041483708 0.0028231787827363323 0.0060071348593088002 0.023542898955347478 -0.094115973369625835 0.0012138630595555616 -0.02615216898120707 -0.06424716436624292 0.0083781686266196295 -0.031554559944111937 -0.0748398824657973 -0.013530379757382131 0.017346997211279809 -0.034845614154553249 -0.0033190367868519387 -0.028302852933702528 0.022638612824084702 0.037987278932165018 -0.011062815626145393 0.0071625417532050033 -0.064712842094498541 -0.0099756550580710444 -0.019299123647409339 -0.046123014148421744 -0.0030958342677331516 -0.023031011283720464 -0.022871991577796343 -0.046418688901176189 0.025309994934650599 0.0008792839726083912 -0.0046745679292464907 0.028379085498454516 0.024804623801578097 -0.0040208557996915511 0.028368170311911779 -0.016129955376284977 0.0083047831678413758 -0.035142780443129594 0.030184644969704084 0.010503449395556733 0.026797112536830054 0.00075177204618319989 0.026808192276131682 -0.0014963870072867448 -0.00050127216934924956 0.0028989333499339414 0.033990077140333592 0.0047247833269383659 0.031633205855111805 0.027325530385903275 0.0035796331046731239 0.017076304020883983 0.033981665406183595 0.0061561124646686951 -0.013111621302959977 0.011518210872600321 0.034147452315552912 0.017071879642608104 0.021692903886141722 0.03554798866640671 0.027019893182626799 0.037080612760417749 0.023420754658582156
leaf_weight=10.000000000000002 10.999999999999998 13.999999999999998 15.000000000000002 10.000000000000002 10.999999999999998 15.999999999999998 10.000000000000002 10.999999999999998 17 12.000000000000002 11.999999999999998 10 10.999999999999998 9.9999999999999982 9.9999999999999982 9.9999999999999982 14.000000000000002 18 10.000000000000002 14.999999999999998 19 14.999999999999998 11.999999999999998 10.000000000000002 10.999999999999998 10.999999999999998 10.000000000000002 12.000000000000002 11.999999999999998 17 14.999999999999998 18 14.000000000000002 13.000000000000002 14.999999999999998 10.000000000000002 9.9999999999999982 10.000000000000002 14.000000000000002 11.999999999999998 13.000000000000002 12.999999999999998 17 9.9999999999999982 15.999999999999998 10.000000000000002 11.000000000000002 10.999999999999998 17 9.9999999999999911 14.999999999999998 12.999999999999998 11.999999999999998 9.9999999999999982 15.999999999999998 13 10.000000000000002 9.9999999999999982 22 10.999999999999998 13.000000000000009 9.9999999999999982
leaf_count=10 11 14 15 10 11 16 10 11 17 12 12 10 11 10 10 10 14 18 10 15 19 15 12 10 11 11 10 12 12 17 15 18 14 13 15 10 10 10 14 12 13 13 17 10 16 10 11 11 17 10 15 13 12 10 16 13 10 10 22 11 13 10
internal_value=-5.60438e-10 -0.0307576 0.000951266 -0.00642811 -0.0441813 -0.00331903 0.00502468 -0.0262053 0.000831983 -0.0294111 -0.0441851 0.00354416 -0.000501308 0.00196789 0.00639385 0.00713365 0.00481499 0.00211514 -0.00557585 -0.017134 -0.0341244 0.00212189 0.00598226 -0.00773145 0.00691732 0.00861542 0.00525198 -0.000704013 -0.0206198 0.0163413 0.0105081 0.00555523 -0.00110802 0.0128613 0.00483589 0.0183481 -0.0169883 0.0174287 0.00993211 0.0132094 0.0235642 0.01378 0.0108837 0.0168969 0.0125037 0.0215245 0.0221981 0.0198005 0.0254937 0.0175905 0.0271296 0.0233566 0.0170782 -0.00240342 0.0205559 0.0268429 0.0082853 0.0128048 0.0315138 0.0331616 0.0315527 0.0287054
internal_weight=800 24 776 276 21 255 500 21 220 35 24 203 164 153 479 469 411 333 128 64 34 30 64 34 205 194 137 92 22 78 183 70 52 165 67 98 24 45 45 22 58 26 52 35 28 30 61 25 53 23 40 35 22 20 39 23 20 21 32 25 30 20
internal_count=800 24 776 276 21 255 500 21 220 35 24 203 164 153 479 469 411 333 128 64 34 30 64 34 205 194 137 92 22 78 183 70 52 165 67 98 24 45 45 22 58 26 52 35 28 30 61 25 53 23 40 35 22 20 39 23 20 21 32 25 30 20
is_linear=0
shrinkage=1


Tree=1
num_leaves=60
num_cat=0
split_feature=26 26 26 24 2 10 21 6 1 21 23 22 21 9 6 9 5 5 8 8 17 20 7 20 9 28 20 4 10 24 1 24 5 5 19 1 10 19 17 1 20 1 12 17 2 18 0 24 28 19 14 12 5 14 6 23 1 21 10
split_gain=8.95117 9.7394 10.263 9.61415 8.27375 8.62067 16.7994 20.382 8.72912 7.94366 9.81773 7.5798 6.91297 4.79875 6.48946 4.74186 4.51881 7.10536 4.41268 7.12165 8.03909 14.4415 5.30538 5.70671 4.65699 4.19531 3.91563 3.85321 5.52484 3.83793 3.36882 2.77468 2.66627 2.78131 2.94872 2.62873 2.11264 2.04162 2.03493 1.84649 3.22059 3.29672 1.64995 1.46507 1.45312 1.65326 1.40504 1.31232 0.963814 0.786045 0.769595 0.747393 0.720061 0.599621 0.407351 0.397869 0.374773 0.327833 0.304146
threshold=2.3149890000000006 -0.38067699999999999 -0.42209599999999997 -0.13461799999999999 0.8976280000000002 -0.2525635 -0.36262299999999997 0.1019 0.85743350000000007 1.7640270000000002 0.26384700000000005 -0.10678549999999999 1.2474850000000002 -0.54916299999999996 -0.10128799999999998 -0.74928249999999985 1.9104435000000002 1.0300700000000003 -0.32756449999999998 -0.38344949999999994 1.0123905000000002 0.15336650000000004 0.61858150000000012 -0.26772049999999997 0.93459000000000014 -0.58399049999999997 -1.3352549999999999 0.21325100000000002 -0.07979749999999998 0.37260500000000002 1.8331005000000002 -1.8045809999999998 0.7427585000000001 -1.2912479999999997 -1.3912789999999997 0.94875750000000003 -1.3633359999999997 0.085078500000000015 -0.35461199999999993 0.38204700000000008 0.21322200000000005 -0.079584999999999975 0.052700000000000004 -0.10185799999999999 0.54071500000000017 0.25044950000000005 4130.4900000000007 0.77342500000000014 -0.65154549999999989 -0.11601349999999998 -0.39021949999999994 0.081128500000000006 -0.011244499999999999 -0.70458149999999986 -0.11833199999999998 -0.27777999999999997 0.91557000000000011 1.0000000180025095e-35 0.47730800000000001
decision_type=2 2 2 2 2 2 2 2 2 2 2 2 2 2 2 2 2 2 2 2 2 2 2 2 2 2 2 2 2 2 2 2 2 2 2 2 2 2 2 2 2 2 2 2 2 2 2 2 2 2 2 2 2 2 2 2 2 2 2
left_child=1 2 3 13 5 6 7 -5 12 16 -11 -8 15 14 -1 -7 17 18 19 20 22 -22 26 -24 30 -26 -3 48 -29 -17 31 -20 33 -33 -35 47 -36 -34 -27 40 -28 -42 54 -44 46 52 50 -6 -15 -50 53 -31 -46 -38 -19 -52 -41 -57 -56
right_child=-2 9 -4 4 35 8 11 -9 -10 10 -12 -13 -14 27 -16 29 -18 42 24 -21 21 -23 23 -25 25 38 39 28 -30 51 -32 32 37 34 36 -37 44 -39 -40 56 41 -43 43 -45 45 -47 -48 -49 49 -51 55 -53 -54 -55 58 57 -58 -59 -60
leaf_value=-0.036829946132806622 -0.042858547701810801 -0.015543241798877717 -0.05193783851961295 -0.11921503886580463 0.0079925941472703734 -0.014996015302398634 -0.037119457165577581 -0.024267011537001684 -0.044622328304327455 -0.061034806072711924 0.0090284899249672892 0.011934440696818961 -0.038090269155800348 0.032013425696641208 0.0095304743386805061 -0.0031929267197847357 -0.025519665144383908 0.03710097578855661 -0.012233522087335587 -0.042984505165368322 -0.0716232764162123 0.0049721468472853306 0.012308841771804366 -0.032290664082393054 -0.032788436334918847 0.015017079193186126 0.025465997151638331 -0.025347297810591182 0.01795333585537532 0.018607347710058088 -0.011972332852227348 -0.0010986389837374813 -0.018409516909159714 -0.0069665387272834778 0.0019962268666579171 -0.010713307224214078 0.028173799999058242 0.013540595564991237 -0.0091051576348642523 0.031290246744950616 0.013630660722653072 -0.022406923364509231 0.0039320545271039004 0.027636238695545629 0.03049340539922317 -0.0015447250821373681 0.01136013438495306 0.032416166500611736 0.023683816723917662 0.0080699698434078277 0.039278334006667172 0.036504588808332177 0.012782868302681228 0.012566243037581463 0.020101783932609987 0.024807114927235072 0.020447001447353296 0.034626564997084004 0.032150046378374098
leaf_weight=13.000000000000002 11.999999999999998 10.999999999999998 11.999999999999998 10.000000000000002 11.000000000000002 16.999999999999993 13.999999999999998 12.999999999999998 12.999999999999998 10.000000000000002 9.9999999999999982 18 9.9999999999999982 15.999999999999998 18 15.000000000000005 10.999999999999998 12.999999999999998 9.9999999999999982 9.9999999999999982 10.000000000000002 15.999999999999998 13.000000000000002 15.999999999999998 10.999999999999998 17 19 13.000000000000002 17 10.000000000000002 13.999999999999998 19 10.000000000000002 9.9999999999999982 12.999999999999998 9.9999999999999982 16.000000000000004 9.9999999999999982 18 14.999999999999998 14.999999999999998 11.000000000000002 16.000000000000004 10.999999999999998 12 10.999999999999998 12.999999999999998 10.999999999999998 19 13.999999999999998 15.999999999999984 13.999999999999998 11 9.999999999999984 11.000000000000002 17.000000000000028 17 17 9.9999999999999982
leaf_count=13 12 11 12 10 11 17 14 13 13 10 10 18 10 16 18 15 11 13 10 10 10 16 13 16 11 17 19 13 17 10 14 19 10 10 13 10 16 10 18 15 15 11 16 11 12 11 13 11 19 14 16 14 11 10 11 17 17 17 10
internal_value=3.70346e-12 0.000652668 -0.00667156 -0.00470346 -0.0123 -0.0177549 -0.0329541 -0.0655488 -0.00717318 0.00487142 -0.0260032 -0.00952664 0.000203165 0.00676035 -0.00991099 0.00704128 0.00615786 0.00690083 0.00452119 -0.00219179 0.000660844 -0.0244876 0.00624939 -0.0122978 0.00854898 -0.00585381 0.0123615 0.0133023 -0.000810272 0.0166473 0.011719 0.0134199 0.0148066 0.0168964 0.0192382 0.0105426 0.021165 -0.00243446 0.00261136 0.0163479 0.00981862 -0.00161601 0.0228171 0.0135893 0.023191 0.0143982 0.02655 0.0202044 0.0219426 0.0170598 0.0291483 0.0290474 0.0220231 0.0221709 0.0301451 0.0327765 0.0255298 0.0297168 0.0258391
internal_weight=800 788 288 276 166 134 55 23 79 500 20 32 66 110 31 56 480 469 408 153 143 26 117 29 255 46 88 79 30 39 209 195 185 165 146 32 136 20 35 77 45 26 61 27 123 34 89 22 49 33 76 24 23 26 34 50 32 34 21
internal_count=800 788 288 276 166 134 55 23 79 500 20 32 66 110 31 56 480 469 408 153 143 26 117 29 255 46 88 79 30 39 209 195 185 165 146 32 136 20 35 77 45 26 61 27 123 34 89 22 49 33 76 24 23 26 34 50 32 34 21
is_linear=0
shrinkage=0.05


end of trees

feature_importances:
Column_1=14
Column_5=10
Column_10=9
Column_19=6
Column_21=6
Column_27=6
Column_8=5
Column_9=5
Column_17=5
Column_23=5
Column_26=5
Column_2=4
Column_14=4
Column_20=4
Column_24=4
Column_4=3
Column_6=3
Column_11=3
Column_12=3
Column_15=3
Column_25=3
Column_28=3
Column_7=2
Column_16=2
Column_22=2
Column_0=1
Column_18=1

parameters:
[boosting: gbdt]
[objective: regression]
[metric: rmse]
[tree_learner: serial]
[device_type: cpu]
[data_sample_strategy: bagging]
[data: ]
[valid: ]
[num_iterations: 10000]
[learning_rate: 0.05]
[num_leaves: 63]
[num_threads: 0]
[seed: 2]
[deterministic: 0]
[force_col_wise: 0]
[force_row_wise: 0]
[histogram_pool_size: -1]
[max_depth: -1]
[min_data_in_leaf: 10]
[min_sum_hessian_in_leaf: 0.001]
[bagging_fraction: 0.9]
[pos_bagging_fraction: 1]
[neg_bagging_fraction: 1]
[bagging_freq: 0]
[bagging_seed: 29216]
[bagging_by_query: 0]
[feature_fraction: 0.9]
[feature_fraction_bynode: 1]
[feature_fraction_seed: 17795]
[extra_trees: 0]
[extra_seed: 19650]
[early_stopping_round: 0]
[early_stopping_min_delta: 0]
[first_metric_only: 0]
[max_delta_step: 0]
[lambda_l1: 0]
[lambda_l2: 0]
[linear_lambda: 0]
[min_gain_to_split: 0]
[drop_rate: 0.1]
[max_drop: 50]
[skip_drop: 0.5]
[xgboost_dart_mode: 0]
[uniform_drop: 0]
[drop_seed: 24198]
[top_rate: 0.2]
[other_rate: 0.1]
[min_data_per_group: 100]
[max_cat_threshold: 32]
[cat_l2: 10]
[cat_smooth: 10]
[max_cat_to_onehot: 4]
[top_k: 20]
[monotone_constraints: ]
[monotone_constraints_method: basic]
[monotone_penalty: 0]
[feature_contri: ]
[forcedsplits_filename: ]
[refit_decay_rate: 0.9]
[cegb_tradeoff: 1]
[cegb_penalty_split: 0]
[cegb_penalty_feature_lazy: ]
[cegb_penalty_feature_coupled: ]
[path_smooth: 0]
[interaction_constraints: ]
[verbosity: -1]
[saved_feature_importance_type: 0]
[use_quantized_grad: 0]
[num_grad_quant_bins: 4]
[quant_train_renew_leaf: 0]
[stochastic_rounding: 1]
[linear_tree: 0]
[max_bin: 255]
[max_bin_by_feature: ]
[min_data_in_bin: 3]
[bin_construct_sample_cnt: 200000]
[data_random_seed: 45]
[is_enable_sparse: 1]
[enable_bundle: 1]
[use_missing: 1]
[zero_as_missing: 0]
[feature_pre_filter: 1]
[pre_partition: 0]
[two_round: 0]
[header: 0]
[label_column: ]
[weight_column: ]
[group_column: ]
[ignore_column: ]
[categorical_feature: ]
[forcedbins_filename: ]
[precise_float_parser: 0]
[parser_config_file: ]
[objective_seed: 29484]
[num_class: 1]
[is_unbalance: 0]
[scale_pos_weight: 1]
[sigmoid: 1]
[boost_from_average: 1]
[reg_sqrt: 0]
[alpha: 0.9]
[fair_c: 1]
[poisson_max_delta_step: 0.7]
[tweedie_variance_power: 1.5]
[lambdarank_truncation_level: 30]
[lambdarank_norm: 1]
[label_gain: ]
[lambdarank_position_bias_regularization: 0]
[eval_at: ]
[multi_error_top_k: 1]
[auc_mu_weights: ]
[num_machines: 1]
[local_listen_port: 12400]
[time_out: 120]
[machine_list_filename: ]
[machines: ]
[gpu_platform_id: -1]
[gpu_device_id: -1]
[gpu_use_dp: 0]
[num_gpu: 1]

end of parameters

pandas_categorical:null
