tree
version=v4
num_class=1
num_tree_per_iteration=1
label_index=0
max_feature_idx=29
objective=regression
feature_names=Column_0 Column_1 Column_2 Column_3 Column_4 Column_5 Column_6 Column_7 Column_8 Column_9 Column_10 Column_11 Column_12 Column_13 Column_14 Column_15 Column_16 Column_17 Column_18 Column_19 Column_20 Column_21 Column_22 Column_23 Column_24 Column_25 Column_26 Column_27 Column_28 Column_29
feature_infos=[2.1899999999999999:4996.7700000000004] [-2.9015240000000002:3.2546469999999998] [-3.2394379999999998:3.260491] [-2.6490999999999998:3.657702] [-3.7087970000000001:2.8408859999999998] [-3.064457:3.5994670000000002] [-2.7797070000000001:3.5556169999999998] [-2.8519079999999999:3.0934300000000001] [-3.759779:2.790292] [-2.5030519999999998:2.7845879999999998] [-3.1747489999999998:3.155538] [-3.1005180000000001:3.1011869999999999] [-2.9309310000000002:3.0654750000000002] [-3.1997610000000001:3.1983980000000001] [-3.1046049999999998:2.7026110000000001] [-2.6787800000000002:2.659996] [-3.4897800000000001:3.3176869999999998] [-2.697479:2.7323620000000002] [-3.036178:2.9856400000000001] [-3.2646359999999999:2.8418239999999999] [-3.0388510000000002:3.9027989999999999] [-3.285666:3.5886809999999998] [-2.9122379999999999:2.6618240000000002] [-3.0655790000000001:3.162417] [-2.750909:3.4135260000000001] [-3.091996:3.8091650000000001] [-3.2586909999999998:3.1432609999999999] [-3.3637260000000002:3.5420950000000002] [-3.5433189999999999:2.9003619999999999] [0:1]
tree_sizes=6377 6364 6282

Tree=0
num_leaves=63
num_cat=0
split_feature=0 16 21 0 10 9 1 22 10 2 14 11 25 23 4 28 15 22 5 7 8 14 19 26 22 16 15 26 3 4 25 11 11 19 21 3 18 26 28 16 28 0 1 14 28 4 27 9 28 12 3 7 26 21 6 23 8 21 5 4 23 16
split_gain=9.98477 19.0645 7.26617 11.1187 6.94548 6.86721 19.8277 26.5394 7.30758 6.39356 11.6408 6.33076 6.91997 12.1464 6.16371 5.84213 5.22088 4.52447 6.06247 5.78552 5.6836 5.67266 6.06707 5.2726 7.61928 5.62369 4.9079 4.04971 4.00244 2.83801 2.6419 2.64141 2.55049 2.35983 4.18691 2.0062 1.83501 1.74578 1.66158 2.47927 2.63724 2.51589 2.74121 1.39951 1.39566 1.32195 1.11874 1.11432 1.17999 1.04893 1.18835 0.842164 0.673585 0.613064 0.547065 0.48531 0.433853 0.31203 0.248488 0.245607 0.199783 0.189091
threshold=4556.3950000000013 -0.73250599999999988 1.6854125000000002 3462.2900000000004 1.272537 0.66880500000000009 0.96264400000000017 0.067486000000000004 -1.8711254999999998 0.28551750000000004 0.056567500000000007 0.47228950000000008 -1.2933149999999998 -0.29949049999999994 0.098053000000000015 0.41444800000000004 0.47673450000000001 -1.0056309999999997 1.7280885000000001 -0.83820799999999995 -0.13896949999999997 -1.0735689999999998 -1.4274904999999998 -0.95989499999999983 0.21842850000000003 1.6986065000000001 -0.41091349999999993 0.51171250000000013 0.77562200000000014 0.039342500000000009 0.066462000000000007 1.1165845000000003 0.023171000000000004 -0.025344999999999996 0.21388200000000004 -0.4004919999999999 -0.94329449999999981 0.6731235000000001 0.57095950000000018 -1.0140584999999998 -0.18844149999999996 1507.9800000000002 0.45535600000000004 0.27739200000000003 1.5658235000000003 0.13688050000000004 0.61357850000000014 -0.83914199999999994 -0.88077499999999986 0.049155000000000011 -0.23894949999999995 0.63643150000000015 -0.86401099999999986 0.76127050000000007 -1.0000000180025095e-35 -0.8571979999999999 -0.10771099999999999 0.42640200000000006 0.14598000000000003 -0.13712749999999999 0.23243800000000001 -0.075485999999999984
decision_type=2 2 2 2 2 2 2 2 2 2 2 2 2 2 2 2 2 2 2 2 2 2 2 2 2 2 2 2 2 2 2 2 2 2 2 2 2 2 2 2 2 2 2 2 2 2 2 2 2 2 2 2 2 2 2 2 2 2 2 2 2 2
left_child=2 -2 4 -4 5 8 9 -8 14 33 30 12 13 -10 -1 27 -15 19 21 -14 -21 26 -23 24 -24 38 -19 35 36 -22 -11 -30 52 37 43 -3 -13 46 39 57 47 -42 -43 -35 59 -34 61 -41 -49 53 56 -52 -6 58 -50 -54 -51 -25 -38 -40 -57 -7
right_child=1 15 3 -5 32 6 7 -9 11 10 -12 28 17 16 -16 -17 -18 18 -20 20 29 22 23 25 -26 -27 -28 -29 31 -31 -32 -33 45 34 -36 -37 49 -39 44 40 41 42 -44 -45 -46 -47 -48 48 54 50 51 -53 55 -55 -56 60 -58 -59 -60 -61 -62 -63
leaf_value=0.00085434400315121306 -0.075633703691128179 -0.023812761099252386 0.0084122371685449379 -0.056982230405354557 0.012275909142626915 0.034033097087230978 -0.098408341074178812 0.007116117630741263 0.025987746494647582 0.014645965706823565 -0.048431408173688829 0.0050409040237290731 0.020863961064702986 -0.019125466488834574 -0.053383766503247908 0.017297802481108293 -0.067179959208879161 0.011100333068655646 -0.022959574691194577 -0.047468486729873506 0.0073287728874129234 -0.02018536152322278 0.01279863118701063 0.037494255701497989 -0.041121265904221223 -0.01190535782884884 -0.031800294410301536 -0.042870898039254833 -0.022723118157300628 -0.025662746892485305 -0.016144438416363715 0.011457533952175605 0.015420362439763264 0.017175666981202084 -0.029428602100524583 0.0050994959065186161 0.039617466935402856 0.0022886766902999681 0.038605566942961349 0.035043640533880226 -0.014505620368357846 -0.0019825891317062387 0.030079129222916282 -0.0063973485838505441 0.011954976360138972 -0.0052407259095343765 0.0086890407119062738 0.0041232823482520598 0.031499384984622764 0.017750204189505889 0.019462176582601382 -0.0010581046689185315 0.017405415831890425 0.019835665470745882 0.01573023501198885 0.03446083034251516 0.031386079878637764 0.025835689103987536 0.028945531158533416 0.029860801577881266 0.026013876151784125 0.024309658634301737
leaf_weight=11.000000000000002 11.999999999999998 9.9999999999999982 13.000000000000002 12.999999999999998 9.9999999999999982 10.000000000000004 13.000000000000002 10.999999999999998 9.9999999999999982 19.000000000000004 17 17 11.999999999999998 13.000000000000002 9.9999999999999982 18 9.9999999999999982 12.000000000000002 15.999999999999998 11.999999999999998 16.000000000000004 13.999999999999998 19.000000000000004 11.000000000000002 9.9999999999999982 14.999999999999998 14.999999999999998 10.999999999999998 10.000000000000002 10.999999999999998 10.999999999999998 12.999999999999998 16.000000000000004 17.000000000000004 9.9999999999999982 15.000000000000002 12.000000000000002 17 12.999999999999998 10.999999999999991 13.000000000000005 15.000000000000002 11.999999999999998 9.9999999999999982 9.9999999999999982 14.999999999999998 9.9999999999999982 11.999999999999991 10.999999999999993 10.000000000000002 10.000000000000002 9.9999999999999982 9.9999999999999982 9.9999999999999982 11.000000000000014 14.000000000000002 13.999999999999998 11.999999999999998 9.9999999999999982 21 13.999999999999998 10
leaf_count=11 12 10 13 13 10 10 13 11 10 19 17 17 12 13 10 18 10 12 16 12 16 14 19 11 10 15 15 11 10 11 11 13 16 17 10 15 12 17 13 11 13 15 12 10 10 15 10 12 11 10 10 10 10 10 11 14 14 12 10 21 14 10
internal_value=5.30636e-10 -0.0186282 0.00167501 -0.024285 0.00262835 0.000873284 -0.00826276 -0.050043 0.00386081 -0.000608375 -0.0153755 0.00519749 0.00172962 -0.0200168 -0.0249733 -0.00596027 -0.0400187 0.00409025 0.00682893 -0.00949577 -0.0188372 0.00883997 0.0116137 0.013885 -0.00579444 0.0173024 -0.0127333 -0.0175893 0.0152723 -0.00611222 0.00335615 -0.00340362 0.0166022 0.00765419 -0.00179117 -0.00646541 0.019891 0.0150899 0.0201848 0.016848 0.0129073 0.00356594 0.0122671 0.00844492 0.028375 0.00542306 0.0223439 0.0212108 0.0167354 0.0232128 0.0182034 0.00920204 0.0238221 0.0301007 0.0236148 0.0268605 0.0257045 0.0314115 0.0347666 0.0332044 0.0302374 0.0291714
internal_weight=800 66 734 26 708 629 155 24 474 131 47 453 337 33 21 54 23 304 253 51 39 237 210 196 29 167 27 36 116 27 30 23 79 84 37 25 93 47 152 108 85 40 27 27 44 31 30 45 34 76 44 20 48 32 22 38 24 23 22 34 28 20
internal_count=800 66 734 26 708 629 155 24 474 131 47 453 337 33 21 54 23 304 253 51 39 237 210 196 29 167 27 36 116 27 30 23 79 84 37 25 93 47 152 108 85 40 27 27 44 31 30 45 34 76 44 20 48 32 22 38 24 23 22 34 28 20
is_linear=0
shrinkage=1


Tree=1
num_leaves=63
num_cat=0
split_feature=6 0 16 19 24 0 28 24 27 27 20 2 21 23 17 5 1 24 0 9 9 9 21 8 14 22 22 11 28 11 8 27 10 20 0 1 28 27 18 24 7 12 4 7 20 28 1 4 2 9 20 5 28 12 4 10 24 4 2 1 2 24
split_gain=9.18067 9.14639 15.5343 8.26267 15.8798 7.82607 6.04897 5.56091 5.95438 5.54469 10.5072 8.13676 6.87823 5.88324 5.78526 4.67152 5.65467 4.95123 4.08054 4.84611 5.10206 4.50526 5.83305 4.2707 3.85411 3.8098 3.92875 3.60455 3.23322 3.12726 3.01569 3.42687 6.06387 4.16109 2.94385 3.77755 2.71596 2.06602 2.60681 1.90077 1.66553 2.40052 2.66296 1.44527 1.35969 1.48446 1.44697 1.35813 1.19071 0.87294 0.707694 0.678706 0.677611 0.655546 0.496636 0.469066 0.460862 0.339963 0.28206 0.276962 0.203123 0.133161
threshold=1.0241885000000002 4556.3950000000013 -0.73250599999999988 -1.3380289999999997 0.68997850000000016 2893.0400000000004 0.41444800000000004 0.040521000000000008 -0.54160699999999984 0.57865600000000017 1.2389645000000002 -0.96213699999999991 1.6854125000000002 1.1285025000000002 -0.91583449999999988 1.9452315000000002 1.7471290000000002 0.10465250000000002 2608.0550000000007 1.1174120000000001 1.3498875000000001 -0.87034699999999987 -0.36967549999999993 1.0882125000000002 0.86811350000000009 -0.71061799999999986 -1.2117284999999998 -0.032406999999999991 1.1857235000000002 -0.64488749999999995 -0.12034999999999998 -1.0378054999999999 -0.40595449999999994 0.047549500000000008 2515.4900000000002 0.49036550000000007 -0.24589849999999999 0.11777100000000001 0.96348650000000013 0.50561600000000018 0.77573900000000007 0.062818000000000013 0.38204050000000006 0.091342500000000007 -0.18210749999999998 0.75497900000000007 -0.27887299999999998 -0.65283749999999985 0.18017800000000003 0.22318250000000003 0.28834350000000003 -0.29714099999999993 -0.13010049999999998 0.63272200000000012 -0.52771449999999998 0.11888200000000002 0.063033500000000006 0.28715800000000008 0.60176950000000018 0.52737300000000009 0.29851700000000003 -0.082465499999999983
decision_type=2 2 2 2 2 2 2 2 2 2 2 2 2 2 2 2 2 2 2 2 2 2 2 2 2 2 2 2 2 2 2 2 2 2 2 2 2 2 2 2 2 2 2 2 2 2 2 2 2 2 2 2 2 2 2 2 2 2 2 2 2 2
left_child=1 3 -3 4 5 -1 24 8 -2 12 11 -11 15 14 -13 16 18 -18 19 21 -21 22 -5 28 36 26 -16 -10 40 -24 31 55 -33 -34 51 -36 -4 50 48 -22 41 47 53 -29 45 52 -46 -23 -39 -35 -9 -27 -32 -43 -48 -20 57 -49 -53 -56 -52 -42
right_child=7 2 6 9 -6 -7 -8 37 27 10 -12 13 -14 -15 25 -17 17 -19 30 20 39 23 29 -25 -26 34 -28 43 -30 -31 44 32 33 49 35 -37 -38 38 -40 -41 61 42 -44 -45 46 -47 54 56 -50 -51 60 58 -54 -55 59 -57 -58 -59 -60 -61 -62 -63
leaf_value=0.020805228464305395 -0.02267658904586968 -0.071852017721782124 -0.028934154175221927 -0.030382891963509951 -0.077204947918653496 -0.032198157333410707 0.016851053154096008 0.021948475390672684 0.028776247229646237 -0.039697751323027275 -0.054342201419852 -0.025804498578820913 -0.031874394244872609 -0.031309502543165134 0.011002288672274775 -0.020577508408357117 0.0032377261978884528 -0.044399585966020824 0.027050694929701937 -0.044422378260642298 -0.014249515304198629 0.0066596065732565839 -0.0087719635239669243 -0.012968089681817219 -0.046525281891226768 0.013350771807811485 -0.0271695980658898 0.011504805257374587 -0.012400145754218102 0.026012417549888298 0.013387797620486128 -0.02954418292668249 -0.012677168330320947 0.013597177917307069 -0.010639278002475437 0.025194155906016633 0.0057254569031871261 0.029148419119883324 -0.0094421086739748736 0.01474575866945088 0.02530352480709552 0.0049169330671429623 -0.01490957463781039 -0.013586360992242894 0.011312901861965657 0.025562351451327021 0.037115153031689781 0.028896451238542765 0.0077786941758610992 0.034008707106113437 0.040462509095668786 0.032354570832103469 -0.0037927584101756411 0.022250679756204289 0.02135471543297171 0.013253312786533076 0.034771989534298581 0.015858765430748462 0.022213838187356793 0.031962054073810579 0.030384726375341415 0.033115816613038383
leaf_weight=15.000000000000002 19 11.999999999999998 9.9999999999999964 17 9.9999999999999982 12.999999999999998 15.999999999999998 19 17 13.999999999999998 10.999999999999998 13.999999999999998 12.999999999999998 12.999999999999998 14.000000000000002 17 12.000000000000002 9.9999999999999982 14.000000000000002 9.9999999999999982 13.000000000000002 10.999999999999991 14.000000000000002 15.999999999999998 9.9999999999999982 10.999999999999991 12.999999999999998 11.000000000000002 9.9999999999999982 11.999999999999998 11 13.999999999999998 12.999999999999998 11.000000000000002 19.000000000000004 11.999999999999998 13.000000000000004 16.000000000000004 9.9999999999999982 9.9999999999999982 10.000000000000002 10.000000000000002 11.999999999999998 11.999999999999998 14.999999999999998 12.999999999999998 13.999999999999998 10.000000000000009 10.999999999999998 9.9999999999999982 10.000000000000002 16.000000000000011 12 11.999999999999998 16.000000000000004 10.999999999999998 11.999999999999998 9.9999999999999982 11.999999999999998 9.9999999999999982 9.9999999999999982 11.999999999999998
leaf_count=15 19 12 10 17 10 13 16 19 17 14 11 14 13 13 14 17 12 10 14 10 13 11 14 16 10 11 13 11 10 12 11 14 13 11 19 12 13 16 10 10 10 10 12 12 15 13 14 10 11 10 10 16 12 12 16 11 12 10 12 10 10 12
internal_value=-6.68806e-11 -0.00241334 -0.0208651 -0.000549834 -0.0231197 -0.00380349 -0.0083785 0.0118879 0.000370467 0.000965455 -0.00731349 -0.00356483 0.00392364 0.000514694 0.00424185 0.00507556 0.00620244 -0.0184156 0.00768626 0.0029109 -0.0146064 0.00635179 -0.00760855 0.0111541 -0.020611 0.00857844 -0.00737677 0.0113178 0.014695 0.00728237 0.013539 0.00596891 -0.00184929 0.0095545 0.0147326 0.00323173 -0.00934394 0.0208291 0.0123654 -0.00164287 0.0174319 0.0139654 0.00403714 -0.00158624 0.0196117 0.0120573 0.0245564 0.0218156 0.0204422 0.023317 0.0288588 0.0238743 0.00442403 0.0143717 0.0295227 0.0209798 0.0270255 0.0223776 0.0280085 0.0254345 0.0354236 0.0295648
internal_weight=800 665 61 604 38 28 49 135 59 566 149 138 417 124 111 404 387 22 365 201 33 168 43 125 33 97 27 40 109 26 164 73 48 34 70 31 23 76 37 23 99 77 34 23 91 36 55 43 27 21 39 39 23 22 40 25 32 20 28 26 20 22
internal_count=800 665 61 604 38 28 49 135 59 566 149 138 417 124 111 404 387 22 365 201 33 168 43 125 33 97 27 40 109 26 164 73 48 34 70 31 23 76 37 23 99 77 34 23 91 36 55 43 27 21 39 39 23 22 40 25 32 20 28 26 20 22
is_linear=0
shrinkage=0.05


Tree=2
num_leaves=63
num_cat=0
split_feature=13 25 6 25 19 24 1 2 20 2 25 10 5 17 28 5 23 28 6 27 23 15 6 26 11 5 0 19 3 2 5 10 15 12 19 0 0 20 1 12 11 27 7 17 7 12 11 11 15 27 10 5 13 3 4 25 27 26 0 17 11 18
split_gain=9.71724 23.0334 7.95504 9.33891 9.70749 12.8227 13.4743 13.8836 9.43343 7.2025 9.24875 7.37571 9.32939 7.06914 5.54451 5.01112 4.7148 4.25501 7.78252 3.92935 4.24191 6.31109 3.91484 6.80337 5.60643 3.8215 4.81709 3.44202 4.45945 4.44906 4.28748 3.09527 2.90532 2.64922 2.63383 2.27941 2.25634 2.16497 2.12382 2.02953 1.91589 1.69594 1.66375 1.34807 1.34202 1.26353 1.19237 1.68428 1.17167 1.12608 0.966039 0.849893 0.614034 0.529882 0.469543 0.340809 0.32108 0.302737 0.225482 0.136486 0.0901256 0.0878558
threshold=-0.80711849999999996 2.0800260000000006 1.0241885000000002 -1.8180469999999997 0.20445050000000001 0.64975000000000016 1.3570255000000002 -0.9809564999999999 0.5574340000000001 0.39053200000000005 -0.65116049999999992 -0.92706699999999986 0.74617250000000013 1.0186015000000002 1.1857235000000002 -0.30946949999999995 -0.99046849999999986 -1.0783229999999997 -0.44997499999999996 -0.38630649999999994 -0.042564999999999992 0.22488250000000001 0.5009705000000001 -0.15578299999999998 -0.0185075 -0.098987499999999992 3494.8900000000008 -1.0639009999999998 0.75780400000000014 0.84932300000000016 -0.19410249999999998 -0.53753949999999984 -0.84685899999999992 1.5008640000000002 -1.1859094999999997 4126.3950000000013 2893.0400000000004 -0.080695999999999976 1.3183635 1.1318845000000002 0.48322750000000009 1.2852605000000004 -0.65285099999999996 -0.30129299999999998 -0.48642749999999996 0.76550600000000013 -0.032406999999999991 0.94476350000000009 -0.32877549999999994 0.1000535 0.46248300000000003 1.2590945000000002 -0.29332499999999995 0.058940500000000007 0.17513750000000003 -0.32275149999999991 0.083710000000000021 0.19390900000000003 2626.8150000000005 -0.27665799999999996 -0.14479899999999998 0.28863000000000005
decision_type=2 2 2 2 2 2 2 2 2 2 2 2 2 2 2 2 2 2 2 2 2 2 2 2 2 2 2 2 2 2 2 2 2 2 2 2 2 2 2 2 2 2 2 2 2 2 2 2 2 2 2 2 2 2 2 2 2 2 2 2 2 2
left_child=27 2 3 -2 5 9 7 -7 25 10 15 -11 19 33 34 -5 40 18 -18 -13 -21 -22 31 -24 -25 26 -9 30 35 42 -1 45 36 46 -12 39 -33 49 43 41 60 51 -30 61 -39 58 52 -48 -45 -34 -50 53 -4 55 -54 -29 -46 -27 -19 -57 -6 -36
right_child=1 -3 13 4 16 6 -8 8 -10 11 14 12 -14 -15 -16 -17 17 22 -20 20 21 -23 23 24 -26 57 -28 28 29 -31 -32 32 37 -35 38 -37 -38 44 -40 -41 -42 -43 -44 48 56 -47 47 -49 50 -51 -52 -53 54 -55 -56 59 -58 -59 -60 -61 -62 -63
leaf_value=0.019416049292141736 -0.038399109528645087 -0.068745969357685399 0.033451820121091963 0.0045961563976911384 0.036178952753543839 -0.066888127972682329 -0.079731822609901429 0.014021563055840406 -0.038258003143386711 -0.052407933276315981 -0.0072772786580026149 0.020331289174242158 -0.047439594318469364 -0.024586849566549066 -0.016006491432587307 -0.036142819457583956 -0.050830493987887151 0.024708514908949528 0.006114370127518972 0.017763547822833063 -0.050550508759915784 0.0043321897191080181 0.021906481465945642 0.004391115113394334 -0.04462681149265596 0.014671961702406398 -0.032771433026275852 0.021119171911134185 -0.0050114079971205093 -0.027766306478191505 -0.020206046311391723 0.0044454365968704208 0.0087237863925596053 -0.0028159073119362198 0.036619398742914214 0.0028305351320240236 -0.028370584100484847 0.0027542353421449663 0.0015296994636838255 0.0023042449558323078 0.0060184082388877874 0.008033737159955005 0.020248941355384888 0.030396511405706424 0.01875116756329169 0.0081593754142522817 0.002937118605607086 0.024882856110001312 0.019917036241127367 -0.011825626979892452 0.0011094168844548141 0.015127767510712148 0.028510501980781533 0.038303612260257497 0.013540525632825765 0.026709680259227764 0.029863870258514696 0.026975143477320676 0.034619174355810342 0.03435782854046137 0.029466068912297486 0.030273751467466355
leaf_weight=11.000000000000002 19 12.999999999999998 16.999999999999996 13.000000000000002 10.000000000000004 11.999999999999998 9.9999999999999982 10.999999999999998 18 10.999999999999998 9.9999999999999982 17.999999999999996 11.999999999999998 11.999999999999998 14.999999999999998 18 10.000000000000002 12.000000000000002 14.999999999999998 9.9999999999999982 10.000000000000009 10.999999999999998 11.999999999999998 10 14 10.000000000000005 10.999999999999998 12.999999999999991 11.000000000000002 10.999999999999998 18 11.000000000000002 15.000000000000002 14.999999999999998 11.999999999999995 18 9.9999999999999982 9.9999999999999982 12.999999999999998 10.999999999999998 9.9999999999999982 11.999999999999998 15.999999999999998 13.999999999999991 13.000000000000002 9.9999999999999982 18 17 18.000000000000018 11.999999999999998 10.999999999999998 9.9999999999999982 10.000000000000005 17 10.999999999999998 9.9999999999999947 12.999999999999998 9.9999999999999982 10.999999999999998 14.000000000000012 10 9.9999999999999982
leaf_count=11 19 13 17 13 10 12 10 11 18 11 10 18 12 12 15 18 10 12 15 10 10 11 12 10 14 10 11 13 11 11 18 11 15 15 12 18 10 10 13 11 10 12 16 14 13 10 18 17 18 12 11 10 10 17 11 10 13 10 11 14 10 10
internal_value=2.79033e-11 -0.0028839 -0.0014917 -0.00399752 -0.00267972 -0.00862425 -0.0253463 -0.0177928 -0.00797369 -0.0019679 0.00488528 -0.0147224 -0.00792668 0.0114133 0.0120917 -0.0190587 0.00555118 0.00246074 -0.0166636 0.00174995 -0.00903921 -0.0218024 0.00558563 -0.00883296 -0.0242027 0.0050053 -0.00937493 0.0105296 0.0137149 -0.000962416 -0.00517698 0.0100221 0.00492477 0.0163224 0.0168812 0.0190266 -0.0111812 0.0102934 0.0199784 0.0223775 0.0238878 0.0252829 0.00995769 0.0236682 0.0183205 0.0229972 0.0202549 0.0135965 0.0185177 -0.000409286 0.0127831 0.0285171 0.0263877 0.0309966 0.0206691 0.0276393 0.0243075 0.0208236 0.0294484 0.0311711 0.0328225 0.033735
internal_weight=800 628 615 515 496 288 82 72 60 206 134 72 61 100 103 31 208 178 25 49 31 21 153 36 24 42 22 172 143 38 29 117 84 88 88 105 21 63 78 87 30 76 27 65 36 33 73 35 43 27 29 64 38 54 21 37 26 20 23 24 20 22
internal_count=800 628 615 515 496 288 82 72 60 206 134 72 61 100 103 31 208 178 25 49 31 21 153 36 24 42 22 172 143 38 29 117 84 88 88 105 21 63 78 87 30 76 27 65 36 33 73 35 43 27 29 64 38 54 21 37 26 20 23 24 20 22
is_linear=0
shrinkage=0.05


end of trees

feature_importances:
Column_28=12
Column_0=11
Column_11=10
Column_4=9
Column_5=9
Column_27=9
Column_1=8
Column_2=8
Column_10=7
Column_24=7
Column_7=6
Column_9=6
Column_12=6
Column_19=6
Column_20=6
Column_21=6
Column_23=6
Column_25=6
Column_26=6
Column_3=5
Column_6=5
Column_15=5
Column_16=5
Column_22=5
Column_8=4
Column_14=4
Column_17=4
Column_18=3
Column_13=2

parameters:
[boosting: gbdt]
[objective: regression]
[metric: rmse]
[tree_learner: serial]
[device_type: cpu]
[data_sample_strategy: bagging]
[data: ]
[valid: ]
[num_iterations: 10000]
[learning_rate: 0.05]
[num_leaves: 63]
[num_threads: 0]
[seed: 2]
[deterministic: 0]
[force_col_wise: 0]
[force_row_wise: 0]
[histogram_pool_size: -1]
[max_depth: -1]
[min_data_in_leaf: 10]
[min_sum_hessian_in_leaf: 0.001]
[bagging_fraction: 0.9]
[pos_bagging_fraction: 1]
[neg_bagging_fraction: 1]
[bagging_freq: 0]
[bagging_seed: 29216]
[bagging_by_query: 0]
[feature_fraction: 0.9]
[feature_fraction_bynode: 1]
[feature_fraction_seed: 17795]
[extra_trees: 0]
[extra_seed: 19650]
[early_stopping_round: 0]
[early_stopping_min_delta: 0]
[first_metric_only: 0]
[max_delta_step: 0]
[lambda_l1: 0]
[lambda_l2: 0]
[linear_lambda: 0]
[min_gain_to_split: 0]
[drop_rate: 0.1]
[max_drop: 50]
[skip_drop: 0.5]
[xgboost_dart_mode: 0]
[uniform_drop: 0]
[drop_seed: 24198]
[top_rate: 0.2]
[other_rate: 0.1]
[min_data_per_group: 100]
[max_cat_threshold: 32]
[cat_l2: 10]
[cat_smooth: 10]
[max_cat_to_onehot: 4]
[top_k: 20]
[monotone_constraints: ]
[monotone_constraints_method: basic]
[monotone_penalty: 0]
[feature_contri: ]
[forcedsplits_filename: ]
[refit_decay_rate: 0.9]
[cegb_tradeoff: 1]
[cegb_penalty_split: 0]
[cegb_penalty_feature_lazy: ]
[cegb_penalty_feature_coupled: ]
[path_smooth: 0]
[interaction_constraints: ]
[verbosity: -1]
[saved_feature_importance_type: 0]
[use_quantized_grad: 0]
[num_grad_quant_bins: 4]
[quant_train_renew_leaf: 0]
[stochastic_rounding: 1]
[linear_tree: 0]
[max_bin: 255]
[max_bin_by_feature: ]
[min_data_in_bin: 3]
[bin_construct_sample_cnt: 200000]
[data_random_seed: 45]
[is_enable_sparse: 1]
[enable_bundle: 1]
[use_missing: 1]
[zero_as_missing: 0]
[feature_pre_filter: 1]
[pre_partition: 0]
[two_round: 0]
[header: 0]
[label_column: ]
[weight_column: ]
[group_column: ]
[ignore_column: ]
[categorical_feature: ]
[forcedbins_filename: ]
[precise_float_parser: 0]
[parser_config_file: ]
[objective_seed: 29484]
[num_class: 1]
[is_unbalance: 0]
[scale_pos_weight: 1]
[sigmoid: 1]
[boost_from_average: 1]
[reg_sqrt: 0]
[alpha: 0.9]
[fair_c: 1]
[poisson_max_delta_step: 0.7]
[tweedie_variance_power: 1.5]
[lambdarank_truncation_level: 30]
[lambdarank_norm: 1]
[label_gain: ]
[lambdarank_position_bias_regularization: 0]
[eval_at: ]
[multi_error_top_k: 1]
[auc_mu_weights: ]
[num_machines: 1]
[local_listen_port: 12400]
[time_out: 120]
[machine_list_filename: ]
[machines: ]
[gpu_platform_id: -1]
[gpu_device_id: -1]
[gpu_use_dp: 0]
[num_gpu: 1]

end of parameters

pandas_categorical:null
